Test,Predictions,difference
1.2,1.782,-0.582
1.333,2.001,-0.667
2.0,1.917,0.083
2.25,2.09,0.16
0.633,2.302,-1.669
-0.667,1.943,-2.609
-0.0,1.691,-1.691
-2.6,2.177,-4.777
1.25,1.222,0.028
-3.167,2.224,-5.39
-1.733,0.842,-2.576
-1.283,1.33,-2.613
-0.967,0.91,-1.877
-2.75,1.37,-4.12
-1.517,1.874,-3.39
-0.0,1.878,-1.878
-1.35,1.729,-3.079
0.5,1.937,-1.437
-1.433,0.963,-2.397
-0.15,1.897,-2.047
-2.533,0.927,-3.461
-0.0,0.954,-0.954
-1.5,1.507,-3.007
-5.05,1.115,-6.165
-1.4,0.484,-1.884
-2.5,1.744,-4.244
-4.067,0.926,-4.993
-0.0,0.922,-0.922
-5.017,1.595,-6.611
-5.15,0.044,-5.194
0.083,0.756,-0.673
-0.0,0.896,-0.896
-1.867,1.658,-3.525
-2.183,1.16,-3.344
-2.2,1.118,-3.318
-0.0,1.061,-1.061
-3.167,1.805,-4.971
1.467,0.379,1.088
-1.983,1.927,-3.91
0.217,1.245,-1.028
-2.6,1.283,-3.883
-0.983,1.097,-2.08
-2.35,0.949,-3.299
-2.867,1.853,-4.719
-0.0,1.84,-1.84
0.5,1.758,-1.258
-1.617,1.974,-3.59
0.067,0.638,-0.572
-2.8,1.902,-4.702
-2.683,1.912,-4.596
0.217,-0.099,0.315
-1.033,1.84,-2.873
-2.6,0.977,-3.577
-1.667,1.11,-2.776
1.0,0.859,0.141
1.55,1.436,0.114
-1.117,1.389,-2.506
-2.467,1.577,-4.044
-1.167,1.895,-3.061
-1.333,1.951,-3.284
1.25,0.155,1.095
-0.7,1.21,-1.91
-2.583,2.095,-4.678
0.333,0.641,-0.308
-2.067,1.293,-3.36
-1.417,1.918,-3.334
0.633,1.868,-1.234
-2.183,2.017,-4.201
0.6,0.24,0.36
-0.833,2.062,-2.895
-1.117,2.095,-3.211
2.0,1.933,0.067
-2.567,2.166,-4.733
-1.5,2.097,-3.597
-3.617,0.694,-4.311
-5.1,0.871,-5.971
-2.15,0.96,-3.11
-1.133,0.499,-1.632
-1.967,1.384,-3.351
-1.333,1.02,-2.353
-3.0,1.048,-4.048
-1.5,1.648,-3.148
-0.5,0.906,-1.406
-1.883,1.385,-3.269
-5.767,1.637,-7.403
0.75,1.712,-0.962
-1.5,1.751,-3.251
-1.667,1.786,-3.452
0.6,1.801,-1.201
-0.167,1.447,-1.614
-2.967,1.878,-4.845
-3.483,1.8,-5.283
1.667,1.776,-0.109
-3.483,1.183,-4.667
1.0,1.1,-0.1
-0.2,1.79,-1.99
0.517,1.829,-1.313
-0.05,1.811,-1.861
-0.283,1.88,-2.163
-0.0,1.838,-1.838
2.25,1.862,0.388
-0.25,2.033,-2.283
0.683,1.704,-1.021
-1.6,1.129,-2.729
4.25,1.109,3.141
-0.983,2.09,-3.073
1.65,1.13,0.52
0.533,2.079,-1.546
-1.5,1.121,-2.621
0.533,1.017,-0.483
-0.0,1.863,-1.863
-2.033,1.961,-3.995
2.2,1.894,0.306
-1.5,2.012,-3.512
1.583,2.015,-0.432
-0.0,2.123,-2.123
-0.617,2.06,-2.676
1.4,1.129,0.271
-0.05,1.836,-1.886
2.7,2.032,0.668
2.467,1.425,1.041
2.367,1.569,0.798
0.383,2.215,-1.831
0.717,1.529,-0.812
0.717,1.413,-0.697
1.25,1.701,-0.451
-2.783,2.156,-4.94
-0.0,1.964,-1.964
-0.25,1.967,-2.217
-6.45,1.342,-7.792
2.367,1.778,0.589
5.3,1.879,3.421
4.55,2.127,2.423
3.55,2.226,1.324
4.5,2.281,2.219
-0.5,2.383,-2.883
-0.0,2.299,-2.299
3.217,2.233,0.984
3.717,2.23,1.487
0.75,2.252,-1.502
-1.833,2.247,-4.081
-0.833,1.881,-2.714
4.75,2.08,2.67
-1.3,2.197,-3.497
4.45,2.15,2.3
1.067,2.208,-1.141
0.6,2.254,-1.654
2.417,2.223,0.194
4.217,2.211,2.006
4.433,1.597,2.836
1.783,2.276,-0.493
2.117,2.264,-0.147
2.8,2.251,0.549
-1.467,2.258,-3.724
-1.3,2.265,-3.565
-0.75,0.724,-1.474
-0.75,1.79,-2.54
2.633,1.947,0.687
-1.917,1.252,-3.168
-0.067,1.975,-2.041
-2.233,1.914,-4.147
-0.0,1.846,-1.846
1.883,-0.131,2.014
0.5,1.724,-1.224
0.467,1.256,-0.79
-0.0,1.086,-1.086
4.117,1.559,2.558
-0.467,2.115,-2.581
4.467,2.097,2.37
-0.567,2.207,-2.774
3.767,1.611,2.155
0.4,1.604,-1.204
-0.433,1.692,-2.126
3.717,1.536,2.181
4.817,2.154,2.663
-1.683,2.227,-3.911
5.0,2.206,2.794
-1.5,2.242,-3.742
2.55,2.259,0.291
2.25,2.222,0.028
0.25,3.87,-3.62
4.0,3.326,0.674
4.0,3.071,0.929
1.717,3.102,-1.386
0.75,2.8,-2.05
0.483,2.758,-2.274
0.717,2.442,-1.725
2.133,2.322,-0.189
-1.517,2.355,-3.872
-1.267,1.789,-3.056
0.7,1.558,-0.858
-3.25,2.192,-5.442
1.8,1.852,-0.052
0.5,1.371,-0.871
0.617,1.644,-1.027
-0.25,1.401,-1.651
4.0,1.292,2.708
1.667,2.171,-0.504
0.617,2.193,-1.577
0.117,2.199,-2.083
-0.617,2.188,-2.805
-0.25,2.132,-2.382
2.5,1.804,0.696
1.867,2.17,-0.303
3.25,2.187,1.063
-1.1,2.218,-3.318
3.5,2.201,1.299
2.75,2.216,0.534
-1.983,2.239,-4.222
1.25,2.23,-0.98
3.583,1.596,1.987
2.033,2.072,-0.039
-2.9,1.464,-4.364
4.5,1.279,3.221
-0.0,2.194,-2.194
-2.2,2.184,-4.384
-0.0,1.982,-1.982
-2.633,1.947,-4.58
-0.183,1.818,-2.002
0.933,0.947,-0.014
0.633,0.928,-0.295
-0.133,1.387,-1.521
0.683,1.43,-0.746
1.75,1.989,-0.239
-11.833,1.174,-13.007
3.25,1.025,2.225
9.733,1.181,8.553
0.25,2.159,-1.909
0.167,2.194,-2.027
-1.633,2.2,-3.833
0.533,2.101,-1.568
2.117,2.008,0.109
8.767,2.138,6.628
-2.117,2.456,-4.572
-1.867,2.329,-4.196
-1.683,1.591,-3.274
7.633,1.82,5.813
-1.75,2.205,-3.955
-0.0,1.456,-1.456
-0.0,1.843,-1.843
-0.0,2.121,-2.121
-0.0,2.119,-2.119
7.45,1.261,6.189
10.25,2.294,7.956
7.567,2.78,4.786
6.417,2.923,3.493
6.917,3.164,3.752
8.017,3.202,4.815
3.7,2.986,0.714
10.5,3.06,7.44
9.533,3.292,6.242
2.833,3.664,-0.83
1.817,3.472,-1.656
1.917,2.965,-1.048
11.75,2.716,9.034
10.0,2.76,7.24
0.8,3.016,-2.216
-0.0,2.995,-2.995
6.5,2.709,3.791
-0.933,2.713,-3.646
-0.783,2.503,-3.286
3.183,2.317,0.866
1.833,2.261,-0.428
7.967,2.259,5.707
8.45,2.563,5.887
-0.0,2.983,-2.983
4.1,2.704,1.396
8.667,2.696,5.971
4.267,2.894,1.373
8.717,2.886,5.831
0.533,2.779,-2.246
0.65,2.528,-1.878
12.9,2.336,10.564
5.45,2.873,2.577
7.133,3.006,4.127
6.8,3.156,3.644
6.3,3.256,3.044
7.25,3.423,3.827
0.133,3.368,-3.235
-1.25,2.898,-4.148
11.617,2.537,9.079
10.917,3.039,7.878
-0.5,3.163,-3.663
-0.7,2.899,-3.599
5.083,2.479,2.605
9.983,2.589,7.394
1.95,2.735,-0.785
-2.667,2.809,-5.475
3.167,2.612,0.554
8.767,2.4,6.366
9.967,2.893,7.074
1.917,3.454,-1.537
1.333,3.222,-1.888
1.217,2.865,-1.648
9.733,2.65,7.083
-1.683,2.741,-4.425
4.367,2.544,1.822
-1.0,2.532,-3.532
4.65,2.414,2.236
-2.6,2.408,-5.008
1.45,2.368,-0.918
3.867,2.224,1.643
4.85,2.237,2.613
7.3,2.268,5.032
5.033,2.463,2.571
8.217,2.809,5.408
1.05,2.872,-1.822
5.783,2.625,3.159
0.417,2.463,-2.047
3.367,2.429,0.938
-0.033,2.334,-2.367
-1.2,2.299,-3.499
-1.333,2.219,-3.552
6.667,0.345,6.322
6.85,2.209,4.641
6.467,2.32,4.147
1.75,2.344,-0.594
1.75,2.369,-0.619
-1.1,2.315,-3.415
2.567,2.25,0.317
0.267,2.233,-1.966
1.983,2.216,-0.232
0.767,2.212,-1.445
-0.4,2.204,-2.604
-0.25,2.038,-2.288
-0.2,2.036,-2.236
-0.45,1.961,-2.411
-0.0,1.859,-1.859
1.383,1.818,-0.435
-0.133,1.987,-2.121
-0.7,1.884,-2.584
-0.0,0.904,-0.904
-1.4,1.813,-3.213
-1.0,1.776,-2.776
-1.417,1.802,-3.219
1.367,1.351,0.016
1.233,1.634,-0.4
-0.0,1.819,-1.819
0.6,1.889,-1.289
-0.0,1.974,-1.974
3.033,1.877,1.156
2.833,2.064,0.77
1.683,2.193,-0.509
3.5,2.203,1.297
1.967,2.22,-0.254
1.817,2.235,-0.419
-0.717,2.235,-2.952
1.0,2.206,-1.206
-0.0,2.179,-2.179
0.183,2.145,-1.962
2.833,2.085,0.748
-1.0,2.157,-3.157
-1.7,2.065,-3.765
1.85,1.887,-0.037
2.5,1.988,0.512
-1.867,2.144,-4.011
-2.25,2.138,-4.388
6.8,1.854,4.946
-2.617,2.181,-4.797
5.3,1.616,3.684
11.75,2.925,8.825
11.433,3.023,8.41
1.967,3.419,-1.452
13.15,2.985,10.165
12.9,3.096,9.804
17.5,3.675,13.825
1.867,4.187,-2.32
0.5,3.651,-3.151
5.733,2.942,2.791
5.25,2.692,2.558
3.0,2.641,0.359
3.567,2.565,1.002
3.4,2.414,0.986
13.3,2.418,10.882
5.117,2.962,2.155
-0.0,2.866,-2.866
12.95,2.559,10.391
3.85,2.937,0.913
4.483,2.875,1.609
3.783,2.678,1.106
10.55,2.647,7.903
12.033,2.778,9.256
9.25,3.406,5.844
10.0,3.359,6.641
8.95,3.185,5.765
16.983,3.348,13.635
16.65,3.317,13.333
12.133,4.001,8.133
12.233,4.152,8.081
5.367,4.239,1.127
12.283,3.827,8.456
12.767,3.788,8.979
15.983,3.876,12.107
7.45,3.371,4.079
9.5,3.903,5.597
8.967,3.694,5.272
8.183,3.689,4.494
11.283,3.373,7.91
23.283,3.168,20.115
27.283,5.437,21.846
6.283,8.435,-2.152
16.283,4.669,11.614
28.75,4.733,24.017
26.75,9.201,17.549
25.817,9.566,16.251
28.65,11.408,17.242
12.417,11.847,0.57
11.333,6.173,5.16
-1.6,5.43,-7.03
11.117,4.534,6.583
-0.5,4.389,-4.889
9.667,3.465,6.202
0.75,3.152,-2.402
-1.2,3.045,-4.245
-0.05,2.917,-2.967
3.8,2.355,1.445
20.45,2.391,18.059
25.717,4.838,20.879
2.467,8.433,-5.966
1.717,3.874,-2.158
0.75,3.357,-2.607
2.233,3.072,-0.839
31.783,2.773,29.01
30.2,7.727,22.473
4.317,9.535,-5.218
-2.383,4.748,-7.131
0.5,3.65,-3.15
-0.05,3.036,-3.086
-0.133,2.608,-2.741
-0.75,2.397,-3.147
35.083,2.234,32.849
27.583,7.775,19.808
-1.317,10.534,-11.851
1.617,4.32,-2.703
37.3,3.61,33.69
39.75,8.552,31.198
35.517,12.364,23.152
38.917,12.754,26.163
-0.0,12.321,-12.321
10.25,6.031,4.219
10.25,4.542,5.708
-0.333,4.373,-4.707
0.233,3.807,-3.574
-0.567,3.165,-3.732
-4.1,2.757,-6.857
-0.983,2.365,-3.348
-2.733,1.368,-4.101
1.633,1.177,0.457
1.8,1.989,-0.189
-0.067,1.219,-1.286
0.3,2.061,-1.761
1.567,2.12,-0.554
2.6,2.196,0.404
2.6,2.229,0.371
1.25,2.303,-1.053
0.633,2.297,-1.663
-2.617,2.279,-4.896
2.5,1.538,0.962
-1.217,2.113,-3.33
0.5,1.31,-0.81
-2.167,1.571,-3.738
-0.0,1.078,-1.078
1.0,1.506,-0.506
0.95,1.986,-1.036
1.45,1.993,-0.543
-0.25,1.978,-2.228
-0.0,2.151,-2.151
0.05,2.059,-2.009
-1.0,2.064,-3.064
-1.517,1.986,-3.503
-0.017,1.867,-1.883
-0.0,1.889,-1.889
-1.25,1.442,-2.692
-0.0,1.858,-1.858
-3.467,1.931,-5.397
4.15,1.81,2.34
2.5,2.123,0.377
-0.0,2.188,-2.188
-0.0,2.189,-2.189
-0.0,2.177,-2.177
-0.0,2.162,-2.162
3.517,2.119,1.398
6.8,2.206,4.594
-0.0,2.641,-2.641
12.9,2.458,10.442
1.433,3.486,-2.053
1.217,2.758,-1.542
12.417,2.583,9.833
9.45,3.398,6.052
7.517,3.031,4.486
8.3,3.593,4.707
8.45,3.091,5.359
5.183,3.084,2.099
8.1,3.227,4.873
4.317,3.39,0.927
7.0,3.302,3.698
8.1,3.731,4.369
7.283,3.619,3.664
7.983,3.588,4.395
7.8,3.735,4.065
2.35,3.723,-1.373
7.05,3.524,3.526
5.667,3.552,2.115
1.85,3.432,-1.582
1.85,3.2,-1.35
-0.0,3.017,-3.017
4.633,2.766,1.867
-0.633,2.732,-3.365
-1.767,2.419,-4.186
-0.883,2.354,-3.238
-1.067,1.472,-2.539
-2.067,1.631,-3.698
-1.117,2.105,-3.222
-1.467,1.069,-2.536
-1.933,1.978,-3.911
-2.633,1.883,-4.517
-3.383,1.827,-5.21
-2.367,1.861,-4.227
0.75,1.935,-1.185
-3.35,1.258,-4.608
-0.567,0.986,-1.552
-1.083,1.939,-3.022
-3.067,1.063,-4.13
-0.017,1.214,-1.23
-2.033,1.614,-3.647
-1.55,1.85,-3.4
1.683,1.754,-0.07
-2.05,1.876,-3.926
-1.483,1.786,-3.27
2.817,0.471,2.345
3.317,1.113,2.204
2.517,1.214,1.303
8.0,1.342,6.658
5.367,2.363,3.004
0.933,2.644,-1.71
4.95,2.549,2.401
1.667,2.809,-1.142
7.75,2.588,5.162
-2.567,2.686,-5.252
-0.25,2.622,-2.872
-1.5,0.998,-2.498
-0.367,1.615,-1.981
-1.167,1.71,-2.876
0.517,1.483,-0.966
-0.0,1.826,-1.826
1.633,1.827,-0.194
2.133,1.892,0.242
0.167,2.07,-1.903
1.467,2.091,-0.624
-0.45,2.161,-2.611
-1.0,1.558,-2.558
-0.4,1.932,-2.332
3.317,1.885,1.432
-1.6,2.075,-3.675
0.3,2.076,-1.776
0.183,2.104,-1.92
-0.0,2.097,-2.097
-3.417,2.05,-5.467
-4.35,1.51,-5.86
-1.5,0.489,-1.989
1.167,1.516,-0.35
-1.233,1.17,-2.403
3.733,1.739,1.995
-0.2,1.535,-1.735
-1.1,1.81,-2.91
1.3,0.97,0.33
0.667,1.919,-1.253
2.85,1.91,0.94
-0.25,2.092,-2.342
2.567,2.09,0.476
-1.333,2.192,-3.525
2.7,1.613,1.087
0.9,1.89,-0.99
-4.683,2.136,-6.819
0.683,1.838,-1.154
-2.65,1.849,-4.499
0.417,1.027,-0.61
2.5,1.793,0.707
3.683,1.808,1.875
1.6,2.093,-0.493
3.0,2.192,0.808
1.25,2.221,-0.971
2.083,2.227,-0.144
5.717,2.226,3.491
5.967,2.277,3.69
0.217,2.42,-2.203
3.483,2.364,1.119
-0.767,2.287,-3.053
3.083,2.25,0.833
0.283,2.243,-1.96
-0.25,2.223,-2.473
2.5,2.189,0.311
-0.083,2.205,-2.289
3.3,2.197,1.103
1.5,2.209,-0.709
-1.267,2.215,-3.482
-0.75,2.19,-2.94
-0.0,2.077,-2.077
5.817,2.026,3.79
3.967,2.204,1.763
6.817,2.246,4.571
6.533,2.308,4.226
6.383,2.706,3.677
-1.25,2.969,-4.219
2.5,2.637,-0.137
-1.05,2.396,-3.446
-1.333,2.263,-3.596
2.017,2.21,-0.193
-0.0,2.206,-2.206
-0.85,2.188,-3.038
3.933,2.138,1.795
-1.317,2.195,-3.512
10.083,2.188,7.895
8.95,2.534,6.416
10.2,2.98,7.22
15.0,3.618,11.382
0.483,4.211,-3.728
-0.233,3.867,-4.101
11.5,3.205,8.295
6.25,3.302,2.948
8.433,3.354,5.079
5.3,3.403,1.897
-1.217,3.135,-4.352
3.633,2.794,0.839
16.017,2.548,13.469
0.6,3.817,-3.217
3.5,2.804,0.696
1.5,2.74,-1.24
0.433,2.529,-2.095
2.75,2.217,0.533
3.517,1.295,2.221
-3.567,1.284,-4.851
-0.0,1.809,-1.809
0.75,1.199,-0.449
1.317,1.974,-0.657
0.517,2.088,-1.571
0.417,1.27,-0.853
0.3,1.642,-1.342
0.267,1.313,-1.047
-3.767,2.022,-5.788
-4.25,1.717,-5.967
-0.0,0.822,-0.822
-0.0,1.538,-1.538
5.367,1.8,3.567
-1.25,1.945,-3.195
-2.367,2.005,-4.371
0.583,1.933,-1.35
-0.0,1.999,-1.999
-1.883,1.962,-3.845
-2.183,-0.041,-2.142
0.083,0.842,-0.759
0.833,1.159,-0.326
-0.0,0.979,-0.979
1.1,1.212,-0.112
-1.0,1.971,-2.971
-0.5,1.895,-2.395
-2.017,0.926,-2.942
-0.0,1.835,-1.835
-0.0,0.644,-0.644
-1.083,1.889,-2.972
-1.533,1.825,-3.358
-0.117,1.802,-1.919
0.783,0.185,0.599
-0.0,1.845,-1.845
0.183,1.081,-0.898
-0.633,1.917,-2.551
0.633,1.819,-1.186
1.717,1.899,-0.182
-3.1,1.819,-4.919
0.167,1.926,-1.759
3.75,0.24,3.51
2.5,1.212,1.288
1.2,2.197,-0.997
0.333,2.196,-1.863
-0.0,1.63,-1.63
1.95,2.16,-0.21
1.65,2.168,-0.518
2.183,1.626,0.557
1.167,2.203,-1.037
-0.417,2.22,-2.637
1.05,2.195,-1.145
0.5,2.147,-1.647
0.317,2.196,-1.88
0.183,2.171,-1.987
-0.383,2.151,-2.534
0.267,1.772,-1.505
0.25,1.342,-1.092
0.167,2.003,-1.836
-0.183,1.941,-2.125
2.233,1.946,0.287
-1.033,2.158,-3.191
-3.167,1.845,-5.012
-0.067,1.06,-1.126
-5.667,0.887,-6.553
4.25,0.719,3.531
2.0,1.74,0.26
-0.8,1.939,-2.739
5.017,1.956,3.06
5.267,2.195,3.072
3.8,2.258,1.542
-2.2,2.344,-4.544
-0.0,2.292,-2.292
1.0,2.228,-1.228
-2.7,1.431,-4.131
3.55,1.888,1.662
0.35,1.126,-0.776
1.5,1.118,0.382
0.317,2.062,-1.746
3.217,2.003,1.214
-0.217,2.186,-2.402
0.983,2.193,-1.209
1.35,1.271,0.079
0.133,1.454,-1.321
0.9,2.168,-1.268
0.467,1.826,-1.36
1.617,1.329,0.288
4.55,2.107,2.443
5.9,2.22,3.68
-1.833,2.405,-4.239
7.5,2.301,5.199
-0.5,0.978,-1.478
-0.567,1.695,-2.262
-0.0,1.421,-1.421
7.417,1.23,6.186
1.933,2.193,-0.259
1.383,1.648,-0.265
0.433,2.232,-1.799
-0.0,2.218,-2.218
-0.0,2.208,-2.208
1.45,1.218,0.232
-0.317,2.182,-2.499
-3.033,1.601,-4.634
-0.0,1.936,-1.936
0.917,1.944,-1.027
0.783,1.339,-0.556
0.067,2.024,-1.957
-0.533,1.963,-2.496
1.75,1.938,-0.188
1.033,1.276,-0.243
2.7,2.128,0.572
-2.867,2.2,-5.066
2.5,1.053,1.447
-1.75,2.147,-3.897
-2.183,2.038,-4.221
-0.0,-0.292,0.292
3.233,1.575,1.658
-0.45,2.057,-2.507
0.75,2.085,-1.335
-0.533,2.13,-2.663
0.233,1.877,-1.644
1.0,1.163,-0.163
-1.133,1.346,-2.479
-1.883,0.921,-2.804
-2.283,1.74,-4.023
0.167,1.134,-0.968
-0.0,1.721,-1.721
0.65,1.655,-1.005
0.25,1.808,-1.558
-0.0,1.85,-1.85
-4.067,1.921,-5.988
-0.617,1.378,-1.995
0.5,1.719,-1.219
-0.583,1.8,-2.383
0.5,1.811,-1.311
-0.167,1.848,-2.014
-1.883,1.051,-2.935
0.967,1.861,-0.894
-0.0,1.876,-1.876
-0.267,1.713,-1.979
2.367,1.874,0.492
4.417,2.046,2.371
4.95,2.206,2.744
3.233,2.267,0.966
9.017,2.287,6.73
2.083,2.429,-0.346
-0.85,2.503,-3.353
-0.033,2.571,-2.604
10.5,2.279,8.221
1.533,2.455,-0.922
-2.2,2.414,-4.614
-0.0,2.492,-2.492
10.033,1.255,8.779
14.1,2.339,11.761
1.0,2.854,-1.854
1.45,2.851,-1.401
11.4,2.718,8.682
-0.0,3.061,-3.061
3.1,2.705,0.395
2.217,2.628,-0.411
-0.183,2.44,-2.623
3.967,2.318,1.648
-1.0,2.264,-3.264
2.283,2.281,0.003
0.45,2.217,-1.767
-3.617,1.066,-4.682
3.667,1.874,1.792
-4.917,1.193,-6.109
1.0,1.102,-0.102
5.117,1.823,3.294
4.75,2.09,2.66
4.5,2.223,2.277
-1.433,2.263,-3.697
4.9,2.233,2.667
1.383,2.249,-0.865
4.017,2.254,1.762
0.75,2.284,-1.534
0.5,2.256,-1.756
5.0,2.233,2.767
1.433,2.253,-0.82
-0.633,2.26,-2.893
1.783,1.753,0.03
-0.983,1.939,-2.923
-2.55,1.04,-3.59
-3.1,0.871,-3.971
-0.0,0.81,-0.81
-4.017,1.744,-5.761
-0.0,-0.528,0.528
-0.567,0.94,-1.506
-1.333,1.79,-3.123
-0.133,1.663,-1.797
-0.817,1.902,-2.718
0.833,0.929,-0.096
1.283,1.252,0.031
-1.25,1.767,-3.017
-0.017,1.137,-1.154
-1.3,1.199,-2.499
0.5,0.984,-0.484
1.0,1.037,-0.037
-0.5,1.078,-1.578
-0.783,1.318,-2.102
3.667,1.533,2.134
1.5,1.416,0.084
0.667,2.155,-1.488
2.133,2.184,-0.051
5.3,2.207,3.093
4.55,1.832,2.718
0.333,2.005,-1.672
-1.017,1.868,-2.885
2.55,2.037,0.513
0.25,2.225,-1.975
3.233,2.243,0.991
-0.0,2.239,-2.239
1.4,2.23,-0.83
1.583,2.228,-0.645
0.25,2.241,-1.991
-3.65,1.571,-5.221
-0.317,0.716,-1.033
-1.817,1.249,-3.065
-4.533,1.157,-5.69
0.533,-0.45,0.984
-0.0,1.479,-1.479
1.45,1.274,0.176
-1.383,1.341,-2.724
-3.117,1.84,-4.957
-3.417,1.8,-5.216
0.533,-0.806,1.339
-3.783,1.807,-5.59
-1.25,0.521,-1.771
1.2,0.353,0.847
-2.383,1.849,-4.232
-1.15,0.786,-1.936
-0.0,1.17,-1.17
2.0,1.805,0.195
-2.133,1.923,-4.056
-0.0,1.905,-1.905
2.083,1.482,0.601
-1.183,1.334,-2.517
1.0,1.187,-0.187
0.25,1.562,-1.312
-3.267,1.824,-5.091
1.333,1.046,0.288
1.25,0.961,0.289
-0.933,1.432,-2.365
-2.433,1.677,-4.111
-0.0,0.986,-0.986
-2.017,1.828,-3.844
-1.633,1.792,-3.425
-2.9,1.747,-4.647
0.483,0.696,-0.212
-1.533,1.098,-2.631
-0.483,0.205,-0.688
0.167,1.207,-1.04
-1.6,1.815,-3.415
-0.25,1.12,-1.37
-0.533,0.779,-1.312
-0.167,1.079,-1.245
1.067,1.751,-0.684
-0.983,1.941,-2.925
-4.75,1.461,-6.211
-3.467,1.603,-5.07
0.483,0.767,-0.284
-2.067,1.776,-3.843
-2.133,1.783,-3.917
-0.633,1.779,-2.412
-0.217,1.806,-2.022
-2.1,1.736,-3.836
-2.833,1.839,-4.673
-2.783,1.826,-4.609
1.167,0.978,0.189
-0.883,1.724,-2.607
2.25,1.501,0.749
5.65,2.217,3.433
5.267,2.273,2.994
3.85,2.383,1.467
-2.717,2.512,-5.229
-0.8,1.752,-2.552
2.983,1.774,1.209
1.983,1.312,0.671
2.233,1.336,0.897
0.617,1.52,-0.904
2.117,1.93,0.187
-3.467,1.365,-4.832
7.25,1.34,5.91
1.7,2.199,-0.499
0.567,2.229,-1.662
1.8,2.227,-0.427
6.683,2.25,4.433
-2.85,2.365,-5.215
5.0,1.745,3.255
-1.4,2.166,-3.566
3.817,2.142,1.675
3.667,2.232,1.435
1.167,2.268,-1.101
1.85,2.265,-0.415
0.233,2.239,-2.006
3.25,1.26,1.99
-1.367,2.202,-3.568
-0.0,2.005,-2.005
0.017,1.874,-1.857
-0.85,1.83,-2.68
1.417,1.511,-0.095
0.933,1.783,-0.849
0.267,1.813,-1.546
0.033,1.84,-1.807
0.883,0.784,0.1
-0.0,1.74,-1.74
-1.117,1.833,-2.949
-1.85,1.203,-3.053
-1.6,1.03,-2.63
-0.0,1.336,-1.336
0.683,1.705,-1.022
-0.583,1.739,-2.323
1.417,1.646,-0.229
-0.0,0.42,-0.42
-1.167,1.676,-2.843
2.25,1.143,1.107
0.25,1.792,-1.542
-0.183,1.055,-1.238
0.383,1.337,-0.954
1.383,1.155,0.228
-0.0,1.238,-1.238
-2.183,1.731,-3.914
0.417,1.252,-0.835
-0.333,0.904,-1.237
3.917,0.906,3.01
-1.55,1.436,-2.986
1.15,1.592,-0.442
-2.033,1.785,-3.818
-0.0,1.687,-1.687
0.8,1.71,-0.91
-0.0,1.75,-1.75
-0.033,1.758,-1.792
0.05,1.802,-1.752
3.783,1.75,2.034
-0.0,1.821,-1.821
-0.1,1.286,-1.386
-0.85,1.389,-2.239
0.167,1.662,-1.495
1.75,1.083,0.667
-2.233,1.809,-4.042
3.0,1.74,1.26
-0.283,1.776,-2.059
-1.5,1.848,-3.348
3.5,1.24,2.26
4.5,1.808,2.692
-1.7,2.052,-3.752
-4.367,1.93,-6.297
-0.5,1.796,-2.296
-2.467,1.749,-4.216
-0.5,1.53,-2.03
-0.5,1.669,-2.169
0.4,1.592,-1.192
-1.35,1.081,-2.431
0.417,1.604,-1.187
0.267,1.684,-1.418
1.233,1.739,-0.506
-0.0,1.727,-1.727
0.033,1.734,-1.701
0.833,1.803,-0.97
0.8,1.762,-0.962
-1.833,1.902,-3.735
0.533,1.86,-1.327
1.883,1.789,0.094
-0.283,1.825,-2.108
2.25,1.36,0.89
0.55,1.84,-1.29
0.433,1.005,-0.571
0.683,1.004,-0.321
-0.3,1.796,-2.096
-0.25,1.708,-1.958
-0.483,1.778,-2.261
-1.05,1.68,-2.73
-0.133,1.611,-1.744
2.117,1.724,0.393
-2.883,1.776,-4.659
3.167,1.775,1.391
2.3,1.792,0.508
3.133,1.892,1.242
-0.483,2.044,-2.528
4.5,1.98,2.52
3.167,2.161,1.006
-1.25,2.209,-3.459
-3.783,2.188,-5.972
-1.467,1.973,-3.439
-0.5,1.817,-2.317
-1.867,1.648,-3.514
-0.967,1.766,-2.733
3.517,1.603,1.914
-0.0,1.813,-1.813
-0.0,1.914,-1.914
-1.8,0.05,-1.85
-0.0,1.858,-1.858
-2.683,0.962,-3.645
-1.683,1.081,-2.765
-2.833,1.009,-3.843
-2.2,0.904,-3.104
-2.05,0.459,-2.509
-2.25,1.618,-3.868
-2.467,1.068,-3.534
-2.367,1.628,-3.994
-1.567,0.924,-2.49
-0.0,1.216,-1.216
-2.9,1.631,-4.531
-3.333,1.569,-4.903
0.55,0.828,-0.278
-1.533,0.842,-2.376
-1.167,1.014,-2.18
2.983,1.171,1.812
2.533,1.288,1.245
-0.0,1.02,-1.02
3.6,1.667,1.933
0.65,2.069,-1.419
0.783,2.061,-1.278
0.817,2.091,-1.274
1.367,1.367,-0.0
-0.717,2.047,-2.764
-1.25,0.666,-1.916
1.533,1.187,0.346
1.167,1.84,-0.673
-2.0,1.906,-3.906
-0.85,-0.394,-0.456
-0.433,1.136,-1.569
1.6,1.156,0.444
2.2,1.841,0.359
2.033,1.397,0.636
-0.5,1.981,-2.481
-1.167,1.96,-3.127
-1.0,0.971,-1.971
-5.667,1.214,-6.88
0.417,1.647,-1.23
-3.317,1.772,-5.089
-0.0,1.755,-1.755
-0.1,1.766,-1.866
-1.1,1.083,-2.183
0.25,1.724,-1.474
0.25,1.849,-1.599
-0.533,1.896,-2.429
-3.633,1.802,-5.435
-0.217,1.691,-1.908
0.067,1.785,-1.718
0.067,1.776,-1.709
-1.4,1.868,-3.268
-0.0,1.834,-1.834
1.8,0.553,1.247
3.25,1.245,2.005
-0.25,2.062,-2.312
-0.367,2.021,-2.387
-0.883,1.906,-2.79
-4.8,1.033,-5.833
0.867,0.91,-0.044
-1.0,1.079,-2.079
-0.0,1.435,-1.435
3.45,1.755,1.695
7.867,1.876,5.991
2.183,2.206,-0.022
16.833,2.233,14.6
0.217,3.023,-2.807
9.483,2.778,6.706
-0.0,2.659,-2.659
-0.0,2.498,-2.498
3.25,1.7,1.55
-0.0,1.799,-1.799
-1.533,2.206,-3.739
-0.0,1.993,-1.993
0.25,1.832,-1.582
-2.717,1.79,-4.506
-6.783,-0.152,-6.632
5.383,0.198,5.185
-0.0,1.414,-1.414
-0.583,1.849,-2.433
-2.15,1.819,-3.969
-1.833,1.742,-3.576
-0.0,1.021,-1.021
0.467,1.667,-1.2
-5.567,1.704,-7.27
-5.067,-0.87,-4.197
-1.5,1.369,-2.869
-0.0,1.443,-1.443
-3.783,1.657,-5.44
-6.133,1.533,-7.666
5.283,0.729,4.555
12.467,1.496,10.97
2.183,1.961,0.223
-1.283,1.966,-3.249
-2.717,1.18,-3.897
9.35,1.286,8.064
9.85,2.178,7.672
-1.633,2.433,-4.066
-2.383,2.336,-4.719
-0.5,1.194,-1.694
11.7,1.854,9.846
7.6,2.204,5.396
13.25,2.295,10.955
7.717,2.752,4.965
-0.583,2.908,-3.491
-3.5,2.601,-6.101
12.267,2.264,10.002
6.583,2.472,4.111
10.3,2.588,7.712
7.767,2.825,4.941
10.983,2.669,8.314
-0.5,2.903,-3.403
-0.0,2.538,-2.538
-0.5,2.301,-2.801
14.6,2.247,12.353
9.117,2.649,6.468
28.75,3.181,25.569
-0.0,4.656,-4.656
24.733,3.614,21.119
-0.3,4.858,-5.158
6.25,3.505,2.745
5.4,3.176,2.224
21.55,3.099,18.451
5.15,4.352,0.798
4.0,3.852,0.148
2.717,3.365,-0.648
10.617,2.855,7.761
-0.7,3.101,-3.801
7.2,2.832,4.368
6.133,2.713,3.421
1.05,2.827,-1.777
23.5,2.565,20.935
-1.467,3.734,-5.201
17.717,2.951,14.766
19.117,4.035,15.082
20.15,4.567,15.583
2.633,6.348,-3.714
1.733,3.98,-2.247
22.167,3.481,18.686
15.517,4.871,10.646
14.467,4.585,9.881
21.5,4.559,16.941
11.7,5.174,6.526
1.833,4.438,-2.605
-0.0,4.145,-4.145
6.817,3.377,3.44
7.417,3.198,4.219
5.667,3.391,2.276
2.0,3.268,-1.268
23.5,2.701,20.799
3.517,4.099,-0.582
3.45,3.697,-0.247
2.65,3.341,-0.691
13.133,2.841,10.293
14.133,3.394,10.74
13.55,4.09,9.46
9.533,4.166,5.367
10.0,3.377,6.623
1.467,3.73,-2.264
1.6,3.091,-1.491
2.2,2.492,-0.292
8.35,1.972,6.378
2.883,2.481,0.402
6.383,2.496,3.888
7.133,2.543,4.59
14.467,2.688,11.779
19.3,3.189,16.111
3.183,4.332,-1.148
5.133,3.467,1.667
2.033,2.978,-0.945
2.933,2.823,0.11
5.0,2.865,2.135
3.567,2.686,0.881
-4.483,2.578,-7.061
2.0,1.515,0.485
7.833,2.157,5.677
12.367,2.308,10.059
11.35,2.668,8.682
7.733,3.038,4.695
13.217,3.411,9.806
11.933,3.536,8.397
9.367,4.0,5.367
6.25,3.496,2.754
10.4,3.385,7.015
1.2,3.345,-2.145
1.167,2.131,-0.964
2.283,2.486,-0.202
1.983,2.2,-0.217
1.467,2.151,-0.684
6.6,1.821,4.779
4.817,2.344,2.473
1.4,2.323,-0.923
-1.283,2.287,-3.57
7.5,2.184,5.316
9.05,2.27,6.78
0.25,2.77,-2.52
-0.75,2.532,-3.282
11.383,2.551,8.832
0.617,2.735,-2.119
2.2,2.46,-0.26
0.7,2.37,-1.67
-5.3,2.302,-7.602
-6.55,0.266,-6.816
5.383,1.617,3.767
1.667,1.008,0.659
5.483,1.249,4.234
-4.65,1.096,-5.746
1.683,0.989,0.695
8.4,1.883,6.517
1.8,1.31,0.49
-0.0,1.733,-1.733
10.5,1.459,9.041
-1.75,2.205,-3.955
8.983,2.317,6.666
4.517,2.602,1.915
7.8,2.639,5.161
-0.833,2.905,-3.739
1.667,2.641,-0.975
2.0,2.476,-0.476
10.35,2.402,7.948
-0.583,2.764,-3.347
-0.083,2.5,-2.584
0.633,1.839,-1.206
7.3,1.778,5.522
0.75,2.333,-1.583
4.483,2.369,2.114
6.983,2.514,4.469
3.433,2.793,0.64
5.583,2.772,2.812
-2.333,2.823,-5.156
0.9,2.003,-1.103
4.433,1.752,2.682
0.083,2.257,-2.174
-0.0,2.25,-2.25
0.6,2.24,-1.64
4.617,2.242,2.374
-3.017,2.288,-5.304
14.833,0.927,13.907
-0.0,3.145,-3.145
6.533,2.531,4.003
4.217,1.748,2.469
-1.0,1.205,-2.205
5.95,1.151,4.799
11.267,1.162,10.105
4.45,2.853,1.597
-4.9,2.858,-7.758
3.45,2.496,0.954
1.25,2.401,-1.151
3.383,2.386,0.998
3.183,2.326,0.858
-0.317,2.315,-2.632
7.5,1.746,5.754
-1.35,2.631,-3.981
6.233,2.313,3.921
1.583,2.416,-0.833
-2.717,2.353,-5.069
3.183,1.166,2.018
-3.5,1.342,-4.842
-0.0,1.2,-1.2
8.75,1.561,7.189
8.667,2.24,6.427
11.133,2.699,8.434
13.133,2.834,10.299
-2.0,3.241,-5.241
5.5,3.004,2.496
11.233,2.794,8.439
1.0,3.53,-2.53
-0.3,2.95,-3.25
3.417,2.68,0.736
2.283,2.509,-0.226
10.817,1.889,8.928
-1.033,2.846,-3.88
-0.783,2.661,-3.444
0.467,1.578,-1.111
13.55,2.214,11.336
7.233,2.746,4.487
0.783,2.745,-1.961
0.433,2.732,-2.299
2.067,1.672,0.395
9.3,1.68,7.62
-0.917,2.502,-3.418
-0.417,2.375,-2.791
-2.417,2.266,-4.683
11.317,1.888,9.429
0.433,2.361,-1.928
-3.0,2.292,-5.292
4.033,2.174,1.859
2.0,2.18,-0.18
8.483,2.197,6.287
8.983,2.343,6.641
7.95,2.851,5.099
7.95,3.091,4.859
1.4,3.102,-1.702
0.483,2.729,-2.246
-0.0,2.633,-2.633
6.35,2.334,4.016
-3.133,2.326,-5.459
12.25,2.265,9.985
-0.0,2.799,-2.799
-5.533,2.205,-7.738
11.25,1.588,9.662
2.2,2.394,-0.194
-0.95,2.318,-3.268
1.25,1.486,-0.236
12.467,1.701,10.765
11.4,2.424,8.976
13.0,3.086,9.914
3.183,3.513,-0.33
1.733,3.093,-1.36
12.333,2.726,9.608
12.2,3.104,9.096
11.367,3.41,7.956
4.6,3.273,1.327
6.1,3.064,3.036
13.967,3.085,10.881
13.2,3.484,9.716
12.05,3.238,8.812
15.233,3.794,11.44
0.6,4.055,-3.455
12.333,3.277,9.056
3.167,2.943,0.224
7.167,2.985,4.181
3.1,3.062,0.038
3.167,2.844,0.323
-0.783,2.6,-3.383
3.433,1.589,1.844
16.2,2.286,13.914
11.067,2.93,8.137
0.25,3.399,-3.149
15.633,2.818,12.815
13.217,1.808,11.409
3.483,2.883,0.6
3.0,2.733,0.267
5.433,2.49,2.943
2.75,2.457,0.293
5.283,2.416,2.867
15.217,2.412,12.804
5.633,2.803,2.83
7.233,2.957,4.276
-2.95,2.944,-5.894
7.45,2.69,4.76
3.1,2.503,0.597
-3.15,2.394,-5.544
-0.0,2.215,-2.215
19.117,2.153,16.964
2.533,3.018,-0.485
12.65,2.676,9.974
21.433,3.265,18.168
9.05,3.592,5.458
1.4,4.095,-2.695
5.933,3.255,2.678
-0.0,3.046,-3.046
14.683,2.613,12.07
11.417,2.982,8.434
13.683,3.163,10.52
-0.0,3.61,-3.61
0.75,3.125,-2.375
-1.95,2.614,-4.564
19.217,2.309,16.908
9.5,2.818,6.682
19.0,3.209,15.791
22.117,3.743,18.374
9.25,4.129,5.121
-0.0,4.283,-4.283
14.667,3.484,11.182
-0.0,3.665,-3.665
20.4,2.916,17.484
9.817,3.868,5.948
0.667,3.613,-2.946
-2.083,3.082,-5.165
-0.0,2.703,-2.703
-0.0,2.314,-2.314
-0.0,1.831,-1.831
13.933,1.308,12.625
15.8,2.517,13.283
2.45,3.167,-0.717
2.167,3.002,-0.836
-0.0,2.651,-2.651
-0.0,2.475,-2.475
7.45,2.31,5.14
13.783,2.411,11.373
1.533,3.215,-1.682
-0.117,2.768,-2.884
21.183,2.44,18.743
0.5,3.305,-2.805
16.717,2.878,13.839
17.717,2.932,14.785
18.183,3.237,14.946
-0.0,4.281,-4.281
15.683,3.517,12.166
14.683,3.764,10.919
10.8,3.761,7.039
8.833,4.013,4.82
-3.883,3.756,-7.639
10.583,3.214,7.369
-0.0,2.781,-2.781
4.333,2.736,1.597
-0.0,2.511,-2.511
-0.0,2.351,-2.351
6.433,2.251,4.183
12.333,2.253,10.08
10.583,2.812,7.771
-0.0,2.885,-2.885
10.45,2.931,7.519
15.15,2.992,12.158
4.8,3.51,1.29
2.817,3.261,-0.444
17.3,2.897,14.403
3.717,3.082,0.635
13.667,2.913,10.754
6.65,2.869,3.781
16.267,3.321,12.946
10.583,3.607,6.976
12.633,3.753,8.88
-0.0,3.766,-3.766
6.25,3.194,3.056
17.983,2.892,15.092
13.333,3.544,9.789
5.817,3.577,2.24
3.117,3.293,-0.176
-0.0,2.51,-2.51
1.767,2.387,-0.62
4.167,2.226,1.941
13.483,2.23,11.253
-0.017,2.641,-2.658
4.017,2.479,1.538
1.067,2.359,-1.292
3.45,2.305,1.145
-1.683,2.259,-3.942
13.05,2.203,10.847
2.667,2.492,0.175
1.867,2.494,-0.627
1.65,2.432,-0.782
2.767,1.922,0.844
-1.283,2.232,-3.516
12.933,1.201,11.733
9.5,2.565,6.935
6.4,3.44,2.96
5.4,3.469,1.931
8.4,3.13,5.27
11.317,3.218,8.099
10.317,3.986,6.331
10.167,3.988,6.178
-0.5,4.39,-4.89
0.067,3.395,-3.328
1.867,2.83,-0.963
0.033,1.798,-1.764
3.35,1.693,1.657
5.067,1.601,3.466
0.817,2.277,-1.461
7.433,2.386,5.047
-3.95,2.575,-6.525
-5.833,1.604,-7.437
3.833,1.121,2.712
5.383,1.211,4.172
18.983,2.258,16.725
7.75,3.955,3.795
6.483,3.279,3.204
6.983,3.417,3.566
-1.5,3.081,-4.581
-3.117,2.86,-5.977
7.383,1.871,5.512
6.317,1.991,4.325
17.483,2.5,14.984
10.533,4.296,6.237
10.75,4.303,6.447
-1.1,4.422,-5.522
-0.133,3.562,-3.696
3.833,1.747,2.086
10.217,2.433,7.783
-1.383,3.311,-4.694
-2.55,2.533,-5.083
6.467,1.667,4.8
-6.667,2.238,-8.905
0.283,1.799,-1.516
-0.0,1.045,-1.045
2.35,1.146,1.204
7.0,1.164,5.836
6.25,2.415,3.835
17.5,2.758,14.742
8.433,4.065,4.368
6.4,4.308,2.092
-1.833,3.56,-5.393
10.117,2.739,7.377
0.383,3.558,-3.174
-1.0,2.846,-3.846
-1.467,1.783,-3.249
12.55,1.303,11.247
8.8,2.476,6.324
15.817,2.878,12.938
1.233,3.922,-2.689
17.083,3.154,13.929
10.0,4.117,5.883
0.367,4.451,-4.084
0.7,3.482,-2.782
1.667,2.95,-1.284
4.867,2.27,2.596
6.117,2.524,3.592
7.367,2.609,4.758
10.067,2.805,7.262
9.833,3.41,6.424
6.75,3.7,3.05
-0.85,3.733,-4.583
10.6,3.342,7.258
-8.983,3.404,-12.388
9.133,1.802,7.331
11.067,2.867,8.199
14.333,3.477,10.856
9.25,3.497,5.753
13.0,3.704,9.296
2.267,3.122,-0.856
2.35,3.02,-0.67
7.917,1.836,6.081
8.483,2.786,5.698
7.267,3.143,4.124
4.367,3.121,1.246
-0.0,2.951,-2.951
-0.0,2.05,-2.05
1.233,1.761,-0.527
-0.0,2.238,-2.238
11.15,2.192,8.958
12.1,2.61,9.49
10.35,3.346,7.004
7.283,3.455,3.829
11.517,3.381,8.135
6.1,3.935,2.165
2.517,3.41,-0.893
1.983,3.065,-1.081
0.85,2.816,-1.966
4.433,2.553,1.88
-0.0,2.468,-2.468
9.083,2.378,6.705
0.5,2.69,-2.19
0.683,2.295,-1.611
10.567,2.505,8.062
3.0,2.688,0.312
7.2,2.2,5.0
10.783,2.744,8.039
12.7,3.427,9.273
5.1,3.697,1.403
2.283,3.375,-1.092
11.033,3.048,7.986
-0.0,3.467,-3.467
1.483,2.959,-1.476
9.167,2.716,6.451
1.067,2.872,-1.805
9.933,2.554,7.38
17.45,3.039,14.411
18.717,3.485,15.231
-0.0,4.428,-4.428
8.333,3.602,4.732
12.533,3.524,9.009
-0.0,3.873,-3.873
-0.717,3.241,-3.958
-0.0,1.95,-1.95
-0.0,2.005,-2.005
-0.0,2.207,-2.207
8.617,2.159,6.457
4.617,2.254,2.363
11.65,2.397,9.253
5.85,2.954,2.896
13.567,2.955,10.611
4.65,3.102,1.548
5.0,2.951,2.049
8.967,2.94,6.027
6.7,2.907,3.793
6.817,3.261,3.555
6.317,3.317,3.0
7.25,3.124,4.126
11.5,3.127,8.373
2.55,3.461,-0.911
2.733,2.958,-0.224
6.433,2.765,3.668
0.6,2.692,-2.092
13.55,2.82,10.73
-0.0,3.009,-3.009
4.983,2.644,2.34
-1.783,2.356,-4.139
3.0,2.17,0.83
3.267,2.224,1.043
7.517,2.237,5.28
0.75,2.305,-1.555
6.917,2.348,4.569
-0.0,2.66,-2.66
12.883,2.601,10.282
4.017,3.093,0.924
-4.65,2.73,-7.38
-3.9,2.281,-6.181
12.567,0.463,12.103
2.417,2.493,-0.077
-1.0,2.295,-3.295
8.383,1.188,7.196
1.683,2.289,-0.606
1.467,2.256,-0.79
8.983,1.754,7.23
1.8,1.998,-0.198
4.15,1.876,2.274
3.933,2.391,1.543
10.383,2.407,7.977
0.833,2.737,-1.904
11.817,2.198,9.618
2.9,2.657,0.243
-0.5,2.492,-2.992
13.05,2.438,10.612
-2.467,2.793,-5.26
11.55,2.532,9.018
-0.0,2.575,-2.575
9.4,2.598,6.802
10.933,2.621,8.312
2.417,3.286,-0.869
6.533,2.822,3.711
0.417,2.848,-2.431
11.983,1.988,9.996
12.033,2.953,9.081
11.3,3.618,7.682
9.4,3.188,6.212
15.867,3.276,12.59
0.883,4.084,-3.201
-0.3,3.327,-3.627
-0.0,2.014,-2.014
-0.0,1.787,-1.787
8.433,2.226,6.207
15.567,2.273,13.294
3.25,3.141,0.109
-0.0,2.87,-2.87
0.783,2.576,-1.793
7.6,2.426,5.174
2.3,2.346,-0.046
8.8,1.743,7.057
15.85,2.627,13.223
0.817,3.422,-2.606
14.75,2.913,11.837
14.517,3.483,11.034
-0.0,3.474,-3.474
0.433,2.988,-2.554
0.5,2.572,-2.072
-0.017,2.417,-2.434
23.167,0.72,22.447
0.75,3.271,-2.521
1.667,2.863,-1.196
-0.0,2.574,-2.574
-0.033,1.361,-1.395
16.2,2.265,13.935
-0.0,2.949,-2.949
7.667,2.645,5.022
-2.25,2.582,-4.832
0.95,1.682,-0.732
21.483,2.262,19.221
12.367,2.728,9.639
10.45,2.905,7.545
-0.0,3.189,-3.189
-0.0,3.033,-3.033
8.267,1.475,6.791
15.267,2.762,12.505
8.6,3.478,5.122
14.167,3.201,10.966
13.067,3.242,9.825
2.3,3.727,-1.427
2.833,3.402,-0.569
17.6,2.962,14.638
4.383,3.596,0.787
3.833,3.372,0.461
4.367,3.004,1.363
4.317,2.744,1.573
4.0,2.654,1.346
17.917,2.563,15.354
2.5,3.441,-0.941
2.367,3.062,-0.695
-1.017,2.737,-3.754
12.467,1.52,10.947
-0.0,2.645,-2.645
6.933,2.433,4.5
6.933,2.413,4.521
-0.0,2.567,-2.567
8.6,2.058,6.542
8.317,2.671,5.646
6.733,2.723,4.01
10.467,2.792,7.674
9.9,3.238,6.662
6.517,3.37,3.146
-0.0,3.148,-3.148
4.183,2.772,1.411
10.25,2.561,7.689
11.917,2.924,8.992
5.867,3.332,2.535
4.883,2.991,1.892
-1.967,2.901,-4.868
-0.0,2.595,-2.595
23.55,2.338,21.212
4.5,3.384,1.116
4.3,2.228,2.072
-5.933,2.266,-8.199
7.683,2.124,5.559
4.5,2.219,2.281
0.75,2.253,-1.503
5.433,2.232,3.201
-0.183,2.267,-2.45
4.65,2.224,2.426
17.1,2.248,14.852
-0.133,2.78,-2.913
-0.183,2.592,-2.775
1.55,2.571,-1.021
1.55,2.271,-0.721
-4.25,2.219,-6.469
2.467,0.833,1.633
12.683,1.912,10.771
1.75,2.322,-0.572
2.0,2.284,-0.284
-0.883,2.247,-3.13
0.433,1.351,-0.917
9.533,2.182,7.352
8.0,2.605,5.395
-0.0,3.212,-3.212
0.5,2.567,-2.067
2.0,2.306,-0.306
1.75,2.482,-0.732
15.333,2.018,13.316
5.267,3.392,1.875
15.333,3.361,11.972
10.217,4.523,5.694
11.467,4.53,6.937
8.467,4.375,4.092
11.75,4.345,7.405
10.0,4.474,5.526
-1.25,4.607,-5.857
5.433,3.808,1.626
17.0,3.53,13.47
3.25,4.221,-0.971
2.75,3.976,-1.226
0.5,3.42,-2.92
7.0,3.017,3.983
-0.75,2.966,-3.716
-1.55,2.955,-4.505
0.75,1.825,-1.075
13.083,1.751,11.333
13.083,3.238,9.845
7.5,4.254,3.246
8.5,3.271,5.229
-0.0,3.332,-3.332
4.5,3.165,1.335
4.083,3.17,0.913
3.5,3.018,0.482
2.567,3.073,-0.507
11.733,2.736,8.998
11.733,3.647,8.086
-0.0,4.106,-4.106
12.467,3.328,9.139
4.15,3.427,0.723
12.983,3.27,9.713
6.283,4.043,2.241
0.4,3.952,-3.552
-0.0,3.678,-3.678
5.5,2.776,2.724
9.483,2.818,6.666
12.25,3.526,8.724
-0.1,3.55,-3.65
14.0,3.175,10.825
5.267,3.861,1.405
1.0,3.104,-2.104
11.267,2.965,8.302
1.5,3.777,-2.277
7.0,3.142,3.858
1.75,3.371,-1.621
-0.0,2.832,-2.832
1.75,2.665,-0.915
1.25,2.172,-0.922
1.5,2.037,-0.537
-0.75,2.449,-3.199
-0.0,2.294,-2.294
8.117,2.224,5.893
-0.0,2.441,-2.441
1.2,2.417,-1.217
6.0,2.473,3.527
6.183,2.685,3.498
13.383,3.02,10.363
3.25,3.986,-0.736
-0.5,3.55,-4.05
4.25,2.919,1.331
3.133,2.851,0.282
8.0,2.792,5.208
11.617,4.45,7.166
4.4,4.019,0.381
12.617,4.356,8.261
10.0,4.438,5.562
-0.0,4.656,-4.656
10.0,3.532,6.468
3.6,3.498,0.102
6.75,3.096,3.654
8.25,3.172,5.078
-0.617,3.381,-3.997
2.333,3.09,-0.756
11.15,2.865,8.285
10.65,3.34,7.31
2.0,3.681,-1.681
-2.75,3.414,-6.164
-0.0,2.948,-2.948
-0.5,1.891,-2.391
0.5,1.827,-1.327
3.0,1.422,1.578
-1.0,1.952,-2.952
-0.0,2.188,-2.188
1.0,2.202,-1.202
1.0,2.194,-1.194
13.283,2.199,11.084
13.283,2.912,10.372
5.4,3.644,1.756
13.283,3.396,9.888
-0.0,3.973,-3.973
2.483,3.279,-0.795
2.75,2.94,-0.19
11.167,2.731,8.436
1.0,3.207,-2.207
0.5,2.924,-2.424
0.05,2.664,-2.614
11.4,2.579,8.821
9.0,2.605,6.395
6.0,2.829,3.171
2.25,3.021,-0.771
6.3,3.028,3.272
13.667,2.999,10.668
13.667,3.671,9.996
-2.333,3.763,-6.096
0.5,3.216,-2.716
1.55,2.824,-1.274
12.433,2.601,9.832
13.433,2.845,10.588
11.383,3.313,8.071
13.433,3.916,9.517
-0.567,4.084,-4.651
0.5,3.432,-2.932
10.5,3.036,7.464
-0.0,2.886,-2.886
6.417,2.772,3.644
2.75,2.655,0.095
3.367,2.726,0.641
14.733,2.43,12.304
3.75,3.867,-0.117
14.733,3.444,11.29
5.5,4.143,1.357
12.5,3.428,9.072
13.3,3.423,9.877
17.5,3.711,13.789
0.5,4.239,-3.739
0.5,3.695,-3.195
0.517,3.199,-2.682
4.5,2.873,1.627
-1.25,2.656,-3.906
7.233,2.335,4.898
4.0,2.564,1.436
3.5,2.547,0.953
6.5,2.581,3.919
11.25,2.644,8.606
4.0,3.332,0.668
4.5,3.122,1.378
6.567,3.171,3.395
12.75,3.276,9.474
4.0,3.604,0.396
14.467,3.25,11.217
-0.0,3.245,-3.245
4.75,3.102,1.648
6.5,3.044,3.456
4.75,2.839,1.911
13.55,2.91,10.64
5.617,3.274,2.343
4.617,3.346,1.27
-0.0,2.948,-2.948
0.75,2.904,-2.154
3.0,2.335,0.665
2.25,2.542,-0.292
-0.0,2.381,-2.381
0.5,3.174,-2.674
19.283,2.844,16.44
-0.0,3.36,-3.36
21.283,3.168,18.115
4.5,3.72,0.78
3.8,3.737,0.063
-0.0,3.21,-3.21
17.083,2.917,14.166
10.0,3.513,6.487
17.083,3.501,13.583
-0.0,3.985,-3.985
7.5,3.36,4.14
10.5,3.305,7.195
2.383,3.39,-1.006
4.0,3.053,0.947
8.45,2.918,5.532
5.0,3.203,1.797
3.75,2.987,0.763
3.75,2.925,0.825
7.75,2.766,4.984
7.5,2.823,4.677
-1.567,3.086,-4.653
1.75,2.645,-0.895
1.75,2.484,-0.734
4.35,2.429,1.921
7.55,2.418,5.132
12.15,2.669,9.481
12.15,3.315,8.835
10.75,3.661,7.089
10.35,4.03,6.32
10.5,3.863,6.637
-0.25,3.879,-4.129
0.5,3.245,-2.745
16.733,2.812,13.921
13.0,3.101,9.899
8.0,3.236,4.764
2.25,3.332,-1.082
6.0,3.082,2.918
-0.0,2.923,-2.923
-0.0,2.883,-2.883
-1.0,2.542,-3.542
5.5,2.447,3.053
0.5,2.366,-1.866
9.0,2.301,6.699
4.0,2.317,1.683
11.65,2.523,9.127
5.25,2.623,2.627
16.967,2.803,14.164
2.0,3.391,-1.391
1.317,3.262,-1.945
10.417,2.897,7.52
9.533,3.184,6.349
7.467,3.128,4.339
8.5,3.39,5.11
-0.0,3.486,-3.486
-0.25,3.021,-3.271
13.733,2.613,11.121
2.25,2.56,-0.31
14.233,2.681,11.553
7.283,3.37,3.913
9.367,3.34,6.026
1.183,3.522,-2.338
7.5,3.035,4.465
2.733,3.422,-0.688
16.0,3.228,12.772
14.0,3.963,10.037
11.65,3.911,7.739
4.25,4.706,-0.456
8.0,3.932,4.068
12.5,3.9,8.6
0.933,4.422,-3.489
12.5,3.42,9.08
6.167,4.065,2.101
10.167,3.524,6.642
13.0,4.062,8.938
14.0,4.001,9.999
-0.75,4.175,-4.925
3.5,3.514,-0.014
-0.0,3.136,-3.136
10.167,2.947,7.219
-0.75,3.489,-4.239
6.45,2.817,3.633
12.45,2.75,9.7
9.25,3.705,5.545
4.867,3.521,1.346
6.4,3.554,2.846
6.25,3.288,2.962
11.0,3.574,7.426
6.0,3.541,2.459
10.75,3.624,7.126
3.0,3.612,-0.612
-0.75,3.26,-4.01
3.25,2.785,0.465
0.25,2.651,-2.401
7.0,2.508,4.492
1.0,2.449,-1.449
13.167,2.51,10.656
14.0,3.468,10.532
9.0,3.98,5.02
9.2,3.533,5.667
5.55,3.583,1.967
-1.75,3.378,-5.128
10.7,2.109,8.591
0.25,3.462,-3.212
0.25,3.043,-2.793
0.35,1.936,-1.586
3.25,1.669,1.581
-0.0,2.34,-2.34
11.483,2.226,9.257
-0.5,2.742,-3.242
-2.25,2.197,-4.447
3.217,1.542,1.675
4.25,2.244,2.006
-0.0,2.27,-2.27
10.433,2.33,8.104
1.5,2.949,-1.449
-1.5,2.66,-4.16
0.217,1.931,-1.714
1.5,1.861,-0.361
1.217,2.124,-0.908
15.483,2.196,13.288
2.5,3.343,-0.843
-1.75,2.816,-4.566
13.467,2.239,11.228
10.283,2.737,7.546
6.133,3.082,3.051
-3.75,3.147,-6.897
0.25,2.119,-1.869
1.267,2.717,-1.451
11.45,1.802,9.648
2.0,2.689,-0.689
3.5,2.657,0.843
2.5,2.578,-0.078
1.75,2.452,-0.702
-1.0,2.385,-3.385
12.183,2.282,9.901
1.25,2.929,-1.679
1.5,2.677,-1.177
1.25,2.517,-1.267
7.65,2.309,5.341
15.267,2.367,12.9
8.65,2.935,5.715
3.0,3.18,-0.18
8.0,2.992,5.008
-3.75,3.07,-6.82
15.267,2.459,12.807
7.0,3.766,3.234
7.317,3.381,3.936
7.183,3.67,3.513
8.0,3.249,4.751
-0.0,3.232,-3.232
15.45,2.909,12.541
7.5,3.286,4.214
16.467,3.847,12.62
12.0,4.219,7.781
12.283,3.887,8.396
2.483,4.197,-1.714
9.583,3.521,6.062
6.0,3.208,2.792
-1.75,3.045,-4.795
1.0,3.026,-2.026
9.583,2.715,6.868
0.5,2.85,-2.35
13.25,2.71,10.54
8.65,3.374,5.276
12.25,3.47,8.78
-0.5,3.701,-4.201
-0.5,3.048,-3.548
5.5,2.193,3.307
13.767,2.611,11.155
12.55,3.42,9.13
2.75,3.515,-0.765
2.0,3.195,-1.195
12.25,2.841,9.409
10.25,2.927,7.323
3.5,3.072,0.428
2.883,2.985,-0.102
7.45,2.827,4.623
6.0,2.896,3.104
13.083,2.848,10.235
4.517,3.132,1.385
2.367,3.054,-0.688
9.05,3.091,5.959
9.333,3.288,6.045
2.467,3.068,-0.602
6.317,2.779,3.538
2.15,2.854,-0.704
-1.0,2.723,-3.723
22.55,2.51,20.04
7.417,3.485,3.932
-1.0,3.398,-4.398
3.583,2.325,1.259
16.483,2.739,13.744
-0.0,3.091,-3.091
9.25,2.779,6.471
16.483,2.967,13.516
-0.25,3.491,-3.741
10.517,2.967,7.549
12.7,3.181,9.519
10.7,3.124,7.576
2.5,3.429,-0.929
-0.0,3.098,-3.098
11.5,2.836,8.664
4.283,2.869,1.414
1.25,2.743,-1.493
15.65,2.744,12.906
1.0,3.189,-2.189
1.25,2.875,-1.625
3.5,2.557,0.943
6.633,2.507,4.126
12.383,2.588,9.795
2.0,3.056,-1.056
1.0,2.745,-1.745
15.45,2.703,12.747
1.25,2.993,-1.743
3.383,2.898,0.486
15.45,2.81,12.64
-0.0,3.43,-3.43
10.55,2.834,7.716
11.55,3.03,8.52
6.0,3.12,2.88
4.483,3.03,1.453
6.517,2.969,3.548
5.75,2.825,2.925
-1.5,2.673,-4.173
6.0,2.457,3.543
22.783,2.469,20.314
0.5,3.305,-2.805
22.783,2.968,19.815
6.5,3.622,2.878
3.0,3.185,-0.185
3.0,3.215,-0.215
4.55,2.839,1.711
3.55,2.618,0.932
10.0,2.633,7.367
10.5,2.843,7.657
-0.0,2.959,-2.959
2.25,2.739,-0.489
7.65,2.562,5.088
10.333,2.688,7.645
4.55,2.889,1.661
2.533,2.719,-0.186
14.617,2.723,11.894
9.0,3.007,5.993
-0.0,3.227,-3.227
9.617,2.931,6.685
1.817,2.804,-0.987
-0.0,2.696,-2.696
6.35,2.535,3.815
5.25,2.478,2.772
1.75,2.496,-0.746
9.317,2.479,6.838
14.117,2.584,11.533
5.717,3.0,2.717
14.117,3.057,11.06
14.117,3.647,10.469
3.0,3.473,-0.473
6.5,3.353,3.147
8.0,3.067,4.933
12.0,3.188,8.812
0.75,3.452,-2.702
0.25,2.969,-2.719
2.0,2.697,-0.697
10.0,2.43,7.57
11.6,2.597,9.003
5.183,3.189,1.994
-0.0,3.033,-3.033
-0.0,2.125,-2.125
2.433,2.451,-0.018
6.5,2.498,4.002
-1.25,1.902,-3.152
-0.5,1.391,-1.891
11.2,1.895,9.305
3.533,1.372,2.161
1.55,1.658,-0.108
-0.25,1.961,-2.211
2.433,1.932,0.501
4.75,2.203,2.547
4.5,2.235,2.265
11.75,2.325,9.425
11.75,3.037,8.713
-0.0,3.684,-3.684
0.25,3.019,-2.769
2.0,2.32,-0.32
-1.0,2.067,-3.067
10.667,1.775,8.892
-0.75,2.976,-3.726
3.25,2.395,0.855
-1.75,1.76,-3.51
-0.25,1.452,-1.702
-0.467,1.273,-1.74
-0.5,1.084,-1.584
10.533,1.518,9.016
-0.0,2.278,-2.278
12.083,2.272,9.811
12.983,3.015,9.968
12.983,3.819,9.165
12.983,4.092,8.891
12.983,4.054,8.929
15.0,4.47,10.53
4.0,4.366,-0.366
6.0,3.719,2.281
10.683,3.535,7.149
10.683,3.834,6.849
-1.0,3.686,-4.686
-0.75,3.351,-4.101
1.75,1.878,-0.128
-1.5,2.263,-3.763
2.25,2.222,0.028
0.75,2.188,-1.438
-2.25,2.173,-4.423
0.75,1.022,-0.272
13.233,1.998,11.235
13.233,2.544,10.69
4.367,3.693,0.674
5.25,3.419,1.831
1.0,3.143,-2.143
-1.0,2.83,-3.83
2.25,1.786,0.464
-0.0,1.922,-1.922
2.25,2.231,0.019
11.017,2.206,8.811
11.017,2.798,8.219
1.483,3.261,-1.777
3.383,2.878,0.505
4.5,2.761,1.739
-1.5,2.656,-4.156
11.75,2.615,9.135
11.75,2.987,8.763
11.75,3.744,8.006
5.0,4.017,0.983
11.75,3.509,8.241
11.75,3.847,7.903
11.75,4.018,7.732
-0.0,4.169,-4.169
1.417,3.534,-2.118
7.75,3.152,4.598
11.15,3.04,8.11
0.517,3.763,-3.247
9.5,3.057,6.443
12.6,3.181,9.419
3.5,3.601,-0.101
4.0,3.342,0.658
1.25,3.033,-1.783
1.5,2.909,-1.409
1.25,1.96,-0.71
1.5,1.917,-0.417
9.45,1.532,7.918
6.383,2.786,3.598
12.0,2.728,9.272
0.5,3.41,-2.91
-0.117,2.893,-3.01
1.5,2.44,-0.94
-0.0,2.477,-2.477
0.5,2.299,-1.799
-2.05,2.198,-4.248
-1.25,0.96,-2.21
2.433,1.4,1.034
2.75,1.883,0.867
0.75,2.11,-1.36
8.75,3.372,5.378
6.567,3.371,3.196
13.367,3.136,10.231
5.0,3.471,1.529
15.483,3.282,12.202
6.0,3.622,2.378
5.0,3.216,1.784
0.683,3.044,-2.361
10.0,2.844,7.156
2.75,2.852,-0.102
-0.0,2.832,-2.832
1.5,1.909,-0.409
0.75,1.702,-0.952
-0.217,1.591,-1.808
1.5,1.178,0.322
1.5,1.449,0.051
1.75,1.82,-0.07
-0.75,1.822,-2.572
23.95,1.812,22.138
-1.267,3.001,-4.267
23.95,2.665,21.285
0.5,3.777,-3.277
-1.267,3.074,-4.34
-1.5,1.935,-3.435
-2.267,2.24,-4.507
-0.25,0.986,-1.236
13.433,1.546,11.887
7.4,2.257,5.143
9.0,2.401,6.599
3.333,2.602,0.731
13.2,2.608,10.592
13.2,3.141,10.059
-2.0,3.565,-5.565
-1.5,2.946,-4.446
-0.0,2.498,-2.498
16.217,2.21,14.007
6.517,2.715,3.802
16.217,2.869,13.347
-0.0,3.37,-3.37
-0.75,2.874,-3.624
-2.0,2.529,-4.529
16.217,2.221,13.995
8.533,2.511,6.023
3.5,2.858,0.642
14.983,2.63,12.353
14.983,3.103,11.881
2.0,3.42,-1.42
0.217,2.999,-2.782
4.75,1.513,3.237
8.25,2.582,5.668
6.75,2.679,4.071
5.367,2.815,2.551
10.633,2.794,7.839
10.633,3.017,7.617
-1.5,3.317,-4.817
0.25,2.829,-2.579
4.0,2.483,1.517
2.0,2.313,-0.313
-0.0,2.254,-2.254
0.75,2.211,-1.461
-0.25,2.077,-2.327
5.55,1.915,3.635
1.25,2.141,-0.891
5.25,2.109,3.141
20.333,2.194,18.14
4.0,2.714,1.286
4.0,2.667,1.333
8.5,2.574,5.926
8.367,2.659,5.708
11.467,2.763,8.704
11.467,2.913,8.553
-0.5,3.134,-3.634
16.4,2.861,13.539
3.25,3.205,0.045
-0.0,2.856,-2.856
14.517,2.481,12.036
3.0,2.648,0.352
2.5,2.611,-0.111
3.0,2.483,0.517
3.0,2.384,0.616
12.233,2.333,9.9
-0.0,2.65,-2.65
9.017,2.705,6.312
-0.917,2.83,-3.746
-0.25,2.658,-2.908
2.6,2.516,0.084
-0.0,2.281,-2.281
-1.25,2.284,-3.534
-1.0,1.049,-2.049
3.25,1.884,1.366
0.25,3.123,-2.873
3.5,2.83,0.67
2.75,2.493,0.257
2.55,2.407,0.143
16.55,2.303,14.247
16.55,2.749,13.801
16.55,3.318,13.232
3.75,4.0,-0.25
2.5,3.314,-0.814
14.05,3.009,11.041
14.05,3.511,10.539
0.983,3.492,-2.509
5.6,3.102,2.498
11.6,2.833,8.767
1.25,3.015,-1.765
-1.0,2.77,-3.77
-1.5,2.443,-3.943
-0.0,2.217,-2.217
-1.7,2.21,-3.91
5.383,1.683,3.7
4.35,1.482,2.868
-0.25,1.338,-1.588
0.5,1.849,-1.349
1.817,1.117,0.699
11.383,2.023,9.361
11.383,2.574,8.809
-1.85,3.123,-4.973
12.45,2.673,9.777
15.533,3.21,12.324
1.317,3.72,-2.404
1.0,3.119,-2.119
9.533,2.807,6.726
13.083,2.921,10.162
-0.75,3.355,-4.105
-0.0,2.925,-2.925
11.35,2.605,8.745
-2.5,2.75,-5.25
-3.367,1.958,-5.325
0.75,1.115,-0.365
14.533,1.099,13.434
5.0,2.359,2.641
2.75,2.429,0.321
2.75,2.333,0.417
1.75,2.3,-0.55
10.817,2.237,8.579
-3.5,2.549,-6.049
-4.417,1.434,-5.851
-2.217,0.726,-2.942
-0.0,0.902,-0.902
14.383,1.186,13.197
-0.75,2.266,-3.016
-1.167,1.284,-2.451
-1.167,1.761,-2.928
2.5,1.347,1.153
4.317,1.757,2.56
1.75,1.862,-0.112
9.5,1.959,7.541
12.5,2.239,10.261
-1.0,2.624,-3.624
-0.0,2.374,-2.374
9.533,2.326,7.207
17.2,2.581,14.619
17.2,3.811,13.389
-0.0,4.449,-4.449
4.067,3.641,0.426
13.533,3.392,10.142
13.533,3.975,9.558
2.0,4.086,-2.086
-0.0,3.587,-3.587
3.75,3.091,0.659
-0.5,2.831,-3.331
0.25,2.331,-2.081
6.55,1.79,4.76
10.083,2.414,7.67
13.383,3.231,10.152
-2.0,3.753,-5.753
2.5,2.751,-0.251
11.35,2.503,8.847
2.35,3.515,-1.165
-0.417,3.006,-3.423
-0.217,2.718,-2.935
0.25,2.032,-1.782
0.25,2.244,-1.994
0.633,1.828,-1.194
0.25,1.159,-0.909
-0.0,1.806,-1.806
0.5,1.86,-1.36
12.467,1.883,10.584
9.433,2.193,7.24
5.3,3.199,2.101
1.75,3.249,-1.499
-0.0,2.64,-2.64
2.25,1.724,0.526
2.433,1.847,0.586
3.5,1.485,2.015
0.25,2.224,-1.974
11.9,2.189,9.711
2.0,2.624,-0.624
-0.267,2.534,-2.8
11.467,1.803,9.664
-1.317,2.748,-4.065
0.5,2.463,-1.963
3.0,2.289,0.711
-3.0,2.27,-5.27
-0.5,1.169,-1.669
-2.0,1.882,-3.882
0.75,0.936,-0.186
1.25,1.279,-0.029
1.5,1.834,-0.334
-0.25,1.648,-1.898
0.967,1.233,-0.266
10.433,1.821,8.612
-1.5,2.33,-3.83
14.533,2.344,12.189
5.0,2.849,2.151
5.5,2.849,2.651
5.5,2.915,2.585
-3.25,3.075,-6.325
-3.5,1.727,-5.227
0.667,0.916,-0.25
0.25,1.163,-0.913
-0.0,1.72,-1.72
2.75,1.266,1.484
2.75,1.959,0.791
14.4,2.122,12.278
3.267,3.011,0.256
1.0,2.768,-1.768
1.75,2.425,-0.675
1.183,2.311,-1.127
-0.25,2.375,-2.625
15.483,2.181,13.302
-0.5,2.754,-3.254
-0.0,1.827,-1.827
2.75,1.699,1.051
15.8,1.452,14.348
14.3,2.762,11.538
1.25,3.271,-2.021
2.0,2.899,-0.899
1.25,2.287,-1.037
0.5,2.448,-1.948
15.883,1.996,13.888
5.5,2.94,2.56
14.217,2.901,11.315
1.5,3.555,-2.055
0.75,3.215,-2.465
-0.017,2.727,-2.743
-0.5,2.316,-2.816
-1.5,1.674,-3.174
1.25,1.858,-0.608
1.5,1.247,0.253
9.533,1.289,8.245
-0.0,2.206,-2.206
0.75,1.428,-0.678
2.0,1.92,0.08
-2.067,1.938,-4.005
6.75,0.909,5.841
3.25,2.137,1.113
14.75,1.442,13.308
14.75,2.881,11.869
4.75,3.654,1.096
-0.5,3.076,-3.576
-1.75,2.693,-4.443
-0.25,0.313,-0.563
-0.483,1.59,-2.073
9.383,0.892,8.491
0.5,2.21,-1.71
0.5,1.981,-1.481
-0.0,1.349,-1.349
17.85,1.925,15.925
17.85,2.766,15.084
1.0,3.263,-2.263
9.167,2.801,6.365
2.0,2.805,-0.805
12.417,2.662,9.754
2.817,3.126,-0.309
2.25,2.809,-0.559
17.7,2.431,15.269
1.75,3.402,-1.652
3.5,2.857,0.643
16.483,2.714,13.77
10.05,2.387,7.663
0.25,2.826,-2.576
-2.0,2.53,-4.53
-1.0,2.23,-3.23
-1.883,0.978,-2.861
-1.0,1.223,-2.223
5.417,0.914,4.502
14.2,1.875,12.325
4.5,2.522,1.978
4.25,2.494,1.756
2.25,2.408,-0.158
7.217,2.333,4.884
1.333,2.45,-1.117
-0.45,2.461,-2.911
1.0,1.724,-0.724
9.267,1.744,7.523
2.75,2.691,0.059
-0.0,2.543,-2.543
-0.0,1.888,-1.888
-0.0,1.826,-1.826
2.533,1.917,0.616
12.233,0.989,11.244
0.717,2.749,-2.032
0.717,2.414,-1.698
0.75,2.343,-1.593
-0.0,2.272,-2.272
0.25,2.198,-1.948
0.75,1.391,-0.641
-1.833,1.568,-3.401
-1.833,0.971,-2.805
3.25,1.23,2.02
11.2,1.255,9.945
-0.0,2.367,-2.367
3.5,2.282,1.218
15.0,2.317,12.683
15.0,3.216,11.784
-2.25,4.261,-6.511
7.283,3.087,4.196
12.95,3.037,9.913
1.75,3.427,-1.677
1.75,2.983,-1.233
11.5,2.767,8.733
17.033,3.442,13.592
-0.0,4.083,-4.083
4.25,3.19,1.06
7.467,2.988,4.479
-0.0,3.229,-3.229
15.317,2.794,12.523
2.25,3.209,-0.959
4.5,3.112,1.388
4.75,3.011,1.739
4.75,2.962,1.788
4.75,2.848,1.902
0.75,2.943,-2.193
10.7,2.597,8.103
-1.5,3.198,-4.698
1.0,2.753,-1.753
2.0,2.259,-0.259
10.7,2.012,8.688
6.0,2.728,3.272
5.0,2.892,2.108
2.6,3.037,-0.437
11.267,2.938,8.329
-1.2,3.418,-4.618
-0.0,2.792,-2.792
4.25,1.985,2.265
12.183,2.031,10.152
8.467,3.028,5.438
2.5,3.599,-1.099
0.25,3.125,-2.875
0.233,2.92,-2.687
3.5,2.301,1.199
4.0,2.399,1.601
2.0,2.505,-0.505
10.617,2.597,8.019
-0.0,3.431,-3.431
1.0,2.721,-1.721
-0.5,2.519,-3.019
-0.0,1.882,-1.882
5.417,1.581,3.836
13.383,2.127,11.256
14.8,3.196,11.604
0.5,4.166,-3.666
12.55,3.053,9.497
6.533,3.448,3.086
-0.25,3.519,-3.769
8.567,2.66,5.907
2.5,3.048,-0.548
2.517,2.865,-0.348
2.75,2.722,0.028
0.25,2.815,-2.565
-0.417,2.528,-2.945
13.5,2.352,11.148
15.517,2.953,12.564
-0.75,3.465,-4.215
6.0,2.978,3.022
5.5,2.928,2.572
7.517,3.019,4.498
18.367,3.044,15.323
6.75,3.927,2.823
6.75,3.903,2.847
8.25,3.728,4.522
10.25,3.689,6.561
4.15,3.66,0.49
9.283,3.434,5.85
11.0,3.611,7.389
17.1,3.689,13.411
12.0,4.184,7.816
-0.0,4.165,-4.165
2.867,3.294,-0.428
3.3,2.949,0.351
2.0,2.729,-0.729
18.0,2.594,15.406
-0.433,3.513,-3.947
14.45,3.064,11.386
5.25,3.607,1.643
14.45,3.137,11.313
-0.0,3.499,-3.499
54.717,2.98,51.737
58.45,7.171,51.279
-0.0,11.981,-11.981
-0.0,4.583,-4.583
13.15,3.886,9.264
13.15,4.156,8.994
13.15,4.185,8.965
13.15,4.318,8.832
5.25,4.132,1.118
6.0,3.793,2.207
13.15,3.272,9.878
13.15,3.725,9.425
13.15,3.921,9.229
19.35,3.972,15.378
20.367,3.971,16.396
20.367,4.436,15.931
-0.0,5.196,-5.196
6.5,3.969,2.531
10.5,3.625,6.875
8.0,3.397,4.603
13.5,3.262,10.238
18.4,3.576,14.824
12.15,4.325,7.825
24.25,4.375,19.875
11.75,4.293,7.457
26.25,4.231,22.019
19.917,4.699,15.218
17.25,4.89,12.36
17.25,4.237,13.013
15.25,4.899,10.351
4.683,4.762,-0.079
4.683,4.031,0.653
3.25,3.714,-0.464
8.817,3.319,5.497
5.0,3.212,1.788
4.75,3.134,1.616
5.0,3.088,1.912
4.75,2.956,1.794
5.5,2.719,2.781
7.533,2.753,4.781
9.617,3.056,6.561
14.017,3.088,10.929
-1.5,3.623,-5.123
6.5,3.056,3.444
-1.5,3.014,-4.514
-1.25,2.657,-3.907
-0.25,2.31,-2.56
1.0,2.175,-1.175
-0.0,2.069,-2.069
-0.0,2.009,-2.009
1.5,1.863,-0.363
-0.25,1.94,-2.19
5.917,1.848,4.069
5.417,2.125,3.292
0.967,2.234,-1.267
18.133,2.227,15.906
0.25,3.16,-2.91
6.5,2.662,3.838
6.0,2.66,3.34
6.75,2.735,4.015
5.0,2.825,2.175
2.25,2.621,-0.371
-5.217,3.518,-8.735
5.183,2.809,2.374
1.717,2.913,-1.196
8.817,2.494,6.323
-2.317,2.99,-5.307
9.183,2.093,7.09
7.033,3.368,3.666
-1.767,3.597,-5.364
7.4,2.849,4.551
4.4,3.226,1.174
11.483,2.962,8.521
0.383,3.859,-3.476
-1.417,3.046,-4.463
-0.767,1.699,-2.466
-0.383,1.744,-2.127
9.683,1.79,7.893
-3.633,2.731,-6.364
3.85,1.904,1.946
-1.8,2.33,-4.13
-1.283,1.78,-3.063
-0.617,2.046,-2.662
0.933,1.319,-0.386
5.917,1.643,4.274
2.25,2.022,0.228
0.1,2.343,-2.243
7.083,2.276,4.807
0.583,2.723,-2.14
2.217,2.47,-0.253
9.983,2.386,7.598
-0.65,3.247,-3.897
11.0,2.758,8.242
-5.483,3.292,-8.776
7.467,2.847,4.62
10.117,2.905,7.211
0.833,3.528,-2.695
1.25,3.122,-1.872
8.733,2.85,5.884
2.133,3.469,-1.336
2.967,3.189,-0.222
11.35,2.919,8.431
8.117,3.629,4.487
10.917,3.763,7.153
9.35,4.115,5.235
8.617,4.437,4.18
-3.867,4.458,-8.324
8.233,3.365,4.868
2.2,3.714,-1.514
3.8,3.097,0.703
6.883,2.828,4.055
0.417,2.967,-2.55
-1.05,2.842,-3.892
7.917,2.317,5.6
0.333,3.111,-2.777
6.467,2.58,3.887
9.067,3.094,5.972
1.467,3.482,-2.015
5.567,3.305,2.262
-1.033,3.164,-4.198
-1.617,3.172,-4.788
-0.833,1.99,-2.823
-0.0,1.594,-1.594
5.45,2.235,3.215
1.6,2.496,-0.896
4.067,2.511,1.556
3.717,2.695,1.022
6.7,2.755,3.945
6.7,3.111,3.589
6.417,3.293,3.124
4.483,3.699,0.785
-0.85,3.654,-4.504
3.4,2.776,0.624
9.783,2.976,6.807
-5.417,3.735,-9.152
8.7,2.822,5.878
-1.433,2.908,-4.342
7.0,2.772,4.228
10.433,3.078,7.356
0.25,3.814,-3.564
9.167,3.241,5.926
3.933,3.622,0.311
4.267,3.522,0.745
4.167,3.487,0.68
11.733,3.425,8.309
-0.0,4.281,-4.281
-0.0,3.424,-3.424
9.233,2.935,6.298
-0.617,3.283,-3.9
4.75,2.665,2.085
12.433,2.793,9.64
0.183,3.721,-3.537
-0.0,3.293,-3.293
13.5,2.654,10.846
13.883,3.329,10.554
4.983,3.856,1.128
18.55,3.86,14.69
13.933,4.587,9.347
-0.0,4.606,-4.606
7.317,3.838,3.479
13.483,4.05,9.433
6.167,4.458,1.708
5.733,4.247,1.486
4.7,3.658,1.042
9.617,3.361,6.255
-3.317,3.803,-7.12
-2.717,3.119,-5.836
2.817,1.802,1.015
2.817,1.923,0.893
15.717,2.252,13.464
-1.233,3.471,-4.704
0.717,2.767,-2.051
1.517,2.48,-0.963
7.467,1.639,5.828
5.917,2.588,3.328
-0.0,2.821,-2.821
-0.5,2.258,-2.758
10.8,1.704,9.096
16.533,2.694,13.839
-0.85,3.615,-4.465
3.1,3.03,0.07
15.583,2.702,12.881
9.017,3.537,5.48
4.333,3.622,0.711
11.617,3.17,8.446
8.433,3.698,4.735
11.033,3.599,7.434
10.733,3.985,6.748
4.567,3.798,0.768
4.017,3.352,0.665
3.733,3.205,0.529
5.067,3.021,2.046
4.117,3.02,1.097
2.0,2.791,-0.791
9.05,2.56,6.49
7.733,2.919,4.814
-0.1,3.208,-3.308
4.367,2.77,1.597
4.3,2.522,1.778
-2.017,2.579,-4.596
12.95,1.956,10.994
5.167,2.939,2.227
7.033,2.93,4.103
19.1,3.108,15.992
17.717,4.107,13.609
0.3,4.075,-3.775
-0.917,3.628,-4.545
4.017,2.839,1.178
4.267,2.82,1.447
11.367,2.733,8.633
12.2,3.344,8.856
2.85,3.549,-0.699
3.833,3.257,0.576
11.867,2.918,8.949
2.517,3.373,-0.856
0.7,2.952,-2.252
0.3,2.768,-2.468
3.667,2.33,1.337
23.233,2.366,20.867
11.283,3.587,7.697
-0.0,3.851,-3.851
-0.0,3.328,-3.328
23.75,2.869,20.881
-0.733,3.72,-4.454
1.517,3.098,-1.581
0.1,2.759,-2.659
0.417,2.454,-2.038
5.267,2.44,2.827
11.25,1.94,9.31
6.4,2.831,3.569
0.8,3.015,-2.215
14.483,2.369,12.115
9.883,3.119,6.764
7.883,3.432,4.452
9.717,3.279,6.438
8.317,3.594,4.723
10.783,3.607,7.176
10.017,3.397,6.619
2.1,3.457,-1.357
5.5,3.13,2.37
8.017,2.928,5.089
5.067,3.179,1.887
2.917,2.846,0.07
5.633,2.599,3.035
4.083,2.605,1.478
3.133,2.567,0.566
7.067,2.594,4.473
12.783,2.826,9.957
15.933,3.384,12.549
9.1,3.719,5.381
17.35,3.621,13.729
3.033,3.721,-0.688
8.25,3.322,4.928
10.117,3.204,6.912
12.75,3.354,9.396
11.183,3.491,7.692
1.183,3.479,-2.296
1.667,3.184,-1.518
4.05,2.813,1.237
4.317,2.689,1.628
2.6,2.613,-0.013
2.183,2.493,-0.31
1.733,2.392,-0.658
0.733,2.394,-1.661
10.367,1.886,8.48
7.25,2.697,4.553
15.717,3.05,12.667
18.317,4.009,14.307
13.25,4.928,8.322
21.25,4.484,16.766
-0.817,4.997,-5.814
22.517,4.311,18.205
1.833,4.87,-3.036
2.333,4.447,-2.114
0.167,3.901,-3.734
20.467,3.222,17.245
15.217,4.594,10.623
19.083,4.629,14.454
1.6,6.23,-4.63
12.817,4.128,8.689
-0.1,4.523,-4.623
9.25,3.699,5.551
9.017,3.854,5.163
2.067,3.832,-1.765
7.3,3.425,3.875
8.467,3.297,5.17
12.983,3.799,9.184
11.533,4.156,7.377
6.6,4.645,1.955
-0.0,4.305,-4.305
-0.0,3.371,-3.371
7.667,2.724,4.943
10.583,3.002,7.581
-0.0,3.864,-3.864
10.1,2.863,7.237
11.083,3.477,7.606
9.667,4.213,5.454
16.7,4.253,12.447
8.95,4.906,4.044
5.417,4.524,0.892
9.433,4.249,5.184
8.117,4.447,3.67
15.75,4.258,11.492
7.967,4.703,3.264
7.083,4.588,2.495
-0.867,4.233,-5.099
4.833,3.271,1.562
4.967,3.194,1.773
7.033,3.07,3.964
9.483,3.386,6.098
13.883,3.734,10.149
13.883,4.271,9.612
12.717,4.484,8.232
11.967,4.544,7.423
13.783,4.485,9.298
13.067,4.597,8.47
3.483,4.377,-0.894
2.033,4.133,-2.1
4.367,3.372,0.995
7.017,3.221,3.795
5.367,3.515,1.851
-2.65,3.36,-6.01
-3.083,2.384,-5.467
6.717,1.745,4.972
6.167,1.859,4.308
6.95,2.58,4.37
8.883,2.759,6.124
-1.683,3.43,-5.113
7.2,2.895,4.305
-1.2,3.158,-4.358
9.883,2.67,7.213
7.883,3.11,4.773
7.017,3.651,3.366
2.283,3.636,-1.353
4.967,3.165,1.801
-0.467,3.172,-3.639
2.5,2.938,-0.438
-0.8,2.675,-3.475
7.683,2.47,5.213
13.233,2.529,10.705
2.667,3.476,-0.809
1.417,3.239,-1.822
10.783,2.814,7.97
3.967,3.34,0.627
5.75,3.177,2.573
11.4,3.284,8.116
11.217,3.65,7.566
10.1,3.995,6.105
5.183,3.905,1.278
10.35,3.635,6.715
2.333,3.651,-1.318
1.883,3.165,-1.281
1.95,2.864,-0.914
1.133,2.63,-1.496
1.0,2.537,-1.537
1.917,2.492,-0.575
2.767,1.888,0.879
-2.967,1.7,-4.666
4.65,1.477,3.173
-2.417,1.578,-3.994
-4.117,1.601,-5.717
5.45,1.369,4.081
10.05,1.579,8.471
1.633,2.835,-1.202
1.933,2.551,-0.617
13.3,2.493,10.807
5.25,3.416,1.834
0.933,3.382,-2.449
1.45,3.034,-1.584
4.317,2.706,1.611
6.183,2.725,3.458
2.0,2.826,-0.826
0.333,2.699,-2.366
10.083,2.495,7.589
8.633,3.084,5.549
0.6,3.319,-2.719
1.433,2.796,-1.363
6.433,2.61,3.823
8.433,2.698,5.735
1.967,3.127,-1.161
1.5,2.788,-1.288
9.933,2.549,7.385
1.667,2.985,-1.318
3.383,2.743,0.641
12.1,2.758,9.342
16.25,3.522,12.728
11.683,4.151,7.532
16.567,4.168,12.399
-1.633,4.406,-6.04
4.583,3.539,1.044
-3.267,3.137,-6.404
-0.817,2.909,-3.726
8.5,1.191,7.309
3.917,2.585,1.332
7.417,2.713,4.703
5.85,3.288,2.562
7.983,3.199,4.784
6.233,3.394,2.839
5.183,3.183,2.0
-3.533,3.252,-6.785
0.217,2.755,-2.538
7.667,2.349,5.318
-2.617,2.545,-5.161
-2.867,1.552,-4.419
9.067,2.206,6.86
1.5,2.377,-0.877
12.367,2.301,10.065
8.183,3.092,5.091
5.9,3.188,2.712
-1.617,3.145,-4.761
12.417,2.824,9.593
2.65,3.182,-0.532
2.717,2.99,-0.274
8.2,2.739,5.461
10.317,3.173,7.144
-0.133,3.463,-3.597
7.617,2.984,4.633
6.6,3.254,3.346
0.933,3.269,-2.335
0.8,2.887,-2.087
1.25,2.738,-1.488
-1.0,2.477,-3.477
5.883,3.902,1.981
10.15,3.485,6.665
6.8,3.637,3.163
6.3,3.452,2.848
5.433,3.232,2.202
8.567,3.123,5.444
4.567,3.191,1.375
14.1,3.097,11.003
8.0,3.567,4.433
9.683,3.613,6.07
17.867,3.538,14.329
2.867,4.167,-1.3
10.267,3.659,6.607
3.883,3.779,0.104
6.767,3.457,3.31
3.45,3.31,0.14
4.033,3.113,0.92
4.883,2.873,2.011
7.617,2.764,4.853
19.717,2.81,16.907
10.55,3.78,6.77
7.617,3.671,3.946
8.617,3.513,5.103
10.317,3.417,6.9
5.567,3.737,1.829
5.633,3.761,1.872
4.15,3.492,0.658
3.483,3.158,0.325
13.167,2.999,10.168
4.617,3.535,1.082
14.417,3.288,11.128
4.917,3.579,1.338
16.633,3.223,13.41
16.283,3.519,12.764
16.083,3.869,12.214
6.85,4.124,2.726
5.85,4.046,1.804
14.85,3.812,11.038
4.85,3.899,0.951
13.15,3.697,9.453
14.65,3.947,10.703
1.617,4.053,-2.436
16.167,3.559,12.607
-3.817,3.876,-7.692
2.167,3.201,-1.034
5.167,2.76,2.406
9.267,2.626,6.641
3.5,3.031,0.469
9.167,2.746,6.421
14.383,3.115,11.269
14.383,3.477,10.906
5.217,3.655,1.561
4.75,3.325,1.425
2.533,2.989,-0.456
-0.7,2.854,-3.554
0.35,2.545,-2.195
5.767,1.718,4.049
10.85,1.805,9.045
30.683,2.871,27.812
4.683,4.375,0.308
-0.4,4.236,-4.636
-0.0,3.314,-3.314
7.667,2.786,4.881
11.65,2.866,8.784
21.283,3.21,18.073
25.75,3.888,21.862
21.75,4.241,17.509
23.75,4.962,18.788
19.4,5.372,14.028
11.8,5.458,6.342
26.183,4.659,21.525
25.783,4.913,20.87
17.567,5.177,12.39
8.75,5.119,3.631
12.017,4.79,7.227
14.167,4.454,9.712
14.65,4.413,10.237
50.45,4.177,46.273
48.383,5.229,43.155
49.45,10.955,38.495
13.467,12.765,0.702
13.35,8.013,5.337
9.45,6.023,3.427
16.883,5.531,11.352
0.567,4.995,-4.429
9.0,4.269,4.731
8.15,3.865,4.285
0.5,3.633,-3.133
8.983,2.971,6.012
-1.717,3.005,-4.721
9.867,3.019,6.848
-0.0,3.45,-3.45
-0.0,2.938,-2.938
8.35,1.791,6.559
-0.0,3.184,-3.184
6.367,2.116,4.25
0.583,2.657,-2.073
2.367,2.138,0.229
6.783,1.978,4.805
2.1,2.058,0.042
-0.883,2.476,-3.359
2.067,2.141,-0.074
6.333,1.813,4.52
-2.0,2.689,-4.689
2.883,1.981,0.902
-1.283,1.655,-2.938
6.467,1.777,4.69
0.333,1.922,-1.589
-4.767,2.31,-7.077
2.033,2.175,-0.142
0.3,1.726,-1.426
5.35,1.911,3.439
1.183,1.308,-0.125
10.717,1.612,9.105
9.017,2.914,6.103
-0.017,3.766,-3.783
-0.0,2.961,-2.961
2.9,2.514,0.386
11.3,1.73,9.57
10.4,2.999,7.401
2.85,3.638,-0.788
0.85,3.211,-2.361
2.917,2.854,0.062
-1.417,1.897,-3.314
-1.933,1.716,-3.649
-1.25,1.918,-3.168
-1.317,0.947,-2.263
-0.0,1.403,-1.403
6.583,0.983,5.6
2.583,1.34,1.243
4.583,1.786,2.797
-0.0,1.451,-1.451
-1.8,1.681,-3.481
-1.0,1.898,-2.898
-1.367,0.942,-2.309
-2.583,1.03,-3.613
8.8,1.046,7.754
-1.983,2.176,-4.159
-4.433,1.372,-5.805
-0.55,1.122,-1.672
-0.0,0.539,-0.539
-1.55,1.478,-3.028
-0.333,1.064,-1.397
-1.283,1.518,-2.802
7.6,0.62,6.98
-0.0,2.162,-2.162
-3.65,2.189,-5.839
4.567,1.901,2.665
0.55,1.562,-1.012
-1.4,2.196,-3.596
-1.733,1.899,-3.632
-0.95,1.934,-2.884
6.167,0.952,5.214
2.433,2.146,0.287
2.35,2.188,0.162
0.6,2.206,-1.606
3.117,2.295,0.822
1.0,2.323,-1.323
3.383,1.778,1.605
2.0,1.784,0.216
-2.75,1.429,-4.179
6.783,1.317,5.466
4.683,2.204,2.479
-1.517,2.262,-3.779
3.35,1.635,1.715
0.283,1.65,-1.366
8.467,1.684,6.782
-2.5,2.59,-5.09
-0.717,2.402,-3.119
7.033,2.242,4.791
1.567,2.385,-0.818
6.45,2.38,4.07
0.25,2.524,-2.274
2.917,2.413,0.504
-2.217,2.339,-4.556
2.183,1.558,0.626
3.233,2.263,0.97
9.45,2.302,7.148
-2.9,2.985,-5.885
6.117,2.394,3.723
3.933,3.305,0.628
6.95,2.99,3.96
5.9,3.073,2.827
10.9,2.958,7.942
5.917,3.569,2.347
15.683,3.414,12.269
-0.083,4.112,-4.195
1.417,3.386,-1.969
0.3,3.013,-2.713
13.3,2.728,10.572
2.967,3.313,-0.346
13.367,2.98,10.386
4.583,3.494,1.089
12.85,3.225,9.625
12.85,3.708,9.142
1.933,3.9,-1.966
2.433,3.353,-0.92
3.65,2.826,0.824
2.5,2.756,-0.256
12.583,2.445,10.138
14.183,3.31,10.873
13.683,3.827,9.856
3.333,4.016,-0.683
3.517,3.368,0.149
-0.0,3.134,-3.134
3.833,1.826,2.008
-0.0,2.258,-2.258
3.033,1.829,1.204
9.317,1.612,7.705
4.733,2.515,2.219
10.833,2.54,8.294
10.8,3.046,7.754
4.183,3.048,1.135
3.683,3.099,0.585
2.017,2.816,-0.799
12.083,2.652,9.432
3.5,3.191,0.309
2.933,2.876,0.057
0.2,2.677,-2.477
0.117,2.505,-2.388
-0.75,1.761,-2.511
-0.117,1.276,-1.392
4.583,1.166,3.417
2.2,1.19,1.01
2.533,1.55,0.984
3.15,2.182,0.968
1.833,1.693,0.14
-0.0,1.386,-1.386
20.25,1.275,18.975
2.75,3.32,-0.57
18.35,2.849,15.501
13.333,3.975,9.358
0.75,4.124,-3.374
-0.0,3.413,-3.413
9.95,2.799,7.151
2.417,2.766,-0.349
10.483,2.657,7.826
10.283,3.103,7.18
10.483,3.548,6.936
11.733,3.662,8.071
-2.067,3.602,-5.669
15.35,3.023,12.327
12.217,3.261,8.956
4.9,3.329,1.571
4.05,3.137,0.913
-0.933,3.021,-3.954
16.817,2.382,14.435
0.317,3.11,-2.794
0.883,2.861,-1.978
5.817,2.53,3.287
-0.0,2.515,-2.515
11.467,1.725,9.742
6.367,2.524,3.842
4.783,2.516,2.267
10.25,2.559,7.691
11.783,3.029,8.755
5.333,3.55,1.783
-0.0,3.08,-3.08
0.25,2.737,-2.487
5.867,2.436,3.43
4.533,2.355,2.179
7.55,2.414,5.136
18.967,2.645,16.322
8.7,3.602,5.098
6.983,3.643,3.34
18.983,3.361,15.623
-0.65,3.805,-4.455
4.0,3.273,0.727
7.0,2.827,4.173
10.033,2.637,7.397
12.817,1.725,11.092
6.1,2.865,3.235
17.117,2.972,14.144
16.517,3.323,13.193
11.65,4.011,7.639
12.967,3.957,9.01
-0.0,3.864,-3.864
-0.0,3.128,-3.128
2.683,2.72,-0.036
5.783,2.653,3.13
5.767,2.51,3.257
3.55,2.578,0.972
12.567,2.458,10.108
4.05,2.96,1.09
14.15,2.861,11.289
5.4,3.476,1.924
14.683,3.202,11.481
12.583,3.414,9.17
6.4,3.845,2.555
4.567,3.432,1.135
5.417,3.13,2.287
-0.05,2.826,-2.876
13.617,2.604,11.013
8.433,3.037,5.396
8.783,3.242,5.541
3.283,3.363,-0.08
5.933,2.933,3.001
10.583,2.828,7.755
11.983,3.106,8.877
4.767,3.234,1.533
19.267,3.196,16.07
9.25,3.814,5.436
6.75,4.003,2.747
6.15,3.632,2.518
6.8,3.331,3.469
8.083,3.115,4.968
6.4,3.092,3.308
4.817,3.0,1.817
6.65,2.803,3.847
3.933,2.838,1.095
5.45,2.742,2.708
9.133,2.811,6.323
1.2,2.957,-1.757
1.317,2.758,-1.441
2.2,2.521,-0.321
10.883,2.281,8.602
3.1,2.616,0.484
17.65,2.56,15.09
3.317,3.219,0.097
15.65,3.007,12.643
16.3,3.854,12.446
13.25,4.311,8.939
5.233,4.598,0.635
1.133,4.191,-3.058
5.433,3.363,2.071
6.167,3.264,2.902
2.0,3.171,-1.171
2.133,2.909,-0.776
9.35,2.72,6.63
-10.95,2.838,-13.788
-1.533,1.972,-3.505
6.25,2.199,4.051
10.55,2.209,8.341
10.633,2.805,7.828
13.383,3.348,10.035
16.717,3.8,12.917
17.95,4.046,13.904
19.017,4.319,14.697
14.467,4.471,9.996
30.9,4.373,26.527
-2.4,4.646,-7.046
-0.55,3.959,-4.509
0.8,3.067,-2.267
-1.2,2.467,-3.667
4.95,2.06,2.89
5.0,2.274,2.726
-0.2,2.325,-2.525
6.983,2.281,4.703
7.183,2.449,4.734
7.4,2.565,4.835
6.9,2.859,4.041
6.75,2.745,4.005
6.15,2.717,3.433
10.583,2.784,7.8
0.567,2.958,-2.391
-0.0,2.77,-2.77
5.433,2.784,2.649
9.233,2.609,6.624
11.283,3.137,8.146
0.65,3.458,-2.808
8.833,4.352,4.482
7.833,3.979,3.854
2.2,3.904,-1.704
14.967,3.322,11.645
11.867,3.822,8.045
14.967,4.04,10.927
1.067,4.127,-3.061
1.917,3.398,-1.481
0.567,2.965,-2.398
-0.0,2.715,-2.715
5.967,1.952,4.015
2.1,2.439,-0.339
4.467,2.317,2.15
7.567,2.181,5.385
2.933,2.521,0.412
3.367,2.486,0.881
7.083,2.325,4.758
3.85,2.454,1.396
3.5,2.445,1.055
0.65,2.372,-1.722
0.65,2.27,-1.62
-0.033,2.216,-2.25
-1.0,2.136,-3.136
0.217,1.943,-1.726
1.45,1.9,-0.45
0.55,1.841,-1.291
7.683,1.956,5.727
-0.0,1.752,-1.752
0.55,1.249,-0.699
-0.0,1.264,-1.264
8.35,0.835,7.515
-0.0,2.283,-2.283
7.117,1.705,5.411
6.067,2.498,3.568
9.0,2.298,6.702
3.85,2.812,1.038
9.5,2.264,7.236
2.517,2.551,-0.034
9.167,2.507,6.66
0.867,2.845,-1.979
-0.0,2.287,-2.287
-0.0,1.942,-1.942
-0.0,1.409,-1.409
-0.0,1.834,-1.834
-0.5,1.926,-2.426
-1.483,1.779,-3.263
7.317,1.49,5.827
0.433,1.542,-1.108
-0.0,1.869,-1.869
7.433,1.771,5.662
2.2,1.594,0.606
0.067,1.844,-1.777
-0.117,1.617,-1.733
-0.4,1.92,-2.32
12.117,1.212,10.905
6.067,2.157,3.91
2.0,2.631,-0.631
10.067,2.549,7.518
0.817,2.981,-2.164
11.067,2.688,8.379
3.25,3.374,-0.124
8.533,3.086,5.447
6.167,3.202,2.965
-0.0,3.07,-3.07
6.9,1.719,5.181
6.217,2.238,3.978
1.217,2.705,-1.489
2.833,2.545,0.289
2.117,2.074,0.043
0.383,1.964,-1.581
11.167,1.128,10.039
0.7,2.541,-1.841
-0.167,1.701,-1.868
13.267,1.912,11.354
12.15,2.161,9.989
4.45,3.706,0.744
3.367,3.11,0.256
3.8,3.018,0.782
3.983,1.727,2.256
2.5,2.373,0.127
8.633,1.907,6.727
7.583,2.576,5.007
7.283,2.69,4.594
-0.933,2.904,-3.837
-1.133,1.913,-3.047
7.167,1.55,5.617
-0.7,2.267,-2.967
2.117,1.358,0.759
-1.617,1.883,-3.499
9.917,1.728,8.189
3.083,1.84,1.243
-3.017,1.282,-4.299
-0.283,1.728,-2.011
-4.333,1.775,-6.108
-0.0,0.686,-0.686
3.483,0.795,2.688
2.317,1.809,0.508
-0.0,0.892,-0.892
1.317,0.943,0.374
6.317,0.919,5.398
3.65,2.092,1.558
1.433,2.187,-0.753
4.333,1.171,3.162
2.233,1.801,0.432
-0.85,1.301,-2.151
9.283,1.888,7.395
-1.3,1.875,-3.175
8.317,1.052,7.264
0.333,1.541,-1.208
4.3,2.191,2.109
3.467,1.881,1.586
5.367,1.945,3.422
10.133,1.994,8.139
12.667,2.849,9.817
6.367,3.3,3.067
2.867,3.191,-0.324
-3.967,3.122,-7.088
3.583,1.768,1.816
-2.067,2.214,-4.28
3.383,1.747,1.637
7.4,1.949,5.451
3.183,1.314,1.869
3.4,1.7,1.7
5.95,1.374,4.576
1.333,2.235,-0.902
3.117,1.937,1.179
8.233,1.605,6.628
7.633,1.661,5.973
1.7,2.379,-0.679
8.4,2.329,6.071
3.3,2.43,0.87
5.917,2.466,3.451
3.5,2.49,1.01
0.283,2.431,-2.147
12.25,1.764,10.486
8.333,2.788,5.545
2.8,2.957,-0.157
6.317,1.814,4.503
-2.3,2.5,-4.8
3.433,1.361,2.073
-3.033,1.911,-4.944
9.25,1.593,7.657
-3.3,1.123,-4.423
-4.583,1.824,-6.407
-0.0,1.649,-1.649
2.117,0.797,1.32
1.15,0.929,0.221
7.317,1.164,6.153
-0.883,1.931,-2.815
6.983,0.55,6.433
5.767,1.459,4.308
1.733,1.886,-0.153
-0.75,1.855,-2.605
-1.067,1.566,-2.633
-2.95,0.328,-3.278
-1.117,0.632,-1.748
-3.283,1.471,-4.755
1.4,0.774,0.626
2.867,0.691,2.176
1.867,1.577,0.29
6.383,1.759,4.625
-0.033,1.074,-1.107
8.133,1.893,6.241
0.2,0.965,-0.765
6.933,1.117,5.816
4.183,1.412,2.771
9.867,1.632,8.235
-3.167,1.627,-4.794
-5.933,1.25,-7.184
-0.5,0.65,-1.15
12.567,0.585,11.982
9.767,2.067,7.699
-1.433,2.312,-3.745
1.083,1.752,-0.668
7.067,1.391,5.676
5.117,1.624,3.493
1.167,1.768,-0.601
1.35,1.823,-0.473
-1.6,1.171,-2.771
1.0,1.864,-0.864
0.183,1.745,-1.562
11.933,1.314,10.619
-2.9,2.313,-5.213
9.017,1.406,7.611
65.383,2.298,63.085
-0.0,8.785,-8.785
-0.0,4.02,-4.02
-1.783,3.216,-4.999
-0.0,1.544,-1.544
-0.0,1.337,-1.337
-0.0,1.805,-1.805
56.0,1.828,54.172
-0.0,4.726,-4.726
-3.467,3.325,-6.791
5.017,1.838,3.179
-1.733,1.762,-3.495
-2.133,1.87,-4.003
9.133,0.905,8.228
-0.6,1.477,-2.077
-5.117,1.333,-6.45
-0.0,1.082,-1.082
0.1,1.547,-1.447
-4.05,1.628,-5.678
0.133,-0.389,0.523
9.367,0.553,8.813
-0.867,1.216,-2.082
0.633,1.434,-0.801
0.7,1.649,-0.949
6.283,1.778,4.505
2.85,1.893,0.957
1.85,1.086,0.764
3.483,1.036,2.448
9.05,1.679,7.371
-0.733,2.211,-2.944
0.083,2.19,-2.106
9.45,2.014,7.436
-0.0,2.212,-2.212
2.067,2.18,-0.113
-2.833,1.145,-3.979
10.167,1.148,9.019
10.983,2.144,8.839
1.45,2.466,-1.016
0.65,2.338,-1.688
-0.133,1.774,-1.907
5.25,1.234,4.016
-0.617,2.082,-2.698
4.083,0.711,3.373
3.9,1.932,1.968
0.133,1.976,-1.843
1.2,1.636,-0.436
0.633,1.257,-0.624
9.15,1.733,7.417
2.867,2.165,0.702
2.75,1.547,1.203
4.617,2.089,2.527
2.133,2.152,-0.019
1.667,1.818,-0.152
-0.417,1.913,-2.329
8.5,1.794,6.706
8.283,2.066,6.218
11.733,2.301,9.433
-0.667,2.614,-3.281
9.833,2.051,7.783
8.75,2.505,6.245
-2.3,2.601,-4.901
9.85,2.333,7.517
-1.2,2.099,-3.299
-0.733,2.221,-2.954
9.717,1.531,8.186
-1.767,1.788,-3.555
13.7,1.817,11.883
-3.067,2.196,-5.263
5.0,1.952,3.048
-0.0,1.516,-1.516
12.617,1.576,11.04
-0.0,2.542,-2.542
12.5,2.322,10.178
6.15,2.873,3.277
-3.083,2.769,-5.852
2.75,2.154,0.596
5.467,2.184,3.283
8.533,2.384,6.149
-0.0,2.686,-2.686
2.733,2.389,0.344
4.517,2.165,2.352
6.517,2.357,4.16
4.717,2.617,2.1
0.117,2.667,-2.551
7.7,2.506,5.194
7.1,2.614,4.486
-1.467,3.302,-4.769
12.317,2.616,9.7
0.033,3.042,-3.009
3.8,2.782,1.018
1.967,2.575,-0.609
1.967,2.394,-0.427
2.483,2.32,0.163
2.133,2.306,-0.172
4.467,2.262,2.205
-1.467,2.287,-3.754
-1.467,2.218,-3.685
9.35,1.185,8.165
1.45,2.293,-0.843
-0.5,2.301,-2.801
2.667,2.225,0.441
1.817,2.211,-0.394
0.433,2.193,-1.759
12.633,1.287,11.347
7.35,2.771,4.579
9.417,3.091,6.325
-0.233,3.532,-3.765
9.333,2.852,6.482
9.217,3.124,6.092
6.533,3.445,3.088
5.45,3.5,1.95
3.083,3.038,0.045
11.75,2.892,8.858
10.9,3.283,7.617
-1.4,3.675,-5.075
8.767,3.042,5.724
0.133,2.99,-2.856
-0.0,2.507,-2.507
-0.233,1.984,-2.218
-0.067,1.708,-1.775
0.833,1.735,-0.901
-0.8,1.917,-2.717
0.067,1.85,-1.783
-0.917,1.712,-2.628
-2.55,1.097,-3.647
12.633,0.808,11.825
12.633,2.258,10.375
-1.483,3.537,-5.02
1.117,2.204,-1.088
0.783,1.872,-1.089
0.683,1.474,-0.79
-2.2,1.198,-3.398
-0.25,1.725,-1.975
15.717,0.939,14.778
-0.367,2.57,-2.936
-2.433,2.279,-4.712
0.583,1.558,-0.975
12.65,1.811,10.839
-0.2,2.507,-2.707
0.5,1.816,-1.316
10.717,1.668,9.049
11.2,2.58,8.62
10.533,3.148,7.385
-2.467,3.247,-5.714
-0.0,2.936,-2.936
-0.783,1.996,-2.779
8.85,1.837,7.013
10.367,2.412,7.955
-5.967,3.019,-8.986
-0.0,1.5,-1.5
3.633,2.078,1.555
-1.283,1.509,-2.792
-0.267,1.112,-1.379
2.433,1.245,1.188
-0.017,1.946,-1.963
0.067,1.7,-1.633
1.95,1.013,0.937
1.267,1.282,-0.015
-1.067,1.315,-2.382
-4.167,0.804,-4.97
13.45,0.751,12.699
1.0,2.088,-1.088
3.083,1.676,1.407
2.917,1.547,1.37
2.9,1.349,1.551
-3.5,2.193,-5.693
14.7,1.016,13.684
0.883,2.683,-1.799
9.417,2.445,6.972
0.867,2.785,-1.919
2.85,2.531,0.319
11.433,2.385,9.049
13.533,2.829,10.705
1.767,3.297,-1.53
16.817,3.103,13.713
3.45,3.818,-0.368
-0.0,1.846,-1.846
1.367,0.903,0.464
-0.933,1.473,-2.406
1.167,1.242,-0.075
-1.35,1.268,-2.618
0.2,1.188,-0.988
0.55,1.466,-0.916
14.783,0.838,13.945
14.783,2.496,12.287
14.833,3.195,11.638
-0.033,3.347,-3.38
7.533,3.057,4.476
11.083,3.046,8.038
2.133,3.256,-1.123
4.167,2.814,1.353
4.367,2.62,1.747
7.417,2.55,4.867
8.467,2.552,5.914
4.317,2.808,1.508
-0.533,2.553,-3.086
-0.617,2.339,-2.955
-0.217,1.309,-1.526
-0.217,1.483,-1.7
1.85,1.819,0.031
2.5,1.47,1.03
-0.5,1.912,-2.412
-0.167,1.87,-2.037
-0.0,1.846,-1.846
-0.6,0.142,-0.742
3.75,1.06,2.69
2.817,1.852,0.964
2.15,1.976,0.174
2.217,1.352,0.864
0.75,2.056,-1.306
7.3,2.02,5.28
3.533,2.21,1.323
11.8,2.238,9.562
-4.25,2.689,-6.939
1.717,2.322,-0.606
1.4,2.217,-0.817
2.233,2.19,0.043
11.867,2.195,9.672
-0.183,2.381,-2.565
14.133,2.399,11.735
15.133,2.896,12.238
16.367,3.408,12.959
-0.667,3.847,-4.514
0.783,3.332,-2.548
1.133,2.831,-1.698
0.583,2.416,-1.833
2.667,1.713,0.953
1.667,2.216,-0.55
2.167,2.209,-0.042
15.1,2.193,12.907
19.05,2.74,16.31
0.4,3.708,-3.308
17.717,3.446,14.271
0.4,4.926,-4.526
11.25,3.049,8.201
6.283,3.866,2.418
5.75,3.511,2.239
15.6,3.633,11.967
0.567,4.473,-3.907
19.667,3.329,16.338
-1.117,4.453,-5.57
16.0,3.45,12.55
-0.167,4.074,-4.24
2.867,3.319,-0.452
-0.25,3.1,-3.35
9.75,2.271,7.479
22.3,3.267,19.033
9.567,4.422,5.144
9.567,4.164,5.403
0.867,4.646,-3.78
4.2,3.458,0.742
1.817,3.282,-1.466
5.367,2.978,2.389
-1.817,3.316,-5.132
8.567,2.654,5.913
-1.85,2.961,-4.811
-1.733,2.37,-4.103
-0.35,1.734,-2.084
-0.983,1.385,-2.368
8.567,1.556,7.011
0.217,2.642,-2.426
5.483,2.273,3.21
8.267,2.627,5.64
-1.533,2.775,-4.309
11.0,2.548,8.452
1.367,3.037,-1.67
9.567,3.914,5.653
-4.333,3.888,-8.221
-4.233,3.202,-7.436
8.567,1.567,7.0
15.217,2.747,12.469
0.817,3.856,-3.04
0.667,3.145,-2.478
13.05,2.887,10.163
12.917,3.295,9.622
12.75,3.829,8.921
-3.1,3.955,-7.055
7.75,3.133,4.617
7.75,3.447,4.303
-0.6,3.534,-4.134
6.533,2.975,3.558
7.633,3.019,4.614
-3.25,3.624,-6.874
14.667,2.833,11.834
-5.233,3.263,-8.497
-6.5,2.988,-9.488
-4.017,1.835,-5.851
12.15,1.062,11.088
-0.15,2.535,-2.685
-3.717,2.279,-5.996
4.983,2.239,2.745
10.567,2.238,8.329
10.917,3.031,7.886
0.45,3.37,-2.92
9.817,2.87,6.947
0.383,3.11,-2.726
9.133,2.77,6.363
-0.0,3.069,-3.069
2.433,2.647,-0.214
1.5,2.484,-0.984
8.25,2.397,5.853
15.6,2.701,12.899
-2.9,3.61,-6.51
4.367,3.187,1.18
13.65,3.014,10.636
4.733,3.494,1.239
4.233,3.359,0.874
5.017,3.308,1.709
8.083,3.303,4.781
3.083,3.379,-0.296
7.467,3.082,4.384
6.3,3.32,2.98
1.233,3.416,-2.182
-1.017,2.811,-3.827
1.417,2.203,-0.786
0.383,2.279,-1.896
16.05,2.101,13.949
15.133,3.024,12.109
13.917,3.943,9.974
4.65,4.122,0.528
9.483,3.482,6.002
11.35,3.55,7.8
1.75,3.972,-2.222
2.017,3.296,-1.279
1.75,2.92,-1.17
3.25,2.601,0.649
2.0,2.578,-0.578
5.617,2.424,3.192
12.283,2.634,9.65
1.567,3.204,-1.637
-0.133,2.997,-3.131
5.5,2.731,2.769
6.6,2.701,3.899
14.933,2.744,12.189
-0.0,3.229,-3.229
-4.933,3.003,-7.936
12.85,2.763,10.087
4.667,3.361,1.306
3.367,3.15,0.217
17.083,3.174,13.91
14.483,4.163,10.32
0.617,4.326,-3.71
3.283,3.266,0.018
1.867,2.97,-1.103
1.733,2.774,-1.041
1.9,2.552,-0.652
11.3,2.426,8.874
4.783,3.071,1.712
0.217,3.058,-2.841
2.667,2.653,0.013
0.65,2.612,-1.962
0.65,2.026,-1.376
11.033,2.32,8.713
5.5,2.767,2.733
3.917,3.054,0.863
4.383,2.835,1.548
9.45,12.75,-3.3
-0.35,7.656,-8.006
24.567,5.405,19.161
50.733,5.77,44.964
18.283,8.14,10.143
-0.917,6.397,-7.314
-2.117,4.686,-6.803
-0.483,3.633,-4.116
-0.383,2.13,-2.513
0.017,1.853,-1.836
3.75,1.662,2.088
2.917,2.256,0.661
19.1,2.246,16.854
2.65,3.113,-0.463
2.167,2.963,-0.797
7.05,2.802,4.248
4.767,2.77,1.997
3.483,2.874,0.609
4.3,2.752,1.548
3.567,2.635,0.932
5.567,2.566,3.001
-1.767,2.604,-4.371
5.45,2.25,3.2
15.833,2.447,13.386
-1.633,3.257,-4.891
15.167,2.79,12.376
0.067,3.331,-3.264
15.35,2.903,12.447
3.317,3.427,-0.11
6.783,3.229,3.555
5.783,3.165,2.618
6.783,3.063,3.721
10.683,3.076,7.607
3.8,3.436,0.364
4.65,3.191,1.459
16.117,2.848,13.268
16.75,3.367,13.383
2.067,3.889,-1.823
4.283,3.386,0.897
7.4,3.136,4.264
9.0,2.984,6.016
8.767,3.124,5.642
4.183,3.427,0.756
-2.983,3.094,-6.077
-3.367,2.673,-6.04
-3.117,2.334,-5.451
4.75,2.121,2.629
11.917,2.193,9.724
13.217,2.372,10.844
1.15,3.145,-1.995
10.95,2.91,8.04
18.183,3.095,15.088
11.333,3.738,7.595
10.433,3.871,6.562
5.717,3.927,1.789
5.883,3.63,2.253
5.767,3.385,2.382
5.8,3.055,2.745
6.083,3.05,3.034
11.883,2.946,8.937
-1.583,3.334,-4.917
8.233,2.765,5.468
8.817,2.905,5.911
6.2,3.087,3.113
7.25,3.145,4.105
-0.1,3.083,-3.183
-4.483,2.651,-7.134
44.633,2.424,42.209
1.483,7.244,-5.76
43.733,3.523,40.21
11.333,10.431,0.902
-0.0,7.414,-7.414
-0.0,4.357,-4.357
-0.0,3.705,-3.705
11.333,3.199,8.134
5.367,3.344,2.022
-0.0,3.069,-3.069
4.883,2.851,2.032
12.667,2.861,9.805
-0.0,3.547,-3.547
-0.0,3.349,-3.349
-0.35,3.077,-3.427
-0.0,2.395,-2.395
2.1,2.128,-0.028
3.2,2.335,0.865
2.7,2.377,0.323
2.05,2.3,-0.25
2.333,2.347,-0.013
-1.3,2.323,-3.623
3.367,2.301,1.066
9.517,2.753,6.764
-1.017,3.517,-4.533
1.367,2.911,-1.545
2.917,2.599,0.318
-1.183,2.557,-3.74
6.317,2.416,3.9
6.283,2.716,3.568
-0.333,3.23,-3.563
7.4,2.822,4.578
8.733,3.132,5.601
6.317,3.662,2.655
9.133,3.814,5.319
9.0,3.875,5.125
1.4,4.217,-2.817
-1.1,3.23,-4.33
2.8,2.923,-0.123
10.483,2.513,7.97
-1.1,3.326,-4.426
-2.767,2.8,-5.567
9.3,1.752,7.548
-0.0,2.842,-2.842
-1.1,2.612,-3.712
3.533,1.967,1.567
10.8,2.421,8.379
0.133,3.758,-3.624
10.067,3.028,7.038
0.683,3.966,-3.283
0.167,3.379,-3.212
0.017,2.858,-2.841
13.783,2.31,11.474
2.867,3.204,-0.338
-0.017,3.009,-3.026
8.433,2.95,5.483
5.3,3.578,1.722
-0.067,3.215,-3.282
0.983,2.591,-1.608
-0.983,2.448,-3.431
4.567,2.172,2.394
0.8,2.274,-1.474
1.267,2.29,-1.023
1.5,2.283,-0.783
13.083,2.267,10.817
1.667,3.296,-1.629
1.567,2.722,-1.156
2.0,2.597,-0.597
9.317,2.581,6.736
2.083,3.082,-0.999
2.017,2.762,-0.745
3.6,2.598,1.002
11.85,2.527,9.323
11.233,3.32,7.914
10.983,3.65,7.334
1.85,4.116,-2.266
6.6,3.601,2.999
-1.217,3.358,-4.574
15.783,3.091,12.693
0.3,3.814,-3.514
-4.083,3.202,-7.285
0.167,2.737,-2.57
12.367,2.055,10.311
10.367,3.122,7.245
16.233,3.726,12.508
1.983,4.136,-2.152
2.467,3.78,-1.314
2.383,3.347,-0.963
-0.333,3.013,-3.347
3.367,2.709,0.658
2.45,2.447,0.003
1.983,2.44,-0.457
16.283,2.404,13.879
4.2,3.48,0.72
15.483,3.303,12.18
15.65,3.772,11.878
10.5,4.113,6.387
8.467,4.142,4.325
0.967,4.102,-3.136
4.417,3.565,0.852
11.683,3.418,8.265
3.15,3.958,-0.808
11.817,3.326,8.491
2.767,3.912,-1.146
2.483,3.487,-1.003
6.6,3.082,3.518
5.5,3.142,2.358
-1.217,3.143,-4.359
3.417,2.826,0.591
8.333,2.641,5.692
9.533,3.156,6.378
8.55,3.491,5.059
8.5,3.627,4.873
8.5,2.77,5.73
1.717,2.907,-1.19
8.1,2.666,5.434
6.417,2.846,3.571
-1.567,3.03,-4.597
22.0,2.915,19.085
18.4,3.839,14.561
20.7,4.28,16.42
-0.0,4.628,-4.628
4.983,3.682,1.301
2.2,3.271,-1.071
-0.0,2.836,-2.836
-0.383,2.563,-2.946
14.117,2.3,11.817
11.567,2.708,8.858
12.117,3.197,8.92
7.7,3.516,4.184
14.317,3.55,10.767
9.433,3.704,5.729
0.933,3.654,-2.72
-0.75,3.121,-3.871
-1.05,2.635,-3.685
15.05,1.369,13.681
-1.167,2.814,-3.981
-2.267,2.601,-4.867
12.217,2.278,9.939
8.217,2.661,5.555
12.983,2.985,9.999
6.75,3.346,3.404
6.5,3.232,3.268
5.8,3.161,2.639
2.333,2.936,-0.603
8.0,2.779,5.221
8.683,2.893,5.791
8.117,3.05,5.067
4.617,3.119,1.497
2.367,3.039,-0.673
2.3,2.698,-0.398
4.8,2.553,2.247
12.717,2.593,10.123
10.45,3.193,7.257
-0.0,3.387,-3.387
2.0,2.893,-0.893
13.833,2.506,11.327
2.8,2.912,-0.112
3.4,2.739,0.661
2.817,2.578,0.238
5.767,2.498,3.269
2.633,2.494,0.14
5.067,2.507,2.559
0.617,2.449,-1.832
0.367,2.339,-1.972
0.2,2.274,-2.074
17.65,2.227,15.423
-0.8,2.927,-3.727
17.533,2.329,15.204
1.867,3.13,-1.263
1.033,2.919,-1.886
11.4,2.65,8.75
11.933,3.035,8.898
5.95,3.267,2.683
-0.8,3.065,-3.865
1.567,2.864,-1.297
-0.35,2.409,-2.759
3.967,2.237,1.73
6.317,2.234,4.083
6.75,2.344,4.406
-0.767,2.478,-3.245
13.033,2.35,10.683
14.617,2.788,11.828
4.0,3.266,0.734
0.133,3.168,-3.035
1.133,2.669,-1.536
-0.567,2.427,-2.994
-0.967,2.292,-3.258
-0.467,2.236,-2.703
-0.933,2.053,-2.986
-1.433,1.914,-3.347
-1.133,1.859,-2.992
-1.767,1.848,-3.615
7.033,1.78,5.254
-2.7,2.069,-4.769
-0.0,1.008,-1.008
7.783,1.313,6.47
-1.0,2.212,-3.212
-0.0,1.892,-1.892
-0.917,1.832,-2.749
0.667,1.924,-1.258
1.983,0.933,1.05
10.983,1.514,9.47
4.617,3.304,1.313
6.633,3.336,3.297
0.233,3.167,-2.934
8.033,2.71,5.323
9.133,2.974,6.159
8.583,3.327,5.257
-0.1,3.511,-3.611
-0.533,2.929,-3.462
-0.0,2.465,-2.465
-0.2,2.411,-2.611
11.083,1.899,9.185
-0.317,2.708,-3.025
0.9,2.088,-1.188
4.283,1.861,2.422
8.433,2.403,6.03
2.733,2.938,-0.204
-2.483,2.908,-5.391
9.567,2.504,7.063
0.783,2.709,-1.925
-2.567,2.527,-5.094
7.883,2.354,5.53
7.0,2.392,4.608
12.4,2.836,9.564
-0.217,3.567,-3.784
2.45,2.958,-0.508
3.9,2.723,1.177
3.4,2.645,0.755
11.033,2.699,8.334
5.567,3.176,2.391
4.983,3.175,1.809
9.467,3.103,6.364
-0.2,3.5,-3.7
8.9,2.829,6.071
8.617,3.321,5.296
-2.533,3.451,-5.985
-1.033,2.059,-3.092
-1.133,2.21,-3.344
0.283,1.648,-1.365
6.333,1.902,4.432
-5.783,1.765,-7.548
-0.2,1.235,-1.435
1.983,1.109,0.874
1.567,1.929,-0.362
8.333,2.102,6.231
3.2,2.457,0.743
1.417,2.45,-1.033
-0.0,2.355,-2.355
11.6,2.244,9.356
12.617,2.896,9.721
9.367,3.226,6.14
2.317,3.406,-1.09
2.8,3.214,-0.414
1.8,2.944,-1.144
12.867,2.629,10.238
14.15,3.183,10.967
13.083,4.003,9.08
7.367,4.164,3.202
5.6,3.864,1.736
12.933,3.51,9.423
7.017,3.68,3.337
11.833,3.718,8.116
10.683,3.921,6.762
10.683,4.038,6.645
6.9,4.109,2.791
4.233,3.834,0.399
-1.117,3.249,-4.366
3.65,2.77,0.88
7.667,2.584,5.082
2.067,2.835,-0.768
16.25,2.703,13.547
0.467,3.486,-3.019
0.233,3.086,-2.852
3.233,1.926,1.307
12.117,2.596,9.521
0.933,3.063,-2.13
-3.35,2.706,-6.056
-1.2,1.644,-2.844
-1.033,1.865,-2.899
0.733,1.016,-0.283
12.517,0.982,11.535
12.3,2.456,9.844
-1.467,3.157,-4.624
12.85,2.691,10.159
-0.5,3.29,-3.79
9.217,2.676,6.541
-3.967,3.041,-7.008
2.917,2.502,0.415
14.233,2.352,11.881
2.433,3.14,-0.707
14.0,2.812,11.188
-1.633,2.236,-3.869
1.017,0.359,0.658
11.867,1.311,10.555
11.733,2.285,9.448
8.083,3.083,5.001
7.95,3.173,4.777
-0.0,3.218,-3.218
-0.7,2.733,-3.433
0.85,2.377,-1.527
-1.717,2.3,-4.016
-1.9,0.854,-2.754
14.133,1.879,12.255
5.617,2.256,3.361
6.05,2.445,3.605
-0.433,2.606,-3.039
3.133,2.441,0.693
1.333,2.421,-1.088
1.833,2.283,-0.45
-0.117,1.762,-1.878
3.0,2.183,0.817
2.3,2.144,0.156
2.417,2.195,0.222
1.483,2.201,-0.718
0.767,2.195,-1.428
-0.383,1.925,-2.309
4.183,1.983,2.2
2.95,2.165,0.785
12.417,2.201,10.216
-3.0,2.638,-5.638
-0.0,1.761,-1.761
-2.183,1.355,-3.539
-0.967,1.65,-2.617
15.233,1.884,13.35
-1.85,2.563,-4.413
-2.3,2.033,-4.333
-3.083,0.54,-3.624
-0.633,0.415,-1.048
11.433,1.699,9.735
-1.5,1.282,-2.782
-2.5,1.595,-4.095
1.817,0.904,0.912
1.467,1.189,0.277
1.233,1.075,0.158
0.783,1.866,-1.082
0.25,1.921,-1.671
-4.55,1.837,-6.387
0.433,1.417,-0.983
0.45,0.521,-0.071
-1.35,1.636,-2.986
-2.183,1.121,-3.305
-2.933,1.403,-4.337
-1.817,-0.076,-1.74
16.1,0.341,15.759
13.467,2.225,11.241
0.567,3.043,-2.476
-1.1,2.59,-3.69
0.35,2.398,-2.048
13.767,2.359,11.407
2.25,2.802,-0.552
1.2,2.561,-1.361
2.017,2.446,-0.429
-0.167,2.298,-2.465
-0.65,2.271,-2.921
19.467,2.157,17.31
17.683,2.546,15.137
5.8,3.531,2.269
5.0,3.164,1.836
3.667,3.06,0.607
-0.0,2.848,-2.848
4.517,2.607,1.909
10.333,2.458,7.875
10.333,3.077,7.257
-2.967,3.508,-6.475
10.317,3.021,7.295
9.533,3.158,6.375
0.75,3.55,-2.8
-2.117,2.986,-5.103
-0.433,2.49,-2.924
1.817,1.591,0.226
0.383,2.278,-1.895
-1.05,1.534,-2.584
-4.367,1.392,-5.759
2.5,0.997,1.503
4.783,1.756,3.028
7.467,2.18,5.287
7.15,2.572,4.578
-0.0,2.906,-2.906
-1.467,2.612,-4.079
7.5,2.432,5.068
3.883,2.485,1.398
14.667,2.11,12.557
-0.5,3.976,-4.476
-0.967,3.069,-4.035
-0.0,2.3,-2.3
-1.0,2.204,-3.204
0.883,1.376,-0.492
2.317,1.719,0.598
3.0,1.712,1.288
-0.0,1.531,-1.531
2.6,1.382,1.218
1.5,2.236,-0.736
1.183,2.207,-1.023
5.433,1.712,3.721
-1.483,1.548,-3.031
-3.217,1.3,-4.516
1.367,0.993,0.374
3.717,1.036,2.681
-4.133,1.176,-5.309
-1.567,1.137,-2.704
2.233,1.019,1.215
3.383,1.866,1.517
11.267,2.051,9.216
3.333,2.93,0.404
2.883,2.58,0.303
2.817,2.526,0.29
2.983,2.513,0.47
11.583,2.452,9.131
10.883,3.345,7.538
13.933,3.633,10.3
-0.5,4.116,-4.616
2.117,3.268,-1.152
12.8,2.739,10.061
1.533,3.795,-2.261
-0.45,3.106,-3.556
-0.467,2.763,-3.229
2.9,1.502,1.398
-2.083,2.262,-4.345
-3.433,1.537,-4.97
0.733,0.969,-0.236
0.033,0.87,-0.837
3.817,0.863,2.954
5.617,2.14,3.477
2.133,2.202,-0.069
-3.317,2.222,-5.539
2.367,2.123,0.243
16.25,2.13,14.12
15.25,2.886,12.364
1.533,3.775,-2.242
2.733,3.157,-0.423
0.983,2.873,-1.889
2.667,2.787,-0.121
-0.3,2.491,-2.791
3.733,2.047,1.686
2.883,2.294,0.589
3.217,1.811,1.405
-0.5,2.31,-2.81
1.283,2.258,-0.974
2.933,1.604,1.329
3.7,1.421,2.279
4.9,2.201,2.699
11.283,1.59,9.693
0.617,2.984,-2.367
0.117,2.659,-2.542
5.233,2.3,2.933
9.9,2.277,7.623
9.65,2.582,7.068
12.05,2.926,9.124
-1.5,3.574,-5.074
11.85,2.789,9.061
-0.017,3.028,-3.044
-4.283,2.748,-7.031
-3.283,1.086,-4.369
2.933,0.778,2.156
2.983,1.855,1.129
-1.183,0.998,-2.181
-0.3,1.181,-1.481
-0.0,0.885,-0.885
12.783,1.898,10.885
12.1,1.983,10.117
-1.05,2.951,-4.001
14.133,1.877,12.256
0.45,3.275,-2.825
2.25,2.848,-0.598
2.167,2.611,-0.444
2.167,2.305,-0.138
1.85,1.684,0.166
19.817,2.009,17.808
-0.417,3.334,-3.751
1.583,2.759,-1.176
20.65,2.611,18.039
14.45,2.217,12.233
6.983,2.91,4.074
13.583,2.842,10.742
2.65,3.223,-0.573
0.383,2.969,-2.585
10.433,2.71,7.723
-0.333,2.883,-3.217
-1.733,2.47,-4.203
-3.967,1.728,-5.695
1.55,1.952,-0.402
0.283,1.172,-0.889
-0.067,1.859,-1.926
-0.0,1.708,-1.708
10.483,1.841,8.642
-0.4,2.223,-2.623
16.25,2.225,14.025
0.483,3.028,-2.545
-1.133,2.623,-3.756
15.067,2.3,12.766
0.8,2.7,-1.9
1.333,2.503,-1.17
1.917,2.349,-0.432
12.117,2.269,9.848
13.083,2.744,10.34
-0.0,3.142,-3.142
11.85,2.753,9.097
-0.283,3.077,-3.36
12.067,2.722,9.345
-0.967,3.079,-4.045
-0.617,2.342,-2.959
-1.85,2.306,-4.156
-3.683,2.132,-5.815
0.467,1.845,-1.378
14.7,1.286,13.414
0.75,2.34,-1.59
1.433,1.798,-0.364
2.367,2.221,0.145
1.75,2.205,-0.455
1.25,2.197,-0.947
-0.117,1.983,-2.1
13.9,1.996,11.904
4.267,2.413,1.854
14.0,2.456,11.544
4.183,2.907,1.276
3.533,2.808,0.725
3.3,2.584,0.716
1.3,2.436,-1.136
5.817,2.287,3.53
8.4,2.289,6.111
25.833,2.63,23.204
21.35,5.495,15.855
13.867,5.938,7.929
11.8,4.741,7.059
8.55,5.116,3.434
18.617,4.93,13.687
-0.0,5.241,-5.241
13.75,4.187,9.563
3.5,4.843,-1.343
0.9,4.056,-3.156
-2.217,3.246,-5.463
13.95,2.526,11.424
11.167,3.393,7.773
-0.733,4.0,-4.734
10.783,3.077,7.707
5.467,3.095,2.372
-0.0,2.954,-2.954
7.6,2.692,4.908
11.733,2.792,8.942
-1.867,3.409,-5.276
-0.9,3.082,-3.982
2.55,2.779,-0.229
0.433,2.516,-2.082
1.067,2.37,-1.304
14.483,2.312,12.171
-2.217,3.563,-5.779
-2.817,2.976,-5.793
3.917,2.005,1.912
-2.833,2.273,-5.106
-0.0,1.047,-1.047
13.767,1.689,12.078
13.767,2.75,11.016
-1.35,3.668,-5.018
-1.167,2.943,-4.11
-2.867,2.689,-5.555
-0.25,2.202,-2.452
0.85,0.711,0.139
1.95,1.915,0.035
-3.733,2.207,-5.94
-3.783,0.581,-4.365
3.233,1.845,1.389
1.633,2.527,-0.894
-0.017,1.903,-1.92
10.55,1.771,8.779
10.417,2.785,7.632
-0.0,3.155,-3.155
-1.483,2.725,-4.208
9.733,2.565,7.168
-0.433,2.712,-3.146
-1.583,2.572,-4.155
16.667,1.238,15.429
-0.0,3.491,-3.491
-0.45,2.843,-3.293
1.05,2.662,-1.612
1.95,2.351,-0.401
5.0,1.948,3.052
4.967,2.272,2.695
0.383,2.382,-1.999
1.817,2.301,-0.485
0.4,1.689,-1.289
2.333,1.457,0.877
2.3,2.188,0.112
0.083,2.199,-2.116
17.2,2.175,15.025
-0.133,2.738,-2.871
0.883,2.516,-1.633
4.25,2.422,1.828
-0.033,2.381,-2.414
2.25,1.969,0.281
13.517,2.372,11.144
-2.133,3.341,-5.474
9.433,1.814,7.62
-0.15,2.78,-2.93
-4.033,2.419,-6.452
8.25,2.159,6.091
-5.467,2.279,-7.746
14.1,0.691,13.409
-0.0,2.576,-2.576
9.25,2.438,6.812
17.15,2.583,14.567
7.85,3.56,4.29
6.767,3.378,3.388
2.717,3.274,-0.557
3.233,3.053,0.18
3.233,2.866,0.367
5.383,2.627,2.757
5.117,2.765,2.352
-0.917,2.733,-3.65
-1.133,2.604,-3.738
-0.733,2.32,-3.053
0.5,0.188,0.312
1.467,2.104,-0.637
3.0,2.101,0.899
-1.783,2.193,-3.977
-0.433,2.104,-2.538
0.567,1.959,-1.392
4.0,1.99,2.01
8.183,2.152,6.031
8.2,2.335,5.865
6.8,2.634,4.166
2.483,2.865,-0.381
0.133,2.673,-2.539
-0.233,2.568,-2.801
-0.017,2.377,-2.393
1.667,2.266,-0.6
0.667,1.353,-0.686
0.233,1.544,-1.311
0.433,1.837,-1.404
-5.867,1.323,-7.19
-2.417,1.163,-3.58
0.983,1.152,-0.169
0.067,1.069,-1.002
0.4,1.459,-1.059
1.967,1.823,0.143
17.2,1.307,15.893
5.667,2.722,2.945
0.3,2.86,-2.56
6.517,2.559,3.958
8.017,2.719,5.297
7.983,3.103,4.881
7.867,3.381,4.486
-0.0,3.223,-3.223
-2.65,2.697,-5.347
-1.15,1.147,-2.297
-2.15,2.217,-4.367
3.383,1.052,2.332
5.117,1.88,3.237
3.55,2.163,1.387
3.233,2.209,1.024
6.05,1.707,4.343
0.467,2.346,-1.88
11.167,2.338,8.829
0.933,2.587,-1.654
3.55,2.433,1.117
3.883,2.327,1.556
-2.617,2.306,-4.923
4.2,0.081,4.119
-1.017,2.213,-3.23
13.083,2.083,11.0
9.617,2.291,7.325
12.7,2.644,10.056
6.25,3.05,3.2
6.483,2.874,3.609
7.3,2.965,4.335
8.167,3.054,5.113
7.067,3.055,4.012
12.983,2.978,10.005
7.7,3.297,4.403
-1.717,3.229,-4.946
0.217,2.772,-2.556
-0.0,2.445,-2.445
-1.5,2.244,-3.744
15.55,2.203,13.347
4.633,2.654,1.979
-0.633,2.638,-3.272
-0.367,2.483,-2.85
-0.433,2.253,-2.686
-0.0,0.548,-0.548
-1.683,1.899,-3.582
-0.3,0.919,-1.219
1.217,1.149,0.067
0.8,1.054,-0.254
0.933,1.793,-0.86
0.6,1.881,-1.281
0.717,1.24,-0.523
1.7,1.606,0.094
15.683,1.931,13.752
22.833,3.226,19.607
0.6,7.347,-6.747
18.667,3.61,15.057
12.6,5.618,6.982
10.55,6.396,4.154
6.467,5.904,0.563
6.85,4.29,2.56
10.683,4.284,6.399
4.4,4.875,-0.475
6.7,3.923,2.777
16.783,3.459,13.325
3.5,6.286,-2.786
13.517,3.724,9.792
7.833,4.367,3.466
-0.0,4.309,-4.309
16.633,3.822,12.812
16.417,4.719,11.698
15.0,4.743,10.257
4.4,5.622,-1.222
13.333,5.006,8.328
11.767,4.41,7.356
8.717,5.286,3.431
10.233,5.105,5.129
6.783,4.283,2.5
-2.0,4.69,-6.69
7.0,3.491,3.509
-2.8,3.608,-6.408
-2.85,3.074,-5.924
-1.75,1.921,-3.671
-0.0,2.178,-2.178
-0.0,2.113,-2.113
3.017,2.26,0.757
-1.083,2.51,-3.593
3.133,1.788,1.345
0.15,1.959,-1.809
-0.0,1.904,-1.904
-0.0,2.244,-2.244
5.933,2.232,3.701
4.9,2.585,2.315
2.05,2.693,-0.643
2.0,2.568,-0.568
2.183,2.544,-0.36
3.2,2.474,0.726
-0.283,2.548,-2.831
-1.15,2.458,-3.608
-0.0,1.982,-1.982
11.7,2.273,9.427
10.5,3.17,7.33
10.2,3.955,6.245
10.2,4.138,6.062
-0.0,4.641,-4.641
0.067,3.695,-3.629
7.667,3.06,4.607
1.433,3.123,-1.69
0.367,2.712,-2.346
1.25,2.639,-1.389
2.9,2.776,0.124
4.1,2.606,1.494
7.583,2.951,4.632
6.133,3.46,2.673
-0.5,3.477,-3.977
6.633,2.892,3.742
0.183,3.17,-2.987
0.633,2.751,-2.118
5.7,2.537,3.163
-0.55,2.674,-3.224
5.033,2.534,2.5
5.033,2.663,2.37
48.417,2.903,45.513
65.683,10.096,55.587
41.283,12.96,28.323
-0.383,13.494,-13.877
44.933,7.731,37.202
34.75,10.405,24.345
21.55,11.583,9.967
7.833,8.054,-0.221
7.667,6.467,1.199
30.533,5.185,25.349
1.483,5.707,-4.224
57.033,4.865,52.169
1.7,11.155,-9.455
5.233,5.711,-0.478
5.583,5.064,0.52
-1.35,4.533,-5.883
-0.883,3.831,-4.715
-1.6,3.168,-4.768
-0.483,2.768,-3.251
17.383,2.505,14.878
16.4,3.853,12.547
3.783,4.226,-0.442
9.067,4.365,4.702
6.883,4.62,2.264
16.983,3.99,12.994
-0.0,4.432,-4.432
-3.167,3.866,-7.033
15.917,3.336,12.581
0.617,3.761,-3.145
-4.217,3.372,-7.588
1.067,2.295,-1.228
-2.65,2.736,-5.386
-1.283,2.358,-3.641
4.433,1.478,2.955
1.017,1.576,-0.559
0.817,2.267,-1.45
-0.783,1.859,-2.642
-0.433,2.306,-2.739
4.6,1.749,2.851
1.9,2.256,-0.356
7.483,2.294,5.189
7.483,2.531,4.952
7.033,3.226,3.808
-0.25,3.346,-3.596
5.483,2.94,2.543
-1.533,2.993,-4.526
7.25,2.756,4.494
-2.833,2.756,-5.59
0.283,2.708,-2.424
0.283,2.549,-2.266
3.383,1.761,1.622
3.767,2.5,1.267
1.45,2.645,-1.195
6.8,2.476,4.324
13.1,3.126,9.974
9.45,3.733,5.717
10.533,4.184,6.349
18.083,4.236,13.847
18.083,4.569,13.514
2.75,5.423,-2.673
1.867,4.642,-2.776
10.25,3.857,6.393
6.617,4.288,2.329
9.167,3.753,5.413
12.967,4.239,8.728
13.35,4.444,8.906
12.283,4.628,7.656
3.3,4.675,-1.375
2.283,4.005,-1.722
3.217,3.427,-0.211
8.933,3.039,5.894
2.2,3.611,-1.411
-2.1,3.249,-5.349
8.083,2.872,5.211
7.067,3.102,3.965
6.033,3.306,2.727
-2.45,1.991,-4.441
2.433,1.827,0.606
0.317,1.417,-1.1
3.0,1.381,1.619
10.567,1.925,8.642
10.45,2.719,7.731
-1.033,3.204,-4.237
19.533,2.79,16.744
11.617,3.614,8.003
9.733,4.193,5.541
4.833,3.944,0.89
14.433,3.758,10.676
-0.067,3.383,-3.45
-2.033,3.28,-5.313
-2.567,2.909,-5.475
-3.933,2.539,-6.473
8.433,2.25,6.183
6.9,2.331,4.569
10.15,2.873,7.277
11.2,3.496,7.704
-3.7,3.788,-7.488
12.667,3.089,9.578
7.933,3.393,4.54
12.517,3.464,9.053
7.05,3.755,3.295
8.8,3.33,5.47
3.55,3.679,-0.129
19.167,3.362,15.805
9.833,3.685,6.149
17.817,4.076,13.74
-4.117,4.185,-8.301
3.767,3.403,0.364
4.25,3.011,1.239
13.217,2.974,10.242
8.55,3.568,4.982
19.483,3.62,15.864
5.083,4.265,0.818
20.433,4.058,16.375
8.117,4.521,3.595
6.467,4.282,2.184
4.583,4.102,0.482
11.233,3.516,7.718
-0.3,3.959,-4.259
14.317,3.359,10.958
13.833,4.453,9.38
7.8,4.743,3.057
7.467,4.304,3.163
6.8,4.072,2.728
8.35,4.28,4.07
9.4,4.121,5.279
7.633,3.953,3.68
7.617,3.721,3.896
3.133,3.731,-0.598
1.35,3.402,-2.052
-2.6,2.989,-5.589
-1.883,2.726,-4.609
-1.067,1.451,-2.518
-0.333,1.376,-1.71
9.383,1.252,8.132
1.283,2.318,-1.035
9.483,2.378,7.105
9.433,2.893,6.54
9.967,3.155,6.811
1.45,3.705,-2.255
11.0,3.162,7.838
10.95,3.398,7.552
12.567,3.72,8.847
4.1,3.557,0.543
14.7,3.585,11.115
3.817,3.796,0.02
14.45,3.667,10.783
-2.917,4.099,-7.016
-3.417,3.114,-6.531
-3.683,2.567,-6.25
14.417,1.319,13.098
-2.433,2.738,-5.171
5.417,2.504,2.913
9.983,2.475,7.508
9.067,2.868,6.199
8.433,3.175,5.259
7.917,3.115,4.801
8.0,3.227,4.773
8.083,3.414,4.669
3.383,3.471,-0.088
10.667,3.212,7.455
3.217,3.232,-0.016
3.05,2.964,0.086
4.05,2.848,1.202
9.7,2.818,6.882
3.683,3.147,0.536
7.183,2.952,4.232
1.5,3.095,-1.595
0.75,2.944,-2.194
13.833,2.667,11.167
-0.0,3.627,-3.627
3.2,2.637,0.563
-0.0,2.781,-2.781
8.267,2.546,5.72
4.133,2.825,1.309
-3.483,2.517,-6.0
4.883,1.226,3.657
9.717,2.033,7.684
1.383,3.128,-1.745
8.517,2.66,5.856
-0.0,3.137,-3.137
1.267,2.047,-0.78
2.233,2.182,0.051
-0.0,2.496,-2.496
2.9,2.248,0.652
6.517,2.233,4.283
0.833,2.31,-1.477
-9.317,2.051,-11.367
-5.95,1.709,-7.659
0.283,0.661,-0.378
9.4,1.024,8.376
3.667,2.303,1.363
0.5,2.493,-1.993
1.0,1.828,-0.828
9.867,1.813,8.054
9.167,2.154,7.013
8.983,3.096,5.887
8.733,3.633,5.1
14.25,3.347,10.903
6.317,4.378,1.938
1.617,4.281,-2.665
1.283,3.523,-2.239
3.767,3.024,0.743
4.267,2.981,1.286
7.717,2.878,4.839
7.717,3.046,4.67
4.867,3.306,1.561
6.8,3.194,3.606
4.95,3.228,1.722
5.717,3.054,2.662
5.333,3.089,2.244
6.367,3.054,3.312
-1.2,3.268,-4.468
7.283,2.599,4.684
-0.0,2.983,-2.983
8.617,2.606,6.011
9.533,2.824,6.709
10.967,3.677,7.29
1.083,4.116,-3.032
-0.817,3.362,-4.179
9.25,2.962,6.288
-0.55,3.245,-3.795
12.35,2.651,9.699
4.667,3.827,0.84
11.467,3.388,8.078
2.617,4.001,-1.385
10.85,3.073,7.777
11.35,3.748,7.602
4.55,3.777,0.773
1.567,3.596,-2.03
2.583,3.262,-0.679
10.433,3.06,7.374
1.85,3.546,-1.696
1.767,3.187,-1.421
1.283,2.802,-1.519
8.917,2.552,6.365
2.017,3.016,-1.0
11.083,2.791,8.292
0.433,3.442,-3.008
0.15,3.095,-2.945
0.95,2.699,-1.749
0.85,2.634,-1.784
3.4,1.967,1.433
8.467,1.813,6.653
-1.983,2.882,-4.865
8.233,1.761,6.472
1.633,2.236,-0.602
7.733,2.133,5.6
6.983,2.579,4.405
4.233,2.88,1.353
0.55,2.728,-2.178
7.417,2.712,4.704
5.367,2.767,2.6
10.767,2.835,7.931
3.183,3.816,-0.633
0.983,3.155,-2.171
4.683,2.586,2.097
-3.783,2.616,-6.399
-4.217,1.69,-5.907
2.483,1.892,0.591
-3.817,1.124,-4.941
8.533,1.192,7.341
7.2,2.195,5.005
-1.167,2.491,-3.657
-0.0,2.012,-2.012
14.6,1.797,12.803
1.3,3.088,-1.788
10.417,2.748,7.669
5.283,3.28,2.003
9.233,3.306,5.927
2.233,3.676,-1.443
2.817,3.03,-0.214
7.617,2.844,4.772
10.283,3.076,7.208
7.0,3.47,3.53
9.0,3.601,5.399
5.3,3.456,1.844
10.483,3.318,7.165
8.75,3.361,5.389
1.0,3.871,-2.871
11.45,3.146,8.304
-1.633,3.436,-5.069
4.6,2.931,1.669
5.617,2.659,2.958
0.4,2.78,-2.38
-0.7,2.492,-3.192
10.933,2.354,8.579
5.45,2.633,2.817
1.867,2.713,-0.846
7.067,2.612,4.455
11.133,2.519,8.614
11.017,3.087,7.93
4.45,3.535,0.915
9.6,3.393,6.207
9.6,3.574,6.026
0.817,3.657,-2.84
10.767,3.103,7.663
7.283,3.447,3.836
9.567,3.271,6.296
1.117,3.463,-2.346
-1.8,2.894,-4.694
12.4,1.028,11.372
2.467,2.954,-0.487
1.75,2.673,-0.923
15.267,2.499,12.767
13.767,3.187,10.579
12.433,3.603,8.831
-0.667,3.639,-4.305
4.4,3.092,1.308
3.25,2.816,0.434
9.0,2.655,6.345
0.433,2.65,-2.216
-4.083,2.607,-6.69
-4.2,0.433,-4.633
-0.717,1.0,-1.716
4.75,1.87,2.88
1.1,2.088,-0.988
6.25,2.149,4.101
14.333,2.305,12.029
2.1,2.835,-0.735
1.383,2.634,-1.251
3.183,2.5,0.683
2.1,2.499,-0.399
12.5,2.421,10.079
2.233,3.185,-0.951
12.217,2.816,9.401
16.033,3.316,12.718
14.6,3.685,10.915
14.6,4.037,10.563
7.05,4.094,2.956
2.4,3.754,-1.354
5.683,3.393,2.29
12.717,2.94,9.777
6.067,3.556,2.511
3.883,3.291,0.592
1.583,3.223,-1.64
0.25,2.89,-2.64
10.567,2.602,7.964
-0.117,2.72,-2.836
12.133,2.526,9.608
-1.85,3.181,-5.031
-0.0,2.688,-2.688
21.7,2.627,19.073
-1.717,3.633,-5.35
-1.65,3.047,-4.697
-0.55,1.718,-2.268
4.0,3.39,0.61
3.567,3.071,0.496
9.983,2.815,7.169
2.35,2.906,-0.556
-1.4,2.701,-4.101
-0.783,2.559,-3.342
4.167,2.247,1.92
1.0,2.237,-1.237
11.35,2.224,9.126
10.7,2.5,8.2
10.7,2.887,7.813
3.667,3.211,0.456
-0.733,3.156,-3.889
5.117,2.67,2.447
1.117,2.51,-1.394
17.183,1.663,15.52
3.167,3.21,-0.043
10.6,2.878,7.722
3.767,3.1,0.666
3.45,2.92,0.53
12.717,2.684,10.033
1.8,3.015,-1.215
5.783,2.778,3.005
11.767,2.703,9.064
6.033,2.933,3.1
3.933,2.959,0.975
4.75,2.831,1.919
13.717,2.631,11.086
1.067,3.093,-2.026
-0.133,2.846,-2.979
0.567,2.469,-1.902
6.933,2.266,4.667
14.583,2.283,12.301
-0.1,2.728,-2.828
0.933,2.601,-1.667
0.783,2.625,-1.842
6.8,1.442,5.358
0.783,2.34,-1.557
0.6,2.182,-1.582
2.017,1.768,0.248
11.733,2.204,9.529
-2.217,2.482,-4.698
-1.967,2.299,-4.265
4.05,2.203,1.847
13.867,2.205,11.662
1.15,2.698,-1.548
6.55,2.532,4.018
10.783,2.658,8.126
8.033,2.927,5.107
0.35,3.283,-2.933
-0.017,2.888,-2.905
3.95,1.978,1.972
1.367,2.695,-1.328
6.6,2.516,4.084
-0.0,2.694,-2.694
14.383,2.461,11.923
14.383,3.286,11.097
4.1,4.129,-0.029
8.6,3.826,4.774
11.433,3.948,7.486
10.133,4.372,5.761
-0.783,4.524,-5.307
8.233,3.477,4.757
6.967,3.773,3.194
8.633,3.79,4.843
-2.85,3.99,-6.84
2.35,2.87,-0.52
-0.0,2.83,-2.83
-4.65,2.603,-7.253
-1.283,2.273,-3.556
8.65,2.113,6.537
-0.983,2.365,-3.349
-2.933,2.329,-5.262
3.383,1.867,1.517
-1.983,1.188,-3.171
0.433,1.49,-1.057
0.15,1.173,-1.023
0.267,1.029,-0.763
-0.0,1.294,-1.294
9.983,1.656,8.328
11.017,2.412,8.604
0.25,3.196,-2.946
0.417,2.708,-2.291
0.55,2.481,-1.931
-1.3,2.412,-3.712
10.7,1.345,9.355
1.083,2.609,-1.526
1.767,2.062,-0.295
-0.067,1.986,-2.052
0.7,1.846,-1.146
-0.333,2.431,-2.764
9.05,2.34,6.71
9.167,2.715,6.452
5.483,3.458,2.026
-1.083,3.276,-4.359
5.833,2.905,2.928
5.667,2.72,2.947
-2.783,2.823,-5.606
6.633,2.644,3.99
4.7,2.521,2.179
-0.333,2.64,-2.973
-1.2,2.551,-3.751
8.25,1.735,6.515
-0.0,2.549,-2.549
6.633,2.584,4.049
-2.95,2.725,-5.675
3.317,2.082,1.234
-1.667,2.348,-4.015
8.383,2.219,6.164
6.517,2.507,4.01
6.5,2.742,3.758
9.133,2.988,6.145
10.167,3.379,6.788
11.217,4.024,7.193
12.017,4.076,7.941
0.65,4.241,-3.591
0.717,3.32,-2.604
7.433,2.926,4.508
7.583,2.832,4.751
-0.783,3.208,-3.992
-0.267,2.779,-3.046
6.117,1.81,4.307
-0.5,2.572,-3.072
2.9,1.954,0.946
8.3,2.293,6.007
5.217,2.657,2.559
4.217,2.926,1.291
7.117,2.806,4.311
9.417,3.24,6.177
-3.233,3.437,-6.67
8.0,2.515,5.485
-0.967,2.922,-3.889
8.6,2.716,5.884
5.5,2.873,2.627
2.917,2.901,0.015
2.783,2.884,-0.1
7.517,2.64,4.876
6.75,3.065,3.685
7.2,3.059,4.141
-1.5,3.419,-4.919
7.0,2.966,4.034
8.05,2.859,5.191
1.883,3.266,-1.383
-3.883,2.889,-6.773
-0.567,1.727,-2.294
6.45,1.957,4.493
0.95,1.58,-0.63
0.667,2.224,-1.558
-0.333,2.192,-2.525
9.933,2.186,7.748
8.217,2.545,5.672
13.3,3.189,10.111
6.683,3.804,2.879
6.767,3.589,3.177
-2.367,3.412,-5.779
6.417,2.881,3.535
6.567,2.706,3.861
3.917,2.827,1.09
10.0,2.759,7.241
4.867,3.271,1.596
10.85,3.085,7.765
5.467,3.42,2.047
3.9,3.225,0.675
11.183,3.148,8.035
1.867,3.414,-1.547
0.867,2.995,-2.128
-0.45,2.759,-3.209
10.167,2.48,7.687
1.617,2.742,-1.126
4.617,2.58,2.037
10.867,2.495,8.371
5.767,3.055,2.712
8.867,3.114,5.753
7.083,3.44,3.643
-5.617,3.43,-9.047
10.583,1.75,8.833
1.1,2.813,-1.713
-0.633,2.439,-3.072
8.817,2.398,6.419
10.8,2.642,8.158
1.9,1.517,0.383
-0.0,1.303,-1.303
-0.25,1.164,-1.414
-0.017,1.336,-1.352
-0.0,1.643,-1.643
-1.583,1.849,-3.432
-1.783,1.737,-3.521
-1.917,0.92,-2.837
-2.667,1.717,-4.384
-2.533,0.959,-3.493
-2.683,1.647,-4.33
-2.55,1.099,-3.649
1.283,0.771,0.512
2.75,1.592,1.158
2.5,1.707,0.793
-2.4,1.351,-3.751
2.65,1.052,1.598
0.65,1.374,-0.724
0.7,1.196,-0.496
1.283,1.197,0.086
4.5,1.317,3.183
2.467,2.12,0.346
1.467,2.18,-0.713
4.4,2.136,2.264
0.85,2.22,-1.37
-3.683,2.216,-5.899
-1.7,2.018,-3.718
3.5,0.522,2.978
3.75,1.457,2.293
0.967,2.124,-1.158
0.217,1.692,-1.475
0.817,1.623,-0.806
-0.9,2.048,-2.948
3.083,1.882,1.201
-0.333,2.027,-2.361
3.683,2.037,1.646
1.567,2.107,-0.541
2.483,2.145,0.338
1.017,2.197,-1.18
-0.1,2.181,-2.281
3.167,2.107,1.06
0.133,2.182,-2.049
-0.0,2.146,-2.146
0.467,2.075,-1.608
-2.7,2.106,-4.806
-0.0,0.179,-0.179
-0.0,1.867,-1.867
-1.9,1.838,-3.738
3.617,1.782,1.835
2.15,1.419,0.731
3.583,1.432,2.152
-3.683,2.096,-5.779
3.0,1.872,1.128
-1.0,2.019,-3.019
-2.517,1.973,-4.49
-2.517,0.025,-2.541
2.633,1.692,0.941
0.533,1.756,-1.222
1.0,0.863,0.137
-0.25,0.973,-1.223
1.033,0.921,0.112
2.0,0.894,1.106
0.467,1.196,-0.73
-1.833,1.746,-3.579
2.167,1.239,0.927
-3.7,1.106,-4.806
-3.817,1.136,-4.953
-0.2,1.087,-1.287
0.383,1.608,-1.225
2.233,1.014,1.22
0.75,1.197,-0.447
1.617,1.242,0.374
4.683,1.81,2.874
0.2,1.574,-1.374
-0.467,1.428,-1.894
-2.65,1.234,-3.884
-0.55,0.99,-1.54
-4.85,1.154,-6.004
1.267,1.135,0.132
-0.0,0.161,-0.161
-0.617,1.367,-1.984
5.25,1.618,3.632
5.117,1.846,3.27
-0.0,1.402,-1.402
-1.267,1.628,-2.895
-0.833,1.275,-2.108
0.15,1.328,-1.178
-0.167,1.009,-1.176
0.95,0.997,-0.047
-0.433,1.302,-1.735
-1.4,1.171,-2.571
0.483,1.8,-1.317
-0.0,1.787,-1.787
-0.333,0.915,-1.249
-1.867,1.687,-3.554
-1.817,1.443,-3.26
-2.45,1.624,-4.074
-1.867,1.571,-3.438
-0.5,0.855,-1.355
-3.25,1.487,-4.737
0.2,1.654,-1.454
-1.133,1.306,-2.44
-1.95,1.732,-3.682
-3.567,1.115,-4.682
0.167,1.253,-1.087
0.217,1.744,-1.527
1.183,1.801,-0.617
-0.317,2.0,-2.316
-0.483,2.023,-2.506
1.417,1.972,-0.555
-1.767,2.128,-3.895
-0.9,1.986,-2.886
3.1,1.959,1.141
0.833,2.126,-1.293
5.0,2.132,2.868
4.05,2.221,1.829
-2.383,2.285,-4.669
-0.0,2.203,-2.203
11.733,2.054,9.679
5.767,2.352,3.415
-0.0,2.564,-2.564
3.85,2.475,1.375
-1.75,2.471,-4.221
-2.483,1.695,-4.179
-1.0,1.321,-2.321
-0.3,1.01,-1.31
-0.783,0.895,-1.678
-2.367,0.855,-3.222
-5.167,0.57,-5.736
-5.95,1.603,-7.553
0.65,0.464,0.186
-4.233,0.829,-5.063
-4.45,0.628,-5.078
-0.267,1.047,-1.314
0.583,-0.138,0.722
-0.1,1.279,-1.379
-0.0,1.231,-1.231
-0.483,1.109,-1.592
-1.733,0.921,-2.654
-1.967,1.618,-3.584
0.867,0.856,0.011
-3.383,1.083,-4.467
0.75,1.574,-0.824
-2.017,0.914,-2.931
-0.0,0.803,-0.803
2.45,1.429,1.021
4.5,1.204,3.296
1.9,1.205,0.695
0.267,2.189,-1.922
-1.1,1.478,-2.578
-0.0,1.816,-1.816
0.85,1.129,-0.279
-0.567,1.189,-1.756
0.383,1.023,-0.64
-1.133,1.474,-2.607
2.517,1.095,1.422
0.25,1.167,-0.917
-0.833,1.411,-2.244
-2.4,0.955,-3.355
0.283,0.996,-0.713
0.317,1.64,-1.324
-0.567,1.105,-1.671
0.633,1.088,-0.454
-1.433,1.632,-3.065
0.517,0.213,0.304
-2.083,1.178,-3.261
-1.25,1.385,-2.635
2.183,1.775,0.408
-0.483,0.968,-1.452
-1.35,1.615,-2.965
-3.083,0.346,-3.429
1.7,0.329,1.371
-5.75,1.134,-6.884
-0.0,0.667,-0.667
-0.067,0.768,-0.835
-0.567,0.85,-1.417
-0.0,1.84,-1.84
-4.1,0.879,-4.979
0.783,0.95,-0.166
0.283,1.114,-0.831
-1.75,1.682,-3.432
-0.4,1.7,-2.1
0.117,0.25,-0.134
-4.5,1.703,-6.203
-5.633,0.799,-6.432
0.25,0.257,-0.007
-1.883,0.854,-2.737
-4.367,1.049,-5.415
-0.317,-0.511,0.194
-3.55,0.433,-3.983
-3.45,1.406,-4.856
-2.983,1.366,-4.349
-0.717,0.766,-1.483
-2.05,0.616,-2.666
-1.633,1.478,-3.111
-3.0,0.821,-3.821
0.783,0.573,0.211
-3.35,0.785,-4.135
-4.067,0.745,-4.812
-0.433,0.899,-1.333
-4.217,0.768,-4.984
-5.167,0.586,-5.752
-3.333,-0.419,-2.915
3.217,0.068,3.149
-6.65,1.658,-8.308
-3.0,0.888,-3.888
1.65,-0.003,1.653
-3.717,0.645,-4.362
-2.75,0.544,-3.294
0.833,0.489,0.345
1.217,0.626,0.591
-0.0,1.544,-1.544
-1.0,1.726,-2.726
