Test,Predictions,difference
1.2,1.581,-0.381
1.333,1.473,-0.14
2.0,1.517,0.483
2.25,1.4,0.85
0.633,1.479,-0.846
-0.667,1.558,-2.225
-0.0,1.434,-1.434
-2.6,1.323,-3.923
1.25,0.983,0.267
-3.167,1.29,-4.457
-1.733,0.756,-2.49
-1.283,0.66,-1.943
-0.967,1.072,-2.039
-2.75,0.859,-3.609
-1.517,1.033,-2.55
-0.0,1.074,-1.074
-1.35,1.164,-2.514
0.5,1.251,-0.751
-1.433,1.009,-2.443
-0.15,1.221,-1.371
-2.533,1.286,-3.82
-0.0,-0.27,0.27
-1.5,1.117,-2.617
-5.05,1.494,-6.544
-1.4,0.841,-2.241
-2.5,1.244,-3.744
-4.067,0.973,-5.04
-0.0,0.685,-0.685
-5.017,0.817,-5.833
-5.15,0.248,-5.398
0.083,0.312,-0.229
-0.0,1.485,-1.485
-1.867,0.599,-2.465
-2.183,1.194,-3.377
-2.2,0.95,-3.15
-0.0,1.646,-1.646
-3.167,1.407,-4.574
1.467,0.415,1.052
-1.983,1.744,-3.727
0.217,0.775,-0.559
-2.6,1.344,-3.944
-0.983,0.887,-1.87
-2.35,1.28,-3.63
-2.867,0.617,-3.484
-0.0,0.478,-0.478
0.5,1.395,-0.895
-1.617,1.687,-3.304
0.067,1.432,-1.366
-2.8,1.244,-4.044
-2.683,1.588,-4.272
0.217,1.025,-0.809
-1.033,1.49,-2.523
-2.6,1.286,-3.886
-1.667,0.896,-2.563
1.0,0.897,0.103
1.55,1.194,0.356
-1.117,1.436,-2.553
-2.467,0.947,-3.414
-1.167,1.054,-2.221
-1.333,0.931,-2.264
1.25,1.357,-0.107
-0.7,0.05,-0.75
-2.583,1.333,-3.917
0.333,1.531,-1.197
-2.067,1.385,-3.452
-1.417,0.958,-2.375
0.633,0.739,-0.106
-2.183,1.377,-3.561
0.6,0.38,0.22
-0.833,1.625,-2.458
-1.117,0.925,-2.042
2.0,0.648,1.352
-2.567,1.553,-4.12
-1.5,1.333,-2.833
-3.617,1.179,-4.795
-5.1,0.758,-5.858
-2.15,0.888,-3.038
-1.133,-0.401,-0.732
-1.967,0.832,-2.799
-1.333,0.808,-2.141
-3.0,1.536,-4.536
-1.5,0.118,-1.618
-0.5,1.096,-1.596
-1.883,1.069,-2.952
-5.767,1.055,-6.821
0.75,1.035,-0.285
-1.5,0.4,-1.9
-1.667,0.923,-2.59
0.6,0.887,-0.287
-0.167,1.393,-1.559
-2.967,1.696,-4.663
-3.483,-0.41,-3.074
1.667,1.127,0.539
-3.483,1.534,-5.017
1.0,0.881,0.119
-0.2,1.468,-1.668
0.517,1.35,-0.833
-0.05,1.423,-1.473
-0.283,1.403,-1.686
-0.0,1.281,-1.281
2.25,1.255,0.995
-0.25,1.469,-1.719
0.683,1.407,-0.724
-1.6,1.538,-3.138
4.25,1.379,2.871
-0.983,1.8,-2.783
1.65,1.557,0.093
0.533,1.817,-1.284
-1.5,0.493,-1.993
0.533,1.49,-0.957
-0.0,1.537,-1.537
-2.033,1.726,-3.759
2.2,-0.491,2.691
-1.5,2.113,-3.613
1.583,0.038,1.545
-0.0,1.776,-1.776
-0.617,1.9,-2.517
1.4,1.088,0.312
-0.05,0.798,-0.848
2.7,1.61,1.09
2.467,1.899,0.568
2.367,1.935,0.432
0.383,2.134,-1.75
0.717,1.975,-1.258
0.717,1.939,-1.222
1.25,1.855,-0.605
-2.783,1.79,-4.573
-0.0,1.512,-1.512
-0.25,1.893,-2.143
-6.45,0.964,-7.414
2.367,1.704,0.663
5.3,1.851,3.449
4.55,2.133,2.417
3.55,2.41,1.14
4.5,2.477,2.023
-0.5,2.444,-2.944
-0.0,2.2,-2.2
3.217,2.252,0.964
3.717,0.379,3.337
0.75,2.424,-1.674
-1.833,2.303,-4.137
-0.833,2.125,-2.959
4.75,2.233,2.517
-1.3,3.084,-4.384
4.45,2.019,2.431
1.067,2.264,-1.197
0.6,2.301,-1.701
2.417,2.171,0.246
4.217,2.142,2.075
4.433,2.278,2.155
1.783,2.34,-0.556
2.117,2.434,-0.318
2.8,2.384,0.416
-1.467,2.423,-3.89
-1.3,1.197,-2.497
-0.75,2.133,-2.883
-0.75,1.996,-2.746
2.633,2.006,0.627
-1.917,2.077,-3.994
-0.067,2.136,-2.202
-2.233,0.319,-2.552
-0.0,1.864,-1.864
1.883,1.866,0.018
0.5,1.906,-1.406
0.467,1.912,-1.445
-0.0,1.892,-1.892
4.117,1.774,2.343
-0.467,1.414,-1.881
4.467,1.884,2.582
-0.567,1.87,-2.437
3.767,1.841,1.926
0.4,2.154,-1.754
-0.433,2.097,-2.531
3.717,2.051,1.665
4.817,1.64,3.177
-1.683,2.289,-3.972
5.0,2.164,2.836
-1.5,2.333,-3.833
2.55,2.131,0.419
2.25,2.162,0.088
0.25,4.783,-4.533
4.0,4.162,-0.162
4.0,3.881,0.119
1.717,3.717,-2.0
0.75,2.984,-2.234
0.483,2.153,-1.67
0.717,2.224,-1.507
2.133,0.484,1.65
-1.517,2.472,-3.989
-1.267,2.28,-3.547
0.7,2.105,-1.405
-3.25,2.288,-5.538
1.8,1.047,0.753
0.5,1.924,-1.424
0.617,2.022,-1.405
-0.25,2.087,-2.337
4.0,1.932,2.068
1.667,2.367,-0.7
0.617,2.279,-1.662
0.117,2.208,-2.092
-0.617,2.147,-2.764
-0.25,2.05,-2.3
2.5,1.983,0.517
1.867,2.168,-0.301
3.25,2.243,1.007
-1.1,2.404,-3.504
3.5,2.144,1.356
2.75,2.297,0.453
-1.983,2.38,-4.363
1.25,2.095,-0.845
3.583,2.154,1.43
2.033,2.57,-0.537
-2.9,1.75,-4.65
4.5,2.074,2.426
-0.0,2.285,-2.285
-2.2,2.382,-4.582
-0.0,0.323,-0.323
-2.633,1.87,-4.503
-0.183,1.75,-1.934
0.933,1.755,-0.822
0.633,1.883,-1.249
-0.133,1.76,-1.893
0.683,1.887,-1.204
1.75,1.803,-0.053
-11.833,2.038,-13.872
3.25,1.456,1.794
9.733,1.858,7.875
0.25,2.808,-2.558
0.167,1.991,-1.825
-1.633,2.194,-3.827
0.533,1.89,-1.357
2.117,1.856,0.26
8.767,1.937,6.83
-2.117,2.702,-4.818
-1.867,2.128,-3.995
-1.683,1.893,-3.576
7.633,1.84,5.793
-1.75,2.147,-3.897
-0.0,1.9,-1.9
-0.0,2.112,-2.112
-0.0,1.843,-1.843
-0.0,1.709,-1.709
7.45,2.034,5.416
10.25,2.218,8.032
7.567,2.782,4.785
6.417,2.994,3.423
6.917,3.352,3.564
8.017,3.473,4.544
3.7,3.931,-0.231
10.5,2.366,8.134
9.533,3.568,5.965
2.833,4.203,-1.37
1.817,3.347,-1.53
1.917,2.465,-0.549
11.75,1.251,10.499
10.0,2.531,7.469
0.8,2.356,-1.556
-0.0,1.478,-1.478
6.5,1.524,4.976
-0.933,1.291,-2.224
-0.783,0.598,-1.381
3.183,1.619,1.564
1.833,2.193,-0.36
7.967,2.304,5.663
8.45,2.796,5.654
-0.0,3.496,-3.496
4.1,2.543,1.557
8.667,2.794,5.873
4.267,3.396,0.871
8.717,3.196,5.521
0.533,1.787,-1.254
0.65,0.687,-0.037
12.9,1.156,11.744
5.45,4.42,1.03
7.133,4.42,2.714
6.8,4.218,2.582
6.3,4.168,2.132
7.25,3.988,3.262
0.133,3.76,-3.627
-1.25,3.435,-4.685
11.617,2.08,9.536
10.917,3.788,7.128
-0.5,4.456,-4.956
-0.7,3.227,-3.927
5.083,2.182,2.901
9.983,3.706,6.278
1.95,4.735,-2.785
-2.667,3.445,-6.112
3.167,1.676,1.491
8.767,2.024,6.742
9.967,3.918,6.049
1.917,4.221,-2.305
1.333,3.755,-2.421
1.217,3.124,-1.907
9.733,1.277,8.456
-1.683,2.652,-4.335
4.367,2.186,2.18
-1.0,1.074,-2.074
4.65,1.75,2.9
-2.6,3.4,-6.0
1.45,2.209,-0.759
3.867,2.315,1.552
4.85,2.582,2.267
7.3,3.156,4.144
5.033,3.769,1.264
8.217,3.231,4.986
1.05,3.747,-2.697
5.783,3.434,2.349
0.417,4.023,-3.607
3.367,2.018,1.349
-0.033,0.563,-0.597
-1.2,1.873,-3.073
-1.333,0.489,-1.823
6.667,2.148,4.519
6.85,2.686,4.164
6.467,2.092,4.375
1.75,1.613,0.137
1.75,1.649,0.101
-1.1,0.69,-1.79
2.567,0.356,2.211
0.267,2.612,-2.345
1.983,2.007,-0.024
0.767,2.467,-1.7
-0.4,2.575,-2.975
-0.25,2.457,-2.707
-0.2,2.105,-2.305
-0.45,2.002,-2.452
-0.0,2.028,-2.028
1.383,1.953,-0.57
-0.133,2.014,-2.147
-0.7,2.028,-2.728
-0.0,1.893,-1.893
-1.4,1.767,-3.167
-1.0,1.3,-2.3
-1.417,0.793,-2.21
1.367,1.553,-0.186
1.233,1.828,-0.594
-0.0,1.895,-1.895
0.6,1.81,-1.21
-0.0,1.79,-1.79
3.033,0.074,2.96
2.833,1.368,1.465
1.683,0.257,1.427
3.5,1.886,1.614
1.967,2.455,-0.488
1.817,2.53,-0.713
-0.717,2.498,-3.214
1.0,0.195,0.805
-0.0,1.34,-1.34
0.183,0.25,-0.067
2.833,0.516,2.318
-1.0,2.33,-3.33
-1.7,2.166,-3.866
1.85,1.903,-0.053
2.5,1.501,0.999
-1.867,1.887,-3.753
-2.25,0.277,-2.527
6.8,1.79,5.01
-2.617,2.286,-4.903
5.3,1.955,3.345
11.75,3.202,8.548
11.433,3.994,7.439
1.967,4.245,-2.278
13.15,3.706,9.444
12.9,4.167,8.733
17.5,4.114,13.386
1.867,4.297,-2.43
0.5,3.587,-3.087
5.733,3.347,2.386
5.25,3.188,2.062
3.0,2.897,0.103
3.567,2.531,1.035
3.4,2.702,0.698
13.3,2.512,10.788
5.117,3.509,1.608
-0.0,2.484,-2.484
12.95,2.013,10.937
3.85,3.21,0.64
4.483,2.848,1.635
3.783,2.634,1.149
10.55,2.21,8.34
12.033,2.9,9.133
9.25,4.176,5.074
10.0,3.949,6.051
8.95,4.134,4.816
16.983,3.836,13.148
16.65,4.377,12.273
12.133,4.015,8.118
12.233,4.079,8.154
5.367,4.573,0.794
12.283,4.088,8.195
12.767,4.071,8.696
15.983,4.171,11.812
7.45,4.323,3.127
9.5,4.07,5.43
8.967,4.106,4.861
8.183,3.94,4.243
11.283,3.896,7.388
23.283,4.069,19.214
27.283,5.177,22.107
6.283,5.974,0.31
16.283,5.066,11.217
28.75,5.122,23.628
26.75,6.333,20.417
25.817,6.358,19.459
28.65,6.161,22.489
12.417,6.175,6.241
11.333,6.311,5.023
-1.6,5.734,-7.334
11.117,6.025,5.091
-0.5,4.006,-4.506
9.667,3.256,6.41
0.75,3.554,-2.804
-1.2,1.826,-3.026
-0.05,2.68,-2.73
3.8,2.266,1.534
20.45,2.86,17.59
25.717,5.218,20.498
2.467,5.052,-2.586
1.717,4.416,-2.7
0.75,1.716,-0.966
2.233,1.784,0.449
31.783,2.605,29.178
30.2,5.47,24.73
4.317,5.606,-1.289
-2.383,4.678,-7.061
0.5,3.228,-2.728
-0.05,2.827,-2.877
-0.133,2.523,-2.657
-0.75,1.422,-2.172
35.083,1.769,33.314
27.583,6.532,21.051
-1.317,5.75,-7.067
1.617,3.198,-1.581
37.3,3.403,33.897
39.75,6.522,33.228
35.517,6.169,29.348
38.917,5.753,33.164
-0.0,5.656,-5.656
10.25,4.041,6.209
10.25,4.736,5.514
-0.333,5.174,-5.507
0.233,5.73,-5.497
-0.567,4.733,-5.3
-4.1,3.821,-7.921
-0.983,3.334,-4.317
-2.733,3.631,-6.365
1.633,2.922,-1.289
1.8,2.285,-0.485
-0.067,2.446,-2.512
0.3,1.501,-1.201
1.567,0.588,0.979
2.6,2.463,0.137
2.6,1.947,0.653
1.25,3.218,-1.968
0.633,2.494,-1.86
-2.617,2.291,-4.908
2.5,1.828,0.672
-1.217,2.249,-3.466
0.5,1.833,-1.333
-2.167,1.893,-4.059
-0.0,1.69,-1.69
1.0,1.819,-0.819
0.95,1.916,-0.966
1.45,1.908,-0.458
-0.25,2.325,-2.575
-0.0,0.231,-0.231
0.05,1.692,-1.642
-1.0,1.983,-2.983
-1.517,1.766,-3.282
-0.017,1.782,-1.798
-0.0,1.771,-1.771
-1.25,1.711,-2.961
-0.0,1.686,-1.686
-3.467,1.606,-5.073
4.15,1.594,2.556
2.5,2.033,0.467
-0.0,2.054,-2.054
-0.0,2.011,-2.011
-0.0,2.077,-2.077
-0.0,0.471,-0.471
3.517,0.615,2.901
6.8,2.139,4.661
-0.0,2.428,-2.428
12.9,2.413,10.487
1.433,3.197,-1.763
1.217,3.114,-1.898
12.417,2.925,9.492
9.45,3.281,6.169
7.517,3.51,4.007
8.3,3.842,4.458
8.45,3.377,5.073
5.183,2.217,2.966
8.1,2.028,6.072
4.317,1.428,2.889
7.0,1.781,5.219
8.1,2.942,5.158
7.283,4.186,3.098
7.983,4.403,3.58
7.8,4.147,3.653
2.35,3.77,-1.42
7.05,3.352,3.698
5.667,4.02,1.647
1.85,2.909,-1.059
1.85,2.528,-0.678
-0.0,2.823,-2.823
4.633,3.172,1.461
-0.633,1.737,-2.37
-1.767,0.596,-2.362
-0.883,0.984,-1.868
-1.067,2.446,-3.513
-2.067,2.354,-4.42
-1.117,-0.023,-1.093
-1.467,1.312,-2.779
-1.933,0.74,-2.674
-2.633,1.797,-4.431
-3.383,1.868,-5.252
-2.367,1.834,-4.201
0.75,1.373,-0.623
-3.35,0.788,-4.138
-0.567,1.165,-1.732
-1.083,1.644,-2.727
-3.067,1.553,-4.62
-0.017,1.351,-1.368
-2.033,0.999,-3.032
-1.55,0.517,-2.067
1.683,0.49,1.193
-2.05,1.592,-3.642
-1.483,2.204,-3.688
2.817,1.489,1.328
3.317,1.947,1.37
2.517,2.19,0.326
8.0,2.279,5.721
5.367,2.719,2.647
0.933,2.877,-1.944
4.95,2.213,2.737
1.667,2.706,-1.039
7.75,2.462,5.288
-2.567,3.127,-5.694
-0.25,1.894,-2.144
-1.5,1.469,-2.969
-0.367,-0.043,-0.324
-1.167,1.456,-2.623
0.517,1.387,-0.87
-0.0,1.642,-1.642
1.633,1.607,0.026
2.133,1.706,0.428
0.167,1.793,-1.627
1.467,1.784,-0.317
-0.45,1.81,-2.26
-1.0,1.718,-2.718
-0.4,1.653,-2.053
3.317,0.681,2.635
-1.6,0.458,-2.058
0.3,1.237,-0.937
0.183,0.256,-0.073
-0.0,1.277,-1.277
-3.417,0.196,-3.613
-4.35,1.276,-5.626
-1.5,1.129,-2.629
1.167,1.366,-0.2
-1.233,1.55,-2.783
3.733,1.545,2.189
-0.2,1.997,-2.197
-1.1,0.952,-2.052
1.3,1.659,-0.359
0.667,1.712,-1.045
2.85,1.74,1.11
-0.25,1.91,-2.16
2.567,1.892,0.675
-1.333,1.861,-3.194
2.7,1.772,0.928
0.9,1.869,-0.969
-4.683,0.832,-5.516
0.683,-0.291,0.975
-2.65,1.65,-4.3
0.417,1.626,-1.209
2.5,0.019,2.481
3.683,0.234,3.449
1.6,1.403,0.197
3.0,0.633,2.367
1.25,1.646,-0.396
2.083,2.351,-0.267
5.717,2.356,3.36
5.967,3.075,2.892
0.217,3.53,-3.313
3.483,3.027,0.456
-0.767,2.094,-2.86
3.083,1.925,1.158
0.283,0.253,0.031
-0.25,2.323,-2.573
2.5,2.196,0.304
-0.083,2.257,-2.341
3.3,2.308,0.992
1.5,3.464,-1.964
-1.267,2.685,-3.951
-0.75,2.159,-2.909
-0.0,2.163,-2.163
5.817,2.044,3.772
3.967,2.346,1.621
6.817,2.139,4.677
6.533,1.504,5.03
6.383,0.517,5.866
-1.25,2.827,-4.077
2.5,1.721,0.779
-1.05,2.75,-3.8
-1.333,2.51,-3.844
2.017,2.06,-0.043
-0.0,2.455,-2.455
-0.85,0.792,-1.642
3.933,1.721,2.212
-1.317,2.465,-3.782
10.083,1.817,8.266
8.95,5.392,3.558
10.2,3.9,6.3
15.0,4.54,10.46
0.483,4.944,-4.461
-0.233,3.88,-4.113
11.5,1.4,10.1
6.25,3.695,2.555
8.433,4.436,3.998
5.3,3.982,1.318
-1.217,3.912,-5.129
3.633,3.491,0.142
16.017,2.453,13.564
0.6,5.087,-4.487
3.5,3.001,0.499
1.5,2.504,-1.004
0.433,2.703,-2.27
2.75,1.779,0.971
3.517,0.864,2.653
-3.567,2.218,-5.785
-0.0,1.883,-1.883
0.75,1.89,-1.14
1.317,1.737,-0.42
0.517,1.458,-0.941
0.417,1.974,-1.557
0.3,1.784,-1.484
0.267,1.718,-1.452
-3.767,0.033,-3.8
-4.25,0.053,-4.303
-0.0,1.344,-1.344
-0.0,1.387,-1.387
5.367,0.762,4.605
-1.25,1.281,-2.531
-2.367,1.412,-3.778
0.583,1.679,-1.095
-0.0,1.748,-1.748
-1.883,1.625,-3.508
-2.183,1.35,-3.533
0.083,1.16,-1.077
0.833,1.343,-0.509
-0.0,1.455,-1.455
1.1,1.762,-0.662
-1.0,1.366,-2.366
-0.5,0.353,-0.853
-2.017,1.679,-3.695
-0.0,1.555,-1.555
-0.0,1.892,-1.892
-1.083,1.35,-2.433
-1.533,1.75,-3.283
-0.117,1.525,-1.642
0.783,1.511,-0.728
-0.0,1.649,-1.649
0.183,1.725,-1.542
-0.633,0.255,-0.888
0.633,1.606,-0.972
1.717,1.671,0.045
-3.1,1.793,-4.893
0.167,1.74,-1.573
3.75,0.812,2.938
2.5,2.078,0.422
1.2,2.208,-1.008
0.333,2.242,-1.909
-0.0,1.942,-1.942
1.95,2.166,-0.216
1.65,1.276,0.374
2.183,2.32,-0.136
1.167,2.33,-1.164
-0.417,2.393,-2.81
1.05,2.202,-1.152
0.5,2.045,-1.545
0.317,2.025,-1.708
0.183,1.213,-1.029
-0.383,2.041,-2.425
0.267,1.789,-1.523
0.25,1.884,-1.634
0.167,1.874,-1.707
-0.183,1.713,-1.896
2.233,1.705,0.529
-1.033,2.349,-3.383
-3.167,1.746,-4.913
-0.067,1.432,-1.498
-5.667,1.463,-7.129
4.25,1.352,2.898
2.0,0.064,1.936
-0.8,1.304,-2.104
5.017,1.908,3.108
5.267,2.056,3.211
3.8,0.386,3.414
-2.2,0.666,-2.866
-0.0,-0.073,0.073
1.0,1.301,-0.301
-2.7,2.028,-4.728
3.55,1.653,1.897
0.35,1.957,-1.607
1.5,1.847,-0.347
0.317,2.094,-1.777
3.217,0.201,3.016
-0.217,0.48,-0.696
0.983,0.005,0.978
1.35,2.156,-0.806
0.133,2.303,-2.169
0.9,0.606,0.294
0.467,1.949,-1.482
1.617,2.004,-0.387
4.55,1.955,2.595
5.9,1.402,4.498
-1.833,2.34,-4.173
7.5,2.115,5.385
-0.5,1.556,-2.056
-0.567,1.548,-2.115
-0.0,1.493,-1.493
7.417,1.466,5.951
1.933,2.172,-0.239
1.383,2.089,-0.706
0.433,0.517,-0.084
-0.0,1.679,-1.679
-0.0,0.614,-0.614
1.45,1.755,-0.305
-0.317,1.939,-2.255
-3.033,-0.283,-2.751
-0.0,0.432,-0.432
0.917,1.488,-0.571
0.783,1.574,-0.791
0.067,1.637,-1.57
-0.533,1.553,-2.086
1.75,1.551,0.199
1.033,1.663,-0.63
2.7,1.757,0.943
-2.867,0.793,-3.66
2.5,0.515,1.985
-1.75,2.02,-3.77
-2.183,-0.177,-2.006
-0.0,1.493,-1.493
3.233,1.749,1.485
-0.45,0.116,-0.566
0.75,1.991,-1.241
-0.533,2.008,-2.541
0.233,1.81,-1.577
1.0,1.711,-0.711
-1.133,1.865,-2.998
-1.883,0.395,-2.278
-2.283,1.443,-3.727
0.167,1.408,-1.242
-0.0,1.515,-1.515
0.65,1.552,-0.902
0.25,1.602,-1.352
-0.0,1.544,-1.544
-4.067,1.488,-5.555
-0.617,1.153,-1.77
0.5,1.692,-1.192
-0.583,1.404,-1.988
0.5,1.661,-1.161
-0.167,1.63,-1.797
-1.883,1.777,-3.66
0.967,0.044,0.923
-0.0,1.897,-1.897
-0.267,1.669,-1.936
2.367,1.648,0.719
4.417,1.82,2.597
4.95,2.123,2.827
3.233,1.747,1.486
9.017,0.996,8.021
2.083,0.564,1.519
-0.85,2.336,-3.186
-0.033,2.145,-2.178
10.5,1.998,8.502
1.533,4.104,-2.571
-2.2,3.185,-5.385
-0.0,0.867,-0.867
10.033,1.32,8.714
14.1,3.733,10.367
1.0,3.934,-2.934
1.45,3.429,-1.979
11.4,3.177,8.223
-0.0,3.872,-3.872
3.1,2.225,0.875
2.217,2.505,-0.288
-0.183,3.196,-3.38
3.967,3.121,0.846
-1.0,2.947,-3.947
2.283,1.199,1.085
0.45,2.461,-2.011
-3.617,2.467,-6.084
3.667,2.117,1.55
-4.917,2.501,-7.417
1.0,-0.14,1.14
5.117,1.886,3.23
4.75,2.274,2.476
4.5,2.487,2.013
-1.433,2.746,-4.179
4.9,2.372,2.528
1.383,2.539,-1.156
4.017,2.432,1.584
0.75,2.59,-1.84
0.5,2.676,-2.176
5.0,2.903,2.097
1.433,2.848,-1.415
-0.633,2.285,-2.918
1.783,1.576,0.207
-0.983,2.377,-3.36
-2.55,2.277,-4.827
-3.1,2.188,-5.288
-0.0,1.92,-1.92
-4.017,2.013,-6.03
-0.0,0.395,-0.395
-0.567,1.872,-2.439
-1.333,2.156,-3.489
-0.133,0.349,-0.483
-0.817,1.88,-2.696
0.833,1.971,-1.137
1.283,2.036,-0.752
-1.25,2.109,-3.359
-0.017,2.235,-2.252
-1.3,0.86,-2.16
0.5,1.931,-1.431
1.0,1.917,-0.917
-0.5,2.036,-2.536
-0.783,1.967,-2.75
3.667,1.944,1.723
1.5,2.159,-0.659
0.667,1.736,-1.069
2.133,0.389,1.745
5.3,2.484,2.816
4.55,2.697,1.853
0.333,2.85,-2.516
-1.017,2.422,-3.438
2.55,2.318,0.232
0.25,2.164,-1.914
3.233,2.104,1.129
-0.0,2.416,-2.416
1.4,1.996,-0.596
1.583,2.079,-0.496
0.25,2.077,-1.827
-3.65,2.038,-5.688
-0.317,1.938,-2.255
-1.817,2.167,-3.984
-4.533,1.471,-6.004
0.533,1.335,-0.802
-0.0,1.817,-1.817
1.45,1.916,-0.466
-1.383,1.997,-3.38
-3.117,1.82,-4.936
-3.417,1.67,-5.087
0.533,1.606,-1.073
-3.783,1.905,-5.688
-1.25,1.654,-2.904
1.2,1.667,-0.467
-2.383,1.732,-4.115
-1.15,1.08,-2.23
-0.0,1.691,-1.691
2.0,1.893,0.107
-2.133,0.992,-3.125
-0.0,1.737,-1.737
2.083,1.847,0.237
-1.183,2.228,-3.411
1.0,0.057,0.943
0.25,1.843,-1.593
-3.267,1.839,-5.106
1.333,1.725,-0.392
1.25,1.977,-0.727
-0.933,0.045,-0.979
-2.433,1.806,-4.239
-0.0,1.894,-1.894
-2.017,2.234,-4.25
-1.633,1.068,-2.701
-2.9,1.659,-4.559
0.483,1.639,-1.156
-1.533,1.908,-3.441
-0.483,0.309,-0.793
0.167,1.67,-1.503
-1.6,1.796,-3.396
-0.25,1.633,-1.883
-0.533,1.664,-2.197
-0.167,1.742,-1.909
1.067,1.791,-0.724
-0.983,1.829,-2.813
-4.75,1.87,-6.62
-3.467,1.672,-5.139
0.483,1.62,-1.137
-2.067,1.651,-3.718
-2.133,1.857,-3.99
-0.633,1.788,-2.422
-0.217,1.79,-2.006
-2.1,1.671,-3.771
-2.833,2.009,-4.842
-2.783,0.794,-3.577
1.167,1.664,-0.497
-0.883,1.872,-2.755
2.25,2.438,-0.188
5.65,2.451,3.199
5.267,2.956,2.311
3.85,2.923,0.927
-2.717,2.89,-5.607
-0.8,2.285,-3.085
2.983,2.203,0.78
1.983,2.22,-0.236
2.233,2.332,-0.099
0.617,2.258,-1.642
2.117,2.288,-0.172
-3.467,2.388,-5.854
7.25,1.736,5.514
1.7,1.462,0.238
0.567,0.605,-0.038
1.8,1.681,0.119
6.683,2.158,4.526
-2.85,4.433,-7.283
5.0,2.513,2.487
-1.4,2.738,-4.138
3.817,1.63,2.186
3.667,1.764,1.903
1.167,2.395,-1.229
1.85,2.437,-0.587
0.233,2.697,-2.464
3.25,1.824,1.426
-1.367,1.09,-2.457
-0.0,1.922,-1.922
0.017,2.209,-2.192
-0.85,2.136,-2.986
1.417,2.039,-0.623
0.933,1.797,-0.864
0.267,1.727,-1.461
0.033,0.915,-0.882
0.883,0.207,0.676
-0.0,0.596,-0.596
-1.117,0.286,-1.403
-1.85,1.884,-3.734
-1.6,1.775,-3.375
-0.0,1.728,-1.728
0.683,0.598,0.085
-0.583,1.666,-2.249
1.417,0.727,0.69
-0.0,1.93,-1.93
-1.167,1.897,-3.063
2.25,1.834,0.416
0.25,1.936,-1.686
-0.183,1.915,-2.099
0.383,1.829,-1.446
1.383,1.848,-0.465
-0.0,1.917,-1.917
-2.183,1.903,-4.087
0.417,1.906,-1.489
-0.333,1.808,-2.141
3.917,1.844,2.072
-1.55,2.183,-3.733
1.15,0.279,0.871
-2.033,1.974,-4.008
-0.0,1.82,-1.82
0.8,1.891,-1.091
-0.0,1.912,-1.912
-0.033,1.897,-1.93
0.05,0.905,-0.855
3.783,1.94,1.844
-0.0,2.171,-2.171
-0.1,2.08,-2.18
-0.85,1.973,-2.823
0.167,1.922,-1.755
1.75,1.85,-0.1
-2.233,1.962,-4.195
3.0,1.938,1.062
-0.283,0.942,-1.225
-1.5,2.181,-3.681
3.5,0.566,2.934
4.5,2.204,2.296
-1.7,2.421,-4.121
-4.367,2.169,-6.535
-0.5,2.095,-2.595
-2.467,1.201,-3.668
-0.5,1.042,-1.542
-0.5,1.77,-2.27
0.4,1.877,-1.477
-1.35,1.753,-3.103
0.417,1.683,-1.267
0.267,1.763,-1.497
1.233,1.788,-0.554
-0.0,1.917,-1.917
0.033,1.789,-1.755
0.833,1.803,-0.97
0.8,1.917,-1.117
-1.833,2.924,-4.757
0.533,0.125,0.408
1.883,0.572,1.312
-0.283,2.955,-3.238
2.25,0.828,1.422
0.55,2.591,-2.041
0.433,2.258,-1.825
0.683,2.225,-1.542
-0.3,2.482,-2.782
-0.25,2.094,-2.344
-0.483,1.995,-2.478
-1.05,1.955,-3.005
-0.133,1.822,-1.956
2.117,2.117,-0.0
-2.883,0.469,-3.353
3.167,0.378,2.789
2.3,2.468,-0.168
3.133,2.316,0.817
-0.483,2.557,-3.04
4.5,0.673,3.827
3.167,2.38,0.786
-1.25,2.926,-4.176
-3.783,2.451,-6.235
-1.467,2.384,-3.851
-0.5,1.383,-1.883
-1.867,2.011,-3.878
-0.967,1.863,-2.83
3.517,1.781,1.735
-0.0,2.305,-2.305
-0.0,1.778,-1.778
-1.8,1.686,-3.486
-0.0,1.703,-1.703
-2.683,1.845,-4.529
-1.683,1.633,-3.316
-2.833,1.482,-4.316
-2.2,1.386,-3.586
-2.05,1.484,-3.534
-2.25,1.423,-3.673
-2.467,1.479,-3.946
-2.367,1.406,-3.772
-1.567,1.375,-2.941
-0.0,1.352,-1.352
-2.9,1.516,-4.416
-3.333,1.285,-4.619
0.55,1.422,-0.872
-1.533,1.505,-3.038
-1.167,1.319,-2.485
2.983,1.499,1.485
2.533,1.801,0.733
-0.0,2.128,-2.128
3.6,1.929,1.671
0.65,2.242,-1.592
0.783,2.087,-1.304
0.817,1.935,-1.119
1.367,1.963,-0.596
-0.717,2.032,-2.749
-1.25,0.813,-2.063
1.533,1.904,-0.371
1.167,2.043,-0.876
-2.0,1.668,-3.668
-0.85,1.714,-2.564
-0.433,1.689,-2.122
1.6,1.868,-0.268
2.2,1.399,0.801
2.033,0.186,1.847
-0.5,2.082,-2.582
-1.167,2.024,-3.19
-1.0,1.899,-2.899
-5.667,1.677,-7.344
0.417,1.141,-0.725
-3.317,1.56,-4.876
-0.0,1.052,-1.052
-0.1,1.842,-1.942
-1.1,1.691,-2.791
0.25,1.545,-1.295
0.25,1.573,-1.323
-0.533,1.567,-2.1
-3.633,1.55,-5.183
-0.217,1.461,-1.678
0.067,0.453,-0.386
0.067,1.429,-1.362
-1.4,1.443,-2.843
-0.0,1.575,-1.575
1.8,1.594,0.206
3.25,1.747,1.503
-0.25,0.434,-0.684
-0.367,1.713,-2.079
-0.883,1.655,-2.538
-4.8,1.477,-6.277
0.867,1.197,-0.33
-1.0,2.394,-3.394
-0.0,2.289,-2.289
3.45,2.025,1.425
7.867,1.928,5.939
2.183,3.189,-1.005
16.833,2.319,14.514
0.217,4.219,-4.003
9.483,3.158,6.325
-0.0,3.435,-3.435
-0.0,2.348,-2.348
3.25,0.648,2.602
-0.0,2.467,-2.467
-1.533,1.237,-2.77
-0.0,1.826,-1.826
0.25,2.101,-1.851
-2.717,1.955,-4.672
-6.783,1.961,-8.745
5.383,1.582,3.801
-0.0,0.372,-0.372
-0.583,0.381,-0.964
-2.15,0.389,-2.539
-1.833,2.219,-4.052
-0.0,1.846,-1.846
0.467,1.779,-1.313
-5.567,1.865,-7.432
-5.067,1.876,-6.942
-1.5,1.518,-3.018
-0.0,0.789,-0.789
-3.783,1.666,-5.449
-6.133,1.391,-7.524
5.283,1.233,4.05
12.467,0.704,11.763
2.183,0.423,1.76
-1.283,2.147,-3.43
-2.717,2.321,-5.038
9.35,0.072,9.278
9.85,4.095,5.755
-1.633,3.816,-5.449
-2.383,3.315,-5.698
-0.5,2.165,-2.665
11.7,2.319,9.381
7.6,2.996,4.604
13.25,1.955,11.295
7.717,1.754,5.962
-0.583,4.074,-4.657
-3.5,1.775,-5.275
12.267,1.952,10.315
6.583,3.72,2.863
10.3,3.124,7.176
7.767,3.453,4.314
10.983,3.835,7.148
-0.5,4.046,-4.546
-0.0,3.747,-3.747
-0.5,3.63,-4.13
14.6,3.438,11.162
9.117,3.602,5.514
28.75,2.967,25.783
-0.0,3.986,-3.986
24.733,3.01,21.723
-0.3,4.195,-4.495
6.25,3.342,2.908
5.4,2.906,2.494
21.55,2.528,19.022
5.15,3.255,1.895
4.0,2.679,1.321
2.717,2.778,-0.061
10.617,2.708,7.909
-0.7,2.644,-3.344
7.2,2.66,4.54
6.133,2.183,3.95
1.05,2.522,-1.472
23.5,2.579,20.921
-1.467,2.313,-3.779
17.717,2.642,15.075
19.117,2.568,16.549
20.15,3.283,16.867
2.633,3.757,-1.123
1.733,2.766,-1.032
22.167,3.399,18.767
15.517,3.442,12.075
14.467,3.432,11.035
21.5,3.605,17.895
11.7,4.449,7.251
1.833,4.563,-2.73
-0.0,3.931,-3.931
6.817,3.814,3.002
7.417,3.112,4.305
5.667,3.033,2.634
2.0,2.889,-0.889
23.5,3.308,20.192
3.517,4.511,-0.994
3.45,3.325,0.125
2.65,3.062,-0.412
13.133,2.835,10.299
14.133,3.244,10.889
13.55,3.615,9.935
9.533,3.627,5.906
10.0,3.439,6.561
1.467,3.529,-2.062
1.6,3.013,-1.413
2.2,2.836,-0.636
8.35,2.538,5.812
2.883,2.569,0.315
6.383,2.549,3.835
7.133,2.461,4.672
14.467,2.549,11.918
19.3,2.828,16.472
3.183,3.127,0.057
5.133,3.096,2.037
2.033,3.346,-1.313
2.933,2.833,0.1
5.0,2.312,2.688
3.567,2.116,1.451
-4.483,2.279,-6.762
2.0,2.448,-0.448
7.833,2.283,5.551
12.367,2.264,10.103
11.35,2.384,8.966
7.733,1.816,5.917
13.217,2.773,10.444
11.933,3.504,8.43
9.367,4.122,5.245
6.25,4.586,1.664
10.4,2.188,8.212
1.2,2.304,-1.104
1.167,3.475,-2.308
2.283,3.11,-0.826
1.983,2.036,-0.052
1.467,3.069,-1.602
6.6,2.668,3.932
4.817,2.64,2.176
1.4,2.854,-1.454
-1.283,2.242,-3.525
7.5,2.434,5.066
9.05,2.613,6.437
0.25,2.538,-2.288
-0.75,0.894,-1.644
11.383,2.477,8.906
0.617,3.166,-2.55
2.2,1.993,0.207
0.7,2.255,-1.555
-5.3,2.474,-7.774
-6.55,2.336,-8.886
5.383,2.105,3.278
1.667,2.153,-0.486
5.483,2.061,3.422
-4.65,2.451,-7.101
1.683,2.271,-0.587
8.4,2.307,6.093
1.8,2.43,-0.63
-0.0,2.189,-2.189
10.5,2.146,8.354
-1.75,2.527,-4.277
8.983,2.136,6.848
4.517,3.38,1.137
7.8,1.418,6.382
-0.833,0.917,-1.75
1.667,2.38,-0.713
2.0,2.175,-0.175
10.35,1.655,8.695
-0.583,3.185,-3.768
-0.083,1.917,-2.001
0.633,1.898,-1.265
7.3,2.397,4.903
0.75,2.332,-1.582
4.483,2.352,2.131
6.983,1.405,5.579
3.433,2.619,0.815
5.583,2.61,2.973
-2.333,2.564,-4.897
0.9,1.317,-0.417
4.433,1.414,3.02
0.083,2.239,-2.156
-0.0,2.266,-2.266
0.6,2.208,-1.608
4.617,2.165,2.452
-3.017,1.072,-4.089
14.833,2.129,12.705
-0.0,2.411,-2.411
6.533,2.598,3.936
4.217,2.084,2.133
-1.0,2.217,-3.217
5.95,2.175,3.775
11.267,2.329,8.937
4.45,2.279,2.171
-4.9,2.323,-7.223
3.45,2.271,1.179
1.25,0.499,0.751
3.383,2.331,1.052
3.183,2.453,0.73
-0.317,2.443,-2.76
7.5,2.396,5.104
-1.35,2.465,-3.815
6.233,2.386,3.847
1.583,2.513,-0.929
-2.717,2.243,-4.96
3.183,1.807,1.377
-3.5,2.175,-5.675
-0.0,2.185,-2.185
8.75,2.077,6.673
8.667,2.371,6.295
11.133,2.329,8.804
13.133,2.381,10.753
-2.0,2.662,-4.662
5.5,2.283,3.217
11.233,1.423,9.811
1.0,3.986,-2.986
-0.3,1.949,-2.249
3.417,1.652,1.765
2.283,2.434,-0.15
10.817,2.518,8.299
-1.033,2.673,-3.706
-0.783,2.918,-3.701
0.467,2.383,-1.917
13.55,2.533,11.017
7.233,2.872,4.361
0.783,2.362,-1.579
0.433,1.97,-1.537
2.067,2.277,-0.21
9.3,2.347,6.953
-0.917,2.502,-3.418
-0.417,0.968,-1.385
-2.417,2.273,-4.689
11.317,2.216,9.101
0.433,2.251,-1.818
-3.0,2.053,-5.053
4.033,2.014,2.019
2.0,2.068,-0.068
8.483,2.272,6.211
8.983,2.393,6.59
7.95,2.375,5.575
7.95,2.172,5.778
1.4,1.951,-0.551
0.483,1.295,-0.812
-0.0,1.63,-1.63
6.35,1.934,4.416
-3.133,1.335,-4.468
12.25,2.262,9.988
-0.0,2.419,-2.419
-5.533,2.204,-7.737
11.25,1.507,9.743
2.2,2.301,-0.101
-0.95,2.506,-3.456
1.25,2.081,-0.831
12.467,2.253,10.213
11.4,2.651,8.749
13.0,2.237,10.763
3.183,2.138,1.045
1.733,2.294,-0.56
12.333,2.895,9.438
12.2,2.604,9.596
11.367,2.852,8.514
4.6,2.857,1.743
6.1,3.69,2.41
13.967,3.167,10.8
13.2,2.23,10.97
12.05,2.223,9.827
15.233,2.54,12.693
0.6,3.084,-2.484
12.333,2.652,9.681
3.167,3.149,0.017
7.167,2.422,4.745
3.1,2.156,0.944
3.167,2.402,0.765
-0.783,2.3,-3.083
3.433,2.361,1.072
16.2,2.846,13.354
11.067,2.398,8.668
0.25,2.287,-2.037
15.633,2.402,13.231
13.217,1.938,11.278
3.483,2.504,0.98
3.0,2.412,0.588
5.433,2.419,3.014
2.75,1.885,0.865
5.283,2.073,3.21
15.217,2.725,12.492
5.633,2.715,2.918
7.233,2.667,4.566
-2.95,2.47,-5.42
7.45,3.12,4.33
3.1,2.414,0.686
-3.15,2.717,-5.867
-0.0,1.979,-1.979
19.117,1.726,17.391
2.533,2.346,0.188
12.65,2.477,10.173
21.433,2.741,18.693
9.05,3.364,5.686
1.4,3.25,-1.85
5.933,3.124,2.809
-0.0,3.257,-3.257
14.683,2.441,12.243
11.417,3.07,8.347
13.683,2.484,11.199
-0.0,2.698,-2.698
0.75,2.601,-1.851
-1.95,3.17,-5.12
19.217,2.785,16.431
9.5,3.172,6.328
19.0,3.483,15.517
22.117,3.911,18.205
9.25,3.514,5.736
-0.0,2.995,-2.995
14.667,2.453,12.213
-0.0,3.161,-3.161
20.4,3.156,17.244
9.817,3.63,6.187
0.667,2.914,-2.248
-2.083,2.327,-4.41
-0.0,3.158,-3.158
-0.0,2.952,-2.952
-0.0,1.825,-1.825
13.933,2.105,11.828
15.8,2.434,13.366
2.45,2.328,0.122
2.167,2.074,0.092
-0.0,2.842,-2.842
-0.0,2.972,-2.972
7.45,2.61,4.84
13.783,2.155,11.629
1.533,2.084,-0.55
-0.117,2.557,-2.673
21.183,2.747,18.437
0.5,2.207,-1.707
16.717,2.694,14.023
17.717,2.196,15.521
18.183,2.339,15.844
-0.0,2.712,-2.712
15.683,2.197,13.486
14.683,2.773,11.91
10.8,3.155,7.645
8.833,3.083,5.75
-3.883,2.855,-6.738
10.583,2.283,8.3
-0.0,2.341,-2.341
4.333,3.557,0.776
-0.0,2.89,-2.89
-0.0,2.504,-2.504
6.433,2.273,4.161
12.333,1.642,10.691
10.583,2.855,7.728
-0.0,2.928,-2.928
10.45,2.914,7.536
15.15,2.607,12.543
4.8,2.598,2.202
2.817,2.225,0.592
17.3,2.446,14.854
3.717,2.435,1.282
13.667,2.979,10.687
6.65,2.705,3.945
16.267,2.863,13.404
10.583,3.264,7.319
12.633,3.245,9.388
-0.0,3.226,-3.226
6.25,2.628,3.622
17.983,2.865,15.118
13.333,3.188,10.145
5.817,3.364,2.453
3.117,3.32,-0.204
-0.0,2.298,-2.298
1.767,2.369,-0.602
4.167,3.002,1.165
13.483,2.442,11.041
-0.017,2.709,-2.726
4.017,2.9,1.117
1.067,2.38,-1.313
3.45,2.364,1.086
-1.683,2.464,-4.147
13.05,2.574,10.476
2.667,2.673,-0.006
1.867,2.342,-0.475
1.65,2.215,-0.565
2.767,2.402,0.364
-1.283,3.01,-4.294
12.933,2.698,10.236
9.5,3.338,6.162
6.4,4.119,2.281
5.4,3.936,1.464
8.4,3.895,4.505
11.317,4.442,6.875
10.317,4.813,5.504
10.167,5.219,4.947
-0.5,5.333,-5.833
0.067,4.257,-4.19
1.867,3.052,-1.185
0.033,1.914,-1.881
3.35,2.307,1.043
5.067,2.508,2.559
0.817,2.245,-1.428
7.433,2.135,5.298
-3.95,1.671,-5.621
-5.833,2.079,-7.913
3.833,1.976,1.857
5.383,5.215,0.169
18.983,2.393,16.59
7.75,4.798,2.952
6.483,4.84,1.643
6.983,3.832,3.152
-1.5,2.75,-4.25
-3.117,1.911,-5.028
7.383,2.809,4.575
6.317,4.358,1.959
17.483,2.432,15.051
10.533,5.471,5.063
10.75,6.138,4.612
-1.1,6.448,-7.548
-0.133,3.085,-3.218
3.833,4.555,-0.722
10.217,3.693,6.523
-1.383,3.491,-4.874
-2.55,2.589,-5.139
6.467,2.055,4.412
-6.667,2.26,-8.927
0.283,2.356,-2.073
-0.0,2.359,-2.359
2.35,1.97,0.38
7.0,2.145,4.855
6.25,2.48,3.77
17.5,2.711,14.789
8.433,3.477,4.957
6.4,3.11,3.29
-1.833,4.52,-6.353
10.117,2.221,7.895
0.383,3.618,-3.235
-1.0,2.937,-3.937
-1.467,2.916,-4.383
12.55,1.778,10.772
8.8,2.554,6.246
15.817,3.189,12.627
1.233,3.619,-2.386
17.083,2.856,14.227
10.0,4.009,5.991
0.367,3.679,-3.313
0.7,3.576,-2.876
1.667,2.804,-1.137
4.867,1.851,3.015
6.117,2.132,3.984
7.367,2.708,4.659
10.067,2.541,7.526
9.833,2.105,7.728
6.75,4.929,1.821
-0.85,4.877,-5.727
10.6,2.548,8.052
-8.983,4.838,-13.821
9.133,2.211,6.923
11.067,4.204,6.862
14.333,4.773,9.56
9.25,5.732,3.518
13.0,5.039,7.961
2.267,2.368,-0.102
2.35,3.613,-1.263
7.917,3.014,4.903
8.483,2.952,5.531
7.267,3.676,3.591
4.367,4.195,0.171
-0.0,3.883,-3.883
-0.0,2.807,-2.807
1.233,2.387,-1.153
-0.0,1.567,-1.567
11.15,2.254,8.896
12.1,4.391,7.709
10.35,4.326,6.024
7.283,4.303,2.98
11.517,4.518,6.998
6.1,4.066,2.034
2.517,3.868,-1.352
1.983,4.136,-2.152
0.85,3.935,-3.085
4.433,2.292,2.142
-0.0,2.251,-2.251
9.083,2.326,6.757
0.5,3.568,-3.068
0.683,3.566,-2.883
10.567,3.581,6.985
3.0,4.123,-1.123
7.2,2.733,4.467
10.783,2.181,8.602
12.7,4.006,8.694
5.1,4.739,0.361
2.283,4.102,-1.819
11.033,4.536,6.498
-0.0,5.085,-5.085
1.483,2.505,-1.022
9.167,2.508,6.658
1.067,3.279,-2.212
9.933,2.229,7.705
17.45,4.615,12.835
18.717,5.432,13.285
-0.0,5.755,-5.755
8.333,4.849,3.484
12.533,5.401,7.132
-0.0,4.956,-4.956
-0.717,3.216,-3.932
-0.0,2.808,-2.808
-0.0,2.416,-2.416
-0.0,2.355,-2.355
8.617,2.224,6.392
4.617,4.133,0.484
11.65,2.717,8.933
5.85,5.193,0.657
13.567,2.62,10.946
4.65,3.792,0.858
5.0,5.783,-0.783
8.967,5.099,3.868
6.7,5.214,1.486
6.817,5.687,1.13
6.317,5.078,1.238
7.25,4.852,2.398
11.5,4.645,6.855
2.55,4.802,-2.252
2.733,3.946,-1.213
6.433,3.808,2.625
0.6,3.179,-2.579
13.55,2.428,11.122
-0.0,0.929,-0.929
4.983,2.342,2.642
-1.783,1.744,-3.528
3.0,2.162,0.838
3.267,2.177,1.09
7.517,1.667,5.85
0.75,2.256,-1.506
6.917,2.196,4.72
-0.0,2.64,-2.64
12.883,3.611,9.272
4.017,4.481,-0.465
-4.65,3.969,-8.619
-3.9,2.214,-6.114
12.567,2.202,10.365
2.417,4.272,-1.856
-1.0,1.626,-2.626
8.383,3.292,5.091
1.683,1.282,0.401
1.467,2.063,-0.596
8.983,2.214,6.77
1.8,3.075,-1.275
4.15,2.916,1.234
3.933,3.26,0.673
10.383,2.836,7.547
0.833,3.641,-2.807
11.817,0.929,10.887
2.9,4.193,-1.293
-0.5,4.425,-4.925
13.05,4.306,8.744
-2.467,4.909,-7.375
11.55,2.343,9.207
-0.0,2.054,-2.054
9.4,2.108,7.292
10.933,1.815,9.118
2.417,4.635,-2.218
6.533,3.986,2.547
0.417,4.48,-4.063
11.983,2.653,9.331
12.033,4.488,7.545
11.3,4.451,6.849
9.4,4.287,5.113
15.867,4.25,11.617
0.883,5.369,-4.485
-0.3,4.203,-4.503
-0.0,4.493,-4.493
-0.0,3.927,-3.927
8.433,2.197,6.236
15.567,1.055,14.512
3.25,4.529,-1.279
-0.0,4.727,-4.727
0.783,2.149,-1.366
7.6,2.3,5.3
2.3,1.551,0.749
8.8,2.889,5.911
15.85,3.982,11.868
0.817,4.157,-3.341
14.75,4.469,10.281
14.517,4.25,10.267
-0.0,3.751,-3.751
0.433,4.164,-3.731
0.5,3.336,-2.836
-0.017,3.358,-3.375
23.167,2.921,20.246
0.75,3.618,-2.868
1.667,2.999,-1.333
-0.0,2.421,-2.421
-0.033,2.223,-2.256
16.2,1.632,14.568
-0.0,4.239,-4.239
7.667,2.757,4.91
-2.25,1.935,-4.185
0.95,2.21,-1.26
21.483,1.202,20.281
12.367,4.938,7.429
10.45,4.824,5.626
-0.0,4.066,-4.066
-0.0,2.069,-2.069
8.267,3.165,5.101
15.267,4.935,10.332
8.6,5.382,3.218
14.167,4.645,9.521
13.067,4.815,8.252
2.3,5.251,-2.951
2.833,4.864,-2.031
17.6,4.398,13.202
4.383,4.503,-0.12
3.833,4.29,-0.457
4.367,3.717,0.649
4.317,3.706,0.61
4.0,3.828,0.172
17.917,3.88,14.037
2.5,4.073,-1.573
2.367,3.495,-1.129
-1.017,3.674,-4.691
12.467,3.564,8.902
-0.0,4.159,-4.159
6.933,2.559,4.374
6.933,3.429,3.504
-0.0,3.412,-3.412
8.6,3.372,5.228
8.317,3.665,4.652
6.733,4.033,2.7
10.467,3.938,6.529
9.9,4.115,5.785
6.517,3.896,2.62
-0.0,4.058,-4.058
4.183,2.296,1.887
10.25,2.295,7.955
11.917,4.074,7.842
5.867,4.236,1.631
4.883,4.747,0.136
-1.967,4.819,-6.786
-0.0,4.794,-4.794
23.55,2.045,21.505
4.5,4.634,-0.134
4.3,3.039,1.261
-5.933,2.986,-8.92
7.683,2.025,5.658
4.5,1.716,2.784
0.75,1.586,-0.836
5.433,1.433,4.0
-0.183,0.88,-1.063
4.65,1.88,2.77
17.1,3.593,13.507
-0.133,5.17,-5.304
-0.183,4.032,-4.215
1.55,4.158,-2.608
1.55,1.699,-0.149
-4.25,1.138,-5.388
2.467,0.695,1.771
12.683,1.738,10.945
1.75,3.539,-1.789
2.0,2.923,-0.923
-0.883,3.255,-4.138
0.433,3.39,-2.956
9.533,2.319,7.214
8.0,5.484,2.516
-0.0,5.403,-5.403
0.5,3.221,-2.721
2.0,3.521,-1.521
1.75,2.965,-1.215
15.333,2.623,12.711
5.267,4.534,0.733
15.333,3.23,12.104
10.217,5.444,4.772
11.467,5.66,5.806
8.467,5.916,2.55
11.75,5.622,6.128
10.0,6.268,3.732
-1.25,5.925,-7.175
5.433,4.499,0.934
17.0,4.642,12.358
3.25,6.199,-2.949
2.75,5.195,-2.445
0.5,5.042,-4.542
7.0,3.073,3.927
-0.75,4.723,-5.473
-1.55,2.505,-4.055
0.75,2.2,-1.45
13.083,1.947,11.136
13.083,4.994,8.089
7.5,5.047,2.453
8.5,3.221,5.279
-0.0,2.448,-2.448
4.5,1.549,2.951
4.083,3.459,0.625
3.5,2.46,1.04
2.567,2.084,0.483
11.733,2.004,9.729
11.733,4.518,7.216
-0.0,5.228,-5.228
12.467,2.532,9.935
4.15,3.007,1.143
12.983,2.482,10.502
6.283,5.266,1.017
0.4,5.518,-5.118
-0.0,5.378,-5.378
5.5,1.845,3.655
9.483,3.138,6.346
12.25,4.563,7.687
-0.1,5.847,-5.947
14.0,2.341,11.659
5.267,3.806,1.46
1.0,2.488,-1.488
11.267,2.421,8.845
1.5,4.235,-2.735
7.0,2.463,4.537
1.75,2.003,-0.253
-0.0,1.54,-1.54
1.75,2.264,-0.514
1.25,0.807,0.443
1.5,2.287,-0.787
-0.75,2.354,-3.104
-0.0,2.349,-2.349
8.117,2.197,5.92
-0.0,2.58,-2.58
1.2,1.815,-0.615
6.0,1.81,4.19
6.183,2.011,4.173
13.383,3.903,9.481
3.25,4.164,-0.914
-0.5,4.301,-4.801
4.25,2.464,1.786
3.133,2.731,0.402
8.0,1.853,6.147
11.617,5.053,6.564
4.4,5.326,-0.926
12.617,4.752,7.864
10.0,5.734,4.266
-0.0,5.38,-5.38
10.0,3.868,6.132
3.6,4.72,-1.12
6.75,3.958,2.792
8.25,4.335,3.915
-0.617,4.498,-5.115
2.333,4.197,-1.863
11.15,2.322,8.828
10.65,4.437,6.213
2.0,4.925,-2.925
-2.75,4.071,-6.821
-0.0,2.115,-2.115
-0.5,0.523,-1.023
0.5,1.471,-0.971
3.0,2.164,0.836
-1.0,2.344,-3.344
-0.0,1.942,-1.942
1.0,2.011,-1.011
1.0,2.122,-1.122
13.283,0.094,13.189
13.283,4.166,9.117
5.4,3.996,1.404
13.283,4.32,8.964
-0.0,3.911,-3.911
2.483,3.737,-1.254
2.75,2.293,0.457
11.167,1.405,9.762
1.0,3.583,-2.583
0.5,3.23,-2.73
0.05,2.741,-2.691
11.4,1.92,9.48
9.0,3.054,5.946
6.0,2.348,3.652
2.25,2.244,0.006
6.3,1.665,4.635
13.667,4.237,9.43
13.667,4.783,8.884
-2.333,4.447,-6.781
0.5,4.739,-4.239
1.55,2.944,-1.394
12.433,2.814,9.619
13.433,3.571,9.863
11.383,5.507,5.876
13.433,4.969,8.464
-0.567,4.78,-5.346
0.5,4.022,-3.522
10.5,2.577,7.923
-0.0,1.526,-1.526
6.417,2.212,4.205
2.75,1.789,0.961
3.367,2.218,1.148
14.733,3.231,11.503
3.75,3.889,-0.139
14.733,3.629,11.104
5.5,4.358,1.142
12.5,4.145,8.355
13.3,3.817,9.483
17.5,3.81,13.69
0.5,5.046,-4.546
0.5,4.744,-4.244
0.517,4.67,-4.153
4.5,2.689,1.811
-1.25,3.159,-4.409
7.233,2.362,4.871
4.0,2.996,1.004
3.5,3.097,0.403
6.5,3.148,3.352
11.25,3.89,7.36
4.0,4.266,-0.266
4.5,4.329,0.171
6.567,4.162,2.404
12.75,3.688,9.062
4.0,3.971,0.029
14.467,3.896,10.57
-0.0,4.209,-4.209
4.75,4.416,0.334
6.5,3.832,2.668
4.75,4.022,0.728
13.55,3.528,10.022
5.617,2.771,2.846
4.617,2.828,1.789
-0.0,2.145,-2.145
0.75,2.192,-1.442
3.0,1.968,1.032
2.25,3.743,-1.493
-0.0,3.449,-3.449
0.5,5.335,-4.835
19.283,4.803,14.48
-0.0,5.589,-5.589
21.283,4.608,16.675
4.5,5.276,-0.776
3.8,4.86,-1.06
-0.0,4.043,-4.043
17.083,2.515,14.569
10.0,4.311,5.689
17.083,4.27,12.813
-0.0,5.096,-5.096
7.5,4.107,3.393
10.5,4.446,6.054
2.383,4.181,-1.797
4.0,4.046,-0.046
8.45,3.975,4.475
5.0,3.791,1.209
3.75,4.15,-0.4
3.75,4.077,-0.327
7.75,4.008,3.742
7.5,4.172,3.328
-1.567,4.242,-5.809
1.75,3.932,-2.182
1.75,3.415,-1.665
4.35,2.937,1.413
7.55,3.328,4.222
12.15,4.687,7.463
12.15,4.613,7.537
10.75,4.528,6.222
10.35,4.199,6.151
10.5,3.975,6.525
-0.25,3.947,-4.197
0.5,4.339,-3.839
16.733,3.235,13.498
13.0,3.813,9.187
8.0,4.309,3.691
2.25,4.311,-2.061
6.0,2.124,3.876
-0.0,1.912,-1.912
-0.0,1.896,-1.896
-1.0,2.219,-3.219
5.5,1.448,4.052
0.5,3.425,-2.925
9.0,1.973,7.027
4.0,0.964,3.036
11.65,1.229,10.421
5.25,4.397,0.853
16.967,1.943,15.024
2.0,5.217,-3.217
1.317,5.085,-3.769
10.417,4.698,5.719
9.533,5.157,4.376
7.467,5.043,2.424
8.5,4.177,4.323
-0.0,3.579,-3.579
-0.25,4.116,-4.366
13.733,3.995,9.739
2.25,4.672,-2.422
14.233,2.404,11.83
7.283,5.35,1.934
9.367,5.527,3.839
1.183,6.132,-4.949
7.5,5.914,1.586
2.733,6.324,-3.591
16.0,5.733,10.267
14.0,6.376,7.624
11.65,6.666,4.984
4.25,7.103,-2.853
8.0,5.69,2.31
12.5,5.288,7.212
0.933,6.775,-5.842
12.5,5.662,6.838
6.167,6.809,-0.642
10.167,5.739,4.427
13.0,6.758,6.242
14.0,6.404,7.596
-0.75,6.408,-7.158
3.5,6.016,-2.516
-0.0,5.74,-5.74
10.167,3.036,7.131
-0.75,5.95,-6.7
6.45,2.433,4.017
12.45,3.227,9.223
9.25,6.274,2.976
4.867,6.313,-1.446
6.4,5.476,0.924
6.25,5.613,0.637
11.0,5.334,5.666
6.0,6.244,-0.244
10.75,6.261,4.489
3.0,3.871,-0.871
-0.75,3.213,-3.963
3.25,1.97,1.28
0.25,1.774,-1.524
7.0,2.461,4.539
1.0,0.271,0.729
13.167,2.447,10.72
14.0,3.631,10.369
9.0,4.539,4.461
9.2,2.103,7.097
5.55,2.153,3.397
-1.75,2.36,-4.11
10.7,1.559,9.141
0.25,4.715,-4.465
0.25,4.485,-4.235
0.35,3.583,-3.233
3.25,2.23,1.02
-0.0,2.246,-2.246
11.483,2.468,9.015
-0.5,4.267,-4.767
-2.25,3.151,-5.401
3.217,2.935,0.282
4.25,2.862,1.388
-0.0,2.219,-2.219
10.433,1.641,8.792
1.5,4.299,-2.799
-1.5,3.784,-5.284
0.217,2.67,-2.453
1.5,1.433,0.067
1.217,1.867,-0.651
15.483,2.604,12.879
2.5,3.215,-0.715
-1.75,2.866,-4.616
13.467,2.693,10.774
10.283,3.652,6.631
6.133,4.343,1.79
-3.75,2.326,-6.076
0.25,2.194,-1.944
1.267,2.2,-0.933
11.45,3.135,8.315
2.0,5.437,-3.437
3.5,4.618,-1.118
2.5,5.202,-2.702
1.75,5.03,-3.28
-1.0,4.607,-5.607
12.183,1.97,10.214
1.25,4.339,-3.089
1.5,3.66,-2.16
1.25,3.471,-2.221
7.65,3.046,4.604
15.267,3.467,11.8
8.65,4.772,3.878
3.0,3.708,-0.708
8.0,2.266,5.734
-3.75,2.206,-5.956
15.267,1.92,13.347
7.0,5.702,1.298
7.317,5.235,2.082
7.183,5.816,1.368
8.0,5.0,3.0
-0.0,4.29,-4.29
15.45,3.633,11.817
7.5,5.597,1.903
16.467,5.944,10.523
12.0,5.788,6.212
12.283,5.884,6.4
2.483,5.932,-3.449
9.583,5.516,4.067
6.0,5.823,0.177
-1.75,4.42,-6.17
1.0,1.964,-0.964
9.583,3.19,6.393
0.5,4.527,-4.027
13.25,3.913,9.337
8.65,3.751,4.899
12.25,3.542,8.708
-0.5,3.939,-4.439
-0.5,4.103,-4.603
5.5,3.92,1.58
13.767,3.558,10.209
12.55,3.199,9.351
2.75,3.335,-0.585
2.0,3.267,-1.267
12.25,3.909,8.341
10.25,3.995,6.255
3.5,4.24,-0.74
2.883,2.261,0.622
7.45,1.117,6.333
6.0,1.356,4.644
13.083,1.839,11.244
4.517,3.871,0.646
2.367,2.109,0.258
9.05,3.4,5.65
9.333,4.059,5.274
2.467,4.173,-1.706
6.317,2.186,4.131
2.15,4.437,-2.287
-1.0,4.437,-5.437
22.55,2.75,19.8
7.417,4.946,2.471
-1.0,3.867,-4.867
3.583,3.84,-0.257
16.483,3.363,13.121
-0.0,4.698,-4.698
9.25,1.898,7.352
16.483,5.158,11.325
-0.25,4.933,-5.183
10.517,4.041,6.476
12.7,4.64,8.06
10.7,4.602,6.098
2.5,4.68,-2.18
-0.0,4.236,-4.236
11.5,2.28,9.22
4.283,0.888,3.395
1.25,1.943,-0.693
15.65,1.827,13.823
1.0,5.109,-4.109
1.25,4.037,-2.787
3.5,5.135,-1.635
6.633,4.457,2.177
12.383,4.174,8.21
2.0,3.769,-1.769
1.0,4.204,-3.204
15.45,4.133,11.317
1.25,4.24,-2.99
3.383,3.9,-0.517
15.45,3.893,11.557
-0.0,3.97,-3.97
10.55,1.962,8.588
11.55,3.232,8.318
6.0,3.451,2.549
4.483,3.693,0.79
6.517,3.627,2.89
5.75,3.711,2.039
-1.5,3.694,-5.194
6.0,3.424,2.576
22.783,3.501,19.282
0.5,4.283,-3.783
22.783,3.857,18.927
6.5,4.447,2.053
3.0,3.827,-0.827
3.0,3.589,-0.589
4.55,3.512,1.038
3.55,3.288,0.262
10.0,3.484,6.516
10.5,3.782,6.718
-0.0,3.807,-3.807
2.25,2.98,-0.73
7.65,3.409,4.241
10.333,3.765,6.569
4.55,2.822,1.728
2.533,1.901,0.632
14.617,1.811,12.805
9.0,2.265,6.735
-0.0,1.516,-1.516
9.617,3.541,6.075
1.817,4.346,-2.529
-0.0,1.979,-1.979
6.35,2.271,4.079
5.25,1.617,3.633
1.75,1.51,0.24
9.317,3.932,5.384
14.117,4.483,9.634
5.717,4.955,0.762
14.117,3.131,10.986
14.117,5.103,9.013
3.0,5.062,-2.062
6.5,5.015,1.485
8.0,4.901,3.099
12.0,4.696,7.304
0.75,4.618,-3.868
0.25,3.772,-3.522
2.0,4.068,-2.068
10.0,2.586,7.414
11.6,3.632,7.968
5.183,5.178,0.005
-0.0,6.234,-6.234
-0.0,5.629,-5.629
2.433,2.852,-0.419
6.5,2.658,3.842
-1.25,2.23,-3.48
-0.5,2.146,-2.646
11.2,2.203,8.997
3.533,2.743,0.79
1.55,2.288,-0.738
-0.25,1.171,-1.421
2.433,2.438,-0.004
4.75,2.55,2.2
4.5,2.549,1.951
11.75,2.541,9.209
11.75,3.308,8.442
-0.0,3.001,-3.001
0.25,2.367,-2.117
2.0,2.217,-0.217
-1.0,2.268,-3.268
10.667,2.279,8.387
-0.75,2.531,-3.281
3.25,2.354,0.896
-1.75,2.363,-4.113
-0.25,2.251,-2.501
-0.467,2.156,-2.623
-0.5,2.046,-2.546
10.533,1.96,8.573
-0.0,2.52,-2.52
12.083,2.487,9.597
12.983,3.374,9.61
12.983,2.962,10.021
12.983,2.96,10.023
12.983,4.134,8.849
15.0,4.018,10.982
4.0,4.028,-0.028
6.0,5.002,0.998
10.683,5.248,5.435
10.683,4.902,5.782
-1.0,4.841,-5.841
-0.75,3.567,-4.317
1.75,1.339,0.411
-1.5,2.034,-3.534
2.25,2.315,-0.065
0.75,2.183,-1.433
-2.25,2.252,-4.502
0.75,1.545,-0.795
13.233,1.838,11.395
13.233,3.098,10.136
4.367,3.113,1.254
5.25,3.107,2.143
1.0,2.976,-1.976
-1.0,3.132,-4.132
2.25,2.223,0.027
-0.0,2.293,-2.293
2.25,2.336,-0.086
11.017,1.472,9.545
11.017,2.64,8.376
1.483,3.193,-1.71
3.383,2.183,1.2
4.5,1.86,2.64
-1.5,3.745,-5.245
11.75,1.952,9.798
11.75,2.707,9.043
11.75,2.778,8.972
5.0,3.289,1.711
11.75,3.218,8.532
11.75,3.592,8.158
11.75,4.262,7.488
-0.0,4.7,-4.7
1.417,2.932,-1.515
7.75,2.804,4.946
11.15,3.079,8.071
0.517,3.531,-3.015
9.5,2.716,6.784
12.6,3.538,9.062
3.5,4.146,-0.646
4.0,4.109,-0.109
1.25,3.629,-2.379
1.5,2.747,-1.247
1.25,2.686,-1.436
1.5,2.454,-0.954
9.45,2.308,7.142
6.383,2.554,3.83
12.0,2.958,9.042
0.5,3.83,-3.33
-0.117,2.657,-2.773
1.5,1.613,-0.113
-0.0,2.193,-2.193
0.5,2.267,-1.767
-2.05,0.984,-3.034
-1.25,2.027,-3.277
2.433,2.071,0.362
2.75,2.328,0.422
0.75,2.599,-1.849
8.75,3.365,5.385
6.567,3.476,3.091
13.367,2.975,10.392
5.0,2.707,2.293
15.483,3.325,12.159
6.0,3.807,2.193
5.0,3.379,1.621
0.683,3.482,-2.799
10.0,3.037,6.963
2.75,2.611,0.139
-0.0,2.115,-2.115
1.5,2.381,-0.881
0.75,2.372,-1.622
-0.217,2.285,-2.502
1.5,2.426,-0.926
1.5,2.232,-0.732
1.75,2.213,-0.463
-0.75,2.266,-3.016
23.95,2.211,21.739
-1.267,3.512,-4.779
23.95,2.441,21.509
0.5,3.397,-2.897
-1.267,3.167,-4.434
-1.5,3.197,-4.697
-2.267,1.451,-3.718
-0.25,1.614,-1.864
13.433,2.274,11.159
7.4,2.542,4.858
9.0,2.505,6.495
3.333,3.175,0.158
13.2,3.12,10.08
13.2,3.485,9.715
-2.0,3.343,-5.343
-1.5,3.858,-5.358
-0.0,1.461,-1.461
16.217,0.429,15.787
6.517,2.454,4.063
16.217,2.184,14.033
-0.0,2.651,-2.651
-0.75,3.463,-4.213
-2.0,2.42,-4.42
16.217,2.403,13.814
8.533,3.267,5.266
3.5,3.035,0.465
14.983,3.707,11.277
14.983,4.141,10.842
2.0,4.322,-2.322
0.217,4.257,-4.04
4.75,4.098,0.652
8.25,2.936,5.314
6.75,2.681,4.069
5.367,2.746,2.621
10.633,3.835,6.798
10.633,4.045,6.588
-1.5,3.991,-5.491
0.25,4.24,-3.99
4.0,2.473,1.527
2.0,2.812,-0.812
-0.0,2.719,-2.719
0.75,2.862,-2.112
-0.25,3.273,-3.523
5.55,2.812,2.738
1.25,2.907,-1.657
5.25,2.767,2.483
20.333,2.904,17.429
4.0,3.361,0.639
4.0,3.166,0.834
8.5,3.306,5.194
8.367,4.001,4.366
11.467,3.803,7.663
11.467,3.832,7.635
-0.5,3.841,-4.341
16.4,3.281,13.119
3.25,3.48,-0.23
-0.0,3.313,-3.313
14.517,3.4,11.117
3.0,3.454,-0.454
2.5,3.326,-0.826
3.0,3.469,-0.469
3.0,3.634,-0.634
12.233,3.695,8.538
-0.0,4.35,-4.35
9.017,2.284,6.733
-0.917,4.272,-5.189
-0.25,2.278,-2.528
2.6,2.187,0.413
-0.0,2.559,-2.559
-1.25,2.336,-3.586
-1.0,2.214,-3.214
3.25,2.129,1.121
0.25,4.21,-3.96
3.5,2.726,0.774
2.75,2.717,0.033
2.55,2.675,-0.125
16.55,3.086,13.464
16.55,3.671,12.879
16.55,3.101,13.449
3.75,3.143,0.607
2.5,2.762,-0.262
14.05,3.068,10.982
14.05,2.984,11.066
0.983,3.279,-2.295
5.6,3.078,2.522
11.6,3.12,8.48
1.25,3.271,-2.021
-1.0,2.965,-3.965
-1.5,3.215,-4.715
-0.0,3.172,-3.172
-1.7,2.878,-4.578
5.383,1.77,3.613
4.35,2.373,1.977
-0.25,2.331,-2.581
0.5,2.305,-1.805
1.817,2.272,-0.456
11.383,2.358,9.025
11.383,2.689,8.695
-1.85,2.154,-4.004
12.45,1.957,10.493
15.533,2.354,13.179
1.317,2.401,-1.084
1.0,2.873,-1.873
9.533,2.809,6.725
13.083,2.914,10.169
-0.75,3.041,-3.791
-0.0,3.148,-3.148
11.35,2.835,8.515
-2.5,2.564,-5.064
-3.367,2.718,-6.085
0.75,2.377,-1.627
14.533,2.242,12.292
5.0,2.632,2.368
2.75,2.775,-0.025
2.75,2.989,-0.239
1.75,2.674,-0.924
10.817,2.991,7.826
-3.5,2.921,-6.421
-4.417,2.86,-7.277
-2.217,1.689,-3.906
-0.0,2.049,-2.049
14.383,2.164,12.219
-0.75,2.858,-3.608
-1.167,2.511,-3.678
-1.167,1.139,-2.306
2.5,2.166,0.334
4.317,2.231,2.085
1.75,2.281,-0.531
9.5,2.187,7.313
12.5,2.613,9.887
-1.0,2.635,-3.635
-0.0,2.129,-2.129
9.533,2.12,7.414
17.2,3.818,13.382
17.2,5.641,11.559
-0.0,5.168,-5.168
4.067,4.685,-0.618
13.533,4.13,9.403
13.533,4.292,9.241
2.0,4.644,-2.644
-0.0,3.247,-3.247
3.75,2.28,1.47
-0.5,1.809,-2.309
0.25,1.597,-1.347
6.55,2.306,4.244
10.083,2.355,7.729
13.383,2.381,11.002
-2.0,3.047,-5.047
2.5,1.995,0.505
11.35,2.051,9.299
2.35,3.013,-0.663
-0.417,2.578,-2.995
-0.217,1.463,-1.68
0.25,1.88,-1.63
0.25,2.353,-2.103
0.633,2.346,-1.712
0.25,2.283,-2.033
-0.0,1.063,-1.063
0.5,2.216,-1.716
12.467,2.167,10.3
9.433,2.848,6.586
5.3,2.485,2.815
1.75,2.734,-0.984
-0.0,2.773,-2.773
2.25,1.705,0.545
2.433,2.483,-0.05
3.5,1.46,2.04
0.25,1.407,-1.157
11.9,2.02,9.88
2.0,3.41,-1.41
-0.267,2.775,-3.042
11.467,2.565,8.901
-1.317,2.69,-4.006
0.5,1.557,-1.057
3.0,1.756,1.244
-3.0,2.83,-5.83
-0.5,2.427,-2.927
-2.0,2.293,-4.293
0.75,2.089,-1.339
1.25,2.008,-0.758
1.5,2.11,-0.61
-0.25,2.181,-2.431
0.967,2.04,-1.073
10.433,2.158,8.276
-1.5,3.059,-4.559
14.533,2.219,12.314
5.0,2.933,2.067
5.5,3.067,2.433
5.5,2.951,2.549
-3.25,2.404,-5.654
-3.5,1.827,-5.327
0.667,0.792,-0.125
0.25,2.146,-1.896
-0.0,2.148,-2.148
2.75,2.01,0.74
2.75,2.131,0.619
14.4,2.196,12.204
3.267,2.956,0.311
1.0,2.338,-1.338
1.75,2.375,-0.625
1.183,2.51,-1.327
-0.25,2.327,-2.577
15.483,2.193,13.29
-0.5,2.894,-3.394
-0.0,2.294,-2.294
2.75,2.14,0.61
15.8,2.035,13.765
14.3,2.38,11.92
1.25,2.553,-1.303
2.0,2.128,-0.128
1.25,2.397,-1.147
0.5,2.308,-1.808
15.883,2.219,13.664
5.5,2.41,3.09
14.217,1.988,12.228
1.5,2.243,-0.743
0.75,1.759,-1.009
-0.017,2.441,-2.458
-0.5,2.388,-2.888
-1.5,2.218,-3.718
1.25,2.232,-0.982
1.5,2.228,-0.728
9.533,2.14,7.393
-0.0,2.602,-2.602
0.75,2.284,-1.534
2.0,2.212,-0.212
-2.067,2.222,-4.289
6.75,2.039,4.711
3.25,2.511,0.739
14.75,2.27,12.48
14.75,2.46,12.29
4.75,2.018,2.732
-0.5,2.078,-2.578
-1.75,2.87,-4.62
-0.25,1.757,-2.007
-0.483,1.811,-2.295
9.383,2.119,7.264
0.5,2.664,-2.164
0.5,2.236,-1.736
-0.0,2.196,-2.196
17.85,2.089,15.761
17.85,2.818,15.032
1.0,2.105,-1.105
9.167,2.364,6.802
2.0,2.389,-0.389
12.417,2.187,10.23
2.817,2.253,0.564
2.25,2.756,-0.506
17.7,2.61,15.09
1.75,2.474,-0.724
3.5,2.608,0.892
16.483,2.722,13.761
10.05,2.703,7.347
0.25,2.62,-2.37
-2.0,2.477,-4.477
-1.0,1.99,-2.99
-1.883,2.398,-4.281
-1.0,2.179,-3.179
5.417,1.981,3.436
14.2,2.385,11.815
4.5,2.597,1.903
4.25,2.217,2.033
2.25,2.058,0.192
7.217,2.148,5.069
1.333,3.243,-1.909
-0.45,2.41,-2.86
1.0,1.225,-0.225
9.267,2.322,6.945
2.75,2.895,-0.145
-0.0,2.183,-2.183
-0.0,1.86,-1.86
-0.0,2.314,-2.314
2.533,2.228,0.305
12.233,2.294,9.939
0.717,3.694,-2.977
0.717,2.295,-1.579
0.75,1.576,-0.826
-0.0,2.479,-2.479
0.25,2.486,-2.236
0.75,2.308,-1.558
-1.833,2.264,-4.097
-1.833,2.099,-3.933
3.25,1.895,1.355
11.2,2.345,8.855
-0.0,2.784,-2.784
3.5,2.369,1.131
15.0,2.316,12.684
15.0,3.209,11.791
-2.25,2.234,-4.484
7.283,2.704,4.579
12.95,2.374,10.576
1.75,3.945,-2.195
1.75,2.279,-0.529
11.5,1.939,9.561
17.033,2.879,14.155
-0.0,3.396,-3.396
4.25,2.616,1.634
7.467,3.26,4.207
-0.0,2.786,-2.786
15.317,2.397,12.92
2.25,4.093,-1.843
4.5,3.085,1.415
4.75,3.781,0.969
4.75,3.44,1.31
4.75,3.317,1.433
0.75,3.555,-2.805
10.7,3.443,7.257
-1.5,3.361,-4.861
1.0,2.488,-1.488
2.0,1.958,0.042
10.7,2.33,8.37
6.0,2.817,3.183
5.0,3.139,1.861
2.6,3.438,-0.838
11.267,3.244,8.023
-1.2,3.253,-4.453
-0.0,2.765,-2.765
4.25,2.362,1.888
12.183,2.388,9.796
8.467,3.078,5.388
2.5,3.617,-1.117
0.25,2.6,-2.35
0.233,1.864,-1.63
3.5,2.079,1.421
4.0,2.295,1.705
2.0,2.347,-0.347
10.617,2.26,8.357
-0.0,2.616,-2.616
1.0,2.349,-1.349
-0.5,2.523,-3.023
-0.0,2.262,-2.262
5.417,2.104,3.313
13.383,2.363,11.02
14.8,2.753,12.047
0.5,2.482,-1.982
12.55,2.41,10.14
6.533,4.155,2.378
-0.25,3.775,-4.025
8.567,3.489,5.078
2.5,3.351,-0.851
2.517,3.347,-0.83
2.75,2.534,0.216
0.25,3.345,-3.095
-0.417,2.288,-2.705
13.5,2.946,10.554
15.517,3.496,12.021
-0.75,3.334,-4.084
6.0,2.272,3.728
5.5,3.852,1.648
7.517,3.022,4.495
18.367,4.145,14.221
6.75,4.506,2.244
6.75,3.512,3.238
8.25,3.949,4.301
10.25,4.261,5.989
4.15,4.647,-0.497
9.283,4.113,5.17
11.0,4.298,6.702
17.1,4.312,12.788
12.0,4.752,7.248
-0.0,4.456,-4.456
2.867,2.596,0.27
3.3,3.062,0.238
2.0,2.533,-0.533
18.0,2.782,15.218
-0.433,4.093,-4.527
14.45,3.113,11.337
5.25,3.501,1.749
14.45,3.575,10.875
-0.0,3.512,-3.512
54.717,2.717,52.0
58.45,4.746,53.704
-0.0,3.659,-3.659
-0.0,4.287,-4.287
13.15,2.126,11.024
13.15,4.84,8.31
13.15,4.679,8.471
13.15,4.28,8.87
5.25,4.128,1.122
6.0,4.671,1.329
13.15,3.44,9.71
13.15,4.58,8.57
13.15,4.84,8.31
19.35,4.711,14.639
20.367,5.165,15.202
20.367,5.46,14.907
-0.0,5.496,-5.496
6.5,4.12,2.38
10.5,4.367,6.133
8.0,4.525,3.475
13.5,4.4,9.1
18.4,4.79,13.61
12.15,5.04,7.11
24.25,4.939,19.311
11.75,5.222,6.528
26.25,4.765,21.485
19.917,5.204,14.713
17.25,5.518,11.732
17.25,5.093,12.157
15.25,5.466,9.784
4.683,5.434,-0.75
4.683,4.795,-0.112
3.25,4.488,-1.238
8.817,3.979,4.838
5.0,3.721,1.279
4.75,3.7,1.05
5.0,3.369,1.631
4.75,3.601,1.149
5.5,3.425,2.075
7.533,3.38,4.153
9.617,3.527,6.09
14.017,4.129,9.888
-1.5,4.058,-5.558
6.5,2.473,4.027
-1.5,3.599,-5.099
-1.25,1.924,-3.174
-0.25,1.563,-1.813
1.0,1.808,-0.808
-0.0,2.182,-2.182
-0.0,2.317,-2.317
1.5,0.792,0.708
-0.25,2.241,-2.491
5.917,1.951,3.966
5.417,2.203,3.213
0.967,2.189,-1.222
18.133,2.089,16.044
0.25,2.799,-2.549
6.5,2.756,3.744
6.0,2.846,3.154
6.75,3.025,3.725
5.0,3.08,1.92
2.25,3.434,-1.184
-5.217,2.878,-8.095
5.183,2.46,2.724
1.717,2.256,-0.539
8.817,2.294,6.522
-2.317,2.466,-4.783
9.183,2.689,6.494
7.033,2.521,4.512
-1.767,2.321,-4.088
7.4,2.61,4.79
4.4,1.935,2.465
11.483,2.14,9.344
0.383,2.287,-1.904
-1.417,2.682,-4.099
-0.767,1.616,-2.383
-0.383,2.237,-2.621
9.683,2.056,7.628
-3.633,2.26,-5.893
3.85,1.569,2.281
-1.8,2.102,-3.902
-1.283,1.988,-3.271
-0.617,2.007,-2.624
0.933,1.9,-0.967
5.917,2.171,3.746
2.25,2.318,-0.068
0.1,2.137,-2.037
7.083,2.145,4.938
0.583,2.44,-1.857
2.217,2.103,0.114
9.983,2.038,7.945
-0.65,2.275,-2.925
11.0,1.872,9.128
-5.483,2.396,-7.88
7.467,2.314,5.153
10.117,2.577,7.539
0.833,2.712,-1.879
1.25,2.599,-1.349
8.733,2.706,6.027
2.133,2.097,0.036
2.967,2.335,0.632
11.35,2.407,8.943
8.117,3.069,5.048
10.917,2.678,8.239
9.35,2.894,6.456
8.617,2.867,5.75
-3.867,3.579,-7.446
8.233,2.857,5.376
2.2,2.811,-0.611
3.8,2.373,1.427
6.883,2.235,4.648
0.417,4.272,-3.855
-1.05,2.955,-4.005
7.917,2.41,5.506
0.333,2.651,-2.318
6.467,2.554,3.913
9.067,2.804,6.263
1.467,3.244,-1.777
5.567,3.28,2.287
-1.033,2.109,-3.142
-1.617,2.445,-4.062
-0.833,2.234,-3.067
-0.0,2.274,-2.274
5.45,2.151,3.299
1.6,2.231,-0.631
4.067,2.21,1.857
3.717,2.428,1.289
6.7,2.317,4.383
6.7,2.478,4.222
6.417,2.53,3.886
4.483,2.881,1.602
-0.85,2.6,-3.45
3.4,3.156,0.244
9.783,3.262,6.522
-5.417,2.44,-7.856
8.7,2.377,6.323
-1.433,2.554,-3.987
7.0,2.378,4.622
10.433,2.565,7.869
0.25,2.662,-2.412
9.167,2.535,6.631
3.933,2.672,1.261
4.267,2.358,1.908
4.167,3.345,0.822
11.733,2.954,8.78
-0.0,2.752,-2.752
-0.0,2.904,-2.904
9.233,2.766,6.467
-0.617,2.845,-3.462
4.75,2.282,2.468
12.433,2.365,10.068
0.183,2.714,-2.531
-0.0,2.69,-2.69
13.5,1.81,11.69
13.883,2.526,11.357
4.983,2.863,2.12
18.55,3.698,14.852
13.933,4.097,9.837
-0.0,4.091,-4.091
7.317,3.588,3.728
13.483,3.381,10.102
6.167,3.772,2.395
5.733,4.007,1.726
4.7,4.108,0.592
9.617,4.585,5.031
-3.317,4.245,-7.562
-2.717,2.706,-5.422
2.817,2.294,0.523
2.817,2.561,0.256
15.717,2.891,12.826
-1.233,3.882,-5.115
0.717,3.743,-3.027
1.517,1.967,-0.45
7.467,3.042,4.424
5.917,3.245,2.672
-0.0,3.237,-3.237
-0.5,2.986,-3.486
10.8,1.897,8.903
16.533,3.044,13.489
-0.85,3.339,-4.189
3.1,3.278,-0.178
15.583,2.936,12.647
9.017,3.478,5.538
4.333,3.184,1.15
11.617,3.997,7.619
8.433,3.96,4.474
11.033,3.845,7.188
10.733,3.586,7.148
4.567,3.845,0.722
4.017,3.866,0.15
3.733,4.072,-0.338
5.067,3.486,1.581
4.117,3.395,0.722
2.0,2.641,-0.641
9.05,3.431,5.619
7.733,3.581,4.153
-0.1,2.722,-2.822
4.367,2.538,1.828
4.3,3.129,1.171
-2.017,2.437,-4.453
12.95,2.62,10.33
5.167,3.276,1.891
7.033,2.742,4.291
19.1,2.85,16.25
17.717,3.015,14.702
0.3,3.217,-2.917
-0.917,3.122,-4.039
4.017,2.796,1.221
4.267,2.545,1.721
11.367,3.214,8.153
12.2,3.086,9.114
2.85,2.677,0.173
3.833,2.476,1.357
11.867,2.783,9.084
2.517,2.826,-0.309
0.7,3.117,-2.417
0.3,2.68,-2.38
3.667,2.276,1.391
23.233,2.578,20.655
11.283,3.171,8.112
-0.0,2.459,-2.459
-0.0,2.19,-2.19
23.75,3.361,20.389
-0.733,2.888,-3.621
1.517,2.977,-1.46
0.1,3.405,-3.305
0.417,1.697,-1.28
5.267,0.693,4.574
11.25,2.532,8.718
6.4,2.793,3.607
0.8,2.634,-1.834
14.483,2.462,12.021
9.883,2.511,7.372
7.883,2.98,4.904
9.717,3.264,6.453
8.317,3.542,4.775
10.783,3.574,7.209
10.017,2.955,7.062
2.1,3.053,-0.953
5.5,2.922,2.578
8.017,2.871,5.145
5.067,2.893,2.174
2.917,3.075,-0.158
5.633,3.32,2.313
4.083,4.166,-0.082
3.133,4.18,-1.046
7.067,3.462,3.604
12.783,3.723,9.061
15.933,3.462,12.471
9.1,3.543,5.557
17.35,3.318,14.032
3.033,3.67,-0.636
8.25,3.266,4.984
10.117,3.38,6.737
12.75,3.606,9.144
11.183,3.831,7.352
1.183,3.768,-2.585
1.667,3.319,-1.652
4.05,3.275,0.775
4.317,3.492,0.825
2.6,3.446,-0.846
2.183,3.427,-1.244
1.733,3.512,-1.779
0.733,3.629,-2.896
10.367,3.501,6.866
7.25,3.797,3.453
15.717,4.424,11.292
18.317,5.598,12.718
13.25,5.347,7.903
21.25,5.323,15.927
-0.817,5.422,-6.238
22.517,4.987,17.53
1.833,6.161,-4.328
2.333,4.728,-2.395
0.167,4.685,-4.519
20.467,4.451,16.016
15.217,5.658,9.559
19.083,5.554,13.53
1.6,5.803,-4.203
12.817,5.055,7.762
-0.1,5.774,-5.874
9.25,5.791,3.459
9.017,5.077,3.94
2.067,5.492,-3.425
7.3,5.2,2.1
8.467,5.039,3.427
12.983,5.142,7.842
11.533,5.709,5.824
6.6,5.678,0.922
-0.0,4.916,-4.916
-0.0,4.054,-4.054
7.667,2.147,5.52
10.583,1.884,8.7
-0.0,3.221,-3.221
10.1,2.464,7.636
11.083,3.026,8.057
9.667,3.048,6.619
16.7,3.951,12.749
8.95,4.127,4.823
5.417,4.427,0.99
9.433,4.475,4.958
8.117,4.3,3.817
15.75,4.154,11.596
7.967,4.084,3.883
7.083,3.814,3.27
-0.867,3.945,-4.812
4.833,3.976,0.857
4.967,3.505,1.462
7.033,3.555,3.478
9.483,2.949,6.534
13.883,3.608,10.276
13.883,3.89,9.993
12.717,4.088,8.629
11.967,4.106,7.861
13.783,4.198,9.585
13.067,4.209,8.857
3.483,4.381,-0.898
2.033,4.19,-2.157
4.367,3.444,0.923
7.017,2.972,4.045
5.367,3.507,1.86
-2.65,3.932,-6.582
-3.083,2.664,-5.747
6.717,2.273,4.444
6.167,2.569,3.597
6.95,2.584,4.366
8.883,3.567,5.316
-1.683,4.558,-6.241
7.2,2.347,4.853
-1.2,3.842,-5.042
9.883,3.054,6.829
7.883,3.927,3.957
7.017,4.787,2.229
2.283,5.13,-2.847
4.967,3.619,1.348
-0.467,4.125,-4.592
2.5,3.787,-1.287
-0.8,3.618,-4.418
7.683,1.978,5.705
13.233,3.749,9.484
2.667,5.257,-2.591
1.417,4.985,-3.568
10.783,4.694,6.089
3.967,5.297,-1.331
5.75,4.759,0.991
11.4,4.65,6.75
11.217,4.096,7.121
10.1,4.123,5.977
5.183,4.266,0.917
10.35,4.677,5.673
2.333,4.543,-2.21
1.883,4.246,-2.363
1.95,4.299,-2.349
1.133,2.884,-1.75
1.0,1.521,-0.521
1.917,2.698,-0.781
2.767,2.419,0.348
-2.967,2.308,-5.274
4.65,2.348,2.302
-2.417,2.652,-5.068
-4.117,-0.1,-4.017
5.45,2.094,3.356
10.05,2.206,7.844
1.633,2.573,-0.94
1.933,2.263,-0.33
13.3,2.314,10.986
5.25,2.82,2.43
0.933,3.17,-2.237
1.45,3.544,-2.094
4.317,3.334,0.982
6.183,2.509,3.674
2.0,2.939,-0.939
0.333,3.199,-2.865
10.083,2.909,7.174
8.633,2.671,5.962
0.6,2.76,-2.16
1.433,2.732,-1.298
6.433,2.073,4.36
8.433,2.426,6.008
1.967,2.255,-0.288
1.5,2.41,-0.91
9.933,2.953,6.98
1.667,2.7,-1.033
3.383,2.609,0.774
12.1,2.31,9.79
16.25,2.775,13.475
11.683,3.021,8.663
16.567,3.013,13.554
-1.633,3.348,-4.981
4.583,3.315,1.269
-3.267,2.918,-6.185
-0.817,2.959,-3.776
8.5,0.451,8.049
3.917,2.737,1.179
7.417,3.34,4.077
5.85,3.48,2.37
7.983,3.06,4.923
6.233,3.154,3.079
5.183,3.243,1.941
-3.533,3.15,-6.683
0.217,2.461,-2.244
7.667,1.346,6.321
-2.617,2.829,-5.446
-2.867,2.693,-5.56
9.067,2.307,6.76
1.5,2.727,-1.227
12.367,2.556,9.81
8.183,3.023,5.16
5.9,2.897,3.003
-1.617,3.1,-4.716
12.417,2.812,9.605
2.65,3.792,-1.142
2.717,3.798,-1.081
8.2,3.994,4.206
10.317,3.981,6.336
-0.133,4.259,-4.392
7.617,4.007,3.61
6.6,4.118,2.482
0.933,3.939,-3.005
0.8,3.979,-3.179
1.25,3.807,-2.557
-1.0,3.504,-4.504
5.883,4.123,1.761
10.15,3.896,6.254
6.8,3.86,2.94
6.3,3.922,2.378
5.433,4.021,1.412
8.567,3.764,4.803
4.567,3.823,0.744
14.1,3.572,10.528
8.0,4.167,3.833
9.683,4.101,5.582
17.867,4.041,13.826
2.867,4.385,-1.519
10.267,4.066,6.201
3.883,4.235,-0.352
6.767,3.823,2.943
3.45,3.795,-0.345
4.033,3.591,0.442
4.883,3.412,1.472
7.617,3.404,4.213
19.717,3.716,16.0
10.55,4.33,6.22
7.617,3.914,3.703
8.617,4.22,4.397
10.317,4.274,6.043
5.567,3.819,1.747
5.633,3.341,2.293
4.15,3.232,0.918
3.483,3.438,0.045
13.167,3.155,10.012
4.617,3.308,1.309
14.417,3.085,11.332
4.917,3.385,1.531
16.633,3.277,13.357
16.283,3.488,12.795
16.083,3.576,12.508
6.85,3.697,3.153
5.85,3.374,2.476
14.85,3.483,11.367
4.85,3.718,1.132
13.15,3.445,9.705
14.65,3.452,11.198
1.617,3.799,-2.183
16.167,3.48,12.687
-3.817,3.621,-7.438
2.167,3.155,-0.989
5.167,2.614,2.553
9.267,2.86,6.407
3.5,3.327,0.173
9.167,3.302,5.865
14.383,3.569,10.814
14.383,3.705,10.678
5.217,3.91,1.307
4.75,3.524,1.226
2.533,4.221,-1.688
-0.7,3.687,-4.387
0.35,2.791,-2.441
5.767,2.965,2.802
10.85,3.098,7.752
30.683,2.97,27.713
4.683,3.176,1.508
-0.4,3.669,-4.069
-0.0,3.741,-3.741
7.667,3.926,3.741
11.65,3.3,8.35
21.283,4.097,17.186
25.75,4.343,21.407
21.75,3.09,18.66
23.75,3.102,20.648
19.4,4.417,14.983
11.8,4.426,7.374
26.183,4.732,21.451
25.783,4.5,21.283
17.567,3.408,14.159
8.75,3.194,5.556
12.017,3.653,8.364
14.167,3.818,10.349
14.65,3.765,10.885
50.45,3.882,46.568
48.383,3.88,44.504
49.45,3.751,45.699
13.467,3.376,10.091
13.35,3.133,10.217
9.45,3.186,6.264
16.883,3.276,13.607
0.567,3.472,-2.905
9.0,3.584,5.416
8.15,3.745,4.405
0.5,3.549,-3.049
8.983,3.403,5.581
-1.717,3.239,-4.956
9.867,2.434,7.432
-0.0,2.805,-2.805
-0.0,2.514,-2.514
8.35,2.149,6.201
-0.0,2.221,-2.221
6.367,1.875,4.492
0.583,2.094,-1.511
2.367,2.32,0.046
6.783,2.266,4.518
2.1,2.315,-0.215
-0.883,1.748,-2.631
2.067,1.705,0.362
6.333,2.35,3.983
-2.0,2.259,-4.259
2.883,1.905,0.979
-1.283,2.251,-3.534
6.467,2.074,4.393
0.333,2.013,-1.68
-4.767,2.084,-6.851
2.033,1.554,0.479
0.3,1.935,-1.635
5.35,2.02,3.33
1.183,2.273,-1.09
10.717,2.192,8.524
9.017,2.582,6.435
-0.017,2.964,-2.98
-0.0,1.655,-1.655
2.9,2.065,0.835
11.3,2.215,9.085
10.4,2.74,7.66
2.85,3.739,-0.889
0.85,2.542,-1.692
2.917,2.45,0.466
-1.417,2.607,-4.024
-1.933,2.401,-4.334
-1.25,2.269,-3.519
-1.317,1.968,-3.284
-0.0,1.953,-1.953
6.583,2.024,4.559
2.583,2.376,0.207
4.583,2.281,2.302
-0.0,2.538,-2.538
-1.8,1.857,-3.657
-1.0,1.86,-2.86
-1.367,1.84,-3.206
-2.583,1.776,-4.359
8.8,1.627,7.173
-1.983,2.326,-4.31
-4.433,2.023,-6.456
-0.55,1.773,-2.323
-0.0,1.642,-1.642
-1.55,1.701,-3.251
-0.333,1.711,-2.045
-1.283,1.729,-3.012
7.6,1.735,5.865
-0.0,2.16,-2.16
-3.65,2.172,-5.822
4.567,0.096,4.47
0.55,2.155,-1.605
-1.4,1.958,-3.358
-1.733,2.047,-3.78
-0.95,1.942,-2.892
6.167,1.839,4.328
2.433,2.145,0.288
2.35,2.059,0.291
0.6,2.198,-1.598
3.117,2.026,1.091
1.0,2.135,-1.135
3.383,2.214,1.17
2.0,2.335,-0.335
-2.75,2.213,-4.963
6.783,2.058,4.726
4.683,2.389,2.295
-1.517,2.496,-4.012
3.35,1.508,1.842
0.283,2.225,-1.942
8.467,2.163,6.304
-2.5,2.305,-4.805
-0.717,1.765,-2.482
7.033,1.914,5.12
1.567,2.322,-0.755
6.45,2.127,4.323
0.25,2.404,-2.154
2.917,1.819,1.098
-2.217,2.279,-4.495
2.183,2.129,0.055
3.233,2.136,1.097
9.45,2.162,7.288
-2.9,2.259,-5.159
6.117,2.128,3.989
3.933,2.503,1.43
6.95,2.378,4.572
5.9,3.472,2.428
10.9,2.979,7.921
5.917,3.72,2.197
15.683,3.589,12.095
-0.083,4.131,-4.215
1.417,3.473,-2.056
0.3,3.011,-2.711
13.3,2.202,11.098
2.967,3.001,-0.034
13.367,2.81,10.557
4.583,3.316,1.267
12.85,3.514,9.336
12.85,3.712,9.138
1.933,4.06,-2.127
2.433,3.228,-0.795
3.65,3.03,0.62
2.5,3.105,-0.605
12.583,2.442,10.142
14.183,3.104,11.08
13.683,2.724,10.96
3.333,2.672,0.661
3.517,3.649,-0.132
-0.0,2.827,-2.827
3.833,2.556,1.278
-0.0,2.691,-2.691
3.033,2.449,0.585
9.317,2.585,6.732
4.733,2.798,1.935
10.833,2.491,8.342
10.8,4.157,6.643
4.183,4.514,-0.331
3.683,2.968,0.715
2.017,1.977,0.04
12.083,2.321,9.763
3.5,3.96,-0.46
2.933,3.237,-0.304
0.2,3.055,-2.855
0.117,2.167,-2.05
-0.75,1.971,-2.721
-0.117,1.915,-2.032
4.583,2.101,2.482
2.2,2.299,-0.099
2.533,2.225,0.308
3.15,2.202,0.948
1.833,2.307,-0.473
-0.0,2.201,-2.201
20.25,2.199,18.051
2.75,2.825,-0.075
18.35,2.925,15.425
13.333,2.589,10.745
0.75,2.66,-1.91
-0.0,2.602,-2.602
9.95,2.234,7.716
2.417,3.456,-1.04
10.483,3.081,7.402
10.283,3.323,6.96
10.483,3.397,7.086
11.733,3.264,8.469
-2.067,3.178,-5.245
15.35,2.54,12.81
12.217,3.382,8.835
4.9,3.767,1.133
4.05,3.666,0.384
-0.933,3.162,-4.095
16.817,2.719,14.098
0.317,3.705,-3.389
0.883,2.562,-1.678
5.817,2.098,3.719
-0.0,2.573,-2.573
11.467,2.071,9.396
6.367,3.9,2.467
4.783,2.447,2.337
10.25,1.345,8.905
11.783,4.287,7.496
5.333,4.242,1.092
-0.0,3.565,-3.565
0.25,2.832,-2.582
5.867,2.018,3.849
4.533,2.307,2.226
7.55,3.026,4.524
18.967,3.3,15.667
8.7,3.614,5.086
6.983,3.158,3.826
18.983,3.359,15.624
-0.65,3.589,-4.239
4.0,3.396,0.604
7.0,2.854,4.146
10.033,2.59,7.443
12.817,2.089,10.727
6.1,3.858,2.242
17.117,3.827,13.29
16.517,4.278,12.238
11.65,3.63,8.02
12.967,3.763,9.204
-0.0,4.007,-4.007
-0.0,2.842,-2.842
2.683,2.389,0.294
5.783,0.12,5.663
5.767,3.187,2.579
3.55,3.108,0.442
12.567,2.582,9.984
4.05,3.952,0.098
14.15,3.671,10.479
5.4,3.909,1.491
14.683,3.499,11.184
12.583,4.132,8.451
6.4,4.191,2.209
4.567,3.917,0.65
5.417,4.124,1.293
-0.05,3.633,-3.683
13.617,3.772,9.844
8.433,2.552,5.882
8.783,3.257,5.526
3.283,3.314,-0.031
5.933,2.909,3.024
10.583,2.871,7.712
11.983,2.783,9.2
4.767,3.037,1.729
19.267,3.205,16.061
9.25,3.951,5.299
6.75,3.723,3.027
6.15,3.626,2.524
6.8,3.531,3.269
8.083,3.558,4.526
6.4,3.558,2.842
4.817,3.437,1.38
6.65,3.46,3.19
3.933,3.515,0.418
5.45,3.127,2.323
9.133,2.887,6.247
1.2,2.874,-1.674
1.317,2.443,-1.127
2.2,2.674,-0.474
10.883,2.464,8.42
3.1,2.941,0.159
17.65,3.123,14.527
3.317,4.398,-1.081
15.65,2.471,13.179
16.3,1.897,14.403
13.25,5.655,7.595
5.233,6.288,-1.054
1.133,5.45,-4.317
5.433,3.279,2.154
6.167,3.862,2.305
2.0,4.331,-2.331
2.133,3.664,-1.531
9.35,2.223,7.127
-10.95,2.402,-13.352
-1.533,2.025,-3.558
6.25,0.046,6.204
10.55,2.727,7.823
10.633,3.072,7.562
13.383,3.315,10.069
16.717,3.71,13.007
17.95,3.486,14.464
19.017,3.54,15.477
14.467,3.934,10.533
30.9,3.903,26.997
-2.4,3.857,-6.257
-0.55,3.249,-3.799
0.8,3.234,-2.434
-1.2,2.876,-4.076
4.95,2.824,2.126
5.0,3.13,1.87
-0.2,3.124,-3.324
6.983,2.535,4.448
7.183,3.229,3.955
7.4,4.128,3.272
6.9,3.318,3.582
6.75,3.895,2.855
6.15,4.108,2.042
10.583,3.791,6.793
0.567,4.985,-4.418
-0.0,2.345,-2.345
5.433,2.068,3.366
9.233,3.816,5.418
11.283,5.42,5.863
0.65,5.918,-5.268
8.833,3.187,5.646
7.833,3.256,4.578
2.2,3.757,-1.557
14.967,3.928,11.038
11.867,3.754,8.113
14.967,3.642,11.324
1.067,3.653,-2.586
1.917,3.928,-2.011
0.567,3.434,-2.867
-0.0,3.423,-3.423
5.967,3.166,2.8
2.1,3.221,-1.121
4.467,3.283,1.184
7.567,3.404,4.163
2.933,3.695,-0.762
3.367,3.425,-0.059
7.083,3.686,3.398
3.85,3.735,0.115
3.5,3.784,-0.284
0.65,3.469,-2.819
0.65,3.347,-2.697
-0.033,2.896,-2.929
-1.0,2.442,-3.442
0.217,2.407,-2.191
1.45,2.135,-0.685
0.55,2.106,-1.556
7.683,2.21,5.473
-0.0,2.521,-2.521
0.55,2.299,-1.749
-0.0,1.536,-1.536
8.35,0.533,7.817
-0.0,3.034,-3.034
7.117,2.453,4.664
6.067,2.382,3.685
9.0,2.465,6.535
3.85,2.833,1.017
9.5,1.523,7.977
2.517,2.524,-0.008
9.167,2.512,6.654
0.867,2.045,-1.178
-0.0,1.531,-1.531
-0.0,1.516,-1.516
-0.0,2.004,-2.004
-0.0,2.109,-2.109
-0.5,2.11,-2.61
-1.483,2.065,-3.549
7.317,1.741,5.576
0.433,2.204,-1.77
-0.0,2.236,-2.236
7.433,2.33,5.103
2.2,2.421,-0.221
0.067,2.393,-2.326
-0.117,2.168,-2.285
-0.4,2.102,-2.502
12.117,2.054,10.063
6.067,2.598,3.469
2.0,2.402,-0.402
10.067,2.352,7.715
0.817,2.537,-1.721
11.067,2.582,8.484
3.25,3.264,-0.014
8.533,2.953,5.581
6.167,3.529,2.638
-0.0,3.461,-3.461
6.9,2.339,4.561
6.217,2.313,3.903
1.217,3.162,-1.945
2.833,2.509,0.324
2.117,1.586,0.531
0.383,2.335,-1.951
11.167,2.161,9.006
0.7,3.238,-2.538
-0.167,2.554,-2.72
13.267,2.386,10.881
12.15,2.922,9.228
4.45,3.34,1.11
3.367,2.516,0.85
3.8,1.916,1.884
3.983,1.742,2.241
2.5,3.03,-0.53
8.633,1.986,6.648
7.583,3.47,4.113
7.283,3.321,3.962
-0.933,4.134,-5.067
-1.133,2.555,-3.689
7.167,2.936,4.231
-0.7,3.519,-4.219
2.117,2.202,-0.085
-1.617,2.433,-4.05
9.917,2.298,7.619
3.083,2.43,0.654
-3.017,2.317,-5.334
-0.283,2.186,-2.469
-4.333,2.186,-6.519
-0.0,1.841,-1.841
3.483,1.951,1.533
2.317,2.199,0.117
-0.0,2.23,-2.23
1.317,2.264,-0.947
6.317,1.32,4.996
3.65,2.502,1.148
1.433,2.422,-0.989
4.333,2.331,2.003
2.233,2.467,-0.233
-0.85,1.902,-2.752
9.283,1.655,7.628
-1.3,2.389,-3.689
8.317,2.258,6.059
0.333,2.305,-1.972
4.3,2.287,2.013
3.467,2.336,1.131
5.367,2.311,3.056
10.133,2.33,7.803
12.667,2.918,9.749
6.367,3.165,3.201
2.867,3.763,-0.896
-3.967,2.894,-6.86
3.583,2.262,1.321
-2.067,2.333,-4.4
3.383,2.235,1.149
7.4,2.272,5.128
3.183,2.368,0.816
3.4,2.239,1.161
5.95,2.307,3.643
1.333,2.44,-1.107
3.117,2.345,0.771
8.233,2.266,5.967
7.633,2.229,5.404
1.7,2.265,-0.565
8.4,2.655,5.745
3.3,2.693,0.607
5.917,2.855,3.062
3.5,2.606,0.894
0.283,2.458,-2.175
12.25,2.32,9.93
8.333,2.45,5.883
2.8,2.499,0.301
6.317,2.197,4.12
-2.3,2.306,-4.606
3.433,2.183,1.25
-3.033,2.25,-5.283
9.25,2.267,6.983
-3.3,2.359,-5.659
-4.583,1.612,-6.196
-0.0,2.205,-2.205
2.117,2.059,0.058
1.15,2.084,-0.934
7.317,2.023,5.293
-0.883,2.257,-3.14
6.983,2.147,4.836
5.767,2.335,3.432
1.733,2.274,-0.54
-0.75,2.192,-2.942
-1.067,2.346,-3.413
-2.95,2.198,-5.148
-1.117,2.082,-3.198
-3.283,2.021,-5.304
1.4,1.82,-0.42
2.867,2.054,0.813
1.867,2.237,-0.37
6.383,2.09,4.293
-0.033,2.203,-2.236
8.133,2.188,5.945
0.2,2.326,-2.126
6.933,2.281,4.652
4.183,2.5,1.683
9.867,2.543,7.324
-3.167,2.505,-5.671
-5.933,2.026,-7.959
-0.5,1.865,-2.365
12.567,2.064,10.502
9.767,2.41,7.357
-1.433,2.294,-3.727
1.083,2.384,-1.3
7.067,2.398,4.669
5.117,2.408,2.709
1.167,2.612,-1.445
1.35,2.474,-1.124
-1.6,1.933,-3.533
1.0,2.215,-1.215
0.183,2.734,-2.551
11.933,2.243,9.69
-2.9,3.436,-6.336
9.017,2.024,6.992
65.383,2.5,62.884
-0.0,3.729,-3.729
-0.0,3.503,-3.503
-1.783,3.217,-5.0
-0.0,2.985,-2.985
-0.0,2.37,-2.37
-0.0,2.264,-2.264
56.0,2.23,53.77
-0.0,3.898,-3.898
-3.467,3.521,-6.987
5.017,2.501,2.516
-1.733,2.503,-4.237
-2.133,2.417,-4.551
9.133,2.19,6.943
-0.6,2.425,-3.025
-5.117,2.233,-7.349
-0.0,2.286,-2.286
0.1,2.164,-2.064
-4.05,1.809,-5.859
0.133,1.814,-1.681
9.367,2.028,7.339
-0.867,2.574,-3.441
0.633,2.153,-1.519
0.7,2.069,-1.369
6.283,1.256,5.027
2.85,3.059,-0.209
1.85,2.522,-0.672
3.483,2.335,1.148
9.05,2.346,6.704
-0.733,2.78,-3.513
0.083,2.247,-2.164
9.45,2.274,7.176
-0.0,3.654,-3.654
2.067,2.738,-0.671
-2.833,2.874,-5.708
10.167,2.54,7.626
10.983,2.912,8.071
1.45,3.156,-1.706
0.65,3.019,-2.369
-0.133,2.894,-3.027
5.25,3.068,2.182
-0.617,2.859,-3.476
4.083,2.669,1.414
3.9,2.763,1.137
0.133,2.778,-2.645
1.2,2.365,-1.165
0.633,2.623,-1.989
9.15,2.516,6.634
2.867,2.934,-0.067
2.75,2.633,0.117
4.617,2.402,2.214
2.133,2.748,-0.614
1.667,2.768,-1.101
-0.417,2.557,-2.974
8.5,1.054,7.446
8.283,3.024,5.26
11.733,2.823,8.91
-0.667,2.999,-3.666
9.833,2.64,7.193
8.75,2.94,5.81
-2.3,2.726,-5.026
9.85,1.9,7.95
-1.2,2.136,-3.336
-0.733,1.879,-2.612
9.717,2.431,7.285
-1.767,2.9,-4.667
13.7,2.503,11.197
-3.067,2.665,-5.732
5.0,2.473,2.527
-0.0,2.56,-2.56
12.617,2.386,10.23
-0.0,4.012,-4.012
12.5,2.44,10.06
6.15,5.404,0.746
-3.083,6.062,-9.146
2.75,3.097,-0.347
5.467,4.209,1.258
8.533,4.586,3.948
-0.0,4.286,-4.286
2.733,3.451,-0.718
4.517,3.283,1.234
6.517,1.985,4.532
4.717,2.907,1.809
0.117,3.309,-3.192
7.7,2.976,4.724
7.1,3.937,3.163
-1.467,2.485,-3.952
12.317,1.664,10.653
0.033,3.26,-3.227
3.8,2.277,1.523
1.967,2.076,-0.109
1.967,1.653,0.313
2.483,2.484,-0.001
2.133,1.917,0.217
4.467,2.891,1.576
-1.467,3.294,-4.761
-1.467,2.556,-4.023
9.35,2.626,6.724
1.45,3.166,-1.716
-0.5,2.555,-3.055
2.667,2.075,0.591
1.817,2.426,-0.61
0.433,1.922,-1.489
12.633,2.175,10.458
7.35,3.131,4.219
9.417,2.822,6.595
-0.233,2.723,-2.956
9.333,2.506,6.828
9.217,2.857,6.36
6.533,3.147,3.387
5.45,2.488,2.962
3.083,2.735,0.348
11.75,2.523,9.227
10.9,3.081,7.819
-1.4,3.322,-4.722
8.767,2.489,6.278
0.133,2.728,-2.594
-0.0,2.497,-2.497
-0.233,2.635,-2.868
-0.067,1.968,-2.035
0.833,2.218,-1.385
-0.8,2.233,-3.033
0.067,1.915,-1.848
-0.917,1.987,-2.904
-2.55,2.077,-4.627
12.633,1.958,10.676
12.633,4.143,8.49
-1.483,3.963,-5.446
1.117,1.938,-0.821
0.783,1.958,-1.175
0.683,2.121,-1.438
-2.2,2.465,-4.665
-0.25,2.147,-2.397
15.717,2.085,13.632
-0.367,2.778,-3.145
-2.433,1.72,-4.154
0.583,1.826,-1.243
12.65,1.997,10.653
-0.2,2.839,-3.039
0.5,2.594,-2.094
10.717,2.455,8.262
11.2,2.893,8.307
10.533,2.758,7.775
-2.467,3.282,-5.748
-0.0,2.9,-2.9
-0.783,1.952,-2.735
8.85,2.263,6.587
10.367,2.382,7.985
-5.967,2.747,-8.714
-0.0,2.335,-2.335
3.633,2.072,1.562
-1.283,2.377,-3.66
-0.267,2.106,-2.373
2.433,2.017,0.417
-0.017,2.137,-2.154
0.067,0.433,-0.366
1.95,2.055,-0.105
1.267,2.234,-0.967
-1.067,2.163,-3.229
-4.167,2.071,-6.238
13.45,1.825,11.625
1.0,2.822,-1.822
3.083,2.257,0.826
2.917,2.235,0.682
2.9,2.097,0.803
-3.5,2.48,-5.98
14.7,1.382,13.318
0.883,2.693,-1.81
9.417,2.059,7.357
0.867,2.52,-1.654
2.85,2.387,0.463
11.433,2.849,8.585
13.533,2.991,10.542
1.767,3.276,-1.509
16.817,3.003,13.814
3.45,3.112,0.338
-0.0,2.086,-2.086
1.367,2.09,-0.723
-0.933,2.135,-3.068
1.167,1.973,-0.806
-1.35,1.913,-3.263
0.2,1.916,-1.716
0.55,1.85,-1.3
14.783,2.023,12.76
14.783,2.628,12.155
14.833,2.661,12.173
-0.033,2.747,-2.78
7.533,3.117,4.416
11.083,2.613,8.47
2.133,2.572,-0.439
4.167,3.14,1.027
4.367,2.655,1.712
7.417,2.452,4.964
8.467,3.103,5.364
4.317,2.984,1.333
-0.533,3.22,-3.753
-0.617,2.965,-3.581
-0.217,2.392,-2.608
-0.217,2.28,-2.497
1.85,2.248,-0.398
2.5,2.144,0.356
-0.5,2.218,-2.718
-0.167,2.175,-2.342
-0.0,2.216,-2.216
-0.6,2.089,-2.689
3.75,2.0,1.75
2.817,2.239,0.577
2.15,2.197,-0.047
2.217,2.169,0.047
0.75,2.211,-1.461
7.3,2.173,5.127
3.533,2.446,1.088
11.8,2.187,9.613
-4.25,2.38,-6.63
1.717,1.959,-0.242
1.4,1.814,-0.414
2.233,2.247,-0.013
11.867,2.38,9.487
-0.183,3.376,-3.559
14.133,2.904,11.229
15.133,3.355,11.779
16.367,3.244,13.123
-0.667,3.221,-3.887
0.783,2.818,-2.035
1.133,3.157,-2.024
0.583,3.502,-2.919
2.667,3.131,-0.465
1.667,3.098,-1.431
2.167,3.096,-0.929
15.1,0.364,14.736
19.05,3.836,15.214
0.4,4.257,-3.857
17.717,4.66,13.057
0.4,5.957,-5.557
11.25,2.207,9.043
6.283,5.683,0.6
5.75,5.243,0.507
15.6,4.759,10.841
0.567,5.721,-5.154
19.667,2.423,17.244
-1.117,5.379,-6.495
16.0,3.453,12.547
-0.167,5.694,-5.861
2.867,2.495,0.372
-0.25,3.665,-3.915
9.75,1.784,7.966
22.3,3.43,18.87
9.567,4.449,5.117
9.567,4.512,5.055
0.867,4.645,-3.778
4.2,2.314,1.886
1.817,4.335,-2.518
5.367,3.288,2.079
-1.817,3.499,-5.316
8.567,2.822,5.745
-1.85,2.828,-4.678
-1.733,2.753,-4.487
-0.35,2.413,-2.763
-0.983,2.228,-3.211
8.567,2.105,6.462
0.217,2.444,-2.227
5.483,2.328,3.155
8.267,2.494,5.772
-1.533,3.155,-4.688
11.0,2.404,8.596
1.367,4.175,-2.808
9.567,3.289,6.277
-4.333,3.608,-7.942
-4.233,2.455,-6.689
8.567,2.365,6.201
15.217,3.517,11.7
0.817,3.692,-2.875
0.667,3.044,-2.377
13.05,2.711,10.339
12.917,4.043,8.874
12.75,4.695,8.055
-3.1,5.53,-8.63
7.75,2.265,5.485
7.75,3.439,4.311
-0.6,4.416,-5.016
6.533,2.258,4.275
7.633,2.642,4.992
-3.25,3.627,-6.877
14.667,2.863,11.804
-5.233,4.69,-9.924
-6.5,2.32,-8.82
-4.017,0.68,-4.696
12.15,0.247,11.903
-0.15,2.822,-2.972
-3.717,2.255,-5.971
4.983,2.239,2.745
10.567,2.81,7.756
10.917,3.04,7.877
0.45,2.697,-2.247
9.817,3.126,6.691
0.383,3.679,-3.295
9.133,3.112,6.021
-0.0,3.762,-3.762
2.433,3.779,-1.346
1.5,2.258,-0.758
8.25,2.151,6.099
15.6,4.662,10.938
-2.9,5.435,-8.335
4.367,2.892,1.474
13.65,4.151,9.499
4.733,5.003,-0.269
4.233,4.737,-0.504
5.017,4.502,0.515
8.083,3.869,4.214
3.083,3.864,-0.781
7.467,3.782,3.685
6.3,4.189,2.111
1.233,3.605,-2.371
-1.017,4.02,-5.037
1.417,3.548,-2.131
0.383,2.371,-1.987
16.05,2.207,13.843
15.133,4.97,10.164
13.917,4.723,9.193
4.65,4.701,-0.051
9.483,4.623,4.86
11.35,4.878,6.472
1.75,4.913,-3.163
2.017,4.437,-2.42
1.75,3.363,-1.613
3.25,2.702,0.548
2.0,3.462,-1.462
5.617,3.276,2.34
12.283,3.464,8.82
1.567,4.175,-2.608
-0.133,4.22,-4.353
5.5,2.233,3.267
6.6,4.101,2.499
14.933,4.119,10.814
-0.0,5.508,-5.508
-4.933,2.151,-7.084
12.85,2.419,10.431
4.667,4.577,0.09
3.367,4.293,-0.927
17.083,4.318,12.765
14.483,4.676,9.808
0.617,4.597,-3.98
3.283,4.789,-1.506
1.867,4.144,-2.277
1.733,3.701,-1.968
1.9,3.686,-1.786
11.3,3.301,7.999
4.783,4.094,0.689
0.217,4.266,-4.049
2.667,3.649,-0.982
0.65,3.368,-2.718
0.65,3.822,-3.172
11.033,3.508,7.525
5.5,4.135,1.365
3.917,3.994,-0.077
4.383,3.731,0.652
9.45,3.516,5.934
-0.35,3.518,-3.868
24.567,3.398,21.169
50.733,3.756,46.978
18.283,3.74,14.543
-0.917,3.677,-4.594
-2.117,2.9,-5.017
-0.483,3.87,-4.354
-0.383,3.53,-3.913
0.017,3.115,-3.098
3.75,3.15,0.6
2.917,3.247,-0.33
19.1,3.44,15.66
2.65,3.81,-1.16
2.167,3.816,-1.65
7.05,3.813,3.237
4.767,3.857,0.91
3.483,3.671,-0.188
4.3,3.493,0.807
3.567,3.821,-0.254
5.567,3.867,1.699
-1.767,3.588,-5.354
5.45,3.276,2.174
15.833,3.248,12.585
-1.633,3.648,-5.282
15.167,3.251,11.916
0.067,3.792,-3.726
15.35,3.616,11.734
3.317,4.009,-0.692
6.783,3.655,3.128
5.783,3.759,2.025
6.783,3.706,3.077
10.683,3.723,6.96
3.8,4.232,-0.432
4.65,3.56,1.09
16.117,3.618,12.499
16.75,4.375,12.375
2.067,4.292,-2.226
4.283,3.976,0.307
7.4,3.999,3.401
9.0,4.269,4.731
8.767,4.292,4.474
4.183,4.225,-0.041
-2.983,4.11,-7.094
-3.367,3.741,-7.108
-3.117,2.398,-5.515
4.75,2.908,1.842
11.917,2.933,8.983
13.217,3.738,9.479
1.15,3.977,-2.827
10.95,3.858,7.092
18.183,4.379,13.804
11.333,4.477,6.856
10.433,4.298,6.135
5.717,4.256,1.46
5.883,4.137,1.746
5.767,4.196,1.571
5.8,4.1,1.7
6.083,4.112,1.972
11.883,4.244,7.64
-1.583,4.147,-5.73
8.233,3.205,5.028
8.817,3.709,5.107
6.2,3.797,2.403
7.25,3.996,3.254
-0.1,3.84,-3.94
-4.483,3.81,-8.293
44.633,3.647,40.987
1.483,5.842,-4.359
43.733,4.455,39.278
11.333,5.911,5.422
-0.0,5.118,-5.118
-0.0,4.925,-4.925
-0.0,5.142,-5.142
11.333,2.524,8.81
5.367,5.658,-0.291
-0.0,5.977,-5.977
4.883,2.409,2.474
12.667,5.807,6.859
-0.0,6.444,-6.444
-0.0,6.104,-6.104
-0.35,6.133,-6.483
-0.0,4.956,-4.956
2.1,4.325,-2.225
3.2,4.464,-1.264
2.7,3.626,-0.926
2.05,3.481,-1.431
2.333,3.543,-1.21
-1.3,3.327,-4.627
3.367,1.794,1.573
9.517,2.414,7.103
-1.017,2.889,-3.905
1.367,1.685,-0.318
2.917,1.748,1.169
-1.183,1.554,-2.737
6.317,1.672,4.644
6.283,2.33,3.953
-0.333,2.255,-2.588
7.4,1.939,5.461
8.733,3.088,5.646
6.317,3.311,3.006
9.133,2.895,6.238
9.0,4.003,4.997
1.4,3.118,-1.718
-1.1,2.086,-3.186
2.8,1.607,1.193
10.483,2.344,8.139
-1.1,2.947,-4.047
-2.767,1.921,-4.687
9.3,1.758,7.542
-0.0,2.292,-2.292
-1.1,1.76,-2.86
3.533,0.08,3.453
10.8,2.296,8.504
0.133,2.518,-2.384
10.067,2.0,8.066
0.683,2.551,-1.868
0.167,3.411,-3.244
0.017,2.415,-2.398
13.783,2.352,11.432
2.867,2.886,-0.019
-0.017,2.315,-2.332
8.433,2.74,5.694
5.3,2.848,2.452
-0.067,2.903,-2.969
0.983,2.596,-1.613
-0.983,2.95,-3.933
4.567,2.462,2.105
0.8,2.654,-1.854
1.267,2.32,-1.053
1.5,2.26,-0.76
13.083,2.355,10.729
1.667,2.933,-1.266
1.567,2.025,-0.458
2.0,2.936,-0.936
9.317,2.852,6.465
2.083,3.167,-1.083
2.017,2.846,-0.829
3.6,2.731,0.869
11.85,3.299,8.551
11.233,3.266,7.967
10.983,3.605,7.378
1.85,3.608,-1.758
6.6,4.161,2.439
-1.217,3.373,-4.589
15.783,2.555,13.229
0.3,2.797,-2.497
-4.083,2.591,-6.674
0.167,2.396,-2.229
12.367,0.285,12.082
10.367,3.275,7.092
16.233,3.019,13.215
1.983,3.376,-1.392
2.467,2.682,-0.215
2.383,3.403,-1.02
-0.333,2.171,-2.505
3.367,2.424,0.942
2.45,1.646,0.804
1.983,1.949,0.034
16.283,2.743,13.54
4.2,3.791,0.409
15.483,3.235,12.249
15.65,3.705,11.945
10.5,4.185,6.315
8.467,4.266,4.201
0.967,4.557,-3.591
4.417,4.27,0.147
11.683,3.915,7.768
3.15,4.228,-1.078
11.817,3.825,7.991
2.767,4.102,-1.335
2.483,2.818,-0.334
6.6,2.39,4.21
5.5,3.425,2.075
-1.217,3.557,-4.773
3.417,2.497,0.92
8.333,2.994,5.339
9.533,2.682,6.851
8.55,3.365,5.185
8.5,3.565,4.935
8.5,2.988,5.512
1.717,3.22,-1.504
8.1,2.512,5.588
6.417,2.443,3.974
-1.567,2.496,-4.063
22.0,2.606,19.394
18.4,2.934,15.466
20.7,2.917,17.783
-0.0,3.273,-3.273
4.983,2.882,2.101
2.2,3.279,-1.079
-0.0,3.378,-3.378
-0.383,3.31,-3.694
14.117,2.931,11.186
11.567,2.604,8.963
12.117,2.491,9.625
7.7,2.509,5.191
14.317,2.454,11.863
9.433,2.676,6.758
0.933,2.721,-1.788
-0.75,2.397,-3.147
-1.05,2.816,-3.866
15.05,2.431,12.619
-1.167,2.303,-3.469
-2.267,2.592,-4.859
12.217,2.824,9.392
8.217,2.32,5.896
12.983,2.306,10.677
6.75,2.39,4.36
6.5,2.433,4.067
5.8,2.571,3.229
2.333,2.642,-0.309
8.0,2.668,5.332
8.683,2.613,6.071
8.117,2.392,5.725
4.617,2.4,2.217
2.367,2.73,-0.364
2.3,3.712,-1.412
4.8,3.103,1.697
12.717,2.867,9.85
10.45,3.302,7.148
-0.0,2.347,-2.347
2.0,2.33,-0.33
13.833,3.096,10.737
2.8,3.35,-0.55
3.4,3.065,0.335
2.817,2.822,-0.005
5.767,2.707,3.06
2.633,2.964,-0.331
5.067,2.997,2.07
0.617,3.234,-2.617
0.367,3.013,-2.647
0.2,1.921,-1.721
17.65,2.681,14.969
-0.8,4.394,-5.194
17.533,3.326,14.207
1.867,4.03,-2.163
1.033,3.881,-2.848
11.4,3.958,7.442
11.933,3.803,8.13
5.95,3.735,2.215
-0.8,3.374,-4.174
1.567,3.332,-1.766
-0.35,3.908,-4.258
3.967,3.661,0.305
6.317,3.791,2.526
6.75,3.365,3.385
-0.767,3.693,-4.46
13.033,3.901,9.133
14.617,3.261,11.356
4.0,3.305,0.695
0.133,3.566,-3.433
1.133,1.63,-0.496
-0.567,2.044,-2.611
-0.967,2.4,-3.367
-0.467,2.962,-3.429
-0.933,2.584,-3.518
-1.433,2.254,-3.688
-1.133,2.073,-3.206
-1.767,2.064,-3.831
7.033,1.873,5.161
-2.7,2.289,-4.989
-0.0,2.005,-2.005
7.783,2.224,5.559
-1.0,5.15,-6.15
-0.0,2.351,-2.351
-0.917,2.259,-3.176
0.667,2.186,-1.519
1.983,2.256,-0.272
10.983,1.615,9.368
4.617,4.766,-0.15
6.633,4.398,2.235
0.233,4.76,-4.526
8.033,3.989,4.044
9.133,3.627,5.506
8.583,3.409,5.174
-0.1,3.859,-3.959
-0.533,2.485,-3.018
-0.0,1.764,-1.764
-0.2,1.872,-2.072
11.083,2.141,8.942
-0.317,2.496,-2.813
0.9,2.298,-1.398
4.283,2.279,2.004
8.433,2.452,5.981
2.733,2.765,-0.031
-2.483,2.387,-4.871
9.567,2.101,7.466
0.783,2.863,-2.079
-2.567,3.087,-5.654
7.883,2.149,5.734
7.0,2.93,4.07
12.4,2.918,9.482
-0.217,3.159,-3.376
2.45,3.497,-1.047
3.9,3.664,0.236
3.4,3.233,0.167
11.033,3.261,7.772
5.567,3.977,1.59
4.983,4.587,0.396
9.467,3.958,5.509
-0.2,3.887,-4.087
8.9,3.398,5.502
8.617,3.107,5.51
-2.533,3.432,-5.966
-1.033,2.933,-3.967
-1.133,2.231,-3.364
0.283,1.477,-1.194
6.333,2.214,4.119
-5.783,2.321,-8.104
-0.2,2.039,-2.239
1.983,2.098,-0.115
1.567,2.124,-0.557
8.333,2.168,6.166
3.2,2.534,0.666
1.417,2.369,-0.953
-0.0,1.452,-1.452
11.6,1.214,10.386
12.617,3.373,9.244
9.367,4.431,4.936
2.317,4.552,-2.235
2.8,3.6,-0.8
1.8,3.175,-1.375
12.867,3.469,9.397
14.15,4.813,9.337
13.083,4.645,8.439
7.367,4.671,2.696
5.6,4.505,1.095
12.933,4.827,8.106
7.017,4.358,2.659
11.833,4.424,7.41
10.683,4.222,6.461
10.683,4.007,6.676
6.9,3.914,2.986
4.233,4.028,0.205
-1.117,4.11,-5.227
3.65,2.896,0.754
7.667,3.595,4.072
2.067,3.81,-1.743
16.25,3.671,12.579
0.467,4.426,-3.96
0.233,3.938,-3.705
3.233,3.461,-0.228
12.117,3.538,8.579
0.933,4.027,-3.093
-3.35,3.655,-7.005
-1.2,1.871,-3.071
-1.033,2.252,-3.286
0.733,2.31,-1.577
12.517,2.169,10.347
12.3,2.829,9.471
-1.467,2.56,-4.027
12.85,2.676,10.174
-0.5,2.376,-2.876
9.217,3.77,5.447
-3.967,3.005,-6.971
2.917,3.222,-0.305
14.233,3.137,11.096
2.433,3.617,-1.183
14.0,3.342,10.658
-1.633,1.535,-3.168
1.017,2.534,-1.517
11.867,2.271,9.595
11.733,3.273,8.46
8.083,3.195,4.888
7.95,2.856,5.094
-0.0,3.014,-3.014
-0.7,2.835,-3.535
0.85,2.838,-1.988
-1.717,2.346,-4.062
-1.9,2.256,-4.156
14.133,2.198,11.935
5.617,3.392,2.225
6.05,2.968,3.082
-0.433,2.98,-3.413
3.133,2.891,0.242
1.333,2.609,-1.275
1.833,2.767,-0.934
-0.117,2.67,-2.786
3.0,2.701,0.299
2.3,2.713,-0.413
2.417,2.681,-0.264
1.483,2.558,-1.075
0.767,2.504,-1.737
-0.383,2.343,-2.726
4.183,2.396,1.787
2.95,2.436,0.514
12.417,2.443,9.974
-3.0,2.702,-5.702
-0.0,1.994,-1.994
-2.183,1.696,-3.879
-0.967,2.352,-3.319
15.233,2.262,12.971
-1.85,2.612,-4.462
-2.3,1.671,-3.971
-3.083,2.444,-5.527
-0.633,2.008,-2.641
11.433,1.973,9.461
-1.5,2.579,-4.079
-2.5,2.037,-4.537
1.817,2.044,-0.227
1.467,2.076,-0.609
1.233,2.143,-0.91
0.783,2.092,-1.308
0.25,2.113,-1.863
-4.55,2.158,-6.708
0.433,2.112,-1.678
0.45,1.963,-1.513
-1.35,2.12,-3.47
-2.183,1.96,-4.143
-2.933,1.848,-4.782
-1.817,1.723,-3.54
16.1,1.727,14.373
13.467,2.869,10.597
0.567,2.373,-1.807
-1.1,2.597,-3.697
0.35,2.047,-1.697
13.767,1.679,12.087
2.25,2.871,-0.621
1.2,2.684,-1.484
2.017,2.74,-0.723
-0.167,1.321,-1.487
-0.65,0.698,-1.348
19.467,2.391,17.076
17.683,3.935,13.748
5.8,3.412,2.388
5.0,3.205,1.795
3.667,3.387,0.279
-0.0,2.953,-2.953
4.517,2.33,2.187
10.333,2.503,7.831
10.333,3.382,6.951
-2.967,4.467,-7.434
10.317,2.432,7.885
9.533,3.369,6.165
0.75,2.951,-2.201
-2.117,2.665,-4.782
-0.433,2.803,-3.236
1.817,1.946,-0.129
0.383,2.219,-1.835
-1.05,1.874,-2.924
-4.367,1.945,-6.312
2.5,2.068,0.432
4.783,1.902,2.881
7.467,2.069,5.397
7.15,2.334,4.816
-0.0,2.332,-2.332
-1.467,2.473,-3.94
7.5,2.111,5.389
3.883,2.985,0.899
14.667,2.362,12.304
-0.5,2.585,-3.085
-0.967,2.47,-3.437
-0.0,1.763,-1.763
-1.0,1.934,-2.934
0.883,2.133,-1.25
2.317,1.872,0.445
3.0,1.955,1.045
-0.0,2.055,-2.055
2.6,2.001,0.599
1.5,2.116,-0.616
1.183,1.899,-0.716
5.433,1.959,3.474
-1.483,2.236,-3.72
-3.217,0.984,-4.201
1.367,1.797,-0.431
3.717,1.795,1.922
-4.133,1.922,-6.055
-1.567,1.583,-3.149
2.233,1.548,0.686
3.383,1.888,1.496
11.267,1.954,9.313
3.333,2.546,0.787
2.883,2.398,0.486
2.817,2.239,0.578
2.983,2.262,0.721
11.583,2.289,9.294
10.883,2.585,8.298
13.933,2.471,11.462
-0.5,2.298,-2.798
2.117,2.575,-0.458
12.8,2.44,10.36
1.533,2.049,-0.515
-0.45,2.604,-3.054
-0.467,2.915,-3.382
2.9,1.883,1.017
-2.083,2.274,-4.358
-3.433,2.149,-5.583
0.733,1.708,-0.974
0.033,1.863,-1.83
3.817,1.921,1.896
5.617,2.09,3.527
2.133,2.317,-0.183
-3.317,2.212,-5.529
2.367,1.981,0.386
16.25,2.079,14.171
15.25,2.663,12.587
1.533,2.608,-1.075
2.733,2.387,0.346
0.983,3.147,-2.163
2.667,2.304,0.363
-0.3,2.34,-2.64
3.733,2.713,1.02
2.883,2.412,0.471
3.217,2.361,0.856
-0.5,2.346,-2.846
1.283,2.235,-0.951
2.933,2.179,0.754
3.7,2.238,1.462
4.9,1.467,3.433
11.283,2.334,8.949
0.617,2.447,-1.83
0.117,2.401,-2.285
5.233,1.623,3.61
9.9,2.482,7.418
9.65,2.853,6.797
12.05,2.873,9.177
-1.5,2.929,-4.429
11.85,3.666,8.184
-0.017,2.838,-2.855
-4.283,3.344,-7.628
-3.283,2.081,-5.365
2.933,2.075,0.858
2.983,2.196,0.787
-1.183,2.26,-3.443
-0.3,2.138,-2.438
-0.0,0.891,-0.891
12.783,2.121,10.663
12.1,2.54,9.56
-1.05,2.438,-3.488
14.133,2.225,11.909
0.45,2.251,-1.801
2.25,2.447,-0.197
2.167,2.706,-0.539
2.167,2.524,-0.357
1.85,2.472,-0.622
19.817,2.419,17.398
-0.417,3.046,-3.462
1.583,2.556,-0.973
20.65,2.541,18.109
14.45,2.34,12.11
6.983,2.388,4.595
13.583,2.365,11.218
2.65,2.819,-0.169
0.383,3.411,-3.027
10.433,2.694,7.739
-0.333,3.609,-3.942
-1.733,3.147,-4.881
-3.967,3.309,-7.276
1.55,2.299,-0.749
0.283,2.586,-2.302
-0.067,2.117,-2.184
-0.0,2.086,-2.086
10.483,2.07,8.414
-0.4,2.587,-2.987
16.25,2.37,13.88
0.483,2.809,-2.326
-1.133,2.069,-3.202
15.067,1.567,13.5
0.8,3.122,-2.322
1.333,2.814,-1.48
1.917,3.042,-1.125
12.117,2.677,9.439
13.083,2.642,10.441
-0.0,3.099,-3.099
11.85,3.001,8.849
-0.283,3.79,-4.073
12.067,3.281,8.786
-0.967,3.149,-4.116
-0.617,3.031,-3.647
-1.85,3.077,-4.927
-3.683,2.694,-6.378
0.467,2.169,-1.702
14.7,2.302,12.398
0.75,3.22,-2.47
1.433,2.531,-1.098
2.367,2.62,-0.253
1.75,2.617,-0.867
1.25,2.351,-1.101
-0.117,2.374,-2.491
13.9,2.306,11.594
4.267,3.222,1.045
14.0,2.792,11.208
4.183,2.951,1.232
3.533,2.58,0.954
3.3,2.598,0.702
1.3,2.737,-1.437
5.817,2.308,3.509
8.4,2.758,5.642
25.833,4.288,21.545
21.35,5.228,16.122
13.867,4.622,9.245
11.8,4.88,6.92
8.55,4.114,4.436
18.617,4.138,14.479
-0.0,3.844,-3.844
13.75,2.222,11.528
3.5,4.398,-0.898
0.9,4.312,-3.412
-2.217,2.905,-5.122
13.95,2.871,11.079
11.167,3.744,7.423
-0.733,3.016,-3.749
10.783,2.923,7.861
5.467,3.566,1.901
-0.0,2.504,-2.504
7.6,2.552,5.048
11.733,2.384,9.349
-1.867,4.696,-6.563
-0.9,3.096,-3.996
2.55,3.206,-0.656
0.433,2.327,-1.894
1.067,2.325,-1.258
14.483,2.253,12.23
-2.217,2.659,-4.876
-2.817,1.949,-4.766
3.917,1.666,2.251
-2.833,2.123,-4.956
-0.0,2.118,-2.118
13.767,1.871,11.895
13.767,2.902,10.865
-1.35,3.478,-4.828
-1.167,2.315,-3.482
-2.867,2.035,-4.902
-0.25,1.497,-1.747
0.85,1.864,-1.014
1.95,1.928,0.022
-3.733,1.956,-5.69
-3.783,1.866,-5.65
3.233,1.766,1.468
1.633,1.813,-0.18
-0.017,2.734,-2.751
10.55,2.624,7.926
10.417,3.034,7.383
-0.0,3.276,-3.276
-1.483,2.304,-3.787
9.733,2.495,7.238
-0.433,4.089,-4.522
-1.583,2.829,-4.413
16.667,2.816,13.851
-0.0,3.591,-3.591
-0.45,2.669,-3.119
1.05,1.638,-0.588
1.95,2.36,-0.41
5.0,2.418,2.582
4.967,2.669,2.297
0.383,2.724,-2.341
1.817,2.722,-0.905
0.4,2.719,-2.319
2.333,2.405,-0.071
2.3,3.137,-0.837
0.083,2.676,-2.593
17.2,2.359,14.841
-0.133,3.808,-3.941
0.883,2.228,-1.345
4.25,1.477,2.773
-0.033,3.007,-3.04
2.25,2.795,-0.545
13.517,2.662,10.854
-2.133,3.26,-5.394
9.433,2.713,6.72
-0.15,3.397,-3.547
-4.033,2.188,-6.222
8.25,2.22,6.03
-5.467,3.101,-8.568
14.1,2.317,11.783
-0.0,3.049,-3.049
9.25,2.847,6.403
17.15,3.392,13.758
7.85,3.639,4.211
6.767,3.729,3.037
2.717,4.222,-1.506
3.233,4.256,-1.023
3.233,1.726,1.507
5.383,2.188,3.195
5.117,1.082,4.034
-0.917,3.804,-4.721
-1.133,1.796,-2.93
-0.733,1.995,-2.728
0.5,2.269,-1.769
1.467,2.28,-0.813
3.0,2.311,0.689
-1.783,2.283,-4.066
-0.433,2.422,-2.855
0.567,2.36,-1.793
4.0,1.233,2.767
8.183,3.684,4.5
8.2,4.271,3.929
6.8,4.283,2.517
2.483,3.98,-1.497
0.133,3.599,-3.466
-0.233,3.629,-3.862
-0.017,3.596,-3.613
1.667,3.013,-1.346
0.667,2.835,-2.169
0.233,2.902,-2.669
0.433,2.538,-2.104
-5.867,2.357,-8.224
-2.417,2.358,-4.775
0.983,1.756,-0.773
0.067,1.913,-1.847
0.4,2.004,-1.604
1.967,0.107,1.86
17.2,2.193,15.007
5.667,3.413,2.253
0.3,3.036,-2.736
6.517,3.184,3.333
8.017,2.743,5.274
7.983,2.57,5.413
7.867,2.632,5.235
-0.0,2.823,-2.823
-2.65,2.264,-4.914
-1.15,1.835,-2.985
-2.15,0.392,-2.542
3.383,2.43,0.953
5.117,2.425,2.691
3.55,2.778,0.772
3.233,4.044,-0.811
6.05,2.92,3.13
0.467,2.739,-2.272
11.167,3.203,7.963
0.933,2.77,-1.837
3.55,2.797,0.753
3.883,3.125,0.758
-2.617,2.862,-5.479
4.2,2.729,1.471
-1.017,2.947,-3.963
13.083,2.749,10.334
9.617,3.384,6.232
12.7,3.002,9.698
6.25,2.948,3.302
6.483,3.114,3.369
7.3,3.225,4.075
8.167,3.022,5.144
7.067,3.142,3.924
12.983,3.281,9.702
7.7,3.428,4.272
-1.717,3.27,-4.987
0.217,3.721,-3.504
-0.0,3.374,-3.374
-1.5,1.497,-2.997
15.55,0.786,14.764
4.633,3.103,1.53
-0.633,3.657,-4.29
-0.367,3.498,-3.865
-0.433,3.571,-4.004
-0.0,3.065,-3.065
-1.683,3.016,-4.699
-0.3,2.663,-2.963
1.217,2.309,-1.092
0.8,2.326,-1.526
0.933,2.463,-1.529
0.6,0.418,0.182
0.717,2.261,-1.544
1.7,2.143,-0.443
15.683,2.364,13.32
22.833,4.116,18.718
0.6,4.948,-4.348
18.667,2.328,16.339
12.6,5.162,7.438
10.55,6.012,4.538
6.467,6.591,-0.124
6.85,7.28,-0.43
10.683,5.84,4.843
4.4,5.612,-1.212
6.7,6.057,0.643
16.783,6.127,10.657
3.5,6.212,-2.712
13.517,4.229,9.288
7.833,6.295,1.539
-0.0,5.792,-5.792
16.633,3.999,12.634
16.417,6.088,10.329
15.0,6.145,8.855
4.4,5.813,-1.413
13.333,4.529,8.805
11.767,5.451,6.315
8.717,5.449,3.268
10.233,4.604,5.629
6.783,4.704,2.079
-2.0,3.862,-5.862
7.0,2.558,4.442
-2.8,2.714,-5.514
-2.85,2.378,-5.228
-1.75,2.32,-4.07
-0.0,2.189,-2.189
-0.0,2.123,-2.123
3.017,2.017,1.0
-1.083,2.094,-3.177
3.133,2.016,1.118
0.15,2.109,-1.959
-0.0,2.035,-2.035
-0.0,1.904,-1.904
5.933,1.794,4.14
4.9,2.208,2.692
2.05,2.044,0.006
2.0,1.619,0.381
2.183,2.398,-0.214
3.2,2.232,0.968
-0.283,2.117,-2.4
-1.15,2.16,-3.31
-0.0,2.107,-2.107
11.7,2.006,9.694
10.5,2.518,7.982
10.2,2.437,7.763
10.2,2.867,7.333
-0.0,2.724,-2.724
0.067,2.256,-2.19
7.667,2.428,5.238
1.433,2.604,-1.17
0.367,2.441,-2.074
1.25,2.282,-1.032
2.9,0.691,2.209
4.1,2.216,1.884
7.583,2.241,5.342
6.133,2.407,3.726
-0.5,2.335,-2.835
6.633,2.301,4.332
0.183,2.954,-2.77
0.633,1.867,-1.234
5.7,2.22,3.48
-0.55,2.422,-2.972
5.033,2.239,2.794
5.033,2.449,2.584
48.417,2.33,46.086
65.683,3.886,61.797
41.283,3.47,37.813
-0.383,3.238,-3.621
44.933,4.079,40.855
34.75,4.464,30.286
21.55,3.671,17.879
7.833,3.458,4.375
7.667,3.633,4.033
30.533,4.589,25.944
1.483,3.741,-2.258
57.033,3.699,53.335
1.7,3.774,-2.074
5.233,4.598,0.635
5.583,4.75,0.833
-1.35,4.586,-5.936
-0.883,2.682,-3.565
-1.6,1.763,-3.363
-0.483,1.328,-1.811
17.383,2.294,15.089
16.4,2.54,13.86
3.783,2.775,1.008
9.067,3.33,5.737
6.883,3.451,3.432
16.983,2.4,14.584
-0.0,5.043,-5.043
-3.167,2.533,-5.699
15.917,2.289,13.628
0.617,5.241,-4.624
-4.217,2.398,-6.615
1.067,1.1,-0.034
-2.65,2.399,-5.049
-1.283,2.006,-3.289
4.433,2.042,2.391
1.017,2.241,-1.224
0.817,2.031,-1.214
-0.783,1.948,-2.732
-0.433,1.974,-2.407
4.6,1.902,2.698
1.9,2.119,-0.219
7.483,2.085,5.398
7.483,2.346,5.137
7.033,2.417,4.616
-0.25,2.405,-2.655
5.483,2.304,3.18
-1.533,1.351,-2.884
7.25,2.324,4.926
-2.833,2.856,-5.69
0.283,2.466,-2.183
0.283,2.228,-1.945
3.383,2.27,1.113
3.767,0.917,2.85
1.45,2.663,-1.213
6.8,2.418,4.382
13.1,2.674,10.426
9.45,3.24,6.21
10.533,2.819,7.714
18.083,3.463,14.62
18.083,3.76,14.323
2.75,3.916,-1.166
1.867,3.889,-2.022
10.25,4.957,5.293
6.617,3.678,2.939
9.167,3.871,5.295
12.967,3.768,9.198
13.35,3.984,9.366
12.283,4.346,7.937
3.3,3.94,-0.64
2.283,3.883,-1.6
3.217,3.244,-0.028
8.933,2.558,6.375
2.2,3.152,-0.952
-2.1,2.736,-4.836
8.083,1.242,6.841
7.067,2.54,4.526
6.033,3.038,2.996
-2.45,1.685,-4.135
2.433,2.173,0.26
0.317,2.21,-1.894
3.0,2.196,0.804
10.567,2.189,8.378
10.45,2.496,7.954
-1.033,2.39,-3.423
19.533,2.357,17.176
11.617,3.671,7.945
9.733,3.175,6.558
4.833,3.239,1.594
14.433,3.73,10.704
-0.067,4.194,-4.261
-2.033,3.748,-5.782
-2.567,2.342,-4.908
-3.933,1.267,-5.2
8.433,0.561,7.872
6.9,3.562,3.338
10.15,2.64,7.51
11.2,3.437,7.763
-3.7,3.781,-7.481
12.667,2.429,10.238
7.933,3.704,4.229
12.517,3.58,8.937
7.05,4.059,2.991
8.8,4.556,4.244
3.55,4.697,-1.147
19.167,4.243,14.924
9.833,4.358,5.476
17.817,4.244,13.573
-4.117,4.476,-8.593
3.767,2.565,1.202
4.25,2.99,1.26
13.217,3.095,10.122
8.55,3.124,5.426
19.483,3.427,16.056
5.083,4.338,0.746
20.433,4.374,16.059
8.117,4.587,3.529
6.467,4.52,1.946
4.583,4.985,-0.402
11.233,3.98,7.253
-0.3,5.051,-5.351
14.317,3.721,10.595
13.833,3.928,9.906
7.8,3.562,4.238
7.467,4.287,3.179
6.8,4.446,2.354
8.35,3.991,4.359
9.4,3.217,6.183
7.633,3.143,4.49
7.617,3.179,4.437
3.133,3.167,-0.034
1.35,2.638,-1.288
-2.6,2.144,-4.744
-1.883,2.245,-4.129
-1.067,2.299,-3.366
-0.333,2.295,-2.629
9.383,2.218,7.165
1.283,2.821,-1.538
9.483,2.722,6.761
9.433,2.659,6.774
9.967,3.143,6.824
1.45,3.173,-1.723
11.0,3.725,7.275
10.95,4.228,6.722
12.567,3.99,8.576
4.1,4.032,0.068
14.7,4.063,10.637
3.817,4.082,-0.265
14.45,3.715,10.735
-2.917,3.522,-6.439
-3.417,2.867,-6.283
-3.683,2.271,-5.955
14.417,1.551,12.866
-2.433,3.629,-6.062
5.417,1.656,3.76
9.983,3.511,6.472
9.067,4.136,4.93
8.433,3.255,5.178
7.917,4.024,3.892
8.0,4.009,3.991
8.083,3.836,4.248
3.383,3.729,-0.346
10.667,3.761,6.906
3.217,4.454,-1.237
3.05,4.237,-1.187
4.05,3.694,0.356
9.7,4.267,5.433
3.683,4.017,-0.334
7.183,3.673,3.51
1.5,4.807,-3.307
0.75,3.995,-3.245
13.833,4.454,9.38
-0.0,3.808,-3.808
3.2,2.304,0.896
-0.0,1.839,-1.839
8.267,2.269,5.997
4.133,3.502,0.631
-3.483,2.853,-6.336
4.883,2.502,2.381
9.717,2.74,6.977
1.383,2.854,-1.471
8.517,2.613,5.903
-0.0,2.954,-2.954
1.267,2.36,-1.094
2.233,1.937,0.296
-0.0,2.216,-2.216
2.9,2.026,0.874
6.517,2.371,4.145
0.833,2.605,-1.772
-9.317,2.471,-11.787
-5.95,0.189,-6.139
0.283,2.055,-1.772
9.4,1.892,7.508
3.667,2.435,1.231
0.5,2.531,-2.031
1.0,2.207,-1.207
9.867,2.197,7.67
9.167,2.411,6.756
8.983,2.452,6.531
8.733,2.364,6.369
14.25,2.471,11.779
6.317,2.599,3.718
1.617,2.373,-0.757
1.283,2.847,-1.564
3.767,2.047,1.72
4.267,2.043,2.224
7.717,2.242,5.474
7.717,2.084,5.633
4.867,2.621,2.246
6.8,2.773,4.027
4.95,2.404,2.546
5.717,2.37,3.346
5.333,2.197,3.136
6.367,2.312,4.054
-1.2,2.48,-3.68
7.283,2.685,4.599
-0.0,2.523,-2.523
8.617,1.772,6.844
9.533,2.129,7.405
10.967,2.343,8.623
1.083,2.482,-1.399
-0.817,2.794,-3.611
9.25,2.952,6.298
-0.55,1.984,-2.534
12.35,2.314,10.036
4.667,1.994,2.673
11.467,2.064,9.403
2.617,2.059,0.558
10.85,2.312,8.538
11.35,2.6,8.75
4.55,2.686,1.864
1.567,2.751,-1.185
2.583,2.867,-0.283
10.433,2.861,7.572
1.85,2.03,-0.18
1.767,2.492,-0.725
1.283,2.62,-1.337
8.917,2.64,6.277
2.017,2.577,-0.561
11.083,2.598,8.486
0.433,2.655,-2.222
0.15,3.151,-3.001
0.95,2.571,-1.621
0.85,2.387,-1.537
3.4,2.267,1.133
8.467,2.246,6.221
-1.983,2.368,-4.351
8.233,2.367,5.866
1.633,2.351,-0.718
7.733,1.741,5.993
6.983,2.499,4.485
4.233,2.198,2.035
0.55,2.617,-2.067
7.417,2.187,5.23
5.367,2.38,2.987
10.767,2.445,8.321
3.183,2.662,0.521
0.983,2.737,-1.754
4.683,2.372,2.311
-3.783,2.453,-6.236
-4.217,1.844,-6.061
2.483,2.277,0.206
-3.817,2.216,-6.033
8.533,2.147,6.387
7.2,2.446,4.754
-1.167,2.367,-3.533
-0.0,2.226,-2.226
14.6,2.235,12.365
1.3,2.629,-1.329
10.417,2.421,7.996
5.283,3.477,1.806
9.233,3.242,5.991
2.233,3.027,-0.794
2.817,2.804,0.013
7.617,1.315,6.302
10.283,2.931,7.352
7.0,3.152,3.848
9.0,2.583,6.417
5.3,2.766,2.534
10.483,3.396,7.088
8.75,3.816,4.934
1.0,3.513,-2.513
11.45,3.036,8.414
-1.633,2.545,-4.178
4.6,2.859,1.741
5.617,2.402,3.215
0.4,2.343,-1.943
-0.7,2.781,-3.481
10.933,1.813,9.12
5.45,2.078,3.372
1.867,2.494,-0.627
7.067,2.287,4.779
11.133,1.851,9.283
11.017,2.461,8.555
4.45,2.442,2.008
9.6,2.535,7.065
9.6,2.464,7.136
0.817,2.378,-1.561
10.767,2.831,7.935
7.283,2.332,4.951
9.567,2.39,7.176
1.117,2.282,-1.165
-1.8,2.629,-4.429
12.4,2.426,9.974
2.467,2.03,0.437
1.75,2.502,-0.752
15.267,2.043,13.224
13.767,2.378,11.388
12.433,2.03,10.403
-0.667,2.289,-2.956
4.4,2.526,1.874
3.25,2.769,0.481
9.0,2.727,6.273
0.433,2.661,-2.228
-4.083,2.849,-6.932
-4.2,2.912,-7.112
-0.717,1.742,-2.458
4.75,2.166,2.584
1.1,2.188,-1.088
6.25,2.212,4.038
14.333,2.385,11.949
2.1,2.89,-0.79
1.383,3.038,-1.654
3.183,2.856,0.327
2.1,3.105,-1.005
12.5,2.914,9.586
2.233,2.927,-0.694
12.217,2.844,9.372
16.033,2.809,13.225
14.6,3.193,11.407
14.6,3.453,11.147
7.05,3.488,3.562
2.4,3.366,-0.966
5.683,3.306,2.378
12.717,3.099,9.618
6.067,3.133,2.934
3.883,2.922,0.961
1.583,2.873,-1.289
0.25,2.884,-2.634
10.567,2.755,7.812
-0.117,3.005,-3.121
12.133,3.129,9.005
-1.85,2.623,-4.473
-0.0,2.724,-2.724
21.7,2.666,19.034
-1.717,2.618,-4.335
-1.65,2.314,-3.964
-0.55,1.694,-2.244
4.0,2.621,1.379
3.567,2.767,0.8
9.983,2.935,7.048
2.35,3.058,-0.708
-1.4,3.569,-4.969
-0.783,2.36,-3.144
4.167,1.547,2.62
1.0,2.658,-1.658
11.35,2.702,8.648
10.7,2.976,7.724
10.7,3.035,7.665
3.667,3.673,-0.006
-0.733,3.551,-4.284
5.117,3.95,1.167
1.117,3.293,-2.177
17.183,2.757,14.427
3.167,3.073,0.094
10.6,3.226,7.374
3.767,3.092,0.675
3.45,2.958,0.492
12.717,2.989,9.727
1.8,2.937,-1.137
5.783,2.652,3.131
11.767,2.686,9.081
6.033,3.464,2.569
3.933,2.906,1.027
4.75,3.243,1.507
13.717,2.663,11.054
1.067,2.763,-1.696
-0.133,2.581,-2.714
0.567,3.339,-2.772
6.933,2.661,4.273
14.583,3.019,11.564
-0.1,2.771,-2.871
0.933,2.907,-1.973
0.783,3.141,-2.358
6.8,2.567,4.233
0.783,2.862,-2.079
0.6,2.803,-2.203
2.017,2.554,-0.537
11.733,2.657,9.076
-2.217,3.038,-5.255
-1.967,1.935,-3.902
4.05,3.191,0.859
13.867,2.757,11.11
1.15,2.798,-1.648
6.55,3.02,3.53
10.783,3.068,7.715
8.033,3.172,4.861
0.35,3.603,-3.253
-0.017,3.64,-3.657
3.95,2.519,1.431
1.367,2.815,-1.448
6.6,2.338,4.262
-0.0,2.331,-2.331
14.383,2.434,11.949
14.383,5.152,9.231
4.1,5.822,-1.722
8.6,4.757,3.843
11.433,5.38,6.053
10.133,5.394,4.74
-0.783,5.256,-6.04
8.233,2.573,5.66
6.967,3.898,3.069
8.633,4.157,4.477
-2.85,4.213,-7.063
2.35,2.387,-0.037
-0.0,2.575,-2.575
-4.65,2.271,-6.921
-1.283,2.166,-3.449
8.65,1.833,6.817
-0.983,2.251,-3.234
-2.933,2.087,-5.021
3.383,1.806,1.577
-1.983,2.15,-4.133
0.433,1.885,-1.452
0.15,1.998,-1.848
0.267,2.01,-1.743
-0.0,1.97,-1.97
9.983,2.016,7.968
11.017,2.734,8.283
0.25,3.007,-2.757
0.417,1.94,-1.523
0.55,2.205,-1.655
-1.3,2.186,-3.486
10.7,2.153,8.547
1.083,2.635,-1.552
1.767,2.258,-0.491
-0.067,2.246,-2.312
0.7,2.166,-1.466
-0.333,2.197,-2.531
9.05,2.078,6.972
9.167,2.75,6.416
5.483,2.462,3.021
-1.083,2.15,-3.234
5.833,2.343,3.49
5.667,2.418,3.248
-2.783,2.205,-4.988
6.633,2.398,4.235
4.7,2.499,2.201
-0.333,2.484,-2.817
-1.2,2.313,-3.513
8.25,2.161,6.089
-0.0,2.788,-2.788
6.633,2.011,4.623
-2.95,2.459,-5.409
3.317,2.199,1.117
-1.667,2.219,-3.886
8.383,2.077,6.307
6.517,2.269,4.248
6.5,2.419,4.081
9.133,2.729,6.404
10.167,2.964,7.202
11.217,2.607,8.61
12.017,2.396,9.621
0.65,2.631,-1.981
0.717,2.835,-2.119
7.433,2.268,5.165
7.583,2.715,4.868
-0.783,3.147,-3.931
-0.267,2.431,-2.697
6.117,2.404,3.712
-0.5,2.406,-2.906
2.9,2.357,0.543
8.3,2.421,5.879
5.217,3.315,1.901
4.217,2.603,1.614
7.117,2.704,4.412
9.417,2.806,6.61
-3.233,3.259,-6.492
8.0,2.777,5.223
-0.967,3.084,-4.051
8.6,2.736,5.864
5.5,2.956,2.544
2.917,3.181,-0.264
2.783,2.904,-0.121
7.517,2.233,5.283
6.75,2.906,3.844
7.2,3.072,4.128
-1.5,2.391,-3.891
7.0,3.333,3.667
8.05,2.92,5.13
1.883,3.264,-1.38
-3.883,2.888,-6.771
-0.567,1.85,-2.417
6.45,2.247,4.203
0.95,2.274,-1.324
0.667,2.341,-1.674
-0.333,2.017,-2.35
9.933,0.678,9.255
8.217,3.647,4.57
13.3,3.437,9.863
6.683,4.12,2.563
6.767,3.533,3.234
-2.367,3.524,-5.891
6.417,2.384,4.032
6.567,2.376,4.191
3.917,2.676,1.241
10.0,2.832,7.168
4.867,3.724,1.143
10.85,3.945,6.905
5.467,3.271,2.196
3.9,3.39,0.51
11.183,2.916,8.267
1.867,3.391,-1.524
0.867,3.171,-2.305
-0.45,2.757,-3.207
10.167,2.396,7.771
1.617,3.058,-1.441
4.617,1.921,2.696
10.867,3.014,7.852
5.767,3.278,2.488
8.867,3.193,5.673
7.083,3.272,3.811
-5.617,3.021,-8.637
10.583,2.444,8.139
1.1,3.354,-2.254
-0.633,2.407,-3.04
8.817,0.845,7.972
10.8,3.224,7.576
1.9,2.005,-0.105
-0.0,2.13,-2.13
-0.25,2.025,-2.275
-0.017,2.007,-2.023
-0.0,2.026,-2.026
-1.583,2.067,-3.651
-1.783,-0.121,-1.662
-1.917,1.821,-3.738
-2.667,1.804,-4.471
-2.533,1.714,-4.247
-2.683,1.708,-4.391
-2.55,1.711,-4.261
1.283,1.659,-0.375
2.75,1.884,0.866
2.5,2.007,0.493
-2.4,2.109,-4.509
2.65,1.917,0.733
0.65,2.103,-1.453
0.7,2.014,-1.314
1.283,2.015,-0.731
4.5,2.052,2.448
2.467,2.045,0.421
1.467,2.083,-0.617
4.4,2.102,2.298
0.85,2.382,-1.532
-3.683,2.301,-5.984
-1.7,1.589,-3.289
3.5,1.845,1.655
3.75,2.23,1.52
0.967,2.204,-1.237
0.217,2.172,-1.955
0.817,2.04,-1.223
-0.9,2.03,-2.93
3.083,2.229,0.855
-0.333,0.573,-0.906
3.683,1.85,1.834
1.567,2.095,-0.529
2.483,2.138,0.345
1.017,2.052,-1.036
-0.1,2.063,-2.163
3.167,1.965,1.201
0.133,2.027,-1.894
-0.0,2.057,-2.057
0.467,2.029,-1.563
-2.7,1.765,-4.465
-0.0,0.143,-0.143
-0.0,2.033,-2.033
-1.9,0.016,-1.916
3.617,1.653,1.964
2.15,2.193,-0.043
3.583,2.046,1.538
-3.683,2.037,-5.721
3.0,1.008,1.992
-1.0,0.744,-1.744
-2.517,2.142,-4.659
-2.517,1.82,-4.337
2.633,1.796,0.837
0.533,2.146,-1.613
1.0,2.006,-1.006
-0.25,-0.009,-0.241
1.033,1.944,-0.91
2.0,2.0,-0.0
0.467,1.737,-1.27
-1.833,2.144,-3.977
2.167,1.911,0.256
-3.7,2.13,-5.83
-3.817,1.975,-5.791
-0.2,1.075,-1.275
0.383,0.686,-0.303
2.233,1.777,0.456
0.75,1.913,-1.163
1.617,1.153,0.463
4.683,2.226,2.458
0.2,3.0,-2.8
-0.467,2.195,-2.662
-2.65,1.976,-4.626
-0.55,1.793,-2.343
-4.85,1.803,-6.653
1.267,1.411,-0.144
-0.0,0.988,-0.988
-0.617,0.74,-1.357
5.25,1.784,3.466
5.117,2.314,2.803
-0.0,2.544,-2.544
-1.267,0.19,-1.457
-0.833,1.905,-2.738
0.15,1.794,-1.644
-0.167,1.865,-2.032
0.95,1.777,-0.827
-0.433,1.773,-2.206
-1.4,2.062,-3.462
0.483,1.928,-1.445
-0.0,0.05,-0.05
-0.333,1.899,-2.232
-1.867,1.765,-3.632
-1.817,1.82,-3.636
-2.45,1.421,-3.871
-1.867,1.505,-3.372
-0.5,1.457,-1.957
-3.25,1.543,-4.793
0.2,1.774,-1.574
-1.133,0.353,-1.486
-1.95,1.494,-3.444
-3.567,1.327,-4.893
0.167,1.081,-0.914
0.217,1.353,-1.136
1.183,0.363,0.82
-0.317,1.543,-1.86
-0.483,1.418,-1.901
1.417,1.407,0.01
-1.767,1.55,-3.317
-0.9,1.499,-2.399
3.1,0.215,2.885
0.833,1.842,-1.009
5.0,1.538,3.462
4.05,1.851,2.199
-2.383,1.948,-4.331
-0.0,1.087,-1.087
11.733,1.645,10.089
5.767,3.087,2.679
-0.0,4.394,-4.394
3.85,2.755,1.095
-1.75,3.602,-5.352
-2.483,2.504,-4.988
-1.0,2.077,-3.077
-0.3,1.958,-2.258
-0.783,1.968,-2.751
-2.367,1.894,-4.261
-5.167,2.008,-7.175
-5.95,1.036,-6.986
0.65,1.234,-0.584
-4.233,2.158,-6.392
-4.45,1.612,-6.062
-0.267,0.772,-1.038
0.583,1.825,-1.242
-0.1,1.831,-1.931
-0.0,1.785,-1.785
-0.483,1.797,-2.28
-1.733,1.738,-3.471
-1.967,1.677,-3.643
0.867,1.554,-0.687
-3.383,1.88,-5.263
0.75,0.67,0.08
-2.017,2.024,-4.041
-0.0,0.321,-0.321
2.45,1.436,1.014
4.5,1.88,2.62
1.9,1.14,0.76
0.267,1.815,-1.549
-1.1,1.828,-2.928
-0.0,1.707,-1.707
0.85,1.642,-0.792
-0.567,1.721,-2.288
0.383,1.641,-1.258
-1.133,1.681,-2.815
2.517,1.683,0.833
0.25,1.74,-1.49
-0.833,1.651,-2.484
-2.4,1.629,-4.029
0.283,1.493,-1.209
0.317,1.722,-1.406
-0.567,0.781,-1.348
0.633,1.668,-1.034
-1.433,1.707,-3.14
0.517,1.713,-1.196
-2.083,0.581,-2.664
-1.25,1.674,-2.924
2.183,1.662,0.521
-0.483,1.771,-2.255
-1.35,1.594,-2.944
-3.083,1.571,-4.655
1.7,1.392,0.308
-5.75,1.629,-7.379
-0.0,1.578,-1.578
-0.067,0.865,-0.931
-0.567,1.58,-2.147
-0.0,1.608,-1.608
-4.1,1.533,-5.633
0.783,1.414,-0.631
0.283,1.438,-1.154
-1.75,1.682,-3.432
-0.4,1.707,-2.107
0.117,0.766,-0.649
-4.5,1.665,-6.165
-5.633,1.405,-7.038
0.25,1.1,-0.85
-1.883,1.488,-3.372
-4.367,1.391,-5.758
-0.317,1.236,-1.552
-3.55,1.516,-5.066
-3.45,1.408,-4.858
-2.983,1.303,-4.286
-0.717,1.217,-1.934
-2.05,1.53,-3.58
-1.633,1.469,-3.102
-3.0,1.371,-4.371
0.783,1.285,-0.501
-3.35,1.615,-4.965
-4.067,0.031,-4.098
-0.433,0.37,-0.804
-4.217,1.233,-5.45
-5.167,1.256,-6.423
-3.333,1.089,-4.422
3.217,1.231,1.986
-6.65,1.824,-8.474
-3.0,1.56,-4.56
1.65,0.281,1.369
-3.717,1.751,-5.467
-2.75,1.405,-4.155
0.833,1.578,-0.744
1.217,0.637,0.58
