Test,Predictions,difference
1.2,1.84,-0.64
1.333,1.981,-0.648
2.0,1.9,0.1
2.25,2.072,0.178
0.633,2.282,-1.649
-0.667,2.085,-2.752
-0.0,1.993,-1.993
-2.6,2.036,-4.636
1.25,1.896,-0.646
-3.167,0.936,-4.103
-1.733,0.435,-2.168
-1.283,0.232,-1.516
-0.967,0.632,-1.599
-2.75,0.484,-3.234
-1.517,1.09,-2.607
-0.0,1.096,-1.096
-1.35,1.201,-2.551
0.5,1.226,-0.726
-1.433,1.427,-2.86
-0.15,1.262,-1.412
-2.533,1.481,-4.015
-0.0,1.413,-1.413
-1.5,1.228,-2.728
-5.05,1.303,-6.353
-1.4,0.279,-1.679
-2.5,1.228,-3.728
-4.067,1.202,-5.269
-0.0,0.167,-0.167
-5.017,0.456,-5.473
-5.15,0.246,-5.396
0.083,0.155,-0.072
-0.0,0.508,-0.508
-1.867,0.436,-2.303
-2.183,1.18,-3.364
-2.2,1.131,-3.331
-0.0,0.655,-0.655
-3.167,1.319,-4.485
1.467,0.431,1.035
-1.983,0.866,-2.849
0.217,0.762,-0.545
-2.6,1.497,-4.097
-0.983,1.387,-2.371
-2.35,0.432,-2.782
-2.867,1.541,-4.408
-0.0,0.894,-0.894
0.5,0.763,-0.263
-1.617,1.149,-2.765
0.067,1.624,-1.558
-2.8,1.702,-4.502
-2.683,1.015,-3.699
0.217,0.409,-0.193
-1.033,1.364,-2.397
-2.6,1.321,-3.921
-1.667,0.666,-2.333
1.0,0.607,0.393
1.55,1.392,0.158
-1.117,1.653,-2.77
-2.467,1.529,-3.996
-1.167,0.279,-1.446
-1.333,0.689,-2.022
1.25,0.462,0.788
-0.7,1.499,-2.199
-2.583,0.501,-3.085
0.333,0.346,-0.013
-2.067,0.817,-2.884
-1.417,0.721,-2.138
0.633,0.419,0.214
-2.183,0.592,-2.776
0.6,0.657,-0.057
-0.833,0.728,-1.561
-1.117,0.767,-1.884
2.0,0.785,1.215
-2.567,2.001,-4.568
-1.5,1.69,-3.19
-3.617,1.349,-4.966
-5.1,1.194,-6.294
-2.15,0.356,-2.506
-1.133,0.443,-1.577
-1.967,0.638,-2.604
-1.333,1.057,-2.39
-3.0,0.563,-3.563
-1.5,0.815,-2.315
-0.5,0.613,-1.113
-1.883,0.495,-2.379
-5.767,0.358,-6.124
0.75,0.401,0.349
-1.5,0.476,-1.976
-1.667,0.581,-2.248
0.6,0.579,0.021
-0.167,1.445,-1.612
-2.967,0.861,-3.828
-3.483,0.615,-4.098
1.667,0.701,0.966
-3.483,1.424,-4.907
1.0,0.272,0.728
-0.2,-0.402,0.202
0.517,1.32,-0.803
-0.05,1.948,-1.998
-0.283,1.699,-1.982
-0.0,1.68,-1.68
2.25,1.736,0.514
-0.25,2.017,-2.267
0.683,1.935,-1.252
-1.6,1.871,-3.471
4.25,1.682,2.568
-0.983,2.19,-3.173
1.65,1.969,-0.319
0.533,2.317,-1.784
-1.5,2.135,-3.635
0.533,1.861,-1.328
-0.0,2.11,-2.11
-2.033,1.573,-3.607
2.2,1.185,1.015
-1.5,1.499,-2.999
1.583,1.186,0.397
-0.0,2.193,-2.193
-0.617,1.38,-1.997
1.4,2.079,-0.679
-0.05,2.016,-2.066
2.7,1.926,0.774
2.467,2.115,0.352
2.367,2.207,0.159
0.383,2.319,-1.936
0.717,2.165,-1.448
0.717,2.135,-1.418
1.25,2.149,-0.899
-2.783,2.163,-4.946
-0.0,2.073,-2.073
-0.25,1.637,-1.887
-6.45,1.624,-8.074
2.367,0.592,1.775
5.3,2.324,2.976
4.55,2.432,2.118
3.55,2.514,1.036
4.5,2.573,1.927
-0.5,2.627,-3.127
-0.0,2.341,-2.341
3.217,2.42,0.797
3.717,2.455,1.262
0.75,2.454,-1.704
-1.833,2.443,-4.276
-0.833,2.302,-3.135
4.75,0.922,3.828
-1.3,2.451,-3.751
4.45,2.331,2.119
1.067,2.426,-1.36
0.6,2.363,-1.763
2.417,2.348,0.069
4.217,2.37,1.846
4.433,2.496,1.937
1.783,2.547,-0.763
2.117,2.505,-0.389
2.8,2.515,0.285
-1.467,2.569,-4.036
-1.3,2.364,-3.664
-0.75,2.28,-3.03
-0.75,2.21,-2.96
2.633,2.056,0.577
-1.917,2.34,-4.256
-0.067,0.82,-0.887
-2.233,1.345,-3.578
-0.0,0.648,-0.648
1.883,1.818,0.066
0.5,1.948,-1.448
0.467,1.913,-1.446
-0.0,1.876,-1.876
4.117,2.17,1.947
-0.467,2.342,-2.809
4.467,2.279,2.188
-0.567,2.419,-2.986
3.767,2.302,1.465
0.4,2.355,-1.955
-0.433,2.177,-2.61
3.717,2.54,1.177
4.817,2.406,2.411
-1.683,2.553,-4.236
5.0,2.361,2.639
-1.5,2.442,-3.942
2.55,2.318,0.232
2.25,2.367,-0.117
0.25,4.082,-3.832
4.0,3.318,0.682
4.0,3.738,0.262
1.717,3.832,-2.115
0.75,3.602,-2.852
0.483,3.042,-2.559
0.717,3.052,-2.335
2.133,2.548,-0.415
-1.517,2.815,-4.331
-1.267,2.537,-3.804
0.7,2.47,-1.77
-3.25,2.062,-5.312
1.8,2.1,-0.3
0.5,2.035,-1.535
0.617,2.736,-2.119
-0.25,2.042,-2.292
4.0,1.938,2.062
1.667,2.651,-0.985
0.617,2.454,-1.837
0.117,2.326,-2.209
-0.617,2.352,-2.969
-0.25,2.466,-2.716
2.5,1.99,0.51
1.867,2.401,-0.535
3.25,2.417,0.833
-1.1,3.18,-4.28
3.5,2.391,1.109
2.75,3.49,-0.74
-1.983,4.102,-6.086
1.25,2.297,-1.047
3.583,2.206,1.378
2.033,3.687,-1.654
-2.9,2.708,-5.608
4.5,2.024,2.476
-0.0,3.169,-3.169
-2.2,3.059,-5.259
-0.0,2.071,-2.071
-2.633,2.238,-4.872
-0.183,1.754,-1.937
0.933,1.802,-0.869
0.633,1.918,-1.285
-0.133,1.882,-2.015
0.683,1.86,-1.177
1.75,1.896,-0.146
-11.833,2.015,-13.849
3.25,1.61,1.64
9.733,1.807,7.927
0.25,3.982,-3.732
0.167,2.722,-2.556
-1.633,2.156,-3.79
0.533,1.946,-1.413
2.117,2.368,-0.252
8.767,2.363,6.404
-2.117,3.634,-5.751
-1.867,2.404,-4.271
-1.683,2.032,-3.716
7.633,1.858,5.775
-1.75,3.96,-5.71
-0.0,2.352,-2.352
-0.0,2.842,-2.842
-0.0,2.214,-2.214
-0.0,2.343,-2.343
7.45,2.242,5.208
10.25,3.062,7.188
7.567,4.014,3.553
6.417,3.839,2.578
6.917,3.532,3.385
8.017,3.459,4.558
3.7,2.961,0.739
10.5,2.709,7.791
9.533,3.624,5.909
2.833,3.899,-1.066
1.817,3.269,-1.452
1.917,3.312,-1.396
11.75,3.241,8.509
10.0,3.018,6.982
0.8,3.144,-2.344
-0.0,3.253,-3.253
6.5,2.237,4.263
-0.933,3.835,-4.769
-0.783,3.289,-4.072
3.183,2.86,0.323
1.833,3.724,-1.891
7.967,3.597,4.37
8.45,4.439,4.011
-0.0,4.454,-4.454
4.1,3.648,0.452
8.667,3.642,5.024
4.267,3.849,0.418
8.717,2.908,5.809
0.533,2.764,-2.231
0.65,2.182,-1.532
12.9,2.176,10.724
5.45,5.32,0.13
7.133,4.459,2.674
6.8,4.523,2.277
6.3,4.39,1.91
7.25,4.174,3.076
0.133,4.105,-3.971
-1.25,3.497,-4.747
11.617,2.771,8.845
10.917,4.255,6.662
-0.5,4.552,-5.052
-0.7,3.242,-3.942
5.083,2.875,2.209
9.983,3.556,6.427
1.95,4.65,-2.7
-2.667,3.672,-6.338
3.167,2.699,0.467
8.767,2.166,6.601
9.967,3.818,6.149
1.917,4.412,-2.496
1.333,3.393,-2.06
1.217,3.456,-2.239
9.733,3.467,6.266
-1.683,2.336,-4.02
4.367,2.426,1.94
-1.0,2.866,-3.866
4.65,3.122,1.528
-2.6,3.482,-6.082
1.45,2.805,-1.355
3.867,2.99,0.877
4.85,3.504,1.346
7.3,3.821,3.479
5.033,4.381,0.653
8.217,3.916,4.3
1.05,3.997,-2.947
5.783,3.543,2.24
0.417,3.128,-2.712
3.367,2.275,1.091
-0.033,2.333,-2.367
-1.2,2.13,-3.33
-1.333,2.013,-3.346
6.667,2.464,4.202
6.85,4.366,2.484
6.467,4.095,2.372
1.75,3.02,-1.27
1.75,2.787,-1.037
-1.1,3.001,-4.101
2.567,2.441,0.125
0.267,3.192,-2.925
1.983,3.028,-1.045
0.767,2.721,-1.954
-0.4,3.52,-3.92
-0.25,2.489,-2.739
-0.2,2.574,-2.774
-0.45,2.461,-2.911
-0.0,2.582,-2.582
1.383,2.338,-0.955
-0.133,2.345,-2.478
-0.7,2.244,-2.944
-0.0,2.02,-2.02
-1.4,1.879,-3.279
-1.0,0.64,-1.64
-1.417,1.021,-2.438
1.367,0.767,0.599
1.233,1.805,-0.572
-0.0,1.936,-1.936
0.6,1.915,-1.315
-0.0,2.095,-2.095
3.033,1.621,1.412
2.833,0.431,2.402
1.683,0.407,1.276
3.5,2.158,1.342
1.967,2.499,-0.533
1.817,2.547,-0.73
-0.717,2.555,-3.272
1.0,1.915,-0.915
-0.0,0.62,-0.62
0.183,2.138,-1.955
2.833,0.9,1.933
-1.0,1.792,-2.792
-1.7,1.426,-3.126
1.85,1.229,0.621
2.5,0.885,1.615
-1.867,1.761,-3.628
-2.25,1.448,-3.698
6.8,1.129,5.671
-2.617,2.391,-5.008
5.3,1.969,3.331
11.75,3.275,8.475
11.433,3.86,7.574
1.967,4.007,-2.041
13.15,3.205,9.945
12.9,3.829,9.071
17.5,4.066,13.434
1.867,4.451,-2.584
0.5,3.611,-3.111
5.733,3.245,2.489
5.25,3.321,1.929
3.0,3.185,-0.185
3.567,3.098,0.469
3.4,3.151,0.249
13.3,3.094,10.206
5.117,3.365,1.752
-0.0,2.855,-2.855
12.95,2.469,10.481
3.85,3.6,0.25
4.483,3.202,1.281
3.783,3.161,0.622
10.55,3.174,7.376
12.033,2.905,9.128
9.25,4.112,5.138
10.0,4.102,5.898
8.95,3.695,5.255
16.983,3.628,13.356
16.65,2.798,13.852
12.133,2.595,9.538
12.233,3.118,9.115
5.367,3.853,1.514
12.283,3.515,8.768
12.767,3.99,8.777
15.983,4.202,11.781
7.45,2.793,4.657
9.5,3.083,6.417
8.967,3.214,5.752
8.183,3.241,4.942
11.283,2.953,8.33
23.283,3.039,20.244
27.283,5.243,22.041
6.283,6.863,-0.579
16.283,3.874,12.409
28.75,4.533,24.217
26.75,7.273,19.477
25.817,8.503,17.314
28.65,8.757,19.893
12.417,8.911,3.506
11.333,6.543,4.79
-1.6,5.333,-6.933
11.117,3.522,7.595
-0.5,3.606,-4.106
9.667,3.267,6.399
0.75,2.695,-1.945
-1.2,2.795,-3.995
-0.05,2.715,-2.765
3.8,2.436,1.364
20.45,4.246,16.204
25.717,7.115,18.602
2.467,8.74,-6.273
1.717,4.3,-2.583
0.75,3.67,-2.92
2.233,3.51,-1.277
31.783,3.569,28.215
30.2,8.127,22.073
4.317,7.892,-3.575
-2.383,4.855,-7.239
0.5,3.894,-3.394
-0.05,3.542,-3.592
-0.133,3.507,-3.641
-0.75,2.725,-3.475
35.083,2.725,32.358
27.583,8.078,19.505
-1.317,7.757,-9.073
1.617,4.035,-2.419
37.3,3.897,33.403
39.75,8.473,31.277
35.517,9.852,25.665
38.917,10.124,28.793
-0.0,10.03,-10.03
10.25,4.847,5.403
10.25,5.109,5.141
-0.333,5.005,-5.338
0.233,3.825,-3.591
-0.567,3.526,-4.093
-4.1,3.208,-7.308
-0.983,2.497,-3.48
-2.733,2.713,-5.446
1.633,2.412,-0.779
1.8,2.998,-1.198
-0.067,2.596,-2.662
0.3,1.082,-0.782
1.567,1.147,0.419
2.6,1.343,1.257
2.6,1.672,0.928
1.25,2.483,-1.233
0.633,2.46,-1.827
-2.617,2.433,-5.05
2.5,2.055,0.445
-1.217,2.254,-3.471
0.5,2.115,-1.615
-2.167,2.086,-4.253
-0.0,1.892,-1.892
1.0,1.935,-0.935
0.95,2.216,-1.266
1.45,2.307,-0.857
-0.25,2.45,-2.7
-0.0,2.291,-2.291
0.05,0.828,-0.778
-1.0,1.953,-2.953
-1.517,1.862,-3.379
-0.017,1.805,-1.822
-0.0,1.818,-1.818
-1.25,1.948,-3.198
-0.0,1.763,-1.763
-3.467,1.819,-5.285
4.15,0.746,3.404
2.5,2.293,0.207
-0.0,2.285,-2.285
-0.0,2.19,-2.19
-0.0,1.483,-1.483
-0.0,0.685,-0.685
3.517,0.336,3.181
6.8,2.482,4.318
-0.0,2.628,-2.628
12.9,2.459,10.441
1.433,3.176,-1.743
1.217,2.548,-1.331
12.417,2.537,9.88
9.45,3.792,5.658
7.517,2.802,4.714
8.3,3.271,5.029
8.45,2.774,5.676
5.183,2.748,2.436
8.1,2.999,5.101
4.317,3.318,0.999
7.0,3.113,3.887
8.1,3.318,4.782
7.283,3.641,3.642
7.983,3.872,4.111
7.8,3.85,3.95
2.35,3.787,-1.437
7.05,3.13,3.92
5.667,3.403,2.264
1.85,3.29,-1.44
1.85,2.92,-1.07
-0.0,2.996,-2.996
4.633,2.837,1.796
-0.633,2.771,-3.405
-1.767,2.495,-4.261
-0.883,2.421,-3.304
-1.067,2.371,-3.438
-2.067,2.319,-4.385
-1.117,0.668,-1.784
-1.467,1.976,-3.442
-1.933,1.369,-3.302
-2.633,0.893,-3.527
-3.383,0.912,-4.295
-2.367,0.38,-2.747
0.75,0.636,0.114
-3.35,1.097,-4.447
-0.567,0.543,-1.11
-1.083,1.198,-2.282
-3.067,1.17,-4.237
-0.017,1.101,-1.118
-2.033,1.165,-3.199
-1.55,0.481,-2.031
1.683,0.792,0.892
-2.05,1.523,-3.573
-1.483,0.588,-2.071
2.817,1.309,1.508
3.317,1.762,1.554
2.517,2.024,0.493
8.0,2.174,5.826
5.367,2.614,2.753
0.933,2.618,-1.685
4.95,2.383,2.567
1.667,2.473,-0.807
7.75,2.376,5.374
-2.567,2.909,-5.476
-0.25,2.339,-2.589
-1.5,0.49,-1.99
-0.367,0.53,-0.896
-1.167,1.398,-2.565
0.517,1.393,-0.876
-0.0,1.625,-1.625
1.633,1.683,-0.05
2.133,1.907,0.226
0.167,2.084,-1.917
1.467,2.009,-0.543
-0.45,2.031,-2.481
-1.0,1.929,-2.929
-0.4,1.821,-2.221
3.317,1.773,1.543
-1.6,2.297,-3.897
0.3,0.81,-0.51
0.183,1.98,-1.797
-0.0,0.872,-0.872
-3.417,1.914,-5.331
-4.35,1.501,-5.851
-1.5,1.28,-2.78
1.167,1.319,-0.153
-1.233,1.564,-2.797
3.733,1.512,2.221
-0.2,2.137,-2.337
-1.1,1.928,-3.028
1.3,1.74,-0.44
0.667,1.898,-1.231
2.85,1.965,0.885
-0.25,2.322,-2.572
2.567,2.133,0.433
-1.333,2.326,-3.66
2.7,1.965,0.735
0.9,2.221,-1.321
-4.683,2.283,-6.966
0.683,1.765,-1.082
-2.65,1.798,-4.448
0.417,1.561,-1.144
2.5,1.571,0.929
3.683,0.424,3.26
1.6,0.384,1.216
3.0,0.242,2.758
1.25,2.417,-1.167
2.083,2.395,-0.312
5.717,2.382,3.335
5.967,2.446,3.521
0.217,2.461,-2.244
3.483,2.418,1.065
-0.767,2.58,-3.347
3.083,2.362,0.722
0.283,2.384,-2.101
-0.25,2.359,-2.609
2.5,2.34,0.16
-0.083,2.4,-2.484
3.3,2.349,0.951
1.5,2.395,-0.895
-1.267,2.375,-3.641
-0.75,2.198,-2.948
-0.0,2.224,-2.224
5.817,2.077,3.74
3.967,2.409,1.557
6.817,1.714,5.102
6.533,2.551,3.982
6.383,2.607,3.777
-1.25,2.548,-3.798
2.5,2.444,0.056
-1.05,2.545,-3.595
-1.333,2.398,-3.731
2.017,2.333,-0.316
-0.0,2.456,-2.456
-0.85,2.333,-3.183
3.933,2.131,1.802
-1.317,2.42,-3.736
10.083,0.745,9.338
8.95,4.714,4.236
10.2,4.732,5.468
15.0,5.395,9.605
0.483,6.684,-6.201
-0.233,3.86,-4.094
11.5,3.562,7.938
6.25,3.843,2.407
8.433,3.683,4.75
5.3,3.526,1.774
-1.217,3.377,-4.594
3.633,2.85,0.784
16.017,3.621,12.396
0.6,6.729,-6.129
3.5,3.526,-0.026
1.5,3.832,-2.332
0.433,3.123,-2.69
2.75,3.158,-0.408
3.517,2.077,1.44
-3.567,2.39,-5.957
-0.0,1.842,-1.842
0.75,0.276,0.474
1.317,2.097,-0.781
0.517,0.602,-0.085
0.417,2.365,-1.949
0.3,2.094,-1.794
0.267,1.996,-1.729
-3.767,1.572,-5.338
-4.25,1.434,-5.684
-0.0,0.715,-0.715
-0.0,0.47,-0.47
5.367,1.483,3.884
-1.25,0.933,-2.183
-2.367,0.8,-3.167
0.583,0.536,0.047
-0.0,1.339,-1.339
-1.883,1.041,-2.925
-2.183,1.713,-3.896
0.083,1.002,-0.919
0.833,1.066,-0.233
-0.0,1.72,-1.72
1.1,1.681,-0.581
-1.0,0.932,-1.932
-0.5,0.537,-1.037
-2.017,1.38,-3.396
-0.0,1.244,-1.244
-0.0,0.476,-0.476
-1.083,1.29,-2.373
-1.533,1.147,-2.68
-0.117,1.237,-1.354
0.783,1.542,-0.758
-0.0,1.714,-1.714
0.183,1.811,-1.628
-0.633,2.086,-2.719
0.633,1.081,-0.447
1.717,1.975,-0.258
-3.1,2.33,-5.43
0.167,1.982,-1.815
3.75,1.479,2.271
2.5,2.423,0.077
1.2,2.485,-1.285
0.333,2.45,-2.117
-0.0,2.333,-2.333
1.95,0.368,1.582
1.65,1.38,0.27
2.183,2.428,-0.244
1.167,2.407,-1.24
-0.417,2.388,-2.805
1.05,2.173,-1.123
0.5,2.292,-1.792
0.317,0.81,-0.493
0.183,2.336,-2.153
-0.383,2.301,-2.685
0.267,1.876,-1.609
0.25,1.89,-1.64
0.167,1.934,-1.768
-0.183,1.877,-2.06
2.233,-0.021,2.254
-1.033,2.149,-3.182
-3.167,1.807,-4.974
-0.067,0.804,-0.871
-5.667,1.434,-7.1
4.25,0.557,3.693
2.0,0.401,1.599
-0.8,0.987,-1.787
5.017,1.16,3.857
5.267,2.453,2.814
3.8,2.542,1.258
-2.2,2.541,-4.741
-0.0,2.662,-2.662
1.0,2.078,-1.078
-2.7,2.35,-5.05
3.55,1.646,1.904
0.35,2.171,-1.821
1.5,1.977,-0.477
0.317,2.27,-1.953
3.217,1.769,1.447
-0.217,1.517,-1.733
0.983,2.215,-1.232
1.35,2.253,-0.903
0.133,2.312,-2.178
0.9,2.247,-1.347
0.467,2.023,-1.557
1.617,2.283,-0.666
4.55,1.965,2.585
5.9,2.584,3.316
-1.833,2.642,-4.475
7.5,1.742,5.758
-0.5,1.473,-1.973
-0.567,1.511,-2.078
-0.0,1.465,-1.465
7.417,1.513,5.904
1.933,2.521,-0.588
1.383,2.494,-1.111
0.433,2.392,-1.958
-0.0,2.165,-2.165
-0.0,1.444,-1.444
1.45,2.317,-0.867
-0.317,0.919,-1.236
-3.033,1.453,-4.487
-0.0,1.067,-1.067
0.917,1.809,-0.893
0.783,1.757,-0.974
0.067,1.815,-1.749
-0.533,0.9,-1.434
1.75,1.188,0.562
1.033,1.95,-0.917
2.7,2.298,0.402
-2.867,2.382,-5.249
2.5,1.877,0.623
-1.75,-0.114,-1.636
-2.183,0.701,-2.884
-0.0,1.02,-1.02
3.233,0.586,2.648
-0.45,2.225,-2.675
0.75,0.835,-0.085
-0.533,2.129,-2.663
0.233,1.75,-1.516
1.0,1.777,-0.777
-1.133,1.942,-3.075
-1.883,1.686,-3.569
-2.283,1.511,-3.795
0.167,0.711,-0.544
-0.0,1.535,-1.535
0.65,1.497,-0.847
0.25,1.621,-1.371
-0.0,1.49,-1.49
-4.067,1.75,-5.817
-0.617,1.237,-1.854
0.5,0.535,-0.035
-0.583,0.8,-1.383
0.5,0.946,-0.446
-0.167,1.37,-1.537
-1.883,1.215,-3.099
0.967,0.88,0.087
-0.0,1.839,-1.839
-0.267,1.685,-1.952
2.367,1.852,0.514
4.417,2.039,2.378
4.95,2.427,2.523
3.233,2.5,0.734
9.017,2.864,6.152
2.083,2.687,-0.603
-0.85,2.512,-3.362
-0.033,2.373,-2.406
10.5,1.136,9.364
1.533,2.954,-1.421
-2.2,2.556,-4.756
-0.0,2.074,-2.074
10.033,2.337,7.697
14.1,2.831,11.269
1.0,3.42,-2.42
1.45,2.633,-1.183
11.4,2.672,8.728
-0.0,3.612,-3.612
3.1,2.984,0.116
2.217,2.589,-0.372
-0.183,2.663,-2.847
3.967,2.6,1.367
-1.0,2.751,-3.751
2.283,2.966,-0.683
0.45,2.608,-2.158
-3.617,2.51,-6.127
3.667,2.314,1.352
-4.917,2.447,-7.364
1.0,2.137,-1.137
5.117,2.121,2.996
4.75,2.451,2.299
4.5,2.533,1.967
-1.433,2.475,-3.908
4.9,2.385,2.515
1.383,2.533,-1.15
4.017,2.446,1.57
0.75,2.494,-1.744
0.5,2.415,-1.915
5.0,2.367,2.633
1.433,2.496,-1.062
-0.633,2.941,-3.574
1.783,1.735,0.049
-0.983,2.348,-3.331
-2.55,2.287,-4.837
-3.1,0.875,-3.975
-0.0,0.292,-0.292
-4.017,1.432,-5.449
-0.0,0.53,-0.53
-0.567,0.456,-1.023
-1.333,1.622,-2.955
-0.133,0.938,-1.071
-0.817,1.442,-2.259
0.833,1.048,-0.215
1.283,1.584,-0.301
-1.25,1.615,-2.865
-0.017,0.776,-0.792
-1.3,1.259,-2.559
0.5,0.38,0.12
1.0,1.012,-0.012
-0.5,1.651,-2.151
-0.783,1.663,-2.447
3.667,1.345,2.322
1.5,1.36,0.14
0.667,2.306,-1.639
2.133,1.996,0.138
5.3,1.641,3.659
4.55,2.555,1.995
0.333,2.559,-2.225
-1.017,2.329,-3.346
2.55,2.516,0.034
0.25,2.881,-2.631
3.233,2.71,0.524
-0.0,2.501,-2.501
1.4,2.818,-1.418
1.583,2.377,-0.793
0.25,2.511,-2.261
-3.65,2.337,-5.987
-0.317,1.416,-1.733
-1.817,1.902,-3.719
-4.533,1.271,-5.805
0.533,1.437,-0.904
-0.0,1.324,-1.324
1.45,1.393,0.057
-1.383,1.684,-3.067
-3.117,1.581,-4.697
-3.417,0.916,-4.333
0.533,0.573,-0.04
-3.783,1.462,-5.245
-1.25,0.382,-1.632
1.2,1.046,0.154
-2.383,0.818,-3.201
-1.15,0.808,-1.958
-0.0,0.794,-0.794
2.0,0.499,1.501
-2.133,1.373,-3.506
-0.0,0.934,-0.934
2.083,1.541,0.543
-1.183,1.906,-3.09
1.0,1.633,-0.633
0.25,1.887,-1.637
-3.267,1.628,-4.894
1.333,1.279,0.054
1.25,0.69,0.56
-0.933,1.816,-2.75
-2.433,1.013,-3.446
-0.0,0.715,-0.715
-2.017,0.754,-2.771
-1.633,0.298,-1.931
-2.9,0.97,-3.87
0.483,0.801,-0.318
-1.533,0.53,-2.063
-0.483,0.809,-1.292
0.167,0.762,-0.595
-1.6,0.868,-2.468
-0.25,0.812,-1.062
-0.533,0.85,-1.383
-0.167,0.888,-1.055
1.067,0.93,0.137
-0.983,1.314,-2.297
-4.75,1.063,-5.813
-3.467,0.567,-4.034
0.483,0.484,-0.001
-2.067,1.507,-3.574
-2.133,1.073,-3.207
-0.633,0.239,-0.872
-0.217,0.846,-1.063
-2.1,1.021,-3.121
-2.833,0.333,-3.166
-2.783,0.806,-3.59
1.167,0.448,0.719
-0.883,0.675,-1.558
2.25,2.246,0.004
5.65,2.294,3.356
5.267,2.45,2.817
3.85,2.422,1.428
-2.717,2.445,-5.161
-0.8,2.169,-2.969
2.983,2.095,0.888
1.983,2.279,-0.296
2.233,2.282,-0.049
0.617,2.286,-1.669
2.117,2.258,-0.142
-3.467,2.358,-5.825
7.25,2.071,5.179
1.7,2.703,-1.003
0.567,1.691,-1.124
1.8,1.587,0.213
6.683,2.029,4.654
-2.85,2.548,-5.398
5.0,2.261,2.739
-1.4,2.502,-3.902
3.817,1.308,2.509
3.667,2.64,1.027
1.167,2.458,-1.292
1.85,2.379,-0.529
0.233,1.79,-1.557
3.25,2.424,0.826
-1.367,2.495,-3.862
-0.0,0.956,-0.956
0.017,1.256,-1.24
-0.85,1.221,-2.071
1.417,1.776,-0.359
0.933,1.514,-0.581
0.267,1.535,-1.268
0.033,1.571,-1.538
0.883,0.448,0.435
-0.0,0.584,-0.584
-1.117,0.91,-2.026
-1.85,0.845,-2.695
-1.6,0.731,-2.331
-0.0,0.903,-0.903
0.683,0.903,-0.22
-0.583,1.788,-2.371
1.417,0.68,0.737
-0.0,0.257,-0.257
-1.167,1.425,-2.591
2.25,0.756,1.494
0.25,2.099,-1.849
-0.183,1.83,-2.014
0.383,1.785,-1.402
1.383,1.746,-0.363
-0.0,1.97,-1.97
-2.183,1.942,-4.125
0.417,1.02,-0.603
-0.333,1.699,-2.033
3.917,1.707,2.21
-1.55,2.288,-3.838
1.15,1.831,-0.681
-2.033,1.869,-3.902
-0.0,1.729,-1.729
0.8,1.204,-0.404
-0.0,1.819,-1.819
-0.033,0.921,-0.955
0.05,1.632,-1.582
3.783,1.337,2.446
-0.0,2.329,-2.329
-0.1,1.887,-1.987
-0.85,1.951,-2.801
0.167,1.692,-1.525
1.75,1.697,0.053
-2.233,1.965,-4.199
3.0,0.331,2.669
-0.283,1.834,-2.117
-1.5,0.569,-2.069
3.5,0.787,2.713
4.5,1.913,2.587
-1.7,2.426,-4.126
-4.367,2.053,-6.419
-0.5,1.471,-1.971
-2.467,0.693,-3.16
-0.5,0.795,-1.295
-0.5,0.881,-1.381
0.4,0.702,-0.302
-1.35,1.553,-2.903
0.417,0.794,-0.377
0.267,1.266,-0.999
1.233,1.664,-0.43
-0.0,1.964,-1.964
0.033,1.82,-1.786
0.833,1.715,-0.881
0.8,1.891,-1.091
-1.833,1.478,-3.311
0.533,0.494,0.04
1.883,1.038,0.845
-0.283,0.722,-1.005
2.25,1.392,0.858
0.55,1.695,-1.145
0.433,1.896,-1.463
0.683,1.846,-1.163
-0.3,1.765,-2.065
-0.25,1.626,-1.876
-0.483,1.585,-2.068
-1.05,1.48,-2.53
-0.133,0.965,-1.099
2.117,0.784,1.333
-2.883,0.758,-3.642
3.167,0.655,2.511
2.3,0.347,1.953
3.133,1.218,1.915
-0.483,2.398,-2.882
4.5,0.809,3.691
3.167,1.891,1.275
-1.25,2.51,-3.76
-3.783,1.648,-5.431
-1.467,2.028,-3.495
-0.5,0.887,-1.387
-1.867,1.435,-3.302
-0.967,1.199,-2.166
3.517,1.235,2.281
-0.0,1.234,-1.234
-0.0,1.564,-1.564
-1.8,2.058,-3.858
-0.0,1.665,-1.665
-2.683,1.63,-4.313
-1.683,1.324,-3.007
-2.833,0.299,-3.132
-2.2,0.384,-2.584
-2.05,0.173,-2.223
-2.25,1.108,-3.358
-2.467,1.051,-3.517
-2.367,1.036,-3.403
-1.567,0.297,-1.863
-0.0,0.593,-0.593
-2.9,0.52,-3.42
-3.333,0.419,-3.752
0.55,0.422,0.128
-1.533,0.872,-2.405
-1.167,0.697,-1.864
2.983,0.623,2.36
2.533,1.557,0.976
-0.0,1.696,-1.696
3.6,1.734,1.866
0.65,2.158,-1.508
0.783,2.234,-1.451
0.817,2.003,-1.186
1.367,1.965,-0.598
-0.717,2.278,-2.995
-1.25,1.811,-3.061
1.533,1.626,-0.093
1.167,0.568,0.599
-2.0,1.116,-3.116
-0.85,1.665,-2.515
-0.433,1.549,-1.983
1.6,1.421,0.179
2.2,0.504,1.696
2.033,1.872,0.161
-0.5,2.06,-2.56
-1.167,1.659,-2.826
-1.0,1.518,-2.518
-5.667,1.512,-7.179
0.417,1.467,-1.05
-3.317,1.886,-5.202
-0.0,1.538,-1.538
-0.1,0.575,-0.675
-1.1,0.937,-2.037
0.25,0.809,-0.559
0.25,0.884,-0.634
-0.533,1.029,-1.563
-3.633,0.795,-4.428
-0.217,0.379,-0.595
0.067,0.53,-0.464
0.067,0.794,-0.728
-1.4,1.0,-2.4
-0.0,0.896,-0.896
1.8,1.295,0.505
3.25,1.646,1.604
-0.25,2.053,-2.303
-0.367,2.12,-2.487
-0.883,1.753,-2.637
-4.8,1.481,-6.281
0.867,0.487,0.379
-1.0,2.208,-3.208
-0.0,1.519,-1.519
3.45,2.24,1.21
7.867,2.428,5.439
2.183,4.271,-2.088
16.833,2.477,14.357
0.217,6.713,-6.497
9.483,4.175,5.309
-0.0,3.929,-3.929
-0.0,2.244,-2.244
3.25,2.682,0.568
-0.0,3.285,-3.285
-1.533,2.434,-3.967
-0.0,2.21,-2.21
0.25,1.746,-1.496
-2.717,1.386,-4.103
-6.783,1.737,-8.52
5.383,2.191,3.192
-0.0,1.806,-1.806
-0.583,1.903,-2.487
-2.15,1.355,-3.505
-1.833,1.036,-2.87
-0.0,1.647,-1.647
0.467,2.093,-1.626
-5.567,2.113,-7.68
-5.067,0.409,-5.476
-1.5,1.844,-3.344
-0.0,1.215,-1.215
-3.783,1.439,-5.222
-6.133,1.198,-7.331
5.283,0.444,4.839
12.467,0.611,11.856
2.183,3.063,-0.88
-1.283,2.532,-3.815
-2.717,2.313,-5.03
9.35,1.666,7.684
9.85,3.026,6.824
-1.633,3.459,-5.092
-2.383,2.484,-4.867
-0.5,2.241,-2.741
11.7,1.859,9.841
7.6,2.977,4.623
13.25,2.276,10.974
7.717,3.182,4.535
-0.583,3.132,-3.715
-3.5,2.781,-6.281
12.267,2.517,9.75
6.583,3.907,2.676
10.3,3.419,6.881
7.767,3.823,3.943
10.983,3.274,7.71
-0.5,4.678,-5.178
-0.0,3.49,-3.49
-0.5,3.08,-3.58
14.6,2.484,12.116
9.117,6.6,2.516
28.75,6.061,22.689
-0.0,9.407,-9.407
24.733,4.977,19.756
-0.3,7.607,-7.907
6.25,4.368,1.882
5.4,5.673,-0.273
21.55,5.148,16.402
5.15,7.596,-2.446
4.0,5.564,-1.564
2.717,4.859,-2.142
10.617,4.513,6.103
-0.7,5.831,-6.531
7.2,3.83,3.37
6.133,5.19,0.943
1.05,4.636,-3.586
23.5,3.693,19.807
-1.467,7.359,-8.825
17.717,2.795,14.921
19.117,7.931,11.186
20.15,7.304,12.846
2.633,6.79,-4.157
1.733,4.813,-3.08
22.167,4.322,17.845
15.517,7.925,7.591
14.467,7.927,6.54
21.5,6.809,14.691
11.7,6.99,4.71
1.833,6.322,-4.489
-0.0,4.701,-4.701
6.817,4.265,2.552
7.417,4.985,2.431
5.667,5.263,0.404
2.0,4.904,-2.904
23.5,4.769,18.731
3.517,7.731,-4.214
3.45,5.688,-2.238
2.65,4.76,-2.11
13.133,4.076,9.057
14.133,5.79,8.344
13.55,6.084,7.466
9.533,5.97,3.564
10.0,3.596,6.404
1.467,4.259,-2.792
1.6,3.463,-1.863
2.2,2.986,-0.786
8.35,2.631,5.719
2.883,3.946,-1.062
6.383,3.414,2.969
7.133,3.998,3.136
14.467,4.473,9.994
19.3,3.86,15.44
3.183,6.676,-3.492
5.133,4.16,0.973
2.033,2.92,-0.887
2.933,3.31,-0.376
5.0,3.578,1.422
3.567,4.249,-0.682
-4.483,3.655,-8.139
2.0,2.548,-0.548
7.833,3.486,4.347
12.367,3.921,8.446
11.35,3.471,7.879
7.733,3.639,4.094
13.217,3.795,9.421
11.933,4.673,7.26
9.367,5.985,3.381
6.25,2.834,3.416
10.4,3.143,7.257
1.2,3.481,-2.281
1.167,3.338,-2.171
2.283,3.672,-1.389
1.983,3.494,-1.511
1.467,3.28,-1.813
6.6,2.589,4.011
4.817,4.151,0.665
1.4,4.454,-3.054
-1.283,2.257,-3.54
7.5,2.497,5.003
9.05,5.272,3.778
0.25,5.302,-5.052
-0.75,3.357,-4.107
11.383,2.295,9.088
0.617,6.322,-5.706
2.2,3.456,-1.256
0.7,3.656,-2.956
-5.3,3.033,-8.333
-6.55,2.434,-8.984
5.383,1.33,4.053
1.667,1.524,0.143
5.483,1.469,4.015
-4.65,2.52,-7.17
1.683,1.659,0.024
8.4,1.853,6.547
1.8,2.136,-0.336
-0.0,2.075,-2.075
10.5,2.055,8.445
-1.75,3.349,-5.099
8.983,2.055,6.928
4.517,4.272,0.244
7.8,2.475,5.325
-0.833,3.546,-4.379
1.667,2.416,-0.749
2.0,2.576,-0.576
10.35,3.072,7.278
-0.583,3.856,-4.439
-0.083,2.806,-2.889
0.633,2.515,-1.881
7.3,2.398,4.902
0.75,2.777,-2.027
4.483,1.723,2.76
6.983,2.673,4.311
3.433,3.049,0.384
5.583,2.641,2.942
-2.333,2.624,-4.957
0.9,2.374,-1.474
4.433,2.332,2.101
0.083,2.466,-2.382
-0.0,2.282,-2.282
0.6,2.366,-1.766
4.617,2.661,1.955
-3.017,2.291,-5.307
14.833,2.311,12.522
-0.0,3.392,-3.392
6.533,2.875,3.658
4.217,1.821,2.396
-1.0,2.296,-3.296
5.95,2.031,3.919
11.267,2.229,9.038
4.45,2.87,1.58
-4.9,2.895,-7.795
3.45,2.384,1.066
1.25,2.539,-1.289
3.383,3.245,0.139
3.183,3.212,-0.029
-0.317,2.443,-2.759
7.5,2.303,5.197
-1.35,2.479,-3.829
6.233,2.298,3.936
1.583,3.439,-1.855
-2.717,2.616,-5.332
3.183,2.57,0.614
-3.5,2.466,-5.966
-0.0,1.895,-1.895
8.75,2.126,6.624
8.667,2.447,6.22
11.133,2.72,8.414
13.133,2.723,10.41
-2.0,2.708,-4.708
5.5,2.09,3.41
11.233,3.088,8.145
1.0,5.05,-4.05
-0.3,3.558,-3.858
3.417,2.998,0.419
2.283,2.781,-0.497
10.817,2.605,8.212
-1.033,4.206,-5.239
-0.783,2.873,-3.656
0.467,2.331,-1.864
13.55,2.171,11.379
7.233,3.458,3.775
0.783,3.114,-2.33
0.433,3.099,-2.666
2.067,2.474,-0.407
9.3,2.651,6.649
-0.917,3.791,-4.708
-0.417,2.541,-2.958
-2.417,2.367,-4.783
11.317,2.213,9.103
0.433,3.341,-2.908
-3.0,2.464,-5.464
4.033,2.786,1.247
2.0,2.977,-0.977
8.483,2.69,5.793
8.983,2.747,6.236
7.95,2.938,5.012
7.95,3.173,4.777
1.4,3.369,-1.969
0.483,2.62,-2.137
-0.0,3.164,-3.164
6.35,2.684,3.666
-3.133,2.856,-5.989
12.25,2.645,9.605
-0.0,4.335,-4.335
-5.533,2.506,-8.04
11.25,2.054,9.196
2.2,3.442,-1.242
-0.95,2.485,-3.435
1.25,2.369,-1.119
12.467,2.265,10.202
11.4,4.147,7.253
13.0,4.378,8.622
3.183,4.592,-1.409
1.733,3.49,-1.757
12.333,3.363,8.971
12.2,5.148,7.052
11.367,4.741,6.626
4.6,2.691,1.909
6.1,3.309,2.791
13.967,2.71,11.256
13.2,4.976,8.224
12.05,3.068,8.982
15.233,4.037,11.197
0.6,6.292,-5.692
12.333,2.824,9.509
3.167,3.279,-0.112
7.167,2.941,4.226
3.1,3.562,-0.462
3.167,3.681,-0.514
-0.783,3.147,-3.93
3.433,2.834,0.599
16.2,2.732,13.468
11.067,5.036,6.03
0.25,5.088,-4.838
15.633,3.068,12.566
13.217,2.55,10.667
3.483,3.712,-0.229
3.0,2.956,0.044
5.433,3.21,2.223
2.75,3.107,-0.357
5.283,2.767,2.516
15.217,3.193,12.023
5.633,3.62,2.014
7.233,2.842,4.392
-2.95,3.511,-6.461
7.45,2.856,4.594
3.1,2.949,0.151
-3.15,2.974,-6.124
-0.0,2.763,-2.763
19.117,2.696,16.421
2.533,5.101,-2.567
12.65,2.76,9.89
21.433,3.812,17.622
9.05,5.242,3.808
1.4,3.459,-2.059
5.933,2.97,2.963
-0.0,3.169,-3.169
14.683,2.483,12.2
11.417,3.597,7.819
13.683,4.05,9.634
-0.0,4.691,-4.691
0.75,3.123,-2.373
-1.95,2.922,-4.872
19.217,2.688,16.528
9.5,3.694,5.806
19.0,3.188,15.812
22.117,6.462,15.655
9.25,7.774,1.476
-0.0,5.855,-5.855
14.667,2.71,11.956
-0.0,3.482,-3.482
20.4,2.604,17.796
9.817,4.842,4.975
0.667,4.772,-4.105
-2.083,2.688,-4.772
-0.0,2.599,-2.599
-0.0,2.694,-2.694
-0.0,2.942,-2.942
13.933,2.674,11.259
15.8,3.454,12.346
2.45,4.607,-2.157
2.167,3.148,-0.981
-0.0,3.185,-3.185
-0.0,2.557,-2.557
7.45,2.493,4.957
13.783,2.797,10.987
1.533,3.405,-1.872
-0.117,2.653,-2.769
21.183,2.337,18.846
0.5,5.147,-4.647
16.717,2.938,13.778
17.717,3.051,14.666
18.183,2.874,15.309
-0.0,5.774,-5.774
15.683,3.051,12.632
14.683,5.169,9.515
10.8,5.261,5.539
8.833,4.024,4.81
-3.883,3.731,-7.614
10.583,2.969,7.615
-0.0,2.893,-2.893
4.333,2.325,2.008
-0.0,2.472,-2.472
-0.0,2.55,-2.55
6.433,2.566,3.868
12.333,3.645,8.688
10.583,3.423,7.16
-0.0,2.617,-2.617
10.45,2.623,7.827
15.15,2.702,12.448
4.8,3.2,1.6
2.817,2.944,-0.127
17.3,3.15,14.15
3.717,3.248,0.469
13.667,2.69,10.977
6.65,2.561,4.089
16.267,2.946,13.321
10.583,5.043,5.54
12.633,4.695,7.938
-0.0,4.749,-4.749
6.25,3.336,2.914
17.983,2.77,15.214
13.333,4.922,8.411
5.817,4.245,1.571
3.117,3.409,-0.292
-0.0,2.612,-2.612
1.767,2.417,-0.65
4.167,2.7,1.467
13.483,2.818,10.665
-0.017,4.178,-4.195
4.017,2.87,1.147
1.067,2.769,-1.702
3.45,2.662,0.788
-1.683,2.649,-4.332
13.05,2.503,10.547
2.667,3.466,-0.799
1.867,2.592,-0.726
1.65,2.48,-0.83
2.767,2.495,0.272
-1.283,2.636,-3.919
12.933,2.457,10.476
9.5,5.869,3.631
6.4,6.183,0.217
5.4,5.829,-0.429
8.4,4.666,3.734
11.317,4.404,6.912
10.317,6.877,3.439
10.167,7.207,2.96
-0.5,7.246,-7.746
0.067,4.301,-4.234
1.867,4.06,-2.193
0.033,2.602,-2.569
3.35,2.802,0.548
5.067,3.591,1.475
0.817,2.575,-1.758
7.433,2.581,4.852
-3.95,5.283,-9.233
-5.833,2.642,-8.476
3.833,2.564,1.27
5.383,4.219,1.165
18.983,3.485,15.498
7.75,7.043,0.707
6.483,5.827,0.656
6.983,4.938,2.045
-1.5,4.136,-5.636
-3.117,3.296,-6.413
7.383,2.482,4.901
6.317,3.381,2.935
17.483,2.717,14.766
10.533,8.413,2.121
10.75,7.327,3.423
-1.1,7.46,-8.56
-0.133,4.134,-4.267
3.833,3.202,0.631
10.217,3.078,7.139
-1.383,4.332,-5.715
-2.55,2.65,-5.2
6.467,2.342,4.125
-6.667,2.712,-9.379
0.283,2.172,-1.888
-0.0,2.05,-2.05
2.35,1.869,0.481
7.0,3.09,3.91
6.25,2.708,3.542
17.5,2.6,14.9
8.433,5.073,3.36
6.4,4.113,2.287
-1.833,3.389,-5.222
10.117,2.674,7.443
0.383,4.637,-4.253
-1.0,2.517,-3.517
-1.467,2.326,-3.792
12.55,2.29,10.26
8.8,3.666,5.134
15.817,3.842,11.975
1.233,5.165,-3.932
17.083,3.444,13.64
10.0,6.112,3.888
0.367,5.39,-5.023
0.7,3.4,-2.7
1.667,3.055,-1.388
4.867,2.637,2.23
6.117,3.047,3.07
7.367,3.294,4.073
10.067,2.708,7.359
9.833,3.874,5.959
6.75,5.156,1.594
-0.85,4.116,-4.966
10.6,2.991,7.609
-8.983,4.867,-13.85
9.133,2.739,6.394
11.067,5.273,5.794
14.333,5.787,8.546
9.25,4.647,4.603
13.0,2.79,10.21
2.267,2.884,-0.617
2.35,3.17,-0.82
7.917,2.789,5.128
8.483,3.768,4.715
7.267,4.01,3.257
4.367,4.457,-0.091
-0.0,3.518,-3.518
-0.0,2.673,-2.673
1.233,2.695,-1.462
-0.0,2.817,-2.817
11.15,2.818,8.332
12.1,4.492,7.608
10.35,4.943,5.407
7.283,4.393,2.89
11.517,3.349,8.168
6.1,5.009,1.091
2.517,3.547,-1.03
1.983,3.106,-1.123
0.85,2.642,-1.792
4.433,2.698,1.735
-0.0,2.8,-2.8
9.083,2.721,6.362
0.5,3.974,-3.474
0.683,2.751,-2.068
10.567,2.524,8.042
3.0,3.423,-0.423
7.2,2.547,4.653
10.783,2.98,7.803
12.7,3.825,8.875
5.1,5.367,-0.267
2.283,3.196,-0.913
11.033,3.078,7.956
-0.0,5.116,-5.116
1.483,2.607,-1.124
9.167,2.491,6.676
1.067,3.417,-2.35
9.933,3.101,6.833
17.45,5.254,12.196
18.717,5.385,13.332
-0.0,8.211,-8.211
8.333,3.76,4.574
12.533,4.194,8.339
-0.0,4.932,-4.932
-0.717,3.196,-3.913
-0.0,2.645,-2.645
-0.0,2.875,-2.875
-0.0,2.688,-2.688
8.617,2.793,5.824
4.617,3.527,1.09
11.65,3.978,7.672
5.85,3.17,2.68
13.567,3.652,9.914
4.65,3.662,0.988
5.0,3.038,1.962
8.967,3.717,5.249
6.7,3.098,3.602
6.817,4.125,2.692
6.317,3.911,2.406
7.25,4.304,2.946
11.5,4.495,7.005
2.55,4.511,-1.961
2.733,3.573,-0.84
6.433,3.296,3.137
0.6,3.231,-2.631
13.55,2.402,11.148
-0.0,3.18,-3.18
4.983,2.685,2.298
-1.783,2.94,-4.723
3.0,2.696,0.304
3.267,3.207,0.06
7.517,2.416,5.101
0.75,2.859,-2.109
6.917,2.758,4.159
-0.0,3.377,-3.377
12.883,2.688,10.195
4.017,3.406,0.611
-4.65,2.56,-7.21
-3.9,2.067,-5.967
12.567,2.601,9.966
2.417,5.113,-2.696
-1.0,3.499,-4.499
8.383,2.94,5.444
1.683,2.623,-0.94
1.467,2.904,-1.437
8.983,2.414,6.569
1.8,2.53,-0.73
4.15,2.308,1.842
3.933,2.42,1.514
10.383,2.363,8.021
0.833,2.617,-1.784
11.817,1.984,9.833
2.9,3.475,-0.575
-0.5,2.628,-3.128
13.05,2.396,10.654
-2.467,3.439,-5.905
11.55,2.333,9.217
-0.0,2.752,-2.752
9.4,2.534,6.866
10.933,2.542,8.392
2.417,4.171,-1.754
6.533,2.695,3.838
0.417,2.859,-2.443
11.983,2.479,9.504
12.033,3.962,8.071
11.3,4.637,6.663
9.4,2.672,6.728
15.867,2.835,13.032
0.883,5.279,-4.395
-0.3,3.008,-3.308
-0.0,2.577,-2.577
-0.0,2.708,-2.708
8.433,2.553,5.881
15.567,2.325,13.242
3.25,5.165,-1.915
-0.0,3.053,-3.053
0.783,2.776,-1.992
7.6,2.592,5.008
2.3,2.73,-0.43
8.8,2.781,6.019
15.85,2.73,13.12
0.817,3.994,-3.177
14.75,2.624,12.126
14.517,4.458,10.059
-0.0,5.082,-5.082
0.433,2.736,-2.302
0.5,3.233,-2.733
-0.017,2.57,-2.587
23.167,2.964,20.203
0.75,4.887,-4.137
1.667,2.615,-0.948
-0.0,3.037,-3.037
-0.033,2.479,-2.513
16.2,2.329,13.871
-0.0,4.251,-4.251
7.667,3.384,4.283
-2.25,3.58,-5.83
0.95,2.369,-1.419
21.483,2.646,18.837
12.367,3.887,8.479
10.45,3.574,6.876
-0.0,3.43,-3.43
-0.0,2.716,-2.716
8.267,2.974,5.293
15.267,3.257,12.01
8.6,5.019,3.581
14.167,3.736,10.43
13.067,2.674,10.392
2.3,4.334,-2.034
2.833,2.632,0.201
17.6,2.989,14.611
4.383,5.839,-1.455
3.833,3.544,0.29
4.367,2.859,1.508
4.317,3.335,0.982
4.0,2.868,1.132
17.917,2.753,15.164
2.5,5.444,-2.944
2.367,3.35,-0.984
-1.017,3.205,-4.222
12.467,2.499,9.968
-0.0,3.046,-3.046
6.933,3.031,3.902
6.933,3.519,3.414
-0.0,2.847,-2.847
8.6,2.87,5.73
8.317,2.756,5.56
6.733,2.601,4.132
10.467,3.313,7.153
9.9,3.552,6.348
6.517,4.268,2.249
-0.0,3.342,-3.342
4.183,2.861,1.322
10.25,2.599,7.651
11.917,3.248,8.669
5.867,3.639,2.228
4.883,2.689,2.194
-1.967,3.063,-5.03
-0.0,2.846,-2.846
23.55,2.68,20.87
4.5,5.343,-0.843
4.3,2.624,1.676
-5.933,2.571,-8.504
7.683,2.384,5.299
4.5,2.708,1.792
0.75,2.561,-1.811
5.433,2.192,3.241
-0.183,2.444,-2.627
4.65,2.286,2.364
17.1,2.647,14.453
-0.133,2.734,-2.868
-0.183,2.616,-2.799
1.55,2.448,-0.898
1.55,1.976,-0.426
-4.25,2.856,-7.106
2.467,0.381,2.086
12.683,0.724,11.96
1.75,2.6,-0.85
2.0,2.313,-0.313
-0.883,2.303,-3.187
0.433,2.168,-1.735
9.533,1.45,8.083
8.0,5.293,2.707
-0.0,6.193,-6.193
0.5,2.914,-2.414
2.0,2.662,-0.662
1.75,2.67,-0.92
15.333,2.311,13.022
5.267,4.751,0.516
15.333,4.107,11.226
10.217,6.461,3.755
11.467,6.115,5.352
8.467,6.159,2.308
11.75,3.792,7.958
10.0,5.463,4.537
-1.25,5.499,-6.749
5.433,3.762,1.672
17.0,4.521,12.479
3.25,4.944,-1.694
2.75,3.915,-1.165
0.5,3.949,-3.449
7.0,3.57,3.43
-0.75,2.598,-3.348
-1.55,2.523,-4.073
0.75,2.435,-1.685
13.083,3.107,9.977
13.083,6.789,6.294
7.5,6.624,0.876
8.5,3.015,5.485
-0.0,3.419,-3.419
4.5,2.964,1.536
4.083,4.598,-0.515
3.5,2.935,0.565
2.567,3.661,-1.094
11.733,3.718,8.015
11.733,6.319,5.414
-0.0,6.04,-6.04
12.467,3.827,8.64
4.15,3.657,0.493
12.983,2.616,10.367
6.283,5.751,0.532
0.4,5.207,-4.807
-0.0,3.673,-3.673
5.5,3.581,1.919
9.483,5.24,4.243
12.25,5.475,6.775
-0.1,4.403,-4.503
14.0,3.107,10.893
5.267,3.19,2.077
1.0,2.516,-1.516
11.267,2.359,8.907
1.5,6.128,-4.628
7.0,3.393,3.607
1.75,3.678,-1.928
-0.0,3.17,-3.17
1.75,3.259,-1.509
1.25,3.487,-2.237
1.5,2.619,-1.119
-0.75,3.002,-3.752
-0.0,2.431,-2.431
8.117,2.517,5.6
-0.0,3.199,-3.199
1.2,2.376,-1.176
6.0,2.29,3.71
6.183,2.58,3.604
13.383,2.815,10.569
3.25,4.185,-0.935
-0.5,3.034,-3.534
4.25,2.889,1.361
3.133,2.817,0.316
8.0,2.662,5.338
11.617,7.667,3.949
4.4,4.41,-0.01
12.617,4.17,8.446
10.0,6.645,3.355
-0.0,6.528,-6.528
10.0,3.449,6.551
3.6,5.624,-2.024
6.75,4.163,2.587
8.25,4.753,3.497
-0.617,5.593,-6.209
2.333,2.8,-0.466
11.15,2.68,8.47
10.65,4.193,6.457
2.0,6.266,-4.266
-2.75,4.185,-6.935
-0.0,3.044,-3.044
-0.5,2.059,-2.559
0.5,1.655,-1.155
3.0,2.395,0.605
-1.0,1.744,-2.744
-0.0,1.551,-1.551
1.0,2.453,-1.453
1.0,1.616,-0.616
13.283,2.299,10.984
13.283,4.783,8.501
5.4,5.084,0.316
13.283,3.707,9.576
-0.0,4.277,-4.277
2.483,2.838,-0.354
2.75,3.153,-0.403
11.167,3.209,7.958
1.0,4.428,-3.428
0.5,3.109,-2.609
0.05,3.038,-2.988
11.4,2.147,9.253
9.0,2.77,6.23
6.0,2.428,3.572
2.25,2.427,-0.177
6.3,3.626,2.674
13.667,3.869,9.798
13.667,5.239,8.428
-2.333,5.344,-7.677
0.5,3.612,-3.112
1.55,3.502,-1.952
12.433,2.703,9.731
13.433,2.603,10.831
11.383,4.769,6.614
13.433,6.459,6.974
-0.567,6.024,-6.59
0.5,3.764,-3.264
10.5,2.807,7.693
-0.0,2.545,-2.545
6.417,2.403,4.014
2.75,2.468,0.282
3.367,3.626,-0.259
14.733,3.046,11.688
3.75,5.513,-1.763
14.733,4.328,10.405
5.5,5.763,-0.263
12.5,2.969,9.531
13.3,3.12,10.18
17.5,3.472,14.028
0.5,5.354,-4.854
0.5,3.403,-2.903
0.517,2.728,-2.212
4.5,3.252,1.248
-1.25,2.76,-4.01
7.233,2.401,4.832
4.0,3.549,0.451
3.5,3.266,0.234
6.5,3.311,3.189
11.25,3.23,8.02
4.0,5.089,-1.089
4.5,4.321,0.179
6.567,4.382,2.185
12.75,4.397,8.353
4.0,5.246,-1.246
14.467,3.89,10.576
-0.0,2.82,-2.82
4.75,3.245,1.505
6.5,2.917,3.583
4.75,3.058,1.692
13.55,3.017,10.533
5.617,3.831,1.785
4.617,3.534,1.083
-0.0,2.559,-2.559
0.75,2.427,-1.677
3.0,3.151,-0.151
2.25,2.772,-0.522
-0.0,2.751,-2.751
0.5,5.14,-4.64
19.283,3.671,15.613
-0.0,4.469,-4.469
21.283,3.461,17.822
4.5,7.305,-2.805
3.8,5.166,-1.366
-0.0,2.928,-2.928
17.083,2.67,14.413
10.0,5.644,4.356
17.083,5.529,11.554
-0.0,6.942,-6.942
7.5,3.414,4.086
10.5,4.345,6.155
2.383,5.372,-2.989
4.0,3.237,0.763
8.45,2.998,5.452
5.0,3.826,1.174
3.75,3.11,0.64
3.75,3.191,0.559
7.75,3.298,4.452
7.5,2.86,4.64
-1.567,3.429,-4.996
1.75,3.075,-1.325
1.75,2.9,-1.15
4.35,2.888,1.462
7.55,2.806,4.744
12.15,3.063,9.087
12.15,3.955,8.195
10.75,4.322,6.428
10.35,4.607,5.743
10.5,4.521,5.979
-0.25,4.741,-4.991
0.5,3.348,-2.848
16.733,3.53,13.204
13.0,3.742,9.258
8.0,3.519,4.481
2.25,3.333,-1.083
6.0,2.703,3.297
-0.0,2.471,-2.471
-0.0,2.243,-2.243
-1.0,2.444,-3.444
5.5,2.363,3.137
0.5,2.761,-2.261
9.0,1.455,7.545
4.0,2.467,1.533
11.65,2.987,8.663
5.25,3.748,1.502
16.967,3.006,13.961
2.0,3.873,-1.873
1.317,3.107,-1.791
10.417,3.174,7.242
9.533,4.339,5.195
7.467,2.717,4.749
8.5,2.998,5.502
-0.0,2.918,-2.918
-0.25,2.587,-2.837
13.733,2.848,10.885
2.25,3.455,-1.205
14.233,2.877,11.356
7.283,4.96,2.323
9.367,4.015,5.352
1.183,4.908,-3.724
7.5,3.736,3.764
2.733,6.468,-3.735
16.0,5.646,10.354
14.0,7.286,6.714
11.65,5.659,5.991
4.25,7.973,-3.723
8.0,4.444,3.556
12.5,4.11,8.39
0.933,6.288,-5.354
12.5,4.09,8.41
6.167,7.098,-0.931
10.167,4.186,5.98
13.0,7.034,5.966
14.0,5.507,8.493
-0.75,4.908,-5.658
3.5,3.872,-0.372
-0.0,4.457,-4.457
10.167,3.123,7.044
-0.75,6.65,-7.4
6.45,3.09,3.36
12.45,3.404,9.046
9.25,7.357,1.893
4.867,4.627,0.24
6.4,3.17,3.23
6.25,3.738,2.512
11.0,4.85,6.15
6.0,3.146,2.854
10.75,4.784,5.966
3.0,4.103,-1.103
-0.75,4.481,-5.231
3.25,3.355,-0.105
0.25,2.821,-2.571
7.0,2.492,4.508
1.0,2.582,-1.582
13.167,2.763,10.403
14.0,6.913,7.087
9.0,6.595,2.405
9.2,3.028,6.172
5.55,3.535,2.015
-1.75,2.894,-4.644
10.7,2.98,7.72
0.25,5.804,-5.554
0.25,3.646,-3.396
0.35,2.953,-2.603
3.25,3.497,-0.247
-0.0,2.756,-2.756
11.483,2.527,8.956
-0.5,3.583,-4.083
-2.25,2.565,-4.815
3.217,2.408,0.809
4.25,2.286,1.964
-0.0,2.446,-2.446
10.433,2.756,7.677
1.5,5.003,-3.503
-1.5,2.944,-4.444
0.217,2.458,-2.241
1.5,2.998,-1.498
1.217,2.469,-1.252
15.483,2.441,13.042
2.5,5.419,-2.919
-1.75,3.489,-5.239
13.467,2.562,10.905
10.283,4.024,6.259
6.133,3.197,2.937
-3.75,2.457,-6.207
0.25,2.397,-2.147
1.267,2.581,-1.315
11.45,2.754,8.696
2.0,5.845,-3.845
3.5,4.033,-0.533
2.5,5.14,-2.64
1.75,4.9,-3.15
-1.0,3.633,-4.633
12.183,3.112,9.072
1.25,6.295,-5.045
1.5,3.378,-1.878
1.25,3.1,-1.85
7.65,3.28,4.37
15.267,2.819,12.448
8.65,2.564,6.086
3.0,2.313,0.687
8.0,2.375,5.625
-3.75,2.494,-6.244
15.267,2.475,12.791
7.0,7.09,-0.09
7.317,4.448,2.869
7.183,6.004,1.18
8.0,3.345,4.655
-0.0,3.59,-3.59
15.45,2.426,13.024
7.5,3.944,3.556
16.467,5.658,10.808
12.0,8.225,3.775
12.283,4.398,7.885
2.483,6.583,-4.1
9.583,4.51,5.074
6.0,2.933,3.067
-1.75,2.584,-4.334
1.0,2.312,-1.312
9.583,2.84,6.744
0.5,6.078,-5.578
13.25,3.316,9.934
8.65,6.066,2.584
12.25,6.24,6.01
-0.5,7.717,-8.217
-0.5,4.729,-5.229
5.5,3.114,2.386
13.767,3.055,10.712
12.55,6.637,5.913
2.75,4.899,-2.149
2.0,4.431,-2.431
12.25,3.903,8.347
10.25,3.554,6.696
3.5,2.909,0.591
2.883,2.511,0.373
7.45,2.755,4.695
6.0,2.645,3.355
13.083,2.526,10.558
4.517,3.671,0.846
2.367,2.809,-0.442
9.05,3.624,5.426
9.333,4.218,5.115
2.467,2.844,-0.378
6.317,2.693,3.623
2.15,3.939,-1.789
-1.0,3.431,-4.431
22.55,2.606,19.944
7.417,6.793,0.624
-1.0,3.43,-4.43
3.583,2.713,0.87
16.483,3.386,13.097
-0.0,3.028,-3.028
9.25,3.504,5.746
16.483,5.35,11.133
-0.25,7.281,-7.531
10.517,4.374,6.142
12.7,4.531,8.169
10.7,3.133,7.567
2.5,2.712,-0.212
-0.0,3.31,-3.31
11.5,2.727,8.773
4.283,2.576,1.707
1.25,2.5,-1.25
15.65,3.586,12.064
1.0,5.349,-4.349
1.25,3.702,-2.452
3.5,2.705,0.795
6.633,3.131,3.503
12.383,4.112,8.271
2.0,5.615,-3.615
1.0,3.814,-2.814
15.45,3.01,12.44
1.25,3.038,-1.788
3.383,3.138,0.245
15.45,3.337,12.113
-0.0,5.039,-5.039
10.55,2.912,7.638
11.55,5.128,6.422
6.0,4.472,1.528
4.483,4.662,-0.178
6.517,4.232,2.285
5.75,4.298,1.452
-1.5,2.782,-4.282
6.0,2.863,3.137
22.783,3.57,19.213
0.5,6.139,-5.639
22.783,3.596,19.187
6.5,6.221,0.279
3.0,2.665,0.335
3.0,3.077,-0.077
4.55,3.244,1.306
3.55,2.94,0.61
10.0,2.641,7.359
10.5,4.129,6.371
-0.0,4.686,-4.686
2.25,3.145,-0.895
7.65,3.29,4.36
10.333,3.517,6.817
4.55,3.38,1.17
2.533,2.682,-0.149
14.617,2.461,12.156
9.0,3.784,5.216
-0.0,3.564,-3.564
9.617,2.902,6.715
1.817,3.226,-1.409
-0.0,2.584,-2.584
6.35,2.382,3.968
5.25,2.484,2.766
1.75,2.447,-0.697
9.317,2.62,6.697
14.117,3.706,10.411
5.717,3.611,2.106
14.117,3.056,11.061
14.117,4.51,9.607
3.0,4.367,-1.367
6.5,4.107,2.393
8.0,2.849,5.151
12.0,2.807,9.193
0.75,2.69,-1.94
0.25,3.199,-2.949
2.0,2.886,-0.886
10.0,2.521,7.479
11.6,2.742,8.858
5.183,3.974,1.209
-0.0,4.104,-4.104
-0.0,3.633,-3.633
2.433,3.856,-1.422
6.5,4.102,2.398
-1.25,2.2,-3.45
-0.5,2.09,-2.59
11.2,1.913,9.287
3.533,2.705,0.828
1.55,2.284,-0.734
-0.25,2.394,-2.644
2.433,2.232,0.202
4.75,2.619,2.131
4.5,2.768,1.732
11.75,2.585,9.165
11.75,4.15,7.6
-0.0,4.353,-4.353
0.25,3.048,-2.798
2.0,2.804,-0.804
-1.0,2.866,-3.866
10.667,2.262,8.405
-0.75,3.97,-4.72
3.25,2.549,0.701
-1.75,2.611,-4.361
-0.25,2.208,-2.458
-0.467,2.443,-2.91
-0.5,2.156,-2.656
10.533,1.488,9.046
-0.0,3.363,-3.363
12.083,2.826,9.258
12.983,4.175,8.809
12.983,4.724,8.259
12.983,4.708,8.275
12.983,3.987,8.997
15.0,4.828,10.172
4.0,5.209,-1.209
6.0,2.732,3.268
10.683,2.97,7.713
10.683,3.169,7.514
-1.0,2.906,-3.906
-0.75,2.771,-3.521
1.75,2.629,-0.879
-1.5,3.421,-4.921
2.25,2.723,-0.473
0.75,2.463,-1.713
-2.25,2.497,-4.747
0.75,2.603,-1.853
13.233,2.355,10.878
13.233,4.133,9.1
4.367,4.696,-0.33
5.25,3.272,1.978
1.0,3.415,-2.415
-1.0,3.125,-4.125
2.25,3.091,-0.841
-0.0,3.01,-3.01
2.25,2.546,-0.296
11.017,1.965,9.052
11.017,3.863,7.153
1.483,4.206,-2.723
3.383,3.01,0.374
4.5,3.674,0.826
-1.5,3.011,-4.511
11.75,2.855,8.895
11.75,3.671,8.079
11.75,3.981,7.769
5.0,4.3,0.7
11.75,3.584,8.166
11.75,4.431,7.319
11.75,4.619,7.131
-0.0,4.179,-4.179
1.417,2.867,-1.451
7.75,3.62,4.13
11.15,3.224,7.926
0.517,4.35,-3.833
9.5,2.997,6.503
12.6,4.467,8.133
3.5,5.268,-1.768
4.0,3.304,0.696
1.25,3.215,-1.965
1.5,2.639,-1.139
1.25,2.653,-1.403
1.5,2.664,-1.164
9.45,2.559,6.891
6.383,3.866,2.517
12.0,4.186,7.814
0.5,4.524,-4.024
-0.117,3.019,-3.135
1.5,2.807,-1.307
-0.0,2.479,-2.479
0.5,2.765,-2.265
-2.05,2.458,-4.508
-1.25,1.748,-2.998
2.433,1.626,0.808
2.75,1.956,0.794
0.75,2.654,-1.904
8.75,4.164,4.586
6.567,4.128,2.439
13.367,2.988,10.379
5.0,4.199,0.801
15.483,3.402,12.081
6.0,4.102,1.898
5.0,3.256,1.744
0.683,3.38,-2.697
10.0,3.362,6.638
2.75,4.049,-1.299
-0.0,3.071,-3.071
1.5,2.604,-1.104
0.75,2.77,-2.02
-0.217,2.406,-2.622
1.5,2.301,-0.801
1.5,2.343,-0.843
1.75,2.565,-0.815
-0.75,2.728,-3.478
23.95,1.846,22.104
-1.267,5.989,-7.255
23.95,3.069,20.881
0.5,6.601,-6.101
-1.267,4.029,-5.296
-1.5,3.033,-4.533
-2.267,2.995,-5.262
-0.25,2.359,-2.609
13.433,1.948,11.486
7.4,3.582,3.818
9.0,3.116,5.884
3.333,3.138,0.195
13.2,2.894,10.306
13.2,3.457,9.743
-2.0,4.308,-6.308
-1.5,2.605,-4.105
-0.0,2.979,-2.979
16.217,2.743,13.473
6.517,4.023,2.493
16.217,3.502,12.715
-0.0,4.648,-4.648
-0.75,3.509,-4.259
-2.0,3.017,-5.017
16.217,2.785,13.432
8.533,4.034,4.499
3.5,3.854,-0.354
14.983,2.922,12.061
14.983,5.063,9.921
2.0,5.598,-3.598
0.217,3.392,-3.176
4.75,2.755,1.995
8.25,2.679,5.571
6.75,3.427,3.323
5.367,3.453,1.914
10.633,3.758,6.875
10.633,4.157,6.476
-1.5,4.385,-5.885
0.25,3.391,-3.141
4.0,3.569,0.431
2.0,3.401,-1.401
-0.0,2.817,-2.817
0.75,2.515,-1.765
-0.25,2.4,-2.65
5.55,2.011,3.539
1.25,2.637,-1.387
5.25,2.554,2.696
20.333,2.553,17.78
4.0,4.382,-0.382
4.0,2.954,1.046
8.5,3.203,5.297
8.367,4.004,4.362
11.467,3.647,7.82
11.467,4.114,7.353
-0.5,4.201,-4.701
16.4,3.305,13.095
3.25,4.242,-0.992
-0.0,3.553,-3.553
14.517,2.572,11.945
3.0,3.305,-0.305
2.5,3.069,-0.569
3.0,3.263,-0.263
3.0,2.796,0.204
12.233,3.173,9.061
-0.0,3.481,-3.481
9.017,2.657,6.36
-0.917,4.49,-5.407
-0.25,3.435,-3.685
2.6,3.539,-0.939
-0.0,3.313,-3.313
-1.25,2.646,-3.896
-1.0,2.36,-3.36
3.25,2.108,1.142
0.25,2.662,-2.412
3.5,3.463,0.037
2.75,3.174,-0.424
2.55,3.263,-0.713
16.55,3.42,13.13
16.55,4.392,12.158
16.55,4.762,11.788
3.75,5.067,-1.317
2.5,3.155,-0.655
14.05,2.667,11.383
14.05,4.826,9.224
0.983,4.155,-3.172
5.6,3.156,2.444
11.6,3.549,8.051
1.25,4.713,-3.463
-1.0,3.15,-4.15
-1.5,2.922,-4.422
-0.0,2.571,-2.571
-1.7,2.775,-4.475
5.383,2.47,2.913
4.35,2.775,1.575
-0.25,2.711,-2.961
0.5,2.216,-1.716
1.817,2.107,-0.29
11.383,2.22,9.163
11.383,3.647,7.737
-1.85,3.859,-5.709
12.45,2.489,9.961
15.533,4.083,11.45
1.317,4.469,-3.152
1.0,3.301,-2.301
9.533,3.431,6.102
13.083,3.398,9.685
-0.75,4.66,-5.41
-0.0,3.034,-3.034
11.35,3.059,8.291
-2.5,3.885,-6.385
-3.367,2.574,-5.941
0.75,2.223,-1.473
14.533,2.141,12.392
5.0,4.103,0.897
2.75,3.11,-0.36
2.75,2.999,-0.249
1.75,2.705,-0.955
10.817,2.448,8.369
-3.5,3.833,-7.333
-4.417,2.517,-6.933
-2.217,2.428,-4.644
-0.0,2.06,-2.06
14.383,2.063,12.32
-0.75,3.376,-4.126
-1.167,2.364,-3.531
-1.167,2.143,-3.309
2.5,2.1,0.4
4.317,2.272,2.045
1.75,2.418,-0.668
9.5,2.381,7.119
12.5,2.671,9.829
-1.0,2.96,-3.96
-0.0,2.735,-2.735
9.533,2.407,7.126
17.2,5.423,11.777
17.2,7.474,9.726
-0.0,8.208,-8.208
4.067,4.767,-0.7
13.533,5.523,8.011
13.533,7.049,6.484
2.0,7.153,-5.153
-0.0,4.678,-4.678
3.75,3.847,-0.097
-0.5,4.665,-5.165
0.25,3.394,-3.144
6.55,2.891,3.659
10.083,3.398,6.686
13.383,4.829,8.555
-2.0,6.034,-8.034
2.5,3.271,-0.771
11.35,2.786,8.564
2.35,4.346,-1.996
-0.417,3.189,-3.605
-0.217,2.686,-2.903
0.25,3.007,-2.757
0.25,2.629,-2.379
0.633,2.277,-1.643
0.25,2.389,-2.139
-0.0,2.175,-2.175
0.5,2.05,-1.55
12.467,1.719,10.747
9.433,2.803,6.63
5.3,3.052,2.248
1.75,4.351,-2.601
-0.0,3.024,-3.024
2.25,2.482,-0.232
2.433,2.236,0.197
3.5,2.475,1.025
0.25,2.52,-2.27
11.9,2.849,9.051
2.0,3.173,-1.173
-0.267,2.591,-2.857
11.467,2.355,9.112
-1.317,4.135,-5.452
0.5,2.794,-2.294
3.0,3.076,-0.076
-3.0,2.906,-5.906
-0.5,2.355,-2.855
-2.0,2.064,-4.064
0.75,1.957,-1.207
1.25,1.943,-0.693
1.5,2.01,-0.51
-0.25,1.979,-2.229
0.967,1.693,-0.726
10.433,1.27,9.163
-1.5,2.875,-4.375
14.533,2.219,12.315
5.0,3.861,1.139
5.5,3.179,2.321
5.5,3.552,1.948
-3.25,3.535,-6.785
-3.5,3.151,-6.651
0.667,1.484,-0.817
0.25,2.114,-1.864
-0.0,2.064,-2.064
2.75,2.055,0.695
2.75,2.209,0.541
14.4,2.269,12.131
3.267,3.349,-0.082
1.0,2.427,-1.427
1.75,2.326,-0.576
1.183,2.958,-1.775
-0.25,2.487,-2.737
15.483,2.555,12.928
-0.5,3.891,-4.391
-0.0,2.424,-2.424
2.75,2.205,0.545
15.8,2.153,13.647
14.3,4.288,10.012
1.25,4.793,-3.543
2.0,3.185,-1.185
1.25,2.872,-1.622
0.5,3.436,-2.936
15.883,2.476,13.407
5.5,4.096,1.404
14.217,3.152,11.065
1.5,4.12,-2.62
0.75,3.067,-2.317
-0.017,2.892,-2.908
-0.5,4.017,-4.517
-1.5,2.489,-3.989
1.25,2.039,-0.789
1.5,1.858,-0.358
9.533,2.051,7.483
-0.0,2.537,-2.537
0.75,2.052,-1.302
2.0,2.058,-0.058
-2.067,2.289,-4.356
6.75,2.08,4.67
3.25,2.246,1.004
14.75,2.015,12.735
14.75,3.382,11.368
4.75,3.992,0.758
-0.5,3.321,-3.821
-1.75,3.1,-4.85
-0.25,2.582,-2.832
-0.483,2.098,-2.581
9.383,2.04,7.343
0.5,2.551,-2.051
0.5,2.197,-1.697
-0.0,2.045,-2.045
17.85,2.13,15.72
17.85,3.992,13.858
1.0,4.285,-3.285
9.167,3.02,6.147
2.0,3.494,-1.494
12.417,3.085,9.332
2.817,3.72,-0.904
2.25,2.561,-0.311
17.7,2.48,15.22
1.75,5.216,-3.466
3.5,3.418,0.082
16.483,2.432,14.051
10.05,3.284,6.766
0.25,3.871,-3.621
-2.0,2.861,-4.861
-1.0,2.717,-3.717
-1.883,2.314,-4.198
-1.0,1.988,-2.988
5.417,2.022,3.395
14.2,2.293,11.907
4.5,3.027,1.473
4.25,2.563,1.687
2.25,2.56,-0.31
7.217,2.641,4.576
1.333,3.303,-1.969
-0.45,2.894,-3.344
1.0,2.764,-1.764
9.267,2.447,6.819
2.75,4.983,-2.233
-0.0,3.962,-3.962
-0.0,3.112,-3.112
-0.0,2.42,-2.42
2.533,2.225,0.308
12.233,2.483,9.75
0.717,4.449,-3.732
0.717,2.446,-1.729
0.75,2.681,-1.931
-0.0,2.56,-2.56
0.25,2.361,-2.111
0.75,2.243,-1.493
-1.833,2.182,-4.015
-1.833,2.079,-3.913
3.25,1.844,1.406
11.2,2.315,8.885
-0.0,3.607,-3.607
3.5,2.509,0.991
15.0,2.63,12.37
15.0,5.372,9.628
-2.25,5.599,-7.849
7.283,2.952,4.332
12.95,3.795,9.155
1.75,4.383,-2.633
1.75,3.001,-1.251
11.5,2.895,8.605
17.033,4.119,12.914
-0.0,4.789,-4.789
4.25,3.147,1.103
7.467,3.427,4.039
-0.0,3.726,-3.726
15.317,2.852,12.465
2.25,5.099,-2.849
4.5,3.005,1.495
4.75,3.538,1.212
4.75,3.423,1.327
4.75,3.352,1.398
0.75,3.16,-2.41
10.7,3.464,7.236
-1.5,3.473,-4.973
1.0,2.483,-1.483
2.0,2.335,-0.335
10.7,2.339,8.361
6.0,3.461,2.539
5.0,3.261,1.739
2.6,3.174,-0.574
11.267,2.643,8.623
-1.2,3.947,-5.147
-0.0,2.528,-2.528
4.25,2.385,1.865
12.183,2.436,9.748
8.467,3.597,4.869
2.5,3.563,-1.063
0.25,3.019,-2.769
0.233,2.513,-2.279
3.5,2.786,0.714
4.0,2.305,1.695
2.0,2.638,-0.638
10.617,2.852,7.765
-0.0,2.808,-2.808
1.0,2.398,-1.398
-0.5,2.344,-2.844
-0.0,2.227,-2.227
5.417,2.192,3.225
13.383,2.254,11.129
14.8,3.384,11.416
0.5,4.162,-3.662
12.55,2.744,9.806
6.533,3.875,2.658
-0.25,3.278,-3.528
8.567,2.595,5.972
2.5,3.405,-0.905
2.517,2.973,-0.456
2.75,2.765,-0.015
0.25,3.942,-3.692
-0.417,2.855,-3.272
13.5,2.657,10.843
15.517,3.871,11.645
-0.75,4.499,-5.249
6.0,2.767,3.233
5.5,3.071,2.429
7.517,2.863,4.653
18.367,3.601,14.765
6.75,4.4,2.35
6.75,3.07,3.68
8.25,3.357,4.893
10.25,3.515,6.735
4.15,3.499,0.651
9.283,2.916,6.367
11.0,3.682,7.318
17.1,4.018,13.082
12.0,4.255,7.745
-0.0,4.274,-4.274
2.867,2.686,0.181
3.3,2.706,0.594
2.0,2.664,-0.664
18.0,2.645,15.355
-0.433,4.371,-4.804
14.45,2.693,11.757
5.25,4.1,1.15
14.45,3.528,10.922
-0.0,4.084,-4.084
54.717,2.589,52.128
58.45,7.974,50.476
-0.0,9.677,-9.677
-0.0,3.837,-3.837
13.15,2.684,10.466
13.15,4.655,8.495
13.15,4.369,8.781
13.15,4.35,8.8
5.25,3.937,1.313
6.0,2.652,3.348
13.15,3.149,10.001
13.15,4.134,9.016
13.15,4.979,8.171
19.35,5.421,13.929
20.367,6.632,13.735
20.367,7.092,13.275
-0.0,7.354,-7.354
6.5,3.239,3.261
10.5,2.713,7.787
8.0,3.043,4.957
13.5,3.278,10.222
18.4,4.221,14.179
12.15,6.348,5.802
24.25,5.907,18.343
11.75,7.662,4.088
26.25,6.021,20.229
19.917,7.757,12.16
17.25,6.271,10.979
17.25,6.63,10.62
15.25,6.846,8.404
4.683,6.564,-1.88
4.683,3.806,0.877
3.25,2.873,0.377
8.817,3.067,5.75
5.0,3.207,1.793
4.75,3.13,1.62
5.0,2.988,2.012
4.75,3.183,1.567
5.5,3.067,2.433
7.533,3.023,4.51
9.617,3.055,6.562
14.017,3.871,10.146
-1.5,4.519,-6.019
6.5,3.204,3.296
-1.5,3.037,-4.537
-1.25,2.585,-3.835
-0.25,2.599,-2.849
1.0,2.187,-1.187
-0.0,2.354,-2.354
-0.0,1.674,-1.674
1.5,1.755,-0.255
-0.25,2.34,-2.59
5.917,2.254,3.662
5.417,2.418,2.999
0.967,2.434,-1.468
18.133,2.331,15.803
0.25,3.529,-3.279
6.5,2.422,4.078
6.0,2.735,3.265
6.75,2.867,3.883
5.0,3.031,1.969
2.25,3.032,-0.782
-5.217,2.811,-8.027
5.183,2.195,2.988
1.717,2.336,-0.62
8.817,2.345,6.471
-2.317,2.726,-5.043
9.183,2.307,6.876
7.033,3.294,3.739
-1.767,3.302,-5.068
7.4,2.345,5.055
4.4,3.109,1.291
11.483,2.758,8.725
0.383,3.524,-3.141
-1.417,2.676,-4.092
-0.767,2.277,-3.044
-0.383,2.051,-2.434
9.683,2.03,7.653
-3.633,2.714,-6.348
3.85,2.159,1.691
-1.8,2.251,-4.051
-1.283,2.0,-3.283
-0.617,1.956,-2.573
0.933,1.805,-0.871
5.917,1.778,4.139
2.25,2.097,0.153
0.1,2.081,-1.981
7.083,2.041,5.043
0.583,2.283,-1.699
2.217,2.154,0.063
9.983,2.07,7.913
-0.65,2.872,-3.522
11.0,2.183,8.817
-5.483,3.331,-8.814
7.467,2.651,4.816
10.117,3.142,6.974
0.833,3.601,-2.767
1.25,2.469,-1.219
8.733,2.496,6.237
2.133,3.721,-1.587
2.967,2.663,0.304
11.35,3.052,8.298
8.117,4.153,3.963
10.917,4.05,6.867
9.35,4.773,4.577
8.617,4.456,4.161
-3.867,3.762,-7.629
8.233,2.675,5.558
2.2,3.813,-1.613
3.8,3.226,0.574
6.883,3.259,3.624
0.417,3.233,-2.816
-1.05,2.497,-3.547
7.917,2.823,5.093
0.333,3.488,-3.155
6.467,2.495,3.972
9.067,3.459,5.608
1.467,4.431,-2.964
5.567,2.971,2.595
-1.033,2.643,-3.676
-1.617,3.395,-5.012
-0.833,2.44,-3.273
-0.0,2.704,-2.704
5.45,1.939,3.511
1.6,2.526,-0.926
4.067,3.023,1.043
3.717,2.495,1.222
6.7,2.542,4.158
6.7,2.728,3.972
6.417,3.229,3.188
4.483,3.396,1.088
-0.85,2.904,-3.754
3.4,2.481,0.919
9.783,2.932,6.851
-5.417,3.542,-8.959
8.7,2.731,5.969
-1.433,3.853,-5.286
7.0,2.431,4.569
10.433,2.98,7.454
0.25,3.543,-3.293
9.167,2.527,6.639
3.933,3.828,0.106
4.267,3.042,1.224
4.167,2.985,1.182
11.733,2.925,8.808
-0.0,3.949,-3.949
-0.0,2.974,-2.974
9.233,3.773,5.46
-0.617,3.411,-4.028
4.75,2.383,2.367
12.433,2.628,9.805
0.183,3.468,-3.284
-0.0,2.736,-2.736
13.5,2.451,11.049
13.883,4.818,9.065
4.983,4.186,0.797
18.55,2.794,15.756
13.933,4.523,9.41
-0.0,4.649,-4.649
7.317,2.889,4.427
13.483,3.039,10.445
6.167,4.919,1.248
5.733,3.602,2.131
4.7,2.641,2.059
9.617,3.35,6.267
-3.317,3.78,-7.097
-2.717,2.709,-5.426
2.817,2.158,0.659
2.817,2.68,0.136
15.717,2.394,13.323
-1.233,4.888,-6.122
0.717,2.779,-2.062
1.517,2.557,-1.041
7.467,2.612,4.854
5.917,2.689,3.228
-0.0,2.665,-2.665
-0.5,2.251,-2.751
10.8,2.205,8.595
16.533,3.256,13.277
-0.85,4.418,-5.268
3.1,2.484,0.616
15.583,2.437,13.147
9.017,4.864,4.152
4.333,4.4,-0.066
11.617,3.48,8.137
8.433,3.798,4.636
11.033,3.13,7.903
10.733,4.048,6.686
4.567,4.287,0.279
4.017,2.682,1.335
3.733,2.909,0.824
5.067,2.819,2.247
4.117,2.885,1.232
2.0,2.727,-0.727
9.05,3.023,6.027
7.733,3.366,4.367
-0.1,3.595,-3.695
4.367,2.908,1.458
4.3,3.022,1.278
-2.017,2.781,-4.797
12.95,2.371,10.579
5.167,3.736,1.431
7.033,3.14,3.893
19.1,3.006,16.094
17.717,4.692,13.024
0.3,5.219,-4.919
-0.917,3.493,-4.41
4.017,2.971,1.046
4.267,2.61,1.657
11.367,2.817,8.549
12.2,3.519,8.681
2.85,4.383,-1.533
3.833,3.271,0.563
11.867,3.219,8.647
2.517,4.162,-1.646
0.7,3.062,-2.362
0.3,2.687,-2.387
3.667,2.47,1.196
23.233,2.478,20.756
11.283,5.984,5.299
-0.0,5.294,-5.294
-0.0,3.542,-3.542
23.75,3.324,20.426
-0.733,5.27,-6.004
1.517,3.308,-1.791
0.1,3.01,-2.91
0.417,2.754,-2.338
5.267,2.333,2.934
11.25,2.608,8.642
6.4,2.808,3.592
0.8,2.732,-1.932
14.483,2.499,11.985
9.883,3.424,6.459
7.883,4.311,3.572
9.717,3.11,6.607
8.317,3.566,4.751
10.783,2.93,7.853
10.017,4.053,5.964
2.1,3.677,-1.577
5.5,2.583,2.917
8.017,3.175,4.841
5.067,3.252,1.815
2.917,3.056,-0.14
5.633,3.138,2.495
4.083,2.584,1.499
3.133,3.054,0.079
7.067,2.621,4.445
12.783,2.848,9.935
15.933,3.526,12.408
9.1,4.102,4.998
17.35,3.679,13.671
3.033,4.037,-1.004
8.25,3.298,4.952
10.117,3.193,6.923
12.75,3.575,9.175
11.183,3.471,7.712
1.183,2.971,-1.788
1.667,2.852,-1.186
4.05,3.072,0.978
4.317,2.722,1.595
2.6,2.683,-0.083
2.183,3.118,-0.935
1.733,2.735,-1.002
0.733,2.41,-1.677
10.367,2.578,7.789
7.25,3.008,4.242
15.717,3.776,11.941
18.317,6.599,11.718
13.25,7.661,5.589
21.25,7.248,14.002
-0.817,8.147,-8.964
22.517,3.974,18.543
1.833,7.088,-5.255
2.333,4.171,-1.838
0.167,3.573,-3.406
20.467,3.522,16.945
15.217,7.561,7.656
19.083,7.226,11.857
1.6,6.948,-5.348
12.817,3.946,8.871
-0.1,6.346,-6.446
9.25,3.937,5.313
9.017,5.668,3.349
2.067,4.798,-2.732
7.3,3.998,3.302
8.467,4.452,4.015
12.983,5.057,7.926
11.533,6.288,5.245
6.6,5.853,0.747
-0.0,4.693,-4.693
-0.0,3.248,-3.248
7.667,2.957,4.709
10.583,4.685,5.898
-0.0,5.765,-5.765
10.1,2.847,7.253
11.083,4.402,6.681
9.667,4.757,4.909
16.7,5.043,11.657
8.95,6.085,2.865
5.417,5.185,0.232
9.433,4.025,5.408
8.117,4.185,3.931
15.75,4.388,11.362
7.967,5.567,2.4
7.083,5.271,1.813
-0.867,4.961,-5.828
4.833,3.035,1.799
4.967,3.466,1.501
7.033,3.552,3.481
9.483,3.784,5.699
13.883,3.893,9.99
13.883,4.49,9.393
12.717,4.594,8.123
11.967,5.039,6.928
13.783,5.226,8.557
13.067,5.277,7.79
3.483,4.881,-1.397
2.033,3.518,-1.484
4.367,2.825,1.541
7.017,3.22,3.796
5.367,3.893,1.474
-2.65,3.58,-6.23
-3.083,2.925,-6.008
6.717,2.791,3.926
6.167,2.478,3.688
6.95,2.534,4.416
8.883,3.404,5.48
-1.683,3.809,-5.493
7.2,3.178,4.022
-1.2,3.316,-4.516
9.883,2.592,7.291
7.883,3.438,4.446
7.017,4.569,2.447
2.283,3.8,-1.516
4.967,3.192,1.774
-0.467,2.784,-3.25
2.5,2.94,-0.44
-0.8,2.539,-3.339
7.683,2.924,4.759
13.233,3.075,10.158
2.667,4.661,-1.994
1.417,3.019,-1.602
10.783,2.638,8.146
3.967,4.912,-0.945
5.75,2.973,2.777
11.4,3.01,8.39
11.217,3.97,7.246
10.1,4.751,5.349
5.183,4.876,0.307
10.35,4.273,6.077
2.333,4.582,-2.249
1.883,3.274,-1.39
1.95,2.831,-0.881
1.133,3.197,-2.063
1.0,3.115,-2.115
1.917,2.977,-1.06
2.767,2.396,0.371
-2.967,2.362,-5.329
4.65,2.332,2.318
-2.417,2.328,-4.745
-4.117,2.169,-6.286
5.45,1.195,4.255
10.05,2.302,7.748
1.633,2.471,-0.838
1.933,2.257,-0.324
13.3,2.2,11.1
5.25,3.07,2.18
0.933,2.711,-1.777
1.45,2.399,-0.949
4.317,2.421,1.896
6.183,2.474,3.709
2.0,2.601,-0.601
0.333,2.474,-2.141
10.083,2.765,7.319
8.633,2.823,5.811
0.6,2.776,-2.176
1.433,2.438,-1.004
6.433,2.71,3.724
8.433,2.618,5.816
1.967,2.847,-0.88
1.5,2.384,-0.884
9.933,2.306,7.628
1.667,3.173,-1.507
3.383,2.385,0.999
12.1,2.393,9.707
16.25,4.008,12.242
11.683,4.424,7.259
16.567,4.028,12.539
-1.633,4.781,-6.414
4.583,3.224,1.36
-3.267,3.136,-6.403
-0.817,2.804,-3.621
8.5,2.21,6.29
3.917,2.633,1.284
7.417,2.551,4.866
5.85,2.811,3.039
7.983,2.75,5.234
6.233,2.815,3.418
5.183,2.64,2.543
-3.533,2.667,-6.2
0.217,3.202,-2.985
7.667,2.662,5.005
-2.617,3.669,-6.286
-2.867,2.551,-5.418
9.067,2.492,6.574
1.5,2.696,-1.196
12.367,2.736,9.631
8.183,3.133,5.051
5.9,2.851,3.049
-1.617,2.65,-4.266
12.417,2.476,9.941
2.65,4.71,-2.06
2.717,3.136,-0.419
8.2,3.011,5.189
10.317,2.999,7.318
-0.133,4.05,-4.184
7.617,3.622,3.994
6.6,3.372,3.228
0.933,3.01,-2.077
0.8,2.722,-1.922
1.25,2.918,-1.668
-1.0,2.628,-3.628
5.883,4.037,1.846
10.15,3.704,6.446
6.8,4.293,2.507
6.3,3.652,2.648
5.433,3.345,2.088
8.567,2.874,5.693
4.567,3.041,1.526
14.1,2.554,11.546
8.0,4.556,3.444
9.683,4.125,5.559
17.867,4.479,13.387
2.867,5.093,-2.227
10.267,3.273,6.994
3.883,3.911,-0.028
6.767,3.313,3.454
3.45,3.437,0.013
4.033,3.002,1.031
4.883,2.631,2.253
7.617,3.01,4.606
19.717,3.862,15.854
10.55,5.6,4.95
7.617,4.019,3.598
8.617,2.919,5.697
10.317,2.547,7.77
5.567,3.081,2.486
5.633,2.929,2.704
4.15,3.019,1.131
3.483,2.68,0.803
13.167,2.596,10.571
4.617,3.885,0.732
14.417,3.203,11.214
4.917,3.895,1.022
16.633,3.626,13.007
16.283,4.278,12.006
16.083,4.679,11.405
6.85,4.972,1.878
5.85,4.047,1.803
14.85,3.619,11.231
4.85,4.401,0.449
13.15,3.577,9.573
14.65,3.738,10.912
1.617,3.949,-2.332
16.167,2.731,13.436
-3.817,3.571,-7.388
2.167,2.825,-0.658
5.167,2.647,2.519
9.267,2.397,6.87
3.5,3.44,0.06
9.167,3.272,5.895
14.383,2.701,11.682
14.383,4.008,10.375
5.217,4.37,0.847
4.75,3.524,1.226
2.533,2.688,-0.155
-0.7,2.589,-3.289
0.35,2.707,-2.357
5.767,2.585,3.182
10.85,2.411,8.439
30.683,2.718,27.966
4.683,6.281,-1.598
-0.4,3.848,-4.248
-0.0,3.192,-3.192
7.667,3.26,4.407
11.65,2.924,8.726
21.283,3.36,17.924
25.75,4.875,20.875
21.75,6.535,15.215
23.75,6.54,17.21
19.4,6.664,12.736
11.8,6.329,5.471
26.183,3.64,22.543
25.783,4.865,20.918
17.567,6.52,11.047
8.75,5.902,2.848
12.017,4.066,7.951
14.167,4.478,9.688
14.65,4.594,10.056
50.45,4.642,45.808
48.383,7.115,41.268
49.45,7.683,41.767
13.467,7.9,5.567
13.35,6.854,6.496
9.45,5.582,3.868
16.883,4.422,12.461
0.567,3.878,-3.311
9.0,3.236,5.764
8.15,3.478,4.672
0.5,3.544,-3.044
8.983,2.788,6.195
-1.717,2.721,-4.438
9.867,4.051,5.816
-0.0,5.802,-5.802
-0.0,3.381,-3.381
8.35,2.772,5.578
-0.0,4.374,-4.374
6.367,3.143,3.224
0.583,3.757,-3.174
2.367,2.852,-0.485
6.783,2.72,4.064
2.1,3.402,-1.302
-0.883,3.147,-4.03
2.067,2.468,-0.402
6.333,2.496,3.838
-2.0,2.982,-4.982
2.883,2.249,0.634
-1.283,2.25,-3.533
6.467,2.119,4.348
0.333,2.422,-2.088
-4.767,2.328,-7.095
2.033,2.773,-0.739
0.3,2.489,-2.189
5.35,2.032,3.318
1.183,2.238,-1.055
10.717,2.032,8.684
9.017,2.973,6.044
-0.017,3.105,-3.122
-0.0,2.235,-2.235
2.9,1.994,0.906
11.3,2.401,8.899
10.4,3.349,7.051
2.85,3.577,-0.727
0.85,2.895,-2.045
2.917,2.492,0.424
-1.417,2.287,-3.704
-1.933,2.056,-3.989
-1.25,1.931,-3.181
-1.317,1.815,-3.132
-0.0,1.841,-1.841
6.583,1.874,4.709
2.583,2.285,0.298
4.583,2.142,2.442
-0.0,2.335,-2.335
-1.8,2.758,-4.558
-1.0,1.936,-2.936
-1.367,1.906,-3.273
-2.583,1.788,-4.372
8.8,0.67,8.13
-1.983,2.569,-4.553
-4.433,1.978,-6.411
-0.55,1.592,-2.142
-0.0,0.698,-0.698
-1.55,1.914,-3.464
-0.333,1.812,-2.145
-1.283,1.679,-2.963
7.6,1.777,5.823
-0.0,2.277,-2.277
-3.65,2.393,-6.043
4.567,2.051,2.515
0.55,2.342,-1.792
-1.4,2.216,-3.616
-1.733,1.674,-3.407
-0.95,1.484,-2.434
6.167,1.557,4.61
2.433,2.058,0.375
2.35,2.496,-0.146
0.6,1.453,-0.853
3.117,2.143,0.974
1.0,2.413,-1.413
3.383,2.104,1.279
2.0,2.004,-0.004
-2.75,1.996,-4.746
6.783,1.949,4.835
4.683,2.485,2.198
-1.517,2.391,-3.907
3.35,2.277,1.073
0.283,2.131,-1.847
8.467,2.001,6.466
-2.5,2.674,-5.174
-0.717,2.634,-3.35
7.033,2.161,4.872
1.567,2.692,-1.126
6.45,2.354,4.096
0.25,2.411,-2.161
2.917,2.333,0.584
-2.217,2.344,-4.561
2.183,2.006,0.177
3.233,2.686,0.547
9.45,2.306,7.144
-2.9,3.101,-6.001
6.117,2.117,3.999
3.933,3.216,0.717
6.95,2.879,4.071
5.9,3.018,2.882
10.9,3.083,7.817
5.917,3.912,2.005
15.683,3.397,12.286
-0.083,4.522,-4.605
1.417,3.065,-1.649
0.3,3.808,-3.508
13.3,2.597,10.703
2.967,3.559,-0.592
13.367,2.879,10.488
4.583,4.295,0.288
12.85,3.309,9.541
12.85,4.067,8.783
1.933,4.145,-2.212
2.433,3.118,-0.685
3.65,2.971,0.679
2.5,2.993,-0.493
12.583,2.501,10.082
14.183,3.629,10.554
13.683,3.884,9.8
3.333,4.078,-0.744
3.517,3.247,0.27
-0.0,3.12,-3.12
3.833,2.664,1.169
-0.0,3.061,-3.061
3.033,2.806,0.228
9.317,2.852,6.465
4.733,3.976,0.758
10.833,2.905,7.928
10.8,3.351,7.449
4.183,2.656,1.527
3.683,3.082,0.601
2.017,3.419,-1.402
12.083,2.867,9.217
3.5,3.326,0.174
2.933,2.71,0.224
0.2,2.641,-2.441
0.117,2.524,-2.407
-0.75,2.751,-3.501
-0.117,2.687,-2.804
4.583,2.193,2.39
2.2,2.128,0.072
2.533,2.118,0.416
3.15,2.161,0.989
1.833,2.097,-0.264
-0.0,2.057,-2.057
20.25,1.977,18.273
2.75,4.376,-1.626
18.35,2.655,15.695
13.333,3.814,9.52
0.75,3.212,-2.462
-0.0,2.755,-2.755
9.95,2.548,7.402
2.417,2.761,-0.345
10.483,3.083,7.4
10.283,3.585,6.698
10.483,3.804,6.679
11.733,3.734,8.0
-2.067,3.719,-5.786
15.35,3.108,12.242
12.217,4.12,8.097
4.9,4.176,0.724
4.05,3.202,0.848
-0.933,2.504,-3.438
16.817,3.014,13.803
0.317,4.645,-4.328
0.883,3.055,-2.171
5.817,2.683,3.133
-0.0,3.123,-3.123
11.467,2.35,9.117
6.367,3.698,2.669
4.783,3.245,1.539
10.25,3.518,6.732
11.783,3.055,8.728
5.333,4.064,1.27
-0.0,3.007,-3.007
0.25,2.823,-2.573
5.867,3.082,2.785
4.533,2.609,1.924
7.55,2.716,4.834
18.967,2.826,16.14
8.7,4.173,4.527
6.983,3.546,3.438
18.983,3.32,15.664
-0.65,3.383,-4.033
4.0,2.937,1.063
7.0,3.197,3.803
10.033,2.18,7.853
12.817,2.398,10.418
6.1,3.335,2.765
17.117,2.931,14.186
16.517,3.67,12.847
11.65,4.468,7.182
12.967,4.155,8.812
-0.0,3.904,-3.904
-0.0,2.622,-2.622
2.683,2.55,0.134
5.783,2.783,3.001
5.767,2.599,3.168
3.55,2.85,0.7
12.567,2.558,10.009
4.05,3.679,0.371
14.15,3.251,10.899
5.4,4.211,1.189
14.683,3.617,11.066
12.583,4.111,8.472
6.4,4.081,2.319
4.567,3.498,1.069
5.417,2.917,2.5
-0.05,2.495,-2.545
13.617,2.769,10.847
8.433,3.369,5.064
8.783,3.508,5.275
3.283,3.165,0.118
5.933,3.144,2.789
10.583,3.185,7.398
11.983,3.556,8.427
4.767,3.273,1.493
19.267,2.769,16.497
9.25,4.254,4.996
6.75,3.649,3.101
6.15,3.352,2.798
6.8,3.389,3.411
8.083,3.428,4.656
6.4,3.363,3.037
4.817,3.343,1.474
6.65,2.797,3.853
3.933,2.873,1.06
5.45,3.046,2.404
9.133,2.826,6.308
1.2,3.576,-2.376
1.317,2.953,-1.636
2.2,2.893,-0.693
10.883,2.922,7.961
3.1,3.905,-0.805
17.65,3.011,14.639
3.317,3.213,0.104
15.65,2.572,13.078
16.3,3.685,12.615
13.25,6.383,6.867
5.233,5.76,-0.527
1.133,4.019,-2.885
5.433,3.462,1.971
6.167,4.082,2.085
2.0,4.152,-2.152
2.133,3.493,-1.36
9.35,3.227,6.123
-10.95,2.605,-13.555
-1.533,2.317,-3.851
6.25,2.581,3.669
10.55,2.778,7.772
10.633,2.713,7.921
13.383,2.897,10.486
16.717,3.515,13.202
17.95,4.708,13.242
19.017,4.944,14.072
14.467,4.31,10.157
30.9,3.688,27.212
-2.4,5.629,-8.029
-0.55,3.136,-3.686
0.8,2.952,-2.152
-1.2,2.778,-3.978
4.95,3.263,1.687
5.0,2.412,2.588
-0.2,2.658,-2.858
6.983,2.614,4.37
7.183,2.928,4.255
7.4,3.252,4.148
6.9,3.555,3.345
6.75,3.21,3.54
6.15,3.229,2.921
10.583,3.109,7.475
0.567,3.635,-3.068
-0.0,2.459,-2.459
5.433,2.54,2.893
9.233,3.689,5.545
11.283,5.952,5.331
0.65,6.667,-6.017
8.833,4.086,4.748
7.833,3.468,4.366
2.2,3.471,-1.271
14.967,2.807,12.16
11.867,3.654,8.213
14.967,3.692,11.275
1.067,3.998,-2.931
1.917,3.178,-1.261
0.567,2.892,-2.326
-0.0,2.757,-2.757
5.967,2.672,3.295
2.1,2.711,-0.611
4.467,2.711,1.756
7.567,2.758,4.809
2.933,3.336,-0.403
3.367,2.792,0.574
7.083,3.171,3.913
3.85,3.259,0.591
3.5,3.39,0.11
0.65,3.229,-2.579
0.65,2.86,-2.21
-0.033,3.488,-3.522
-1.0,2.908,-3.908
0.217,2.895,-2.678
1.45,2.442,-0.992
0.55,2.414,-1.864
7.683,1.758,5.926
-0.0,3.126,-3.126
0.55,2.854,-2.304
-0.0,2.14,-2.14
8.35,2.381,5.969
-0.0,5.211,-5.211
7.117,3.153,3.963
6.067,4.516,1.55
9.0,3.824,5.176
3.85,5.003,-1.153
9.5,3.796,5.704
2.517,4.556,-2.039
9.167,3.441,5.725
0.867,4.124,-3.257
-0.0,3.688,-3.688
-0.0,2.509,-2.509
-0.0,2.342,-2.342
-0.0,2.85,-2.85
-0.5,2.515,-3.015
-1.483,2.204,-3.688
7.317,1.969,5.348
0.433,2.881,-2.447
-0.0,1.684,-1.684
7.433,2.452,4.981
2.2,3.116,-0.916
0.067,2.611,-2.544
-0.117,2.223,-2.34
-0.4,2.094,-2.494
12.117,2.025,10.091
6.067,3.524,2.543
2.0,2.783,-0.783
10.067,2.495,7.572
0.817,3.406,-2.589
11.067,2.455,8.612
3.25,4.172,-0.922
8.533,2.816,5.717
6.167,3.521,2.645
-0.0,2.997,-2.997
6.9,2.516,4.384
6.217,3.329,2.888
1.217,3.586,-2.369
2.833,3.202,-0.369
2.117,2.373,-0.256
0.383,2.424,-2.04
11.167,3.159,8.008
0.7,4.196,-3.496
-0.167,2.453,-2.62
13.267,2.276,10.99
12.15,3.619,8.531
4.45,3.608,0.842
3.367,2.599,0.768
3.8,2.672,1.128
3.983,2.615,1.368
2.5,2.891,-0.391
8.633,2.916,5.717
7.583,2.972,4.611
7.283,2.741,4.543
-0.933,3.388,-4.321
-1.133,2.537,-3.67
7.167,2.428,4.739
-0.7,2.609,-3.309
2.117,2.001,0.116
-1.617,2.711,-4.328
9.917,2.109,7.808
3.083,2.321,0.763
-3.017,2.277,-5.294
-0.283,2.095,-2.378
-4.333,1.803,-6.136
-0.0,0.958,-0.958
3.483,1.016,2.468
2.317,1.925,0.392
-0.0,1.966,-1.966
1.317,0.917,0.4
6.317,2.126,4.191
3.65,2.414,1.236
1.433,2.262,-0.829
4.333,2.264,2.069
2.233,2.33,-0.097
-0.85,2.321,-3.171
9.283,2.039,7.244
-1.3,2.491,-3.791
8.317,2.011,6.306
0.333,2.759,-2.426
4.3,2.331,1.969
3.467,2.532,0.935
5.367,2.489,2.878
10.133,2.641,7.492
12.667,3.274,9.393
6.367,4.0,2.367
2.867,3.005,-0.138
-3.967,2.977,-6.944
3.583,2.559,1.024
-2.067,2.968,-5.035
3.383,2.351,1.032
7.4,2.356,5.044
3.183,2.593,0.591
3.4,2.315,1.085
5.95,2.639,3.311
1.333,3.475,-2.141
3.117,2.338,0.779
8.233,2.525,5.708
7.633,3.442,4.191
1.7,3.831,-2.131
8.4,3.559,4.841
3.3,3.351,-0.051
5.917,3.006,2.911
3.5,3.778,-0.278
0.283,2.771,-2.488
12.25,2.5,9.75
8.333,4.744,3.589
2.8,4.554,-1.754
6.317,3.376,2.941
-2.3,3.399,-5.699
3.433,2.574,0.86
-3.033,2.572,-5.605
9.25,2.156,7.094
-3.3,3.195,-6.495
-4.583,2.172,-6.755
-0.0,1.997,-1.997
2.117,0.989,1.128
1.15,2.205,-1.055
7.317,1.423,5.894
-0.883,2.545,-3.429
6.983,2.369,4.615
5.767,2.555,3.212
1.733,2.543,-0.81
-0.75,2.412,-3.162
-1.067,2.288,-3.355
-2.95,2.679,-5.629
-1.117,1.272,-2.389
-3.283,2.003,-5.286
1.4,1.509,-0.109
2.867,1.019,1.848
1.867,2.128,-0.261
6.383,2.008,4.376
-0.033,2.095,-2.129
8.133,1.831,6.303
0.2,2.178,-1.978
6.933,1.972,4.962
4.183,2.318,1.866
9.867,2.47,7.397
-3.167,2.823,-5.99
-5.933,2.123,-8.056
-0.5,2.423,-2.923
12.567,1.559,11.008
9.767,3.988,5.778
-1.433,3.543,-4.977
1.083,2.38,-1.297
7.067,2.464,4.603
5.117,3.201,1.916
1.167,2.791,-1.625
1.35,2.46,-1.11
-1.6,2.502,-4.102
1.0,2.127,-1.127
0.183,2.738,-2.554
11.933,2.565,9.368
-2.9,4.061,-6.961
9.017,2.52,6.497
65.383,4.492,60.891
-0.0,9.894,-9.894
-0.0,4.191,-4.191
-1.783,3.872,-5.655
-0.0,3.499,-3.499
-0.0,2.66,-2.66
-0.0,2.31,-2.31
56.0,2.329,53.671
-0.0,9.195,-9.195
-3.467,4.806,-8.272
5.017,2.823,2.193
-1.733,3.302,-5.036
-2.133,2.317,-4.45
9.133,2.151,6.982
-0.6,2.861,-3.461
-5.117,2.32,-7.437
-0.0,2.182,-2.182
0.1,2.009,-1.909
-4.05,1.127,-5.177
0.133,1.084,-0.951
9.367,1.88,7.487
-0.867,2.485,-3.352
0.633,2.142,-1.509
0.7,2.269,-1.569
6.283,1.298,4.986
2.85,2.496,0.354
1.85,2.53,-0.68
3.483,2.366,1.118
9.05,2.443,6.607
-0.733,2.66,-3.394
0.083,2.402,-2.319
9.45,1.877,7.573
-0.0,3.58,-3.58
2.067,3.098,-1.031
-2.833,2.429,-5.263
10.167,2.317,7.85
10.983,2.863,8.12
1.45,3.48,-2.03
0.65,2.626,-1.976
-0.133,2.448,-2.581
5.25,2.316,2.934
-0.617,2.589,-3.206
4.083,2.349,1.734
3.9,2.449,1.451
0.133,2.55,-2.417
1.2,2.372,-1.172
0.633,2.357,-1.723
9.15,2.266,6.884
2.867,2.592,0.275
2.75,2.471,0.279
4.617,2.436,2.181
2.133,2.48,-0.347
1.667,2.418,-0.751
-0.417,2.431,-2.847
8.5,2.0,6.5
8.283,2.628,5.656
11.733,2.833,8.901
-0.667,3.381,-4.048
9.833,2.579,7.254
8.75,3.708,5.042
-2.3,3.316,-5.616
9.85,3.429,6.421
-1.2,3.345,-4.545
-0.733,2.712,-3.446
9.717,2.511,7.206
-1.767,3.07,-4.837
13.7,2.312,11.388
-3.067,3.696,-6.762
5.0,2.395,2.605
-0.0,2.697,-2.697
12.617,2.556,10.06
-0.0,4.026,-4.026
12.5,2.523,9.977
6.15,6.535,-0.385
-3.083,5.8,-8.883
2.75,3.567,-0.817
5.467,4.646,0.821
8.533,5.806,2.728
-0.0,5.884,-5.884
2.733,3.567,-0.834
4.517,3.899,0.618
6.517,4.441,2.076
4.717,4.642,0.075
0.117,4.304,-4.188
7.7,2.797,4.903
7.1,4.721,2.379
-1.467,3.767,-5.233
12.317,2.203,10.113
0.033,3.567,-3.533
3.8,2.784,1.016
1.967,3.086,-1.12
1.967,2.621,-0.654
2.483,2.473,0.01
2.133,2.32,-0.186
4.467,2.883,1.584
-1.467,3.622,-5.089
-1.467,2.683,-4.15
9.35,2.477,6.873
1.45,4.301,-2.851
-0.5,2.682,-3.182
2.667,2.632,0.035
1.817,2.593,-0.777
0.433,3.238,-2.804
12.633,2.367,10.267
7.35,4.592,2.758
9.417,4.204,5.213
-0.233,4.327,-4.56
9.333,3.292,6.042
9.217,4.206,5.01
6.533,4.682,1.852
5.45,4.159,1.291
3.083,4.056,-0.973
11.75,3.696,8.054
10.9,4.265,6.635
-1.4,4.562,-5.962
8.767,2.82,5.946
0.133,3.872,-3.739
-0.0,2.824,-2.824
-0.233,2.862,-3.096
-0.067,3.047,-3.113
0.833,3.176,-2.342
-0.8,2.896,-3.696
0.067,2.398,-2.332
-0.917,2.355,-3.272
-2.55,2.165,-4.715
12.633,0.582,12.051
12.633,4.623,8.01
-1.483,5.045,-6.528
1.117,2.768,-1.651
0.783,2.514,-1.731
0.683,2.466,-1.783
-2.2,2.28,-4.48
-0.25,2.034,-2.284
15.717,1.98,13.737
-0.367,3.79,-4.156
-2.433,2.167,-4.6
0.583,2.085,-1.501
12.65,2.446,10.204
-0.2,3.996,-4.196
0.5,2.413,-1.913
10.717,2.306,8.411
11.2,3.648,7.552
10.533,3.811,6.723
-2.467,4.012,-6.479
-0.0,2.962,-2.962
-0.783,2.906,-3.689
8.85,2.103,6.747
10.367,3.882,6.485
-5.967,4.314,-10.28
-0.0,3.572,-3.572
3.633,2.659,0.975
-1.283,2.832,-4.115
-0.267,2.277,-2.544
2.433,2.231,0.202
-0.017,1.311,-1.328
0.067,2.096,-2.03
1.95,2.004,-0.054
1.267,1.985,-0.718
-1.067,1.943,-3.009
-4.167,1.643,-5.81
13.45,1.459,11.991
1.0,2.812,-1.812
3.083,2.011,1.072
2.917,2.061,0.855
2.9,2.062,0.838
-3.5,2.124,-5.624
14.7,1.935,12.765
0.883,4.204,-3.32
9.417,2.494,6.923
0.867,3.575,-2.708
2.85,2.693,0.157
11.433,2.755,8.678
13.533,4.147,9.386
1.767,4.603,-2.836
16.817,3.235,13.581
3.45,4.447,-0.997
-0.0,2.254,-2.254
1.367,2.051,-0.685
-0.933,2.089,-3.022
1.167,1.921,-0.755
-1.35,1.967,-3.317
0.2,1.907,-1.707
0.55,1.945,-1.395
14.783,1.747,13.036
14.783,3.084,11.7
14.833,4.134,10.699
-0.033,4.52,-4.553
7.533,2.948,4.585
11.083,3.24,7.844
2.133,3.553,-1.42
4.167,2.842,1.324
4.367,2.984,1.383
7.417,3.011,4.406
8.467,3.329,5.138
4.317,3.395,0.922
-0.533,3.097,-3.63
-0.617,2.888,-3.505
-0.217,2.519,-2.736
-0.217,2.446,-2.663
1.85,2.493,-0.643
2.5,2.318,0.182
-0.5,2.492,-2.992
-0.167,2.356,-2.522
-0.0,2.083,-2.083
-0.6,2.299,-2.899
3.75,2.236,1.514
2.817,2.4,0.416
2.15,2.424,-0.274
2.217,2.321,-0.104
0.75,2.352,-1.602
7.3,2.302,4.998
3.533,2.559,0.974
11.8,2.542,9.258
-4.25,3.277,-7.527
1.717,2.694,-0.978
1.4,2.683,-1.283
2.233,2.329,-0.096
11.867,3.157,8.71
-0.183,3.641,-3.825
14.133,2.49,11.643
15.133,4.17,10.963
16.367,4.832,11.535
-0.667,4.735,-5.402
0.783,3.26,-2.476
1.133,3.129,-1.995
0.583,2.631,-2.048
2.667,2.466,0.2
1.667,2.744,-1.077
2.167,2.839,-0.672
15.1,3.055,12.045
19.05,4.151,14.899
0.4,6.486,-6.086
17.717,3.927,13.79
0.4,6.112,-5.712
11.25,2.695,8.555
6.283,6.18,0.103
5.75,4.752,0.998
15.6,5.083,10.517
0.567,6.741,-6.174
19.667,3.545,16.122
-1.117,7.901,-9.017
16.0,4.247,11.753
-0.167,6.52,-6.686
2.867,4.037,-1.171
-0.25,4.218,-4.468
9.75,3.397,6.353
22.3,6.004,16.296
9.567,7.491,2.076
9.567,6.419,3.147
0.867,5.867,-5.0
4.2,3.998,0.202
1.817,4.192,-2.375
5.367,3.534,1.833
-1.817,4.395,-6.212
8.567,3.115,5.452
-1.85,4.193,-6.043
-1.733,2.614,-4.347
-0.35,2.312,-2.662
-0.983,2.19,-3.173
8.567,2.084,6.483
0.217,4.033,-3.817
5.483,2.533,2.951
8.267,3.141,5.126
-1.533,4.07,-5.603
11.0,2.751,8.249
1.367,5.762,-4.396
9.567,3.645,5.922
-4.333,3.614,-7.948
-4.233,2.752,-6.985
8.567,2.745,5.822
15.217,3.616,11.6
0.817,4.951,-4.134
0.667,3.256,-2.59
13.05,3.583,9.467
12.917,5.563,7.353
12.75,5.535,7.215
-3.1,5.477,-8.577
7.75,2.942,4.808
7.75,3.795,3.955
-0.6,4.357,-4.957
6.533,3.219,3.315
7.633,2.905,4.729
-3.25,4.415,-7.665
14.667,2.709,11.957
-5.233,6.577,-11.81
-6.5,2.996,-9.496
-4.017,1.234,-5.25
12.15,1.069,11.081
-0.15,5.002,-5.152
-3.717,2.507,-6.223
4.983,2.602,2.381
10.567,2.791,7.776
10.917,3.909,7.008
0.45,4.254,-3.804
9.817,3.131,6.685
0.383,4.88,-4.496
9.133,3.375,5.759
-0.0,4.856,-4.856
2.433,4.055,-1.621
1.5,2.65,-1.15
8.25,2.627,5.623
15.6,3.648,11.952
-2.9,5.805,-8.705
4.367,2.977,1.39
13.65,4.295,9.355
4.733,6.346,-1.613
4.233,4.721,-0.488
5.017,4.342,0.675
8.083,4.405,3.678
3.083,4.923,-1.839
7.467,3.902,3.565
6.3,4.008,2.292
1.233,4.179,-2.946
-1.017,3.65,-4.667
1.417,3.002,-1.586
0.383,3.981,-3.597
16.05,2.655,13.395
15.133,5.532,9.601
13.917,5.571,8.345
4.65,5.685,-1.035
9.483,3.348,6.135
11.35,4.474,6.876
1.75,4.807,-3.057
2.017,3.377,-1.36
1.75,3.712,-1.962
3.25,2.785,0.465
2.0,2.909,-0.909
5.617,2.954,2.662
12.283,3.876,8.407
1.567,5.437,-3.87
-0.133,3.918,-4.051
5.5,3.207,2.293
6.6,3.78,2.82
14.933,2.778,12.155
-0.0,4.645,-4.645
-4.933,3.327,-8.26
12.85,2.581,10.269
4.667,4.984,-0.317
3.367,3.663,-0.297
17.083,3.496,13.587
14.483,6.0,8.483
0.617,6.073,-5.456
3.283,3.336,-0.053
1.867,3.586,-1.719
1.733,3.205,-1.471
1.9,3.122,-1.222
11.3,3.477,7.823
4.783,4.197,0.586
0.217,3.74,-3.523
2.667,2.94,-0.273
0.65,3.108,-2.458
0.65,2.637,-1.987
11.033,2.559,8.474
5.5,4.891,0.609
3.917,4.344,-0.427
4.383,3.669,0.714
9.45,9.12,0.33
-0.35,7.21,-7.56
24.567,4.455,20.111
50.733,7.647,43.086
18.283,8.886,9.397
-0.917,8.883,-9.8
-2.117,4.386,-6.503
-0.483,3.399,-3.882
-0.383,2.912,-3.295
0.017,2.502,-2.485
3.75,2.533,1.217
2.917,3.081,-0.165
19.1,3.078,16.022
2.65,6.049,-3.399
2.167,4.11,-1.944
7.05,3.421,3.629
4.767,4.191,0.576
3.483,3.854,-0.37
4.3,3.604,0.696
3.567,3.564,0.003
5.567,3.678,1.888
-1.767,4.151,-5.918
5.45,2.909,2.541
15.833,3.455,12.378
-1.633,4.637,-6.271
15.167,2.986,12.181
0.067,5.054,-4.987
15.35,3.695,11.655
3.317,5.24,-1.924
6.783,4.08,2.703
5.783,3.889,1.895
6.783,3.441,3.343
10.683,3.696,6.987
3.8,4.207,-0.407
4.65,3.709,0.941
16.117,3.721,12.395
16.75,4.459,12.291
2.067,5.036,-2.969
4.283,3.946,0.338
7.4,3.686,3.714
9.0,3.839,5.161
8.767,3.291,5.476
4.183,3.761,0.422
-2.983,3.356,-6.34
-3.367,3.555,-6.922
-3.117,2.439,-5.555
4.75,2.12,2.63
11.917,2.43,9.487
13.217,3.595,9.622
1.15,4.628,-3.478
10.95,3.34,7.61
18.183,3.608,14.575
11.333,4.676,6.657
10.433,4.076,6.357
5.717,4.239,1.478
5.883,3.489,2.394
5.767,3.719,2.047
5.8,3.564,2.236
6.083,3.208,2.876
11.883,3.07,8.813
-1.583,4.093,-5.676
8.233,3.074,5.159
8.817,3.688,5.128
6.2,3.927,2.273
7.25,3.756,3.494
-0.1,3.788,-3.888
-4.483,3.393,-7.877
44.633,2.606,42.027
1.483,8.64,-7.157
43.733,5.041,38.693
11.333,9.156,2.177
-0.0,7.244,-7.244
-0.0,4.469,-4.469
-0.0,4.31,-4.31
11.333,2.791,8.542
5.367,6.967,-1.601
-0.0,5.202,-5.202
4.883,3.158,1.726
12.667,4.938,7.729
-0.0,7.683,-7.683
-0.0,5.024,-5.024
-0.35,4.836,-5.186
-0.0,4.176,-4.176
2.1,3.979,-1.879
3.2,5.557,-2.357
2.7,4.944,-2.244
2.05,5.901,-3.851
2.333,5.528,-3.195
-1.3,5.476,-6.776
3.367,3.768,-0.401
9.517,2.457,7.059
-1.017,3.804,-4.82
1.367,2.816,-1.449
2.917,2.814,0.102
-1.183,2.775,-3.958
6.317,2.347,3.969
6.283,3.266,3.017
-0.333,3.063,-3.396
7.4,2.306,5.094
8.733,3.517,5.216
6.317,3.993,2.324
9.133,3.632,5.501
9.0,3.773,5.227
1.4,3.668,-2.268
-1.1,3.319,-4.419
2.8,2.693,0.107
10.483,2.732,7.751
-1.1,3.94,-5.04
-2.767,2.674,-5.44
9.3,1.928,7.372
-0.0,3.211,-3.211
-1.1,2.463,-3.563
3.533,1.926,1.607
10.8,2.353,8.447
0.133,3.35,-3.217
10.067,2.21,7.857
0.683,3.504,-2.821
0.167,2.845,-2.678
0.017,2.348,-2.331
13.783,2.046,11.737
2.867,4.567,-1.7
-0.017,3.083,-3.099
8.433,2.748,5.685
5.3,3.523,1.777
-0.067,3.295,-3.362
0.983,2.48,-1.496
-0.983,2.644,-3.627
4.567,2.775,1.792
0.8,2.375,-1.575
1.267,2.393,-1.127
1.5,2.384,-0.884
13.083,2.453,10.631
1.667,4.269,-2.602
1.567,3.098,-1.532
2.0,2.674,-0.674
9.317,2.632,6.685
2.083,3.986,-1.902
2.017,2.756,-0.74
3.6,3.154,0.446
11.85,3.045,8.805
11.233,4.744,6.489
10.983,5.036,5.948
1.85,4.745,-2.895
6.6,3.399,3.201
-1.217,3.879,-5.096
15.783,3.116,12.667
0.3,4.646,-4.346
-4.083,3.215,-7.298
0.167,2.894,-2.727
12.367,2.05,10.317
10.367,4.586,5.781
16.233,4.532,11.701
1.983,5.059,-3.076
2.467,3.899,-1.432
2.383,3.587,-1.203
-0.333,2.596,-2.929
3.367,3.195,0.172
2.45,2.834,-0.384
1.983,2.677,-0.694
16.283,3.575,12.708
4.2,4.609,-0.409
15.483,3.176,12.308
15.65,4.909,10.741
10.5,5.135,5.365
8.467,4.34,4.127
0.967,3.556,-2.59
4.417,2.947,1.469
11.683,3.091,8.592
3.15,3.502,-0.352
11.817,3.032,8.784
2.767,4.256,-1.489
2.483,3.036,-0.553
6.6,2.537,4.063
5.5,3.719,1.781
-1.217,2.856,-4.073
3.417,3.133,0.283
8.333,2.678,5.656
9.533,3.545,5.988
8.55,3.562,4.988
8.5,3.85,4.65
8.5,3.444,5.056
1.717,3.984,-2.268
8.1,2.67,5.43
6.417,2.667,3.749
-1.567,3.429,-4.996
22.0,3.178,18.822
18.4,5.651,12.749
20.7,5.745,14.955
-0.0,5.451,-5.451
4.983,3.366,1.617
2.2,3.443,-1.243
-0.0,3.637,-3.637
-0.383,2.626,-3.01
14.117,2.463,11.654
11.567,3.905,7.662
12.117,4.569,7.548
7.7,4.938,2.762
14.317,3.553,10.764
9.433,3.87,5.563
0.933,3.367,-2.434
-0.75,3.148,-3.898
-1.05,3.597,-4.647
15.05,2.961,12.089
-1.167,5.06,-6.227
-2.267,2.565,-4.831
12.217,2.459,9.758
8.217,4.239,3.978
12.983,4.129,8.854
6.75,3.817,2.933
6.5,3.929,2.571
5.8,3.403,2.397
2.333,3.486,-1.153
8.0,3.236,4.764
8.683,3.093,5.591
8.117,3.793,4.324
4.617,4.004,0.613
2.367,3.106,-0.74
2.3,3.584,-1.284
4.8,3.413,1.387
12.717,2.779,9.937
10.45,4.444,6.006
-0.0,4.595,-4.595
2.0,3.36,-1.36
13.833,3.354,10.479
2.8,4.353,-1.553
3.4,3.526,-0.126
2.817,3.351,-0.534
5.767,3.276,2.491
2.633,3.967,-1.333
5.067,3.381,1.686
0.617,3.87,-3.254
0.367,3.736,-3.369
0.2,2.741,-2.541
17.65,3.075,14.575
-0.8,5.002,-5.802
17.533,3.085,14.448
1.867,5.214,-3.347
1.033,4.031,-2.997
11.4,3.476,7.924
11.933,4.956,6.978
5.95,4.349,1.601
-0.8,3.914,-4.714
1.567,3.072,-1.506
-0.35,2.802,-3.152
3.967,3.16,0.807
6.317,3.213,3.104
6.75,3.288,3.462
-0.767,3.89,-4.657
13.033,2.885,10.148
14.617,4.135,10.482
4.0,4.327,-0.327
0.133,3.574,-3.44
1.133,3.543,-2.409
-0.567,2.707,-3.274
-0.967,2.466,-3.433
-0.467,2.772,-3.238
-0.933,2.319,-3.252
-1.433,2.236,-3.67
-1.133,2.295,-3.428
-1.767,2.151,-3.918
7.033,2.089,4.944
-2.7,2.383,-5.083
-0.0,1.954,-1.954
7.783,2.22,5.563
-1.0,4.044,-5.044
-0.0,2.228,-2.228
-0.917,2.098,-3.015
0.667,1.983,-1.316
1.983,2.237,-0.254
10.983,2.558,8.425
4.617,4.287,0.33
6.633,3.285,3.348
0.233,4.375,-4.142
8.033,3.037,4.996
9.133,3.788,5.345
8.583,3.993,4.59
-0.1,4.132,-4.232
-0.533,3.08,-3.614
-0.0,2.679,-2.679
-0.2,3.218,-3.418
11.083,2.539,8.545
-0.317,3.313,-3.63
0.9,2.327,-1.427
4.283,2.245,2.038
8.433,2.376,6.057
2.733,3.148,-0.414
-2.483,2.479,-4.962
9.567,2.25,7.317
0.783,4.05,-3.267
-2.567,2.769,-5.336
7.883,2.867,5.016
7.0,3.628,3.372
12.4,3.638,8.762
-0.217,4.73,-4.947
2.45,2.525,-0.075
3.9,2.754,1.146
3.4,3.133,0.267
11.033,3.131,7.902
5.567,4.297,1.269
4.983,3.744,1.239
9.467,3.713,5.754
-0.2,4.426,-4.626
8.9,2.756,6.144
8.617,3.511,5.106
-2.533,3.964,-6.497
-1.033,2.528,-3.561
-1.133,2.462,-3.595
0.283,3.224,-2.94
6.333,2.156,4.178
-5.783,2.546,-8.329
-0.2,2.287,-2.487
1.983,2.022,-0.039
1.567,2.328,-0.761
8.333,2.322,6.011
3.2,2.483,0.717
1.417,2.394,-0.977
-0.0,2.377,-2.377
11.6,2.115,9.485
12.617,3.346,9.271
9.367,4.182,5.185
2.317,4.445,-2.128
2.8,3.307,-0.507
1.8,3.267,-1.467
12.867,2.921,9.946
14.15,5.186,8.964
13.083,5.168,7.915
7.367,5.388,1.978
5.6,4.541,1.059
12.933,3.484,9.449
7.017,5.204,1.813
11.833,4.084,7.749
10.683,4.07,6.613
10.683,4.513,6.171
6.9,4.606,2.294
4.233,4.117,0.116
-1.117,3.55,-4.666
3.65,3.688,-0.038
7.667,3.446,4.221
2.067,3.222,-1.156
16.25,3.122,13.128
0.467,5.235,-4.768
0.233,2.871,-2.638
3.233,2.575,0.658
12.117,3.031,9.085
0.933,4.877,-3.944
-3.35,3.158,-6.508
-1.2,2.666,-3.866
-1.033,2.318,-3.352
0.733,2.162,-1.429
12.517,2.128,10.388
12.3,2.869,9.431
-1.467,3.397,-4.863
12.85,2.278,10.572
-0.5,4.084,-4.584
9.217,2.94,6.277
-3.967,4.09,-8.056
2.917,2.327,0.59
14.233,2.88,11.353
2.433,4.869,-2.436
14.0,2.96,11.04
-1.633,2.88,-4.514
1.017,2.279,-1.262
11.867,2.181,9.685
11.733,2.745,8.988
8.083,3.594,4.489
7.95,3.5,4.45
-0.0,3.076,-3.076
-0.7,2.709,-3.409
0.85,3.616,-2.766
-1.717,3.042,-4.759
-1.9,2.398,-4.298
14.133,1.854,12.279
5.617,4.214,1.403
6.05,3.054,2.996
-0.433,3.086,-3.519
3.133,2.638,0.495
1.333,2.449,-1.116
1.833,2.427,-0.594
-0.117,2.4,-2.516
3.0,2.339,0.661
2.3,2.436,-0.136
2.417,2.419,-0.003
1.483,2.398,-0.915
0.767,2.379,-1.613
-0.383,2.237,-2.62
4.183,2.22,1.963
2.95,2.343,0.607
12.417,2.299,10.118
-3.0,2.802,-5.802
-0.0,2.204,-2.204
-2.183,2.174,-4.357
-0.967,2.035,-3.002
15.233,1.996,13.237
-1.85,4.422,-6.272
-2.3,2.312,-4.612
-3.083,2.237,-5.32
-0.633,1.713,-2.346
11.433,1.581,9.853
-1.5,2.881,-4.381
-2.5,2.133,-4.633
1.817,1.935,-0.118
1.467,2.088,-0.621
1.233,2.024,-0.79
0.783,2.165,-1.382
0.25,2.158,-1.908
-4.55,2.238,-6.788
0.433,1.107,-0.673
0.45,2.057,-1.607
-1.35,1.795,-3.145
-2.183,1.626,-3.809
-2.933,1.289,-4.223
-1.817,1.006,-2.823
16.1,1.364,14.736
13.467,2.956,10.511
0.567,3.619,-3.052
-1.1,2.624,-3.724
0.35,2.874,-2.524
13.767,2.871,10.896
2.25,4.269,-2.019
1.2,3.217,-2.017
2.017,2.772,-0.756
-0.167,2.534,-2.701
-0.65,2.212,-2.862
19.467,2.53,16.937
17.683,4.994,12.689
5.8,5.377,0.423
5.0,4.199,0.801
3.667,3.644,0.022
-0.0,3.356,-3.356
4.517,2.486,2.031
10.333,2.654,7.68
10.333,4.36,5.973
-2.967,4.941,-7.907
10.317,2.905,7.412
9.533,4.742,4.792
0.75,4.849,-4.099
-2.117,3.79,-5.907
-0.433,2.883,-3.317
1.817,2.401,-0.584
0.383,2.753,-2.37
-1.05,2.191,-3.241
-4.367,2.055,-6.422
2.5,1.959,0.541
4.783,2.053,2.73
7.467,2.28,5.186
7.15,2.633,4.517
-0.0,2.744,-2.744
-1.467,2.572,-4.039
7.5,2.224,5.276
3.883,3.135,0.748
14.667,2.499,12.167
-0.5,3.95,-4.45
-0.967,2.756,-3.723
-0.0,2.755,-2.755
-1.0,2.598,-3.598
0.883,2.125,-1.242
2.317,2.256,0.06
3.0,2.425,0.575
-0.0,2.245,-2.245
2.6,2.332,0.268
1.5,2.352,-0.852
1.183,2.909,-1.725
5.433,2.228,3.206
-1.483,2.454,-3.938
-3.217,2.196,-5.412
1.367,1.258,0.109
3.717,2.042,1.675
-4.133,2.181,-6.314
-1.567,1.918,-3.485
2.233,0.742,1.492
3.383,0.99,2.394
11.267,2.317,8.949
3.333,2.627,0.707
2.883,2.461,0.422
2.817,2.457,0.36
2.983,2.391,0.592
11.583,2.413,9.17
10.883,3.243,7.64
13.933,3.5,10.434
-0.5,4.241,-4.741
2.117,2.702,-0.586
12.8,2.581,10.219
1.533,4.164,-2.631
-0.45,2.857,-3.307
-0.467,3.716,-4.182
2.9,2.196,0.704
-2.083,2.613,-4.696
-3.433,2.312,-5.746
0.733,1.149,-0.416
0.033,2.217,-2.184
3.817,2.004,1.813
5.617,2.319,3.297
2.133,2.523,-0.39
-3.317,2.46,-5.777
2.367,1.85,0.516
16.25,2.387,13.863
15.25,4.285,10.965
1.533,5.276,-3.742
2.733,3.535,-0.802
0.983,3.481,-2.498
2.667,2.937,-0.27
-0.3,3.035,-3.335
3.733,2.442,1.291
2.883,2.845,0.039
3.217,2.556,0.661
-0.5,2.569,-3.069
1.283,2.385,-1.102
2.933,2.34,0.594
3.7,2.521,1.179
4.9,2.65,2.25
11.283,2.523,8.76
0.617,3.282,-2.665
0.117,2.408,-2.292
5.233,2.409,2.824
9.9,3.048,6.852
9.65,4.163,5.487
12.05,4.614,7.436
-1.5,5.157,-6.657
11.85,2.737,9.113
-0.017,4.338,-4.354
-4.283,2.721,-7.004
-3.283,2.773,-6.056
2.933,2.132,0.801
2.983,2.391,0.592
-1.183,2.358,-3.541
-0.3,2.238,-2.538
-0.0,2.026,-2.026
12.783,1.836,10.948
12.1,2.883,9.217
-1.05,3.646,-4.696
14.133,2.511,11.622
0.45,3.898,-3.448
2.25,2.591,-0.341
2.167,2.567,-0.4
2.167,2.476,-0.309
1.85,2.392,-0.542
19.817,2.442,17.375
-0.417,5.502,-5.918
1.583,3.063,-1.479
20.65,2.701,17.949
14.45,2.585,11.865
6.983,3.285,3.698
13.583,2.654,10.929
2.65,3.019,-0.369
0.383,2.489,-2.105
10.433,2.72,7.713
-0.333,3.373,-3.706
-1.733,2.516,-4.25
-3.967,2.417,-6.383
1.55,2.457,-0.907
0.283,0.586,-0.303
-0.067,2.099,-2.165
-0.0,2.328,-2.328
10.483,2.297,8.186
-0.4,2.661,-3.061
16.25,2.362,13.888
0.483,3.304,-2.821
-1.133,2.505,-3.638
15.067,2.736,12.33
0.8,4.412,-3.612
1.333,3.006,-1.673
1.917,2.699,-0.782
12.117,2.782,9.335
13.083,3.943,9.14
-0.0,4.047,-4.047
11.85,2.76,9.09
-0.283,4.111,-4.395
12.067,2.867,9.199
-0.967,4.077,-5.044
-0.617,2.754,-3.371
-1.85,2.79,-4.64
-3.683,2.672,-6.355
0.467,1.953,-1.486
14.7,1.954,12.746
0.75,3.387,-2.637
1.433,2.523,-1.09
2.367,2.391,-0.024
1.75,2.444,-0.694
1.25,2.4,-1.15
-0.117,2.363,-2.48
13.9,2.302,11.598
4.267,3.13,1.136
14.0,2.66,11.34
4.183,3.912,0.271
3.533,3.249,0.284
3.3,3.046,0.254
1.3,3.052,-1.752
5.817,2.699,3.117
8.4,3.363,5.037
25.833,3.598,22.236
21.35,8.026,13.324
13.867,8.4,5.467
11.8,6.962,4.838
8.55,6.536,2.014
18.617,5.169,13.447
-0.0,6.529,-6.529
13.75,3.81,9.94
3.5,5.452,-1.952
0.9,4.222,-3.322
-2.217,3.564,-5.78
13.95,2.52,11.43
11.167,5.58,5.587
-0.733,4.557,-5.29
10.783,3.184,7.6
5.467,4.3,1.166
-0.0,3.652,-3.652
7.6,2.423,5.177
11.733,3.425,8.309
-1.867,4.623,-6.49
-0.9,2.733,-3.633
2.55,2.989,-0.439
0.433,2.708,-2.274
1.067,2.452,-1.385
14.483,3.018,11.465
-2.217,3.478,-5.694
-2.817,2.331,-5.147
3.917,2.084,1.832
-2.833,2.597,-5.431
-0.0,2.67,-2.67
13.767,2.139,11.627
13.767,4.121,9.646
-1.35,4.303,-5.653
-1.167,2.717,-3.884
-2.867,2.489,-5.355
-0.25,2.383,-2.633
0.85,1.104,-0.254
1.95,2.188,-0.238
-3.733,2.158,-5.891
-3.783,1.914,-5.698
3.233,1.501,1.732
1.633,2.633,-0.999
-0.017,2.293,-2.31
10.55,2.199,8.351
10.417,3.92,6.496
-0.0,4.157,-4.157
-1.483,3.127,-4.611
9.733,2.563,7.17
-0.433,4.097,-4.53
-1.583,2.598,-4.181
16.667,2.341,14.326
-0.0,4.487,-4.487
-0.45,2.71,-3.16
1.05,2.31,-1.26
1.95,2.287,-0.337
5.0,2.348,2.652
4.967,2.591,2.375
0.383,2.682,-2.299
1.817,2.339,-0.522
0.4,2.24,-1.84
2.333,2.287,0.046
2.3,2.367,-0.067
0.083,2.422,-2.338
17.2,2.341,14.859
-0.133,5.208,-5.342
0.883,2.745,-1.862
4.25,2.449,1.801
-0.033,2.589,-2.623
2.25,2.369,-0.119
13.517,2.47,11.047
-2.133,4.227,-6.36
9.433,2.374,7.06
-0.15,3.215,-3.365
-4.033,2.546,-6.579
8.25,2.94,5.31
-5.467,3.459,-8.926
14.1,2.27,11.83
-0.0,4.554,-4.554
9.25,2.429,6.821
17.15,3.861,13.289
7.85,5.5,2.35
6.767,3.828,2.939
2.717,3.858,-1.141
3.233,3.133,0.1
3.233,2.719,0.515
5.383,2.499,2.884
5.117,2.807,2.309
-0.917,2.957,-3.874
-1.133,3.143,-4.276
-0.733,2.532,-3.266
0.5,2.572,-2.072
1.467,2.458,-0.991
3.0,2.398,0.602
-1.783,2.411,-4.194
-0.433,2.303,-2.736
0.567,0.232,0.335
4.0,1.018,2.982
8.183,0.784,7.399
8.2,2.663,5.537
6.8,2.757,4.043
2.483,2.815,-0.331
0.133,2.642,-2.508
-0.233,2.566,-2.799
-0.017,2.377,-2.394
1.667,2.286,-0.62
0.667,2.322,-1.655
0.233,2.314,-2.081
0.433,2.16,-1.727
-5.867,2.122,-7.989
-2.417,0.081,-2.498
0.983,1.408,-0.425
0.067,1.52,-1.453
0.4,1.696,-1.296
1.967,1.656,0.311
17.2,1.679,15.521
5.667,3.747,1.92
0.3,2.927,-2.627
6.517,2.661,3.856
8.017,3.083,4.934
7.983,3.512,4.472
7.867,3.581,4.286
-0.0,3.511,-3.511
-2.65,2.886,-5.536
-1.15,2.928,-4.078
-2.15,2.411,-4.561
3.383,2.398,0.986
5.117,2.356,2.76
3.55,2.535,1.015
3.233,2.48,0.754
6.05,2.424,3.626
0.467,2.57,-2.103
11.167,2.393,8.774
0.933,3.441,-2.508
3.55,2.727,0.823
3.883,2.807,1.077
-2.617,2.469,-5.085
4.2,2.412,1.788
-1.017,2.53,-3.546
13.083,2.355,10.729
9.617,4.046,5.57
12.7,4.194,8.506
6.25,4.927,1.323
6.483,3.741,2.742
7.3,3.707,3.593
8.167,3.912,4.255
7.067,3.907,3.16
12.983,3.718,9.265
7.7,4.303,3.397
-1.717,3.922,-5.639
0.217,3.152,-2.935
-0.0,3.35,-3.35
-1.5,2.77,-4.27
15.55,2.322,13.228
4.633,3.99,0.643
-0.633,3.218,-3.852
-0.367,2.755,-3.122
-0.433,2.613,-3.046
-0.0,2.392,-2.392
-1.683,2.361,-4.044
-0.3,2.236,-2.536
1.217,2.134,-0.917
0.8,2.11,-1.31
0.933,2.165,-1.232
0.6,2.122,-1.522
0.717,1.905,-1.188
1.7,1.972,-0.272
15.683,2.046,13.637
22.833,5.224,17.609
0.6,6.774,-6.174
18.667,3.499,15.168
12.6,7.55,5.05
10.55,5.995,4.555
6.467,4.842,1.625
6.85,4.455,2.395
10.683,5.086,5.597
4.4,6.407,-2.007
6.7,5.246,1.454
16.783,4.278,12.506
3.5,5.873,-2.373
13.517,4.097,9.42
7.833,6.599,1.234
-0.0,5.398,-5.398
16.633,4.231,12.402
16.417,7.143,9.273
15.0,7.557,7.443
4.4,7.268,-2.868
13.333,5.563,7.77
11.767,6.287,5.48
8.717,5.792,2.924
10.233,5.491,4.742
6.783,5.596,1.187
-2.0,5.293,-7.293
7.0,3.887,3.113
-2.8,4.614,-7.414
-2.85,2.994,-5.844
-1.75,2.295,-4.045
-0.0,3.161,-3.161
-0.0,3.013,-3.013
3.017,2.528,0.489
-1.083,2.477,-3.561
3.133,2.311,0.822
0.15,2.521,-2.371
-0.0,2.264,-2.264
-0.0,2.254,-2.254
5.933,2.741,3.192
4.9,3.195,1.705
2.05,3.794,-1.744
2.0,3.551,-1.551
2.183,3.136,-0.953
3.2,3.405,-0.205
-0.283,3.817,-4.1
-1.15,2.787,-3.937
-0.0,2.21,-2.21
11.7,2.06,9.64
10.5,3.46,7.04
10.2,3.209,6.991
10.2,3.663,6.537
-0.0,3.839,-3.839
0.067,2.878,-2.811
7.667,2.488,5.179
1.433,3.149,-1.716
0.367,3.011,-2.644
1.25,2.583,-1.333
2.9,2.487,0.413
4.1,2.49,1.61
7.583,2.808,4.775
6.133,3.294,2.84
-0.5,3.267,-3.767
6.633,2.608,4.025
0.183,3.393,-3.209
0.633,2.599,-1.966
5.7,2.472,3.228
-0.55,3.971,-4.521
5.033,2.759,2.274
5.033,3.723,1.31
48.417,3.699,44.718
65.683,7.869,57.814
41.283,8.832,32.451
-0.383,9.244,-9.627
44.933,3.658,41.275
34.75,7.641,27.109
21.55,7.979,13.571
7.833,6.877,0.956
7.667,4.985,2.681
30.533,4.19,26.343
1.483,6.418,-4.934
57.033,3.974,53.059
1.7,9.119,-7.419
5.233,4.855,0.378
5.583,4.781,0.803
-1.35,4.757,-6.107
-0.883,3.618,-4.502
-1.6,2.846,-4.446
-0.483,2.782,-3.266
17.383,2.355,15.028
16.4,4.345,12.055
3.783,4.437,-0.654
9.067,3.121,5.946
6.883,2.951,3.933
16.983,2.738,14.246
-0.0,3.15,-3.15
-3.167,2.64,-5.806
15.917,2.417,13.499
0.617,4.538,-3.922
-4.217,3.504,-7.721
1.067,2.225,-1.158
-2.65,2.476,-5.126
-1.283,1.74,-3.023
4.433,1.908,2.525
1.017,2.173,-1.157
0.817,2.127,-1.31
-0.783,2.054,-2.838
-0.433,1.925,-2.358
4.6,1.897,2.703
1.9,2.419,-0.519
7.483,2.284,5.199
7.483,3.215,4.268
7.033,3.299,3.734
-0.25,3.342,-3.592
5.483,3.653,1.831
-1.533,2.94,-4.474
7.25,2.445,4.805
-2.833,3.384,-6.218
0.283,1.999,-1.715
0.283,2.674,-2.391
3.383,2.475,0.908
3.767,2.585,1.182
1.45,2.872,-1.422
6.8,2.926,3.874
13.1,3.735,9.365
9.45,5.062,4.388
10.533,4.673,5.86
18.083,3.929,14.155
18.083,4.259,13.825
2.75,4.229,-1.479
1.867,3.176,-1.31
10.25,3.154,7.096
6.617,4.23,2.386
9.167,4.172,4.995
12.967,4.349,8.617
13.35,4.179,9.171
12.283,3.953,8.33
3.3,4.22,-0.92
2.283,3.687,-1.404
3.217,2.634,0.583
8.933,3.695,5.238
2.2,3.077,-0.877
-2.1,2.687,-4.787
8.083,3.261,4.822
7.067,3.597,3.469
6.033,3.795,2.239
-2.45,2.199,-4.649
2.433,2.041,0.392
0.317,2.756,-2.439
3.0,2.148,0.852
10.567,2.402,8.165
10.45,3.31,7.14
-1.033,3.638,-4.672
19.533,2.826,16.708
11.617,5.522,6.095
9.733,4.818,4.916
4.833,4.254,0.579
14.433,3.208,11.225
-0.067,3.256,-3.323
-2.033,2.46,-4.493
-2.567,2.814,-5.38
-3.933,2.729,-6.663
8.433,2.741,5.693
6.9,4.249,2.651
10.15,3.28,6.87
11.2,3.716,7.484
-3.7,3.687,-7.387
12.667,3.009,9.657
7.933,4.999,2.935
12.517,4.493,8.024
7.05,5.035,2.015
8.8,3.108,5.692
3.55,4.247,-0.697
19.167,3.182,15.985
9.833,4.31,5.523
17.817,4.465,13.352
-4.117,5.595,-9.712
3.767,2.706,1.061
4.25,3.092,1.158
13.217,3.275,9.942
8.55,4.164,4.386
19.483,3.568,15.915
5.083,4.753,0.33
20.433,4.043,16.39
8.117,5.575,2.542
6.467,4.762,1.704
4.583,3.525,1.059
11.233,2.644,8.589
-0.3,3.39,-3.69
14.317,2.996,11.32
13.833,4.545,9.288
7.8,4.996,2.804
7.467,4.376,3.091
6.8,3.715,3.085
8.35,3.906,4.444
9.4,4.092,5.308
7.633,4.342,3.291
7.617,4.188,3.429
3.133,3.488,-0.354
1.35,2.536,-1.186
-2.6,3.052,-5.652
-1.883,2.662,-4.545
-1.067,2.389,-3.455
-0.333,2.295,-2.628
9.383,2.136,7.247
1.283,3.544,-2.26
9.483,3.062,6.421
9.433,3.889,5.545
9.967,3.738,6.228
1.45,4.37,-2.92
11.0,3.32,7.68
10.95,4.496,6.454
12.567,4.604,7.963
4.1,3.174,0.926
14.7,2.618,12.082
3.817,4.831,-1.014
14.45,3.356,11.094
-2.917,4.624,-7.541
-3.417,3.233,-6.649
-3.683,2.696,-6.38
14.417,2.399,12.018
-2.433,3.801,-6.235
5.417,2.631,2.786
9.983,3.466,6.517
9.067,3.858,5.209
8.433,4.135,4.298
7.917,4.332,3.584
8.0,3.85,4.15
8.083,3.746,4.338
3.383,3.842,-0.459
10.667,3.163,7.504
3.217,3.349,-0.133
3.05,2.799,0.251
4.05,2.537,1.513
9.7,3.158,6.542
3.683,3.371,0.313
7.183,3.792,3.391
1.5,3.72,-2.22
0.75,3.892,-3.142
13.833,3.869,9.965
-0.0,6.648,-6.648
3.2,3.089,0.111
-0.0,3.767,-3.767
8.267,2.507,5.76
4.133,5.141,-1.008
-3.483,3.149,-6.632
4.883,2.021,2.863
9.717,3.38,6.336
1.383,4.556,-3.173
8.517,3.233,5.284
-0.0,5.486,-5.486
1.267,2.791,-1.524
2.233,3.177,-0.944
-0.0,3.151,-3.151
2.9,2.481,0.419
6.517,3.048,3.469
0.833,3.015,-2.181
-9.317,2.461,-11.778
-5.95,2.065,-8.015
0.283,0.776,-0.492
9.4,1.047,8.353
3.667,3.119,0.548
0.5,2.56,-2.06
1.0,2.234,-1.234
9.867,2.13,7.736
9.167,3.031,6.136
8.983,3.927,5.056
8.733,4.246,4.488
14.25,3.655,10.595
6.317,5.231,1.086
1.617,3.548,-1.932
1.283,3.093,-1.81
3.767,2.645,1.122
4.267,3.309,0.958
7.717,3.864,3.852
7.717,3.822,3.895
4.867,4.311,0.556
6.8,4.261,2.539
4.95,4.142,0.808
5.717,3.738,1.978
5.333,3.697,1.637
6.367,3.457,2.909
-1.2,3.663,-4.863
7.283,2.885,4.399
-0.0,4.495,-4.495
8.617,3.149,5.468
9.533,3.964,5.569
10.967,4.192,6.775
1.083,4.428,-3.344
-0.817,3.439,-4.256
9.25,3.347,5.903
-0.55,4.638,-5.188
12.35,2.758,9.592
4.667,4.479,0.188
11.467,3.573,7.894
2.617,4.268,-1.651
10.85,3.031,7.819
11.35,4.276,7.074
4.55,4.097,0.453
1.567,3.044,-1.477
2.583,2.767,-0.184
10.433,2.911,7.522
1.85,4.569,-2.719
1.767,3.262,-1.495
1.283,3.274,-1.991
8.917,3.036,5.88
2.017,4.817,-2.801
11.083,2.954,8.129
0.433,4.908,-4.475
0.15,3.523,-3.373
0.95,3.421,-2.471
0.85,2.842,-1.992
3.4,2.493,0.907
8.467,2.659,5.808
-1.983,2.954,-4.937
8.233,2.284,5.949
1.633,2.872,-1.238
7.733,2.387,5.346
6.983,3.496,3.487
4.233,3.594,0.639
0.55,3.37,-2.82
7.417,2.604,4.812
5.367,3.617,1.75
10.767,3.086,7.681
3.183,4.421,-1.237
0.983,3.522,-2.538
4.683,3.173,1.51
-3.783,2.708,-6.491
-4.217,2.203,-6.42
2.483,1.977,0.506
-3.817,2.15,-5.967
8.533,2.025,6.509
7.2,2.894,4.306
-1.167,2.748,-3.914
-0.0,2.278,-2.278
14.6,2.198,12.402
1.3,4.265,-2.965
10.417,2.659,7.758
5.283,4.754,0.529
9.233,3.278,5.956
2.233,4.374,-2.14
2.817,2.643,0.173
7.617,2.977,4.64
10.283,3.343,6.94
7.0,4.497,2.503
9.0,4.017,4.983
5.3,4.259,1.041
10.483,2.944,7.539
8.75,2.74,6.01
1.0,3.619,-2.619
11.45,2.819,8.631
-1.633,3.751,-5.384
4.6,3.024,1.576
5.617,2.781,2.836
0.4,3.067,-2.667
-0.7,3.25,-3.95
10.933,2.633,8.3
5.45,3.521,1.929
1.867,2.889,-1.022
7.067,2.837,4.229
11.133,2.836,8.297
11.017,4.626,6.391
4.45,4.716,-0.266
9.6,3.099,6.501
9.6,3.329,6.271
0.817,3.431,-2.614
10.767,2.555,8.212
7.283,4.402,2.881
9.567,3.908,5.659
1.117,4.431,-3.314
-1.8,3.129,-4.929
12.4,2.88,9.52
2.467,3.814,-1.348
1.75,2.849,-1.099
15.267,3.262,12.005
13.767,4.549,9.217
12.433,5.024,7.409
-0.667,4.772,-5.439
4.4,3.399,1.001
3.25,3.286,-0.036
9.0,3.051,5.949
0.433,2.849,-2.416
-4.083,2.56,-6.643
-4.2,2.278,-6.478
-0.717,2.074,-2.791
4.75,1.823,2.927
1.1,2.569,-1.469
6.25,2.453,3.797
14.333,2.554,11.779
2.1,3.33,-1.23
1.383,2.795,-1.412
3.183,3.48,-0.297
2.1,2.74,-0.64
12.5,2.721,9.779
2.233,4.166,-1.933
12.217,3.137,9.079
16.033,4.121,11.912
14.6,4.271,10.329
14.6,5.536,9.064
7.05,5.649,1.401
2.4,4.517,-2.117
5.683,3.051,2.632
12.717,2.616,10.1
6.067,3.289,2.777
3.883,3.3,0.583
1.583,3.085,-1.501
0.25,2.856,-2.606
10.567,2.771,7.795
-0.117,3.019,-3.135
12.133,3.389,8.745
-1.85,3.836,-5.686
-0.0,3.309,-3.309
21.7,2.598,19.102
-1.717,5.689,-7.406
-1.65,3.034,-4.684
-0.55,2.556,-3.106
4.0,3.713,0.287
3.567,3.175,0.392
9.983,2.95,7.033
2.35,3.496,-1.146
-1.4,3.219,-4.619
-0.783,2.852,-3.635
4.167,2.68,1.486
1.0,3.124,-2.124
11.35,2.736,8.614
10.7,3.591,7.109
10.7,4.13,6.57
3.667,4.538,-0.872
-0.733,3.775,-4.508
5.117,2.767,2.35
1.117,3.508,-2.391
17.183,2.641,14.543
3.167,5.098,-1.932
10.6,3.793,6.807
3.767,3.66,0.106
3.45,3.274,0.176
12.717,2.78,9.937
1.8,4.46,-2.66
5.783,3.218,2.566
11.767,3.408,8.359
6.033,4.43,1.603
3.933,3.901,0.032
4.75,3.04,1.71
13.717,3.136,10.581
1.067,3.701,-2.635
-0.133,2.838,-2.972
0.567,3.109,-2.543
6.933,2.656,4.277
14.583,2.685,11.899
-0.1,3.532,-3.632
0.933,3.438,-2.505
0.783,2.987,-2.203
6.8,2.527,4.273
0.783,2.77,-1.987
0.6,2.726,-2.126
2.017,2.496,-0.479
11.733,2.845,8.889
-2.217,4.063,-6.279
-1.967,2.739,-4.706
4.05,2.787,1.263
13.867,2.598,11.268
1.15,4.298,-3.148
6.55,3.167,3.383
10.783,3.219,7.564
8.033,3.394,4.64
0.35,5.135,-4.785
-0.017,3.577,-3.594
3.95,3.252,0.698
1.367,5.034,-3.668
6.6,4.682,1.918
-0.0,6.682,-6.682
14.383,3.306,11.078
14.383,8.025,6.359
4.1,8.158,-4.058
8.6,5.94,2.66
11.433,6.766,4.667
10.133,6.81,3.323
-0.783,6.922,-7.705
8.233,4.782,3.451
6.967,5.95,1.016
8.633,5.419,3.215
-2.85,5.61,-8.46
2.35,3.418,-1.068
-0.0,3.468,-3.468
-4.65,2.626,-7.276
-1.283,2.641,-3.925
8.65,1.891,6.759
-0.983,3.042,-4.025
-2.933,2.354,-5.287
3.383,2.115,1.268
-1.983,2.164,-4.147
0.433,2.093,-1.66
0.15,1.964,-1.814
0.267,1.937,-1.67
-0.0,1.827,-1.827
9.983,1.873,8.11
11.017,2.598,8.419
0.25,3.031,-2.781
0.417,2.387,-1.97
0.55,3.099,-2.549
-1.3,2.967,-4.267
10.7,2.632,8.068
1.083,2.599,-1.516
1.767,2.059,-0.293
-0.067,2.076,-2.142
0.7,2.005,-1.305
-0.333,2.37,-2.704
9.05,3.108,5.942
9.167,3.275,5.892
5.483,3.428,2.055
-1.083,3.228,-4.311
5.833,2.481,3.353
5.667,3.474,2.193
-2.783,3.12,-5.903
6.633,2.279,4.354
4.7,3.036,1.664
-0.333,3.152,-3.485
-1.2,2.414,-3.614
8.25,3.088,5.162
-0.0,3.434,-3.434
6.633,2.727,3.906
-2.95,3.006,-5.956
3.317,2.725,0.591
-1.667,3.075,-4.742
8.383,2.233,6.15
6.517,2.857,3.66
6.5,2.826,3.674
9.133,2.957,6.177
10.167,3.464,6.703
11.217,3.568,7.648
12.017,3.715,8.302
0.65,3.699,-3.049
0.717,3.128,-2.411
7.433,2.57,4.864
7.583,3.07,4.513
-0.783,3.032,-3.815
-0.267,3.142,-3.408
6.117,2.479,3.638
-0.5,3.162,-3.662
2.9,2.388,0.512
8.3,2.797,5.503
5.217,3.608,1.609
4.217,2.966,1.251
7.117,3.179,3.938
9.417,3.338,6.079
-3.233,4.014,-7.248
8.0,2.566,5.434
-0.967,3.726,-4.692
8.6,2.768,5.832
5.5,4.005,1.495
2.917,3.329,-0.412
2.783,3.168,-0.385
7.517,3.037,4.48
6.75,2.973,3.777
7.2,3.151,4.049
-1.5,3.213,-4.713
7.0,2.511,4.489
8.05,3.02,5.03
1.883,3.264,-1.381
-3.883,3.231,-7.115
-0.567,2.228,-2.794
6.45,2.18,4.27
0.95,2.769,-1.819
0.667,2.59,-1.924
-0.333,2.312,-2.646
9.933,2.208,7.726
8.217,3.24,4.976
13.3,3.058,10.242
6.683,3.675,3.009
6.767,3.653,3.114
-2.367,3.64,-6.007
6.417,3.522,2.894
6.567,3.413,3.154
3.917,3.496,0.42
10.0,3.177,6.823
4.867,3.617,1.25
10.85,3.255,7.595
5.467,3.998,1.468
3.9,3.487,0.413
11.183,3.187,7.996
1.867,3.615,-1.748
0.867,3.037,-2.17
-0.45,3.499,-3.949
10.167,2.768,7.398
1.617,3.316,-1.699
4.617,2.56,2.057
10.867,3.147,7.72
5.767,4.465,1.301
8.867,3.451,5.416
7.083,3.41,3.674
-5.617,3.512,-9.129
10.583,2.538,8.045
1.1,3.841,-2.741
-0.633,2.882,-3.515
8.817,2.842,5.975
10.8,3.161,7.639
1.9,2.152,-0.252
-0.0,2.122,-2.122
-0.25,1.875,-2.125
-0.017,1.778,-1.795
-0.0,1.687,-1.687
-1.583,0.535,-2.119
-1.783,1.319,-3.102
-1.917,1.256,-3.172
-2.667,1.159,-3.826
-2.533,1.107,-3.64
-2.683,1.152,-3.836
-2.55,0.722,-3.272
1.283,0.916,0.368
2.75,1.555,1.195
2.5,1.889,0.611
-2.4,1.709,-4.109
2.65,1.519,1.131
0.65,1.815,-1.165
0.7,1.597,-0.897
1.283,1.575,-0.291
4.5,1.671,2.829
2.467,2.028,0.439
1.467,2.022,-0.556
4.4,2.181,2.219
0.85,2.305,-1.455
-3.683,1.381,-5.064
-1.7,1.51,-3.21
3.5,1.144,2.356
3.75,2.085,1.665
0.967,2.266,-1.299
0.217,2.026,-1.81
0.817,1.903,-1.086
-0.9,2.062,-2.962
3.083,-0.139,3.223
-0.333,0.036,-0.37
3.683,1.444,2.239
1.567,2.022,-0.456
2.483,2.142,0.341
1.017,2.272,-1.255
-0.1,2.245,-2.345
3.167,1.998,1.169
0.133,2.286,-2.153
-0.0,2.282,-2.282
0.467,1.5,-1.033
-2.7,2.095,-4.795
-0.0,0.958,-0.958
-0.0,0.855,-0.855
-1.9,1.098,-2.998
3.617,1.246,2.371
2.15,1.672,0.478
3.583,1.706,1.877
-3.683,1.998,-5.681
3.0,1.253,1.747
-1.0,1.039,-2.039
-2.517,1.069,-3.586
-2.517,1.046,-3.563
2.633,1.112,1.522
0.533,1.468,-0.934
1.0,1.934,-0.934
-0.25,1.774,-2.024
1.033,1.723,-0.689
2.0,0.721,1.279
0.467,2.324,-1.857
-1.833,1.869,-3.702
2.167,1.561,0.606
-3.7,1.898,-5.598
-3.817,0.025,-3.842
-0.2,1.977,-2.177
0.383,1.458,-1.075
2.233,1.708,0.525
0.75,1.963,-1.213
1.617,2.045,-0.428
4.683,1.546,3.137
0.2,2.433,-2.233
-0.467,2.109,-2.576
-2.65,1.963,-4.613
-0.55,1.567,-2.117
-4.85,0.228,-5.078
1.267,1.614,-0.348
-0.0,1.488,-1.488
-0.617,0.778,-1.394
5.25,1.146,4.104
5.117,2.364,2.752
-0.0,2.442,-2.442
-1.267,2.24,-3.506
-0.833,1.847,-2.68
0.15,1.998,-1.848
-0.167,1.66,-1.826
0.95,1.564,-0.614
-0.433,1.72,-2.153
-1.4,1.956,-3.356
0.483,1.791,-1.308
-0.0,1.855,-1.855
-0.333,1.653,-1.987
-1.867,1.615,-3.481
-1.817,0.458,-2.275
-2.45,0.731,-3.181
-1.867,1.175,-3.042
-0.5,1.164,-1.664
-3.25,0.918,-4.168
0.2,0.521,-0.321
-1.133,0.836,-1.97
-1.95,1.146,-3.096
-3.567,0.802,-4.369
0.167,0.633,-0.467
0.217,0.519,-0.303
1.183,0.683,0.5
-0.317,1.348,-1.665
-0.483,1.419,-1.902
1.417,1.277,0.14
-1.767,1.537,-3.304
-0.9,0.678,-1.578
3.1,0.954,2.146
0.833,1.779,-0.946
5.0,1.799,3.201
4.05,1.946,2.104
-2.383,2.125,-4.509
-0.0,1.978,-1.978
11.733,1.997,9.736
5.767,4.078,1.688
-0.0,3.674,-3.674
3.85,3.045,0.805
-1.75,3.292,-5.042
-2.483,2.409,-4.893
-1.0,2.28,-3.28
-0.3,2.086,-2.386
-0.783,2.083,-2.866
-2.367,1.893,-4.26
-5.167,0.445,-5.611
-5.95,0.425,-6.375
0.65,0.37,0.28
-4.233,1.493,-5.726
-4.45,1.955,-6.405
-0.267,1.951,-2.217
0.583,0.772,-0.188
-0.1,1.082,-1.182
-0.0,1.939,-1.939
-0.483,1.673,-2.156
-1.733,1.781,-3.515
-1.967,1.449,-3.415
0.867,1.226,-0.359
-3.383,0.708,-4.091
0.75,0.806,-0.056
-2.017,0.76,-2.776
-0.0,0.49,-0.49
2.45,1.169,1.281
4.5,0.52,3.98
1.9,2.077,-0.177
0.267,2.013,-1.746
-1.1,1.991,-3.091
-0.0,1.658,-1.658
0.85,1.925,-1.075
-0.567,1.768,-2.335
0.383,1.751,-1.368
-1.133,1.67,-2.803
2.517,1.711,0.806
0.25,1.73,-1.48
-0.833,1.922,-2.755
-2.4,1.887,-4.287
0.283,1.545,-1.262
0.317,1.698,-1.381
-0.567,1.747,-2.314
0.633,1.138,-0.505
-1.433,1.651,-3.084
0.517,0.815,-0.298
-2.083,1.08,-3.163
-1.25,0.418,-1.668
2.183,1.122,1.062
-0.483,1.48,-1.963
-1.35,1.604,-2.954
-3.083,1.389,-4.472
1.7,0.515,1.185
-5.75,1.419,-7.169
-0.0,0.371,-0.371
-0.067,0.568,-0.635
-0.567,0.916,-1.482
-0.0,1.285,-1.285
-4.1,1.342,-5.442
0.783,0.457,0.326
0.283,1.246,-0.962
-1.75,1.54,-3.29
-0.4,0.21,-0.61
0.117,1.003,-0.887
-4.5,1.336,-5.836
-5.633,0.719,-6.353
0.25,0.635,-0.385
-1.883,0.716,-2.599
-4.367,0.741,-5.107
-0.317,0.71,-1.027
-3.55,0.718,-4.268
-3.45,0.844,-4.294
-2.983,0.516,-3.499
-0.717,0.633,-1.35
-2.05,0.45,-2.5
-1.633,1.066,-2.699
-3.0,0.748,-3.748
0.783,0.424,0.359
-3.35,0.536,-3.886
-4.067,0.851,-4.918
-0.433,0.529,-0.962
-4.217,0.72,-4.936
-5.167,0.564,-5.731
-3.333,0.548,-3.881
3.217,0.582,2.635
-6.65,1.349,-7.999
-3.0,0.397,-3.397
1.65,0.504,1.146
-3.717,1.275,-4.992
