Test,Predictions,difference
1.2,2.112,-0.912
1.333,2.106,-0.773
2.0,2.171,-0.171
2.25,2.059,0.191
0.633,2.065,-1.431
-0.667,2.123,-2.79
0.0,1.798,-1.798
-2.6,-0.111,-2.489
1.25,-0.123,1.373
-3.167,1.044,-4.211
-1.733,-0.016,-1.718
-1.283,0.663,-1.947
-0.967,-0.091,-0.876
-2.75,0.492,-3.242
-1.517,-0.897,-0.619
0.0,-1.371,1.371
-1.35,-0.972,-0.378
0.5,1.498,-0.998
-1.433,-0.901,-0.533
-0.15,1.633,-1.783
-2.533,-0.871,-1.663
0.0,-0.482,0.482
-1.5,-0.916,-0.584
-5.05,-0.126,-4.924
-1.4,0.018,-1.418
-2.5,-0.755,-1.745
-4.067,-0.355,-3.711
0.0,0.131,-0.131
-5.017,0.741,-5.757
-5.15,-0.078,-5.072
0.083,-0.24,0.323
0.0,0.69,-0.69
-1.867,-0.969,-0.897
-2.183,-1.025,-1.158
-2.2,-0.936,-1.264
0.0,0.071,-0.071
-3.167,0.734,-3.901
1.467,0.286,1.181
-1.983,1.18,-3.163
0.217,0.461,-0.244
-2.6,-1.391,-1.209
-0.983,-0.225,-0.758
-2.35,-0.036,-2.314
-2.867,0.641,-3.508
0.0,0.682,-0.682
0.5,0.827,-0.327
-1.617,1.174,-2.791
0.067,-0.654,0.72
-2.8,0.278,-3.078
-2.683,0.446,-3.13
0.217,0.242,-0.025
-1.033,0.048,-1.081
-2.6,-1.522,-1.078
-1.667,-0.301,-1.366
1.0,-0.14,1.14
1.55,-0.425,1.975
-1.117,-0.371,-0.746
-2.467,-0.997,-1.47
-1.167,0.002,-1.169
-1.333,0.416,-1.749
1.25,-0.05,1.3
-0.7,-0.894,0.194
-2.583,0.077,-2.66
0.333,-0.388,0.722
-2.067,0.257,-2.324
-1.417,0.595,-2.012
0.633,0.787,-0.153
-2.183,0.973,-3.156
0.6,-0.425,1.025
-0.833,1.128,-1.961
-1.117,0.823,-1.94
2.0,0.512,1.488
-2.567,1.191,-3.757
-1.5,-0.102,-1.398
-3.617,-0.577,-3.04
-5.1,-0.885,-4.215
-2.15,-0.847,-1.303
-1.133,-0.733,-0.4
-1.967,0.118,-2.085
-1.333,-0.797,-0.536
-3.0,-0.163,-2.837
-1.5,-1.0,-0.5
-0.5,-0.709,0.209
-1.883,0.217,-2.1
-5.767,-0.135,-5.631
0.75,-0.873,1.623
-1.5,0.987,-2.487
-1.667,0.393,-2.06
0.6,0.206,0.394
-0.167,0.381,-0.547
-2.967,0.956,-3.923
-3.483,0.007,-3.491
1.667,-0.062,1.729
-3.483,0.602,-4.085
1.0,-0.071,1.071
-0.2,1.21,-1.41
0.517,0.699,-0.182
-0.05,1.33,-1.38
-0.283,0.529,-0.812
0.0,0.828,-0.828
2.25,0.64,1.61
-0.25,1.953,-2.203
0.683,2.077,-1.393
-1.6,2.126,-3.726
4.25,1.939,2.311
-0.983,2.325,-3.309
1.65,2.174,-0.524
0.533,1.894,-1.36
-1.5,2.165,-3.665
0.533,1.939,-1.406
0.0,0.142,-0.142
-2.033,-0.167,-1.867
2.2,-0.396,2.596
-1.5,0.8,-2.3
1.583,-0.001,1.584
0.0,1.372,-1.372
-0.617,-0.132,-0.485
1.4,0.415,0.985
-0.05,1.928,-1.978
2.7,0.748,1.952
2.467,2.252,0.214
2.367,2.33,0.036
0.383,2.347,-1.964
0.717,2.322,-1.605
0.717,2.296,-1.58
1.25,2.234,-0.984
-2.783,2.173,-4.957
0.0,-0.488,0.488
-0.25,0.516,-0.766
-6.45,-0.359,-6.091
2.367,-0.486,2.852
5.3,0.104,5.196
4.55,2.353,2.197
3.55,2.492,1.058
4.5,2.506,1.994
-0.5,2.59,-3.09
0.0,2.355,-2.355
3.217,2.194,1.023
3.717,2.337,1.38
0.75,2.493,-1.743
-1.833,2.368,-4.201
-0.833,2.101,-2.934
4.75,0.343,4.407
-1.3,2.352,-3.652
4.45,2.021,2.429
1.067,2.309,-1.242
0.6,2.314,-1.714
2.417,2.27,0.147
4.217,2.324,1.892
4.433,2.454,1.979
1.783,2.613,-0.83
2.117,2.526,-0.409
2.8,2.477,0.323
-1.467,2.468,-3.935
-1.3,2.167,-3.467
-0.75,1.985,-2.735
-0.75,0.066,-0.816
2.633,-0.13,2.763
-1.917,2.208,-4.124
-0.067,0.045,-0.112
-2.233,-0.133,-2.1
0.0,0.023,-0.023
1.883,-0.443,2.326
0.5,1.954,-1.454
0.467,2.166,-1.7
0.0,2.187,-2.187
4.117,1.956,2.161
-0.467,2.363,-2.83
4.467,2.115,2.352
-0.567,2.442,-3.009
3.767,2.272,1.494
0.4,2.408,-2.008
-0.433,2.328,-2.761
3.717,2.141,1.576
4.817,2.41,2.407
-1.683,2.611,-4.294
5.0,2.196,2.804
-1.5,2.517,-4.017
2.55,2.262,0.288
2.25,2.327,-0.077
0.25,3.274,-3.024
4.0,2.691,1.309
4.0,2.718,1.282
1.717,2.658,-0.942
0.75,2.54,-1.79
0.483,2.408,-1.925
0.717,2.222,-1.506
2.133,1.169,0.965
-1.517,2.277,-3.793
-1.267,1.523,-2.789
0.7,-0.446,1.146
-3.25,0.792,-4.042
1.8,-0.706,2.506
0.5,0.874,-0.374
0.617,0.13,0.487
-0.25,2.004,-2.254
4.0,1.449,2.551
1.667,2.162,-0.496
0.617,2.147,-1.531
0.117,2.038,-1.922
-0.617,1.136,-1.753
-0.25,0.445,-0.695
2.5,0.252,2.248
1.867,1.915,-0.048
3.25,1.995,1.255
-1.1,2.11,-3.21
3.5,0.89,2.61
2.75,2.068,0.682
-1.983,2.165,-4.148
1.25,1.029,0.221
3.583,2.04,1.543
2.033,2.2,-0.167
-2.9,2.207,-5.107
4.5,1.929,2.571
0.0,2.259,-2.259
-2.2,1.926,-4.126
0.0,-0.644,0.644
-2.633,-0.004,-2.629
-0.183,-0.247,0.063
0.933,-0.702,1.635
0.633,0.209,0.425
-0.133,-0.653,0.519
0.683,-0.76,1.443
1.75,0.656,1.094
-11.833,1.86,-13.694
3.25,-1.147,4.397
9.733,1.203,8.531
0.25,2.522,-2.272
0.167,2.124,-1.957
-1.633,1.966,-3.599
0.533,-0.375,0.908
2.117,1.034,1.083
8.767,1.315,7.452
-2.117,2.37,-4.487
-1.867,1.963,-3.83
-1.683,0.103,-1.786
7.633,-0.705,8.338
-1.75,2.307,-4.057
0.0,1.88,-1.88
0.0,-0.018,0.018
0.0,0.885,-0.885
0.0,1.631,-1.631
7.45,-0.501,7.951
10.25,2.265,7.985
7.567,2.699,4.867
6.417,2.679,3.738
6.917,2.535,4.382
8.017,2.579,5.438
3.7,2.724,0.976
10.5,2.393,8.107
9.533,2.998,6.535
2.833,3.055,-0.222
1.817,2.506,-0.689
1.917,2.371,-0.454
11.75,2.274,9.476
10.0,2.991,7.009
0.8,3.05,-2.25
0.0,2.437,-2.437
6.5,2.254,4.246
-0.933,2.493,-3.426
-0.783,2.143,-2.927
3.183,1.597,1.587
1.833,2.026,-0.193
7.967,2.08,5.887
8.45,2.53,5.92
0.0,2.646,-2.646
4.1,2.235,1.865
8.667,2.307,6.359
4.267,2.636,1.63
8.717,2.457,6.26
0.533,2.546,-2.013
0.65,2.384,-1.734
12.9,2.203,10.697
5.45,3.399,2.051
7.133,2.985,4.148
6.8,3.107,3.693
6.3,3.148,3.152
7.25,3.012,4.238
0.133,3.109,-2.975
-1.25,2.676,-3.926
11.617,2.43,9.187
10.917,3.367,7.549
-0.5,3.779,-4.279
-0.7,2.712,-3.412
5.083,2.467,2.616
9.983,2.673,7.31
1.95,3.267,-1.317
-2.667,2.736,-5.402
3.167,2.385,0.782
8.767,2.513,6.253
9.967,2.932,7.035
1.917,3.16,-1.243
1.333,2.751,-1.417
1.217,2.609,-1.392
9.733,2.538,7.195
-1.683,3.057,-4.74
4.367,2.591,1.776
-1.0,2.66,-3.66
4.65,2.43,2.22
-2.6,2.667,-5.267
1.45,2.215,-0.765
3.867,2.29,1.577
4.85,2.467,2.383
7.3,2.629,4.671
5.033,2.913,2.121
8.217,2.73,5.487
1.05,3.038,-1.988
5.783,2.659,3.124
0.417,2.723,-2.306
3.367,2.352,1.015
-0.033,2.377,-2.41
-1.2,2.067,-3.267
-1.333,0.242,-1.576
6.667,-0.287,6.954
6.85,2.239,4.611
6.467,2.423,4.044
1.75,2.538,-0.788
1.75,2.318,-0.568
-1.1,2.202,-3.302
2.567,1.25,1.316
0.267,1.986,-1.719
1.983,0.731,1.253
0.767,1.991,-1.225
-0.4,1.346,-1.746
-0.25,1.63,-1.88
-0.2,-0.426,0.226
-0.45,-0.595,0.145
0.0,0.072,-0.072
1.383,0.446,0.938
-0.133,0.509,-0.642
-0.7,-0.454,-0.246
0.0,0.311,-0.311
-1.4,-0.331,-1.069
-1.0,-0.04,-0.96
-1.417,-0.191,-1.226
1.367,-0.444,1.811
1.233,-0.292,1.525
0.0,0.003,-0.003
0.6,-0.631,1.231
0.0,-0.239,0.239
3.033,0.392,2.641
2.833,0.859,1.975
1.683,1.927,-0.244
3.5,1.885,1.615
1.967,2.024,-0.057
1.817,2.024,-0.207
-0.717,2.024,-2.741
1.0,-0.232,1.232
0.0,-0.174,0.174
0.183,0.401,-0.218
2.833,0.469,2.364
-1.0,0.251,-1.251
-1.7,-0.433,-1.267
1.85,-0.329,2.179
2.5,1.738,0.762
-1.867,1.886,-3.752
-2.25,0.011,-2.261
6.8,-0.201,7.001
-2.617,2.277,-4.893
5.3,2.088,3.212
11.75,2.481,9.269
11.433,2.911,8.522
1.967,2.809,-0.843
13.15,2.355,10.795
12.9,2.925,9.975
17.5,2.993,14.507
1.867,3.795,-1.929
0.5,2.509,-2.009
5.733,2.334,3.399
5.25,2.417,2.833
3.0,2.435,0.565
3.567,2.309,1.258
3.4,2.251,1.149
13.3,2.249,11.051
5.117,2.807,2.31
0.0,2.462,-2.462
12.95,2.234,10.716
3.85,2.934,0.916
4.483,2.429,2.054
3.783,2.398,1.385
10.55,2.359,8.191
12.033,2.92,9.113
9.25,3.361,5.889
10.0,3.013,6.987
8.95,3.241,5.709
16.983,3.314,13.669
16.65,4.422,12.228
12.133,4.732,7.402
12.233,4.02,8.213
5.367,3.832,1.534
12.283,2.957,9.326
12.767,3.363,9.404
15.983,3.841,12.143
7.45,4.478,2.972
9.5,3.353,6.147
8.967,3.465,5.502
8.183,3.339,4.844
11.283,3.338,7.945
23.283,3.485,19.799
27.283,6.378,20.905
6.283,8.135,-1.852
16.283,3.512,12.772
28.75,4.478,24.272
26.75,8.489,18.261
25.817,9.167,16.649
28.65,9.423,19.227
12.417,10.298,2.119
11.333,5.193,6.14
-1.6,4.173,-5.773
11.117,2.838,8.278
-0.5,3.293,-3.793
9.667,2.612,7.055
0.75,3.079,-2.329
-1.2,2.692,-3.892
-0.05,2.459,-2.509
3.8,2.339,1.461
20.45,2.453,17.997
25.717,4.796,20.92
2.467,7.647,-5.18
1.717,2.918,-1.201
0.75,2.606,-1.856
2.233,2.399,-0.166
31.783,2.354,29.429
30.2,7.394,22.806
4.317,8.412,-4.096
-2.383,3.245,-5.628
0.5,2.468,-1.968
-0.05,2.285,-2.335
-0.133,1.989,-2.122
-0.75,1.438,-2.188
35.083,-0.376,35.459
27.583,7.265,20.319
-1.317,7.399,-8.716
1.617,2.746,-1.13
37.3,2.426,34.874
39.75,8.562,31.188
35.517,12.184,23.332
38.917,12.162,26.755
0.0,13.219,-13.219
10.25,3.337,6.913
10.25,3.297,6.953
-0.333,3.174,-3.507
0.233,2.511,-2.278
-0.567,2.332,-2.899
-4.1,2.204,-6.304
-0.983,0.953,-1.936
-2.733,0.075,-2.809
1.633,-0.506,2.14
1.8,0.45,1.35
-0.067,1.854,-1.92
0.3,1.623,-1.323
1.567,1.68,-0.113
2.6,1.822,0.778
2.6,1.885,0.715
1.25,2.084,-0.834
0.633,1.93,-1.296
-2.617,1.639,-4.255
2.5,0.742,1.758
-1.217,0.495,-1.712
0.5,-0.259,0.759
-2.167,-0.625,-1.542
0.0,-1.179,1.179
1.0,-0.633,1.633
0.95,0.733,0.217
1.45,-0.073,1.523
-0.25,0.19,-0.44
0.0,-0.341,0.341
0.05,0.482,-0.432
-1.0,0.257,-1.257
-1.517,-0.103,-1.413
-0.017,-0.064,0.047
0.0,0.387,-0.387
-1.25,-0.439,-0.811
0.0,0.163,-0.163
-3.467,-0.021,-3.445
4.15,-1.122,5.272
2.5,1.334,1.166
0.0,1.872,-1.872
0.0,0.484,-0.484
0.0,-1.11,1.11
0.0,-0.855,0.855
3.517,-0.47,3.987
6.8,0.453,6.347
0.0,2.218,-2.218
12.9,1.962,10.938
1.433,2.476,-1.043
1.217,2.155,-0.938
12.417,2.057,10.36
9.45,2.536,6.914
7.517,2.61,4.907
8.3,2.486,5.814
8.45,2.585,5.865
5.183,2.639,2.544
8.1,2.49,5.61
4.317,2.571,1.745
7.0,2.381,4.619
8.1,2.41,5.69
7.283,2.438,4.845
7.983,2.472,5.511
7.8,2.502,5.298
2.35,2.683,-0.333
7.05,2.356,4.694
5.667,2.583,3.084
1.85,2.658,-0.808
1.85,2.433,-0.583
0.0,2.397,-2.397
4.633,2.212,2.421
-0.633,2.363,-2.997
-1.767,2.22,-3.987
-0.883,1.777,-2.66
-1.067,1.894,-2.961
-2.067,-0.148,-1.918
-1.117,0.31,-1.426
-1.467,-0.255,-1.211
-1.933,0.322,-2.256
-2.633,0.101,-2.734
-3.383,-0.117,-3.266
-2.367,-0.906,-1.461
0.75,-0.199,0.949
-3.35,0.019,-3.369
-0.567,-1.163,0.596
-1.083,1.585,-2.668
-3.067,0.803,-3.87
-0.017,-0.441,0.425
-2.033,-0.171,-1.863
-1.55,0.735,-2.285
1.683,-0.154,1.837
-2.05,0.021,-2.071
-1.483,-0.015,-1.469
2.817,-0.824,3.64
3.317,1.973,1.344
2.517,2.161,0.355
8.0,2.141,5.859
5.367,2.438,2.929
0.933,2.44,-1.506
4.95,2.313,2.637
1.667,2.455,-0.788
7.75,2.373,5.377
-2.567,2.548,-5.114
-0.25,2.188,-2.438
-1.5,-1.086,-0.414
-0.367,-0.763,0.397
-1.167,-0.418,-0.749
0.517,-0.708,1.225
0.0,-0.543,0.543
1.633,-0.636,2.269
2.133,-0.163,2.296
0.167,1.875,-1.708
1.467,0.308,1.158
-0.45,1.983,-2.433
-1.0,1.932,-2.932
-0.4,-0.053,-0.347
3.317,-0.569,3.886
-1.6,0.9,-2.5
0.3,-0.287,0.587
0.183,-0.273,0.456
0.0,0.209,-0.209
-3.417,-0.49,-2.927
-4.35,-0.77,-3.58
-1.5,-1.145,-0.355
1.167,-0.473,1.639
-1.233,0.391,-1.624
3.733,1.803,1.93
-0.2,1.977,-2.177
-1.1,0.092,-1.192
1.3,1.725,-0.425
0.667,1.488,-0.821
2.85,0.751,2.099
-0.25,1.803,-2.053
2.567,0.02,2.547
-1.333,2.026,-3.359
2.7,2.029,0.671
0.9,2.131,-1.231
-4.683,2.046,-6.729
0.683,-0.579,1.262
-2.65,1.973,-4.623
0.417,1.226,-0.809
2.5,-0.402,2.902
3.683,0.333,3.35
1.6,2.012,-0.412
3.0,1.622,1.378
1.25,2.158,-0.908
2.083,2.088,-0.004
5.717,2.062,3.655
5.967,2.352,3.615
0.217,2.482,-2.265
3.483,2.273,1.21
-0.767,2.278,-3.045
3.083,2.076,1.008
0.283,2.107,-1.824
-0.25,1.663,-1.913
2.5,0.125,2.375
-0.083,2.035,-2.119
3.3,0.79,2.51
1.5,2.025,-0.525
-1.267,1.931,-3.197
-0.75,0.45,-1.2
0.0,-0.59,0.59
5.817,-0.373,6.19
3.967,2.123,1.844
6.817,2.226,4.591
6.533,2.519,4.015
6.383,2.552,3.831
-1.25,2.538,-3.788
2.5,2.321,0.179
-1.05,2.297,-3.347
-1.333,2.083,-3.417
2.017,1.773,0.244
0.0,1.281,-1.281
-0.85,1.587,-2.437
3.933,1.215,2.719
-1.317,2.044,-3.361
10.083,0.133,9.95
8.95,2.682,6.268
10.2,2.863,7.337
15.0,3.09,11.91
0.483,3.83,-3.347
-0.233,2.762,-2.996
11.5,2.562,8.938
6.25,2.979,3.271
8.433,2.913,5.521
5.3,3.13,2.17
-1.217,3.034,-4.251
3.633,2.566,1.067
16.017,2.6,13.417
0.6,4.077,-3.477
3.5,2.733,0.767
1.5,2.62,-1.12
0.433,2.479,-2.046
2.75,2.328,0.422
3.517,1.338,2.179
-3.567,2.247,-5.813
0.0,1.773,-1.773
0.75,-0.148,0.898
1.317,0.728,0.588
0.517,0.468,0.048
0.417,0.999,-0.582
0.3,2.034,-1.734
0.267,-0.028,0.295
-3.767,0.627,-4.393
-4.25,-0.99,-3.26
0.0,-0.656,0.656
0.0,0.695,-0.695
5.367,0.848,4.518
-1.25,1.887,-3.137
-2.367,0.641,-3.008
0.583,0.671,-0.087
0.0,0.863,-0.863
-1.883,0.916,-2.799
-2.183,-0.106,-2.077
0.083,0.064,0.02
0.833,0.215,0.618
0.0,-0.283,0.283
1.1,-0.175,1.275
-1.0,0.574,-1.574
-0.5,0.561,-1.061
-2.017,0.092,-2.108
0.0,-0.054,0.054
0.0,0.251,-0.251
-1.083,0.502,-1.585
-1.533,0.49,-2.023
-0.117,0.545,-0.662
0.783,-0.322,1.105
0.0,1.961,-1.961
0.183,-0.269,0.453
-0.633,-0.782,0.149
0.633,-0.303,0.936
1.717,-0.12,1.836
-3.1,1.134,-4.234
0.167,-0.761,0.927
3.75,-0.524,4.274
2.5,2.231,0.269
1.2,2.269,-1.069
0.333,2.128,-1.794
0.0,2.131,-2.131
1.95,0.414,1.536
1.65,1.515,0.135
2.183,2.18,0.004
1.167,2.227,-1.061
-0.417,2.118,-2.534
1.05,0.647,0.403
0.5,2.035,-1.535
0.317,0.375,-0.058
0.183,-0.056,0.239
-0.383,-0.204,-0.18
0.267,1.49,-1.223
0.25,-0.302,0.552
0.167,-0.462,0.629
-0.183,-0.215,0.031
2.233,0.19,2.043
-1.033,1.947,-2.981
-3.167,1.984,-5.15
-0.067,-0.982,0.915
-5.667,-0.825,-4.841
4.25,-1.163,5.413
2.0,0.257,1.743
-0.8,0.676,-1.476
5.017,0.536,4.48
5.267,2.274,2.992
3.8,2.44,1.36
-2.2,2.492,-4.692
0.0,2.159,-2.159
1.0,0.82,0.18
-2.7,2.193,-4.893
3.55,2.033,1.517
0.35,2.221,-1.871
1.5,2.179,-0.679
0.317,1.582,-1.265
3.217,0.379,2.837
-0.217,1.222,-1.439
0.983,0.504,0.48
1.35,2.038,-0.688
0.133,2.07,-1.937
0.9,0.515,0.385
0.467,2.194,-1.727
1.617,1.84,-0.223
4.55,0.48,4.07
5.9,2.363,3.537
-1.833,2.683,-4.517
7.5,2.261,5.239
-0.5,-0.959,0.459
-0.567,-0.312,-0.255
0.0,-0.137,0.137
7.417,-0.06,7.477
1.933,2.4,-0.466
1.383,2.377,-0.994
0.433,2.26,-1.827
0.0,1.201,-1.201
0.0,0.586,-0.586
1.45,1.02,0.43
-0.317,0.689,-1.006
-3.033,-0.059,-2.974
0.0,0.371,-0.371
0.917,0.235,0.682
0.783,0.062,0.722
0.067,-0.178,0.245
-0.533,0.644,-1.177
1.75,0.493,1.257
1.033,1.974,-0.94
2.7,0.445,2.255
-2.867,2.011,-4.878
2.5,-0.373,2.873
-1.75,0.084,-1.834
-2.183,0.309,-2.492
0.0,-0.139,0.139
3.233,0.514,2.719
-0.45,0.763,-1.213
0.75,0.225,0.525
-0.533,-0.143,-0.39
0.233,2.024,-1.79
1.0,2.06,-1.06
-1.133,0.404,-1.537
-1.883,0.631,-2.514
-2.283,0.393,-2.676
0.167,-0.515,0.682
0.0,0.111,-0.111
0.65,-0.134,0.784
0.25,0.936,-0.686
0.0,0.773,-0.773
-4.067,0.026,-4.093
-0.617,-1.015,0.398
0.5,0.572,-0.072
-0.583,1.268,-1.851
0.5,1.458,-0.958
-0.167,0.906,-1.073
-1.883,-0.285,-1.598
0.967,0.004,0.963
0.0,-0.109,0.109
-0.267,-0.524,0.257
2.367,0.088,2.279
4.417,1.457,2.959
4.95,2.258,2.692
3.233,2.497,0.736
9.017,2.463,6.554
2.083,2.95,-0.867
-0.85,2.651,-3.501
-0.033,2.381,-2.414
10.5,2.079,8.421
1.533,3.064,-1.53
-2.2,2.584,-4.784
0.0,2.189,-2.189
10.033,2.209,7.825
14.1,2.946,11.154
1.0,3.999,-2.999
1.45,2.788,-1.338
11.4,2.611,8.789
0.0,3.377,-3.377
3.1,2.607,0.493
2.217,2.59,-0.373
-0.183,2.56,-2.743
3.967,2.404,1.563
-1.0,2.543,-3.543
2.283,2.229,0.054
0.45,2.345,-1.895
-3.617,2.304,-5.92
3.667,2.019,1.647
-4.917,2.343,-7.259
1.0,0.231,0.769
5.117,-0.006,5.122
4.75,2.434,2.316
4.5,2.595,1.905
-1.433,2.689,-4.122
4.9,2.364,2.536
1.383,2.581,-1.197
4.017,2.47,1.547
0.75,2.626,-1.876
0.5,2.422,-1.922
5.0,2.325,2.675
1.433,2.588,-1.155
-0.633,2.439,-3.072
1.783,-0.252,2.035
-0.983,2.225,-3.208
-2.55,0.554,-3.104
-3.1,-0.14,-2.96
0.0,0.485,-0.485
-4.017,1.537,-5.553
0.0,0.247,-0.247
-0.567,1.323,-1.889
-1.333,1.522,-2.856
-0.133,-0.964,0.83
-0.817,-1.02,0.204
0.833,-0.354,1.187
1.283,0.055,1.229
-1.25,2.019,-3.269
-0.017,-0.977,0.961
-1.3,-0.56,-0.74
0.5,-0.185,0.685
1.0,-0.485,1.485
-0.5,0.075,-0.575
-0.783,0.355,-1.138
3.667,-0.58,4.247
1.5,0.806,0.694
0.667,0.638,0.028
2.133,1.181,0.952
5.3,1.761,3.539
4.55,2.397,2.153
0.333,2.526,-2.193
-1.017,2.337,-3.353
2.55,1.188,1.362
0.25,1.931,-1.681
3.233,0.97,2.263
0.0,2.092,-2.092
1.4,0.841,0.559
1.583,1.484,0.099
0.25,1.96,-1.71
-3.65,1.742,-5.392
-0.317,-0.399,0.083
-1.817,0.876,-2.692
-4.533,0.623,-5.157
0.533,0.286,0.247
0.0,-0.659,0.659
1.45,-1.088,2.538
-1.383,-0.621,-0.762
-3.117,0.122,-3.239
-3.417,0.261,-3.678
0.533,0.08,0.453
-3.783,1.375,-5.158
-1.25,-0.255,-0.995
1.2,0.494,0.706
-2.383,1.449,-3.833
-1.15,0.509,-1.659
0.0,0.855,-0.855
2.0,1.405,0.595
-2.133,1.642,-3.776
0.0,1.156,-1.156
2.083,-0.617,2.7
-1.183,1.194,-2.378
1.0,-0.639,1.639
0.25,-0.104,0.354
-3.267,1.965,-5.232
1.333,-1.153,2.487
1.25,-0.448,1.698
-0.933,-0.051,-0.883
-2.433,0.195,-2.628
0.0,0.463,-0.463
-2.017,1.367,-3.384
-1.633,1.19,-2.824
-2.9,-0.189,-2.711
0.483,-0.529,1.012
-1.533,0.429,-1.963
-0.483,-0.03,-0.454
0.167,0.73,-0.564
-1.6,1.343,-2.943
-0.25,0.383,-0.633
-0.533,-0.013,-0.52
-0.167,0.106,-0.273
1.067,0.142,0.925
-0.983,1.02,-2.004
-4.75,0.034,-4.784
-3.467,-1.152,-2.314
0.483,-0.514,0.997
-2.067,0.678,-2.745
-2.133,0.467,-2.6
-0.633,0.615,-1.248
-0.217,0.59,-0.806
-2.1,0.426,-2.526
-2.833,0.516,-3.349
-2.783,-0.508,-2.276
1.167,-0.52,1.687
-0.883,0.26,-1.143
2.25,2.459,-0.209
5.65,2.382,3.268
5.267,2.615,2.652
3.85,2.728,1.122
-2.717,2.703,-5.42
-0.8,2.346,-3.146
2.983,2.222,0.761
1.983,2.358,-0.374
2.233,2.37,-0.137
0.617,2.404,-1.787
2.117,2.271,-0.155
-3.467,2.375,-5.842
7.25,0.173,7.077
1.7,2.626,-0.926
0.567,2.4,-1.833
1.8,2.149,-0.349
6.683,2.186,4.497
-2.85,2.62,-5.47
5.0,2.267,2.733
-1.4,2.58,-3.98
3.817,2.197,1.62
3.667,2.398,1.268
1.167,2.586,-1.419
1.85,2.447,-0.597
0.233,2.183,-1.949
3.25,2.061,1.189
-1.367,2.085,-3.451
0.0,0.182,-0.182
0.017,0.862,-0.846
-0.85,0.836,-1.686
1.417,-0.019,1.436
0.933,1.772,-0.839
0.267,1.744,-1.477
0.033,1.553,-1.52
0.883,1.13,-0.246
0.0,1.648,-1.648
-1.117,1.553,-2.67
-1.85,0.669,-2.519
-1.6,-0.268,-1.332
0.0,0.326,-0.326
0.683,1.586,-0.902
-0.583,1.733,-2.317
1.417,0.714,0.703
0.0,0.877,-0.877
-1.167,1.255,-2.422
2.25,0.301,1.949
0.25,1.655,-1.405
-0.183,0.596,-0.78
0.383,-0.318,0.702
1.383,1.709,-0.325
0.0,1.755,-1.755
-2.183,-0.645,-1.538
0.417,-1.085,1.501
-0.333,-0.812,0.478
3.917,-0.025,3.942
-1.55,1.823,-3.373
1.15,-1.086,2.236
-2.033,0.164,-2.198
0.0,-0.819,0.819
0.8,0.225,0.575
0.0,0.612,-0.612
-0.033,0.906,-0.939
0.05,0.044,0.006
3.783,0.377,3.407
0.0,1.872,-1.872
-0.1,1.696,-1.796
-0.85,-0.031,-0.819
0.167,-0.651,0.817
1.75,-0.79,2.54
-2.233,-0.118,-2.116
3.0,-0.344,3.344
-0.283,1.04,-1.323
-1.5,0.545,-2.045
3.5,-0.128,3.628
4.5,1.763,2.737
-1.7,2.016,-3.716
-4.367,-0.287,-4.08
-0.5,-0.899,0.399
-2.467,0.382,-2.848
-0.5,-0.493,-0.007
-0.5,0.293,-0.793
0.4,0.175,0.225
-1.35,-0.115,-1.235
0.417,-0.323,0.74
0.267,0.391,-0.124
1.233,-0.013,1.246
0.0,1.127,-1.127
0.033,0.657,-0.624
0.833,-0.375,1.208
0.8,0.69,0.11
-1.833,-0.175,-1.658
0.533,-0.79,1.324
1.883,0.856,1.027
-0.283,1.649,-1.933
2.25,-0.082,2.332
0.55,1.131,-0.581
0.433,1.792,-1.359
0.683,1.776,-1.092
-0.3,-0.637,0.337
-0.25,-0.943,0.693
-0.483,-0.785,0.302
-1.05,-0.867,-0.183
-0.133,-0.367,0.234
2.117,0.475,1.641
-2.883,1.221,-4.104
3.167,-0.004,3.171
2.3,1.726,0.574
3.133,1.512,1.622
-0.483,0.966,-1.45
4.5,0.269,4.231
3.167,2.04,1.126
-1.25,2.203,-3.453
-3.783,0.903,-4.687
-1.467,0.765,-2.231
-0.5,1.578,-2.078
-1.867,1.239,-3.106
-0.967,0.909,-1.876
3.517,0.797,2.719
0.0,2.001,-2.001
0.0,1.861,-1.861
-1.8,0.773,-2.573
0.0,-0.228,0.228
-2.683,0.277,-2.96
-1.683,-0.775,-0.908
-2.833,0.187,-3.02
-2.2,0.011,-2.211
-2.05,0.184,-2.234
-2.25,-0.829,-1.421
-2.467,-0.775,-1.692
-2.367,-0.918,-1.449
-1.567,-0.59,-0.977
0.0,0.482,-0.482
-2.9,1.216,-4.116
-3.333,-0.719,-2.615
0.55,0.006,0.544
-1.533,-0.425,-1.108
-1.167,-0.271,-0.895
2.983,-0.175,3.158
2.533,2.084,0.449
0.0,2.217,-2.217
3.6,2.095,1.505
0.65,2.301,-1.651
0.783,2.08,-1.297
0.817,2.117,-1.301
1.367,2.128,-0.761
-0.717,2.017,-2.734
-1.25,1.96,-3.21
1.533,0.303,1.23
1.167,0.123,1.044
-2.0,0.099,-2.099
-0.85,-0.33,-0.52
-0.433,1.39,-1.823
1.6,-0.557,2.157
2.2,-0.246,2.446
2.033,2.073,-0.039
-0.5,2.109,-2.609
-1.167,0.539,-1.706
-1.0,0.834,-1.834
-5.667,-0.475,-5.192
0.417,-0.423,0.84
-3.317,0.971,-4.288
0.0,0.209,-0.209
-0.1,0.472,-0.572
-1.1,0.456,-1.556
0.25,0.213,0.037
0.25,0.428,-0.178
-0.533,-0.072,-0.461
-3.633,0.332,-3.965
-0.217,-0.618,0.401
0.067,0.37,-0.303
0.067,0.672,-0.605
-1.4,0.148,-1.548
0.0,0.195,-0.195
1.8,-0.621,2.421
3.25,0.784,2.466
-0.25,1.923,-2.173
-0.367,0.061,-0.428
-0.883,-0.854,-0.03
-4.8,-0.985,-3.815
0.867,-1.207,2.074
-1.0,2.0,-3.0
0.0,0.002,-0.002
3.45,0.432,3.018
7.867,1.895,5.971
2.183,2.614,-0.431
16.833,2.435,14.398
0.217,3.864,-3.648
9.483,2.612,6.871
0.0,3.084,-3.084
0.0,2.574,-2.574
3.25,2.37,0.88
0.0,2.481,-2.481
-1.533,2.222,-3.755
0.0,1.309,-1.309
0.25,0.581,-0.331
-2.717,0.855,-3.571
-6.783,-0.095,-6.688
5.383,-1.269,6.653
0.0,2.038,-2.038
-0.583,-0.002,-0.581
-2.15,-0.03,-2.12
-1.833,-0.135,-1.698
0.0,-0.634,0.634
0.467,-0.524,0.99
-5.567,-0.049,-5.518
-5.067,-1.008,-4.059
-1.5,-0.673,-0.827
0.0,-1.085,1.085
-3.783,1.267,-5.05
-6.133,-0.253,-5.88
5.283,-1.444,6.728
12.467,0.685,11.782
2.183,2.817,-0.633
-1.283,2.442,-3.725
-2.717,2.274,-4.991
9.35,1.123,8.227
9.85,2.575,7.275
-1.633,2.889,-4.522
-2.383,2.369,-4.752
-0.5,2.114,-2.614
11.7,0.708,10.992
7.6,2.898,4.702
13.25,2.893,10.357
7.717,3.627,4.089
-0.583,3.111,-3.694
-3.5,2.628,-6.128
12.267,2.201,10.065
6.583,3.134,3.449
10.3,2.839,7.461
7.767,3.133,4.634
10.983,3.122,7.861
-0.5,3.512,-4.012
0.0,2.643,-2.643
-0.5,2.442,-2.942
14.6,2.273,12.327
9.117,3.844,5.272
28.75,3.41,25.34
0.0,8.454,-8.454
24.733,3.112,21.622
-0.3,6.713,-7.013
6.25,3.003,3.247
5.4,3.147,2.253
21.55,2.937,18.613
5.15,5.907,-0.757
4.0,3.302,0.698
2.717,2.947,-0.23
10.617,2.776,7.841
-0.7,3.323,-4.023
7.2,2.61,4.59
6.133,2.878,3.256
1.05,2.814,-1.764
23.5,2.542,20.958
-1.467,5.435,-6.901
17.717,2.731,14.985
19.117,5.067,14.05
20.15,6.338,13.812
2.633,7.136,-4.503
1.733,3.54,-1.806
22.167,3.044,19.123
15.517,7.067,8.45
14.467,6.681,7.786
21.5,5.527,15.973
11.7,6.996,4.704
1.833,5.06,-3.227
0.0,3.267,-3.267
6.817,2.813,4.004
7.417,3.07,4.346
5.667,3.267,2.399
2.0,3.076,-1.076
23.5,2.786,20.714
3.517,5.997,-2.48
3.45,3.131,0.319
2.65,2.764,-0.114
13.133,2.62,10.513
14.133,3.537,10.596
13.55,4.023,9.527
9.533,4.259,5.275
10.0,3.514,6.486
1.467,3.72,-2.254
1.6,2.889,-1.289
2.2,2.636,-0.436
8.35,2.539,5.811
2.883,2.915,-0.032
6.383,2.697,3.686
7.133,2.856,4.277
14.467,3.061,11.405
19.3,3.975,15.325
3.183,5.873,-2.69
5.133,3.238,1.895
2.033,3.04,-1.007
2.933,2.818,0.116
5.0,2.738,2.262
3.567,2.884,0.682
-4.483,2.839,-7.322
2.0,2.292,-0.292
7.833,2.489,5.345
12.367,3.127,9.24
11.35,3.959,7.391
7.733,4.181,3.553
13.217,3.625,9.592
11.933,4.793,7.14
9.367,5.096,4.27
6.25,4.324,1.926
10.4,3.692,6.708
1.2,4.259,-3.059
1.167,3.218,-2.051
2.283,2.853,-0.57
1.983,2.785,-0.801
1.467,2.566,-1.099
6.6,2.483,4.117
4.817,2.943,1.873
1.4,2.892,-1.492
-1.283,2.643,-3.926
7.5,2.116,5.384
9.05,2.912,6.138
0.25,3.106,-2.856
-0.75,2.512,-3.262
11.383,2.18,9.204
0.617,3.205,-2.588
2.2,2.629,-0.429
0.7,2.55,-1.85
-5.3,2.369,-7.669
-6.55,0.629,-7.179
5.383,-0.485,5.868
1.667,1.57,0.097
5.483,1.276,4.208
-4.65,2.484,-7.134
1.683,1.525,0.158
8.4,2.153,6.247
1.8,2.625,-0.825
0.0,2.511,-2.511
10.5,2.343,8.157
-1.75,3.09,-4.84
8.983,2.357,6.626
4.517,3.144,1.373
7.8,3.003,4.797
-0.833,3.362,-4.195
1.667,2.631,-0.964
2.0,2.547,-0.547
10.35,2.405,7.945
-0.583,3.305,-3.888
-0.083,2.605,-2.688
0.633,2.421,-1.788
7.3,2.15,5.15
0.75,2.756,-2.006
4.483,2.331,2.153
6.983,2.627,4.357
3.433,2.967,0.466
5.583,2.776,2.807
-2.333,2.864,-5.197
0.9,2.391,-1.491
4.433,2.065,2.368
0.083,2.391,-2.308
0.0,1.692,-1.692
0.6,1.103,-0.503
4.617,1.133,3.484
-3.017,2.214,-5.231
14.833,-0.231,15.064
0.0,3.645,-3.645
6.533,2.437,4.096
4.217,-0.39,4.607
-1.0,2.094,-3.094
5.95,0.267,5.683
11.267,2.415,8.851
4.45,3.169,1.281
-4.9,2.958,-7.858
3.45,2.076,1.374
1.25,2.377,-1.127
3.383,2.294,1.089
3.183,2.493,0.691
-0.317,2.478,-2.794
7.5,2.183,5.317
-1.35,2.822,-4.172
6.233,2.174,4.059
1.583,2.691,-1.107
-2.717,2.394,-5.111
3.183,1.245,1.938
-3.5,2.148,-5.648
0.0,-0.334,0.334
8.75,1.054,7.696
8.667,2.71,5.957
11.133,3.106,8.027
13.133,3.523,9.611
-2.0,4.291,-6.291
5.5,2.766,2.734
11.233,2.949,8.285
1.0,3.84,-2.84
-0.3,2.894,-3.194
3.417,2.651,0.766
2.283,2.688,-0.405
10.817,2.542,8.275
-1.033,3.277,-4.31
-0.783,2.555,-3.339
0.467,2.288,-1.822
13.55,1.427,12.123
7.233,3.521,3.712
0.783,3.287,-2.504
0.433,2.861,-2.428
2.067,2.551,-0.484
9.3,2.484,6.816
-0.917,3.061,-3.978
-0.417,2.579,-2.996
-2.417,2.142,-4.559
11.317,0.755,10.562
0.433,2.98,-2.547
-3.0,2.542,-5.542
4.033,1.452,2.582
2.0,2.489,-0.489
8.483,2.436,6.047
8.983,3.193,5.79
7.95,3.29,4.66
7.95,3.333,4.617
1.4,3.348,-1.948
0.483,2.75,-2.266
0.0,2.614,-2.614
6.35,1.492,4.858
-3.133,2.797,-5.93
12.25,1.364,10.886
0.0,3.424,-3.424
-5.533,2.717,-8.25
11.25,1.677,9.573
2.2,3.007,-0.807
-0.95,2.695,-3.645
1.25,2.426,-1.176
12.467,2.207,10.26
11.4,3.604,7.796
13.0,3.809,9.191
3.183,4.367,-1.183
1.733,3.158,-1.424
12.333,2.945,9.388
12.2,4.312,7.888
11.367,4.681,6.686
4.6,4.407,0.193
6.1,3.495,2.605
13.967,3.406,10.561
13.2,5.114,8.086
12.05,5.133,6.917
15.233,5.622,9.611
0.6,6.148,-5.548
12.333,3.428,8.906
3.167,4.319,-1.153
7.167,3.153,4.014
3.1,3.233,-0.133
3.167,3.119,0.048
-0.783,2.886,-3.67
3.433,2.563,0.87
16.2,2.612,13.588
11.067,5.006,6.06
0.25,4.824,-4.574
15.633,3.058,12.575
13.217,2.618,10.599
3.483,3.705,-0.221
3.0,3.04,-0.04
5.433,2.95,2.484
2.75,3.006,-0.256
5.283,2.844,2.44
15.217,2.978,12.239
5.633,4.583,1.051
7.233,3.44,3.793
-2.95,3.664,-6.614
7.45,2.704,4.746
3.1,3.143,-0.043
-3.15,2.939,-6.089
0.0,2.338,-2.338
19.117,1.526,17.591
2.533,5.231,-2.698
12.65,3.045,9.605
21.433,4.06,17.373
9.05,6.965,2.085
1.4,4.388,-2.988
5.933,3.357,2.577
0.0,3.352,-3.352
14.683,2.787,11.897
11.417,4.12,7.297
13.683,4.356,9.328
0.0,4.586,-4.586
0.75,3.049,-2.299
-1.95,2.755,-4.705
19.217,2.143,17.074
9.5,4.896,4.604
19.0,4.215,14.785
22.117,6.789,15.328
9.25,8.891,0.359
0.0,5.526,-5.526
14.667,3.274,11.393
0.0,4.676,-4.676
20.4,2.999,17.401
9.817,5.761,4.056
0.667,4.698,-4.031
-2.083,3.073,-5.157
0.0,2.559,-2.559
0.0,1.523,-1.523
0.0,2.242,-2.242
13.933,2.03,11.903
15.8,3.683,12.117
2.45,5.206,-2.756
2.167,3.089,-0.922
0.0,2.798,-2.798
0.0,2.546,-2.546
7.45,2.382,5.068
13.783,2.904,10.879
1.533,4.074,-2.541
-0.117,2.982,-3.098
21.183,2.521,18.662
0.5,5.666,-5.166
16.717,3.027,13.69
17.717,4.683,13.034
18.183,5.526,12.657
0.0,6.247,-6.247
15.683,3.116,12.568
14.683,5.034,9.649
10.8,5.283,5.517
8.833,4.07,4.764
-3.883,3.904,-7.788
10.583,2.838,7.746
0.0,3.587,-3.587
4.333,2.793,1.54
0.0,2.857,-2.857
0.0,2.663,-2.663
6.433,1.861,4.573
12.333,2.962,9.371
10.583,3.847,6.736
0.0,3.781,-3.781
10.45,2.967,7.483
15.15,3.458,11.692
4.8,4.55,0.25
2.817,3.268,-0.451
17.3,3.005,14.295
3.717,5.096,-1.379
13.667,3.33,10.337
6.65,4.614,2.036
16.267,3.728,12.539
10.583,5.833,4.75
12.633,4.691,7.942
0.0,5.095,-5.095
6.25,3.13,3.12
17.983,3.321,14.663
13.333,5.754,7.579
5.817,5.207,0.61
3.117,3.744,-0.627
0.0,2.736,-2.736
1.767,2.608,-0.841
4.167,2.616,1.551
13.483,2.714,10.77
-0.017,4.04,-4.057
4.017,2.909,1.107
1.067,2.825,-1.758
3.45,2.632,0.818
-1.683,2.687,-4.37
13.05,2.334,10.716
2.667,3.317,-0.651
1.867,2.713,-0.846
1.65,2.669,-1.019
2.767,2.596,0.171
-1.283,2.567,-3.85
12.933,2.208,10.726
9.5,3.82,5.68
6.4,3.945,2.455
5.4,3.711,1.689
8.4,3.485,4.915
11.317,3.938,7.379
10.317,4.729,5.588
10.167,4.912,5.254
-0.5,4.799,-5.299
0.067,3.06,-2.994
1.867,2.832,-0.965
0.033,2.699,-2.666
3.35,2.504,0.846
5.067,2.558,2.509
0.817,2.771,-1.954
7.433,2.553,4.88
-3.95,3.0,-6.95
-5.833,2.264,-8.097
3.833,0.751,3.083
5.383,2.264,3.119
18.983,2.723,16.26
7.75,5.615,2.135
6.483,3.743,2.74
6.983,3.562,3.422
-1.5,3.563,-5.063
-3.117,2.892,-6.009
7.383,2.365,5.018
6.317,2.941,3.376
17.483,3.035,14.448
10.533,5.599,4.935
10.75,4.418,6.332
-1.1,4.734,-5.834
-0.133,3.24,-3.373
3.833,2.759,1.075
10.217,2.838,7.378
-1.383,3.578,-4.962
-2.55,2.626,-5.176
6.467,2.273,4.193
-6.667,2.805,-9.472
0.283,2.08,-1.797
0.0,0.86,-0.86
2.35,1.197,1.153
7.0,1.147,5.853
6.25,2.644,3.606
17.5,2.887,14.613
8.433,5.353,3.081
6.4,3.874,2.526
-1.833,3.552,-5.386
10.117,2.717,7.4
0.383,3.695,-3.312
-1.0,2.787,-3.787
-1.467,2.628,-4.095
12.55,2.295,10.255
8.8,3.421,5.379
15.817,3.68,12.136
1.233,5.353,-4.12
17.083,3.137,13.947
10.0,5.65,4.35
0.367,4.647,-4.281
0.7,3.192,-2.492
1.667,2.857,-1.191
4.867,2.754,2.113
6.117,2.952,3.165
7.367,3.078,4.288
10.067,3.379,6.688
9.833,4.412,5.421
6.75,4.265,2.485
-0.85,3.515,-4.365
10.6,2.989,7.611
-8.983,3.673,-12.656
9.133,2.537,6.596
11.067,3.413,7.654
14.333,4.339,9.994
9.25,4.877,4.373
13.0,4.23,8.77
2.267,3.122,-0.855
2.35,2.965,-0.615
7.917,2.822,5.094
8.483,3.307,5.177
7.267,3.605,3.661
4.367,3.762,0.604
0.0,3.164,-3.164
0.0,2.836,-2.836
1.233,2.611,-1.378
0.0,2.489,-2.489
11.15,1.489,9.661
12.1,3.767,8.333
10.35,4.543,5.807
7.283,3.944,3.339
11.517,3.648,7.869
6.1,4.52,1.58
2.517,3.412,-0.895
1.983,3.12,-1.136
0.85,3.027,-2.177
4.433,2.825,1.609
0.0,2.976,-2.976
9.083,1.524,7.559
0.5,3.497,-2.997
0.683,2.745,-2.062
10.567,2.581,7.986
3.0,3.487,-0.487
7.2,2.886,4.314
10.783,3.166,7.617
12.7,4.011,8.689
5.1,4.918,0.182
2.283,3.55,-1.266
11.033,3.22,7.813
0.0,4.388,-4.388
1.483,3.245,-1.761
9.167,2.899,6.267
1.067,3.416,-2.349
9.933,2.805,7.128
17.45,3.873,13.577
18.717,5.533,13.184
0.0,7.323,-7.323
8.333,3.327,5.007
12.533,3.574,8.959
0.0,4.2,-4.2
-0.717,2.895,-3.612
0.0,2.558,-2.558
0.0,2.465,-2.465
0.0,1.478,-1.478
8.617,1.451,7.165
4.617,3.069,1.548
11.65,2.913,8.737
5.85,4.044,1.806
13.567,3.481,10.086
4.65,4.651,-0.001
5.0,3.535,1.465
8.967,3.404,5.563
6.7,3.847,2.853
6.817,3.696,3.121
6.317,3.586,2.731
7.25,3.586,3.664
11.5,3.578,7.922
2.55,4.389,-1.839
2.733,3.178,-0.445
6.433,2.964,3.47
0.6,3.175,-2.575
13.55,2.756,10.794
0.0,4.077,-4.077
4.983,3.043,1.94
-1.783,2.999,-4.782
3.0,2.619,0.381
3.267,2.613,0.654
7.517,2.598,4.918
0.75,3.177,-2.427
6.917,2.747,4.17
0.0,3.187,-3.187
12.883,2.724,10.159
4.017,3.95,0.067
-4.65,3.014,-7.664
-3.9,2.378,-6.278
12.567,1.265,11.302
2.417,3.805,-1.388
-1.0,2.878,-3.878
8.383,2.492,5.891
1.683,3.204,-1.521
1.467,2.734,-1.268
8.983,2.614,6.37
1.8,3.005,-1.205
4.15,2.711,1.439
3.933,2.847,1.086
10.383,2.813,7.571
0.833,3.532,-2.699
11.817,2.593,9.223
2.9,3.886,-0.986
-0.5,2.903,-3.403
13.05,2.632,10.418
-2.467,4.075,-6.541
11.55,2.615,8.935
0.0,3.646,-3.646
9.4,2.923,6.477
10.933,3.488,7.445
2.417,4.145,-1.728
6.533,3.05,3.483
0.417,3.13,-2.714
11.983,2.749,9.234
12.033,3.945,8.088
11.3,4.675,6.625
9.4,4.351,5.049
15.867,4.08,11.787
0.883,6.013,-5.129
-0.3,3.304,-3.604
0.0,2.882,-2.882
0.0,2.689,-2.689
8.433,2.45,5.983
15.567,3.009,12.558
3.25,5.209,-1.959
0.0,3.376,-3.376
0.783,2.778,-1.995
7.6,2.712,4.888
2.3,3.298,-0.998
8.8,2.858,5.942
15.85,3.264,12.586
0.817,4.962,-4.145
14.75,3.057,11.693
14.517,4.843,9.673
0.0,5.045,-5.045
0.433,3.117,-2.684
0.5,2.812,-2.312
-0.017,2.55,-2.567
23.167,2.323,20.843
0.75,5.859,-5.109
1.667,2.91,-1.243
0.0,2.796,-2.796
-0.033,2.418,-2.451
16.2,2.236,13.964
0.0,4.691,-4.691
7.667,2.863,4.804
-2.25,3.151,-5.401
0.95,2.605,-1.655
21.483,2.545,18.938
12.367,5.811,6.556
10.45,4.921,5.529
0.0,4.439,-4.439
0.0,3.161,-3.161
8.267,2.72,5.547
15.267,3.309,11.957
8.6,5.089,3.511
14.167,3.902,10.265
13.067,4.917,8.15
2.3,5.527,-3.227
2.833,3.386,-0.553
17.6,3.187,14.413
4.383,5.893,-1.509
3.833,3.63,0.204
4.367,3.065,1.302
4.317,3.06,1.256
4.0,3.114,0.886
17.917,2.955,14.961
2.5,5.413,-2.913
2.367,3.272,-0.905
-1.017,3.049,-4.066
12.467,2.581,9.885
0.0,3.716,-3.716
6.933,2.934,3.999
6.933,3.288,3.646
0.0,3.431,-3.431
8.6,2.782,5.818
8.317,3.246,5.07
6.733,3.328,3.405
10.467,3.345,7.122
9.9,4.052,5.848
6.517,4.328,2.188
0.0,3.823,-3.823
4.183,3.169,1.014
10.25,3.291,6.959
11.917,3.864,8.053
5.867,4.685,1.182
4.883,3.544,1.34
-1.967,3.428,-5.395
0.0,2.854,-2.854
23.55,2.486,21.064
4.5,6.64,-2.14
4.3,2.743,1.557
-5.933,2.764,-8.698
7.683,1.191,6.492
4.5,2.903,1.597
0.75,2.87,-2.12
5.433,2.685,2.749
-0.183,2.978,-3.161
4.65,2.504,2.146
17.1,2.792,14.308
-0.133,4.925,-5.058
-0.183,2.88,-3.063
1.55,2.686,-1.136
1.55,2.604,-1.054
-4.25,2.509,-6.759
2.467,0.462,2.004
12.683,2.094,10.589
1.75,3.403,-1.653
2.0,2.671,-0.671
-0.883,2.57,-3.453
0.433,2.281,-1.847
9.533,1.381,8.152
8.0,3.208,4.792
0.0,3.507,-3.507
0.5,2.737,-2.237
2.0,2.511,-0.511
1.75,2.492,-0.742
15.333,2.323,13.01
5.267,4.035,1.231
15.333,3.268,12.065
10.217,5.285,4.932
11.467,4.792,6.675
8.467,5.005,3.461
11.75,3.917,7.833
10.0,5.135,4.865
-1.25,4.715,-5.965
5.433,3.166,2.267
17.0,3.174,13.826
3.25,5.321,-2.071
2.75,3.453,-0.703
0.5,3.121,-2.621
7.0,2.818,4.182
-0.75,3.033,-3.783
-1.55,2.758,-4.308
0.75,2.244,-1.494
13.083,1.51,11.574
13.083,3.968,9.115
7.5,4.512,2.988
8.5,3.598,4.902
0.0,3.68,-3.68
4.5,2.908,1.592
4.083,3.041,1.042
3.5,3.035,0.465
2.567,3.133,-0.566
11.733,2.973,8.76
11.733,3.97,7.763
0.0,4.241,-4.241
12.467,2.953,9.514
4.15,3.992,0.158
12.983,3.257,9.726
6.283,4.999,1.284
0.4,3.834,-3.434
0.0,3.064,-3.064
5.5,2.766,2.734
9.483,3.052,6.431
12.25,3.604,8.646
-0.1,4.233,-4.333
14.0,2.946,11.054
5.267,4.388,0.878
1.0,3.466,-2.466
11.267,3.1,8.166
1.5,4.107,-2.607
7.0,2.993,4.007
1.75,3.254,-1.504
0.0,2.843,-2.843
1.75,2.642,-0.892
1.25,2.465,-1.215
1.5,2.353,-0.853
-0.75,2.411,-3.161
0.0,1.496,-1.496
8.117,1.597,6.52
0.0,2.691,-2.691
1.2,2.23,-1.03
6.0,1.809,4.191
6.183,2.64,3.544
13.383,2.868,10.515
3.25,4.074,-0.824
-0.5,3.109,-3.609
4.25,2.61,1.64
3.133,2.79,0.344
8.0,2.955,5.045
11.617,6.351,5.266
4.4,4.56,-0.16
12.617,3.471,9.146
10.0,4.751,5.249
0.0,4.494,-4.494
10.0,3.293,6.707
3.6,4.061,-0.461
6.75,3.306,3.444
8.25,3.579,4.671
-0.617,3.923,-4.54
2.333,2.913,-0.579
11.15,2.994,8.156
10.65,4.158,6.492
2.0,4.533,-2.533
-2.75,3.202,-5.952
0.0,2.877,-2.877
-0.5,2.479,-2.979
0.5,1.994,-1.494
3.0,1.641,1.359
-1.0,1.768,-2.768
0.0,0.723,-0.723
1.0,1.42,-0.42
1.0,1.447,-0.447
13.283,1.764,11.519
13.283,3.647,9.636
5.4,4.786,0.614
13.283,3.472,9.811
0.0,4.587,-4.587
2.483,2.939,-0.455
2.75,2.918,-0.168
11.167,2.844,8.323
1.0,3.865,-2.865
0.5,3.015,-2.515
0.05,2.869,-2.819
11.4,2.436,8.964
9.0,3.571,5.429
6.0,3.545,2.455
2.25,3.298,-1.048
6.3,3.127,3.173
13.667,3.172,10.495
13.667,4.321,9.346
-2.333,4.986,-7.32
0.5,2.898,-2.398
1.55,2.684,-1.134
12.433,2.621,9.813
13.433,3.918,9.515
11.383,5.276,6.107
13.433,4.867,8.567
-0.567,4.905,-5.472
0.5,3.035,-2.535
10.5,2.874,7.626
0.0,3.597,-3.597
6.417,2.748,3.669
2.75,3.014,-0.264
3.367,2.889,0.477
14.733,2.777,11.957
3.75,4.322,-0.572
14.733,3.154,11.579
5.5,4.514,0.986
12.5,3.368,9.132
13.3,4.324,8.976
17.5,4.913,12.587
0.5,7.101,-6.601
0.5,3.56,-3.06
0.517,2.908,-2.391
4.5,2.768,1.732
-1.25,3.043,-4.293
7.233,2.46,4.773
4.0,2.996,1.004
3.5,2.905,0.595
6.5,2.927,3.573
11.25,2.979,8.271
4.0,3.888,0.112
4.5,3.239,1.261
6.567,3.21,3.357
12.75,3.286,9.464
4.0,4.685,-0.685
14.467,3.387,11.079
0.0,4.764,-4.764
4.75,3.131,1.619
6.5,3.159,3.341
4.75,3.242,1.508
13.55,3.049,10.501
5.617,4.385,1.232
4.617,3.47,1.146
0.0,3.257,-3.257
0.75,3.033,-2.283
3.0,2.647,0.353
2.25,2.758,-0.508
0.0,2.702,-2.702
0.5,3.188,-2.688
19.283,2.835,16.448
0.0,5.513,-5.513
21.283,3.127,18.156
4.5,6.735,-2.235
3.8,3.576,0.224
0.0,3.231,-3.231
17.083,3.022,14.061
10.0,5.261,4.739
17.083,4.543,12.541
0.0,6.014,-6.014
7.5,3.25,4.25
10.5,3.406,7.094
2.383,4.171,-1.787
4.0,3.152,0.848
8.45,2.954,5.496
5.0,3.392,1.608
3.75,3.176,0.574
3.75,3.1,0.65
7.75,3.194,4.556
7.5,3.493,4.007
-1.567,3.797,-5.364
1.75,2.837,-1.087
1.75,2.817,-1.067
4.35,2.923,1.427
7.55,3.023,4.527
12.15,3.371,8.779
12.15,4.378,7.772
10.75,4.668,6.082
10.35,4.352,5.998
10.5,4.484,6.016
-0.25,4.393,-4.643
0.5,3.188,-2.688
16.733,2.956,13.778
13.0,4.771,8.229
8.0,4.917,3.083
2.25,3.99,-1.74
6.0,3.362,2.638
0.0,3.444,-3.444
0.0,2.79,-2.79
-1.0,1.662,-2.662
5.5,2.004,3.496
0.5,2.858,-2.358
9.0,2.425,6.575
4.0,3.085,0.915
11.65,2.961,8.689
5.25,3.939,1.311
16.967,3.25,13.716
2.0,5.615,-3.615
1.317,3.225,-1.908
10.417,2.961,7.456
9.533,3.684,5.849
7.467,3.669,3.797
8.5,3.495,5.005
0.0,3.587,-3.587
-0.25,2.921,-3.171
13.733,2.703,11.03
2.25,4.041,-1.791
14.233,3.135,11.098
7.283,4.762,2.521
9.367,4.117,5.25
1.183,4.296,-3.113
7.5,3.299,4.201
2.733,3.727,-0.993
16.0,3.416,12.584
14.0,5.338,8.662
11.65,5.463,6.187
4.25,5.203,-0.953
8.0,3.497,4.503
12.5,3.691,8.809
0.933,4.887,-3.954
12.5,3.134,9.366
6.167,4.615,1.551
10.167,3.558,6.609
13.0,4.608,8.392
14.0,4.907,9.093
-0.75,5.288,-6.038
3.5,3.428,0.072
0.0,3.109,-3.109
10.167,2.752,7.415
-0.75,3.793,-4.543
6.45,2.754,3.696
12.45,3.066,9.384
9.25,4.227,5.023
4.867,3.768,1.099
6.4,3.455,2.945
6.25,3.351,2.899
11.0,3.616,7.384
6.0,4.248,1.752
10.75,3.998,6.752
3.0,3.203,-0.203
-0.75,3.087,-3.837
3.25,2.503,0.747
0.25,2.598,-2.348
7.0,2.208,4.792
1.0,2.907,-1.907
13.167,2.506,10.66
14.0,3.629,10.371
9.0,4.287,4.713
9.2,3.755,5.445
5.55,3.94,1.61
-1.75,3.488,-5.238
10.7,2.759,7.941
0.25,3.582,-3.332
0.25,2.787,-2.537
0.35,2.631,-2.281
3.25,2.139,1.111
0.0,2.083,-2.083
11.483,1.465,10.018
-0.5,3.655,-4.155
-2.25,2.534,-4.784
3.217,1.463,1.754
4.25,2.144,2.106
0.0,2.391,-2.391
10.433,2.163,8.27
1.5,3.168,-1.668
-1.5,2.663,-4.163
0.217,2.323,-2.106
1.5,1.869,-0.369
1.217,1.644,-0.427
15.483,1.606,13.877
2.5,3.917,-1.417
-1.75,2.796,-4.546
13.467,2.506,10.961
10.283,3.827,6.456
6.133,3.963,2.17
-3.75,3.407,-7.157
0.25,2.803,-2.553
1.267,1.518,-0.251
11.45,2.444,9.006
2.0,3.362,-1.362
3.5,2.905,0.595
2.5,3.01,-0.51
1.75,2.776,-1.026
-1.0,2.619,-3.619
12.183,2.068,10.115
1.25,3.529,-2.279
1.5,2.767,-1.267
1.25,2.63,-1.38
7.65,2.612,5.038
15.267,3.236,12.031
8.65,4.864,3.786
3.0,4.035,-1.035
8.0,3.232,4.768
-3.75,3.65,-7.4
15.267,2.745,12.522
7.0,4.793,2.207
7.317,3.622,3.695
7.183,3.685,3.498
8.0,3.589,4.411
0.0,3.721,-3.721
15.45,2.943,12.507
7.5,4.674,2.826
16.467,3.919,12.547
12.0,6.037,5.963
12.283,5.142,7.141
2.483,5.399,-2.916
9.583,3.527,6.057
6.0,4.016,1.984
-1.75,3.602,-5.352
1.0,2.876,-1.876
9.583,2.784,6.799
0.5,3.75,-3.25
13.25,2.895,10.355
8.65,4.301,4.349
12.25,4.074,8.176
-0.5,4.915,-5.415
-0.5,3.326,-3.826
5.5,2.71,2.79
13.767,3.05,10.717
12.55,4.642,7.908
2.75,4.625,-1.875
2.0,3.249,-1.249
12.25,3.054,9.196
10.25,4.153,6.097
3.5,4.296,-0.796
2.883,3.548,-0.665
7.45,3.167,4.283
6.0,3.52,2.48
13.083,3.309,9.775
4.517,4.641,-0.124
2.367,3.239,-0.872
9.05,3.101,5.949
9.333,3.615,5.718
2.467,3.847,-1.381
6.317,3.09,3.227
2.15,3.491,-1.341
-1.0,3.0,-4.0
22.55,2.551,19.999
7.417,6.143,1.274
-1.0,3.918,-4.918
3.583,2.918,0.665
16.483,2.867,13.616
0.0,4.739,-4.739
9.25,3.105,6.145
16.483,3.764,12.719
-0.25,5.384,-5.634
10.517,3.079,7.438
12.7,3.935,8.765
10.7,4.477,6.223
2.5,4.102,-1.602
0.0,3.239,-3.239
11.5,2.985,8.515
4.283,3.872,0.411
1.25,3.22,-1.97
15.65,2.92,12.73
1.0,5.062,-4.062
1.25,3.26,-2.01
3.5,2.987,0.513
6.633,2.878,3.756
12.383,3.266,9.118
2.0,4.423,-2.423
1.0,3.09,-2.09
15.45,2.695,12.755
1.25,4.394,-3.144
3.383,2.98,0.404
15.45,2.902,12.548
0.0,4.291,-4.291
10.55,2.918,7.632
11.55,3.619,7.931
6.0,4.047,1.953
4.483,3.381,1.102
6.517,3.182,3.335
5.75,3.204,2.546
-1.5,3.166,-4.666
6.0,2.76,3.24
22.783,3.143,19.64
0.5,7.389,-6.889
22.783,3.574,19.209
6.5,6.881,-0.381
3.0,3.843,-0.843
3.0,3.161,-0.161
4.55,3.01,1.54
3.55,2.96,0.59
10.0,2.925,7.075
10.5,3.646,6.854
0.0,4.187,-4.187
2.25,2.931,-0.681
7.65,2.856,4.794
10.333,3.058,7.275
4.55,3.598,0.952
2.533,3.146,-0.613
14.617,2.844,11.772
9.0,4.452,4.548
0.0,3.877,-3.877
9.617,3.006,6.61
1.817,3.387,-1.57
0.0,2.916,-2.916
6.35,2.594,3.756
5.25,2.977,2.273
1.75,2.952,-1.202
9.317,2.744,6.573
14.117,3.291,10.826
5.717,4.524,1.193
14.117,3.365,10.752
14.117,4.756,9.361
3.0,5.369,-2.369
6.5,3.338,3.162
8.0,3.293,4.707
12.0,3.336,8.664
0.75,3.975,-3.225
0.25,3.046,-2.796
2.0,2.72,-0.72
10.0,2.716,7.284
11.6,3.25,8.35
5.183,4.383,0.8
0.0,3.638,-3.638
0.0,2.991,-2.991
2.433,2.852,-0.419
6.5,2.676,3.824
-1.25,2.389,-3.639
-0.5,1.659,-2.159
11.2,1.927,9.273
3.533,3.071,0.462
1.55,2.777,-1.227
-0.25,2.537,-2.787
2.433,2.34,0.094
4.75,2.474,2.276
4.5,2.65,1.85
11.75,2.873,8.877
11.75,4.094,7.656
0.0,4.319,-4.319
0.25,2.869,-2.619
2.0,2.584,-0.584
-1.0,2.555,-3.555
10.667,2.214,8.453
-0.75,3.406,-4.156
3.25,2.612,0.638
-1.75,2.619,-4.369
-0.25,2.042,-2.292
-0.467,1.149,-1.616
-0.5,1.078,-1.578
10.533,1.424,9.109
0.0,3.136,-3.136
12.083,2.387,9.697
12.983,3.493,9.49
12.983,4.497,8.487
12.983,4.865,8.118
12.983,4.904,8.079
15.0,5.337,9.663
4.0,6.147,-2.147
6.0,3.747,2.253
10.683,3.655,7.028
10.683,4.4,6.283
-1.0,4.635,-5.635
-0.75,3.146,-3.896
1.75,2.692,-0.942
-1.5,2.678,-4.178
2.25,1.498,0.752
0.75,2.38,-1.63
-2.25,1.977,-4.227
0.75,1.36,-0.61
13.233,1.429,11.804
13.233,3.545,9.688
4.367,4.432,-0.065
5.25,3.238,2.012
1.0,3.099,-2.099
-1.0,2.858,-3.858
2.25,2.587,-0.337
0.0,2.602,-2.602
2.25,2.002,0.248
11.017,2.346,8.671
11.017,3.404,7.613
1.483,4.095,-2.611
3.383,2.942,0.441
4.5,3.064,1.436
-1.5,3.014,-4.514
11.75,2.518,9.232
11.75,3.47,8.28
11.75,4.15,7.6
5.0,4.634,0.366
11.75,3.393,8.357
11.75,4.305,7.445
11.75,4.974,6.776
0.0,4.931,-4.931
1.417,3.119,-1.702
7.75,3.057,4.693
11.15,3.343,7.807
0.517,4.287,-3.77
9.5,3.171,6.329
12.6,3.915,8.685
3.5,4.948,-1.448
4.0,3.46,0.54
1.25,3.239,-1.989
1.5,2.837,-1.337
1.25,2.707,-1.457
1.5,2.703,-1.203
9.45,2.465,6.985
6.383,3.329,3.054
12.0,3.396,8.604
0.5,4.185,-3.685
-0.117,3.042,-3.159
1.5,2.686,-1.186
0.0,2.597,-2.597
0.5,2.026,-1.526
-2.05,1.488,-3.538
-1.25,0.481,-1.731
2.433,1.326,1.108
2.75,1.444,1.306
0.75,2.158,-1.408
8.75,4.244,4.506
6.567,3.97,2.597
13.367,3.532,9.835
5.0,4.991,0.009
15.483,3.633,11.85
6.0,5.274,0.726
5.0,3.875,1.125
0.683,3.675,-2.991
10.0,2.941,7.059
2.75,3.766,-1.016
0.0,3.047,-3.047
1.5,2.738,-1.238
0.75,2.704,-1.954
-0.217,2.535,-2.752
1.5,2.317,-0.817
1.5,2.372,-0.872
1.75,2.321,-0.571
-0.75,2.304,-3.054
23.95,0.898,23.052
-1.267,6.019,-7.285
23.95,2.824,21.126
0.5,6.928,-6.428
-1.267,3.167,-4.434
-1.5,2.619,-4.119
-2.267,2.206,-4.473
-0.25,1.034,-1.284
13.433,1.268,12.165
7.4,3.906,3.494
9.0,3.368,5.632
3.333,3.52,-0.187
13.2,3.003,10.197
13.2,4.083,9.117
-2.0,5.039,-7.039
-1.5,2.949,-4.449
0.0,2.676,-2.676
16.217,2.27,13.946
6.517,4.48,2.036
16.217,3.319,12.897
0.0,5.442,-5.442
-0.75,3.215,-3.965
-2.0,2.879,-4.879
16.217,1.501,14.716
8.533,4.845,3.689
3.5,4.032,-0.532
14.983,3.213,11.77
14.983,5.503,9.481
2.0,6.029,-4.029
0.217,3.586,-3.37
4.75,2.882,1.868
8.25,3.055,5.195
6.75,3.286,3.464
5.367,3.223,2.144
10.633,3.239,7.394
10.633,3.818,6.815
-1.5,4.025,-5.525
0.25,2.868,-2.618
4.0,2.722,1.278
2.0,2.901,-0.901
0.0,2.736,-2.736
0.75,2.588,-1.838
-0.25,2.378,-2.628
5.55,1.65,3.9
1.25,2.684,-1.434
5.25,2.6,2.65
20.333,2.777,17.556
4.0,5.444,-1.444
4.0,3.269,0.731
8.5,3.046,5.454
8.367,3.623,4.744
11.467,3.593,7.874
11.467,4.356,7.111
-0.5,4.324,-4.824
16.4,3.005,13.395
3.25,4.791,-1.541
0.0,3.141,-3.141
14.517,2.818,11.699
3.0,4.556,-1.556
2.5,3.171,-0.671
3.0,2.999,0.001
3.0,2.892,0.108
12.233,2.865,9.368
0.0,4.095,-4.095
9.017,2.985,6.031
-0.917,3.653,-4.57
-0.25,2.839,-3.089
2.6,2.579,0.021
0.0,2.531,-2.531
-1.25,2.207,-3.457
-1.0,0.966,-1.966
3.25,1.301,1.949
0.25,3.132,-2.882
3.5,2.877,0.623
2.75,2.81,-0.06
2.55,2.926,-0.376
16.55,2.835,13.715
16.55,5.058,11.492
16.55,6.106,10.444
3.75,6.329,-2.579
2.5,3.713,-1.213
14.05,3.131,10.919
14.05,4.876,9.174
0.983,5.268,-4.285
5.6,3.101,2.499
11.6,3.198,8.402
1.25,4.301,-3.051
-1.0,3.147,-4.147
-1.5,2.712,-4.212
0.0,2.418,-2.418
-1.7,1.516,-3.216
5.383,1.644,3.74
4.35,2.55,1.8
-0.25,2.649,-2.899
0.5,2.406,-1.906
1.817,2.182,-0.365
11.383,2.336,9.048
11.383,3.524,7.859
-1.85,3.894,-5.744
12.45,2.605,9.845
15.533,4.095,11.439
1.317,5.566,-4.249
1.0,3.211,-2.211
9.533,2.851,6.683
13.083,3.82,9.263
-0.75,5.132,-5.882
0.0,3.117,-3.117
11.35,2.748,8.602
-2.5,3.747,-6.247
-3.367,2.554,-5.921
0.75,2.188,-1.438
14.533,2.126,12.407
5.0,3.889,1.111
2.75,3.102,-0.352
2.75,2.831,-0.081
1.75,2.753,-1.003
10.817,2.686,8.131
-3.5,3.607,-7.107
-4.417,2.446,-6.862
-2.217,0.728,-2.945
0.0,0.997,-0.997
14.383,0.639,13.744
-0.75,3.197,-3.947
-1.167,2.369,-3.536
-1.167,2.031,-3.198
2.5,0.057,2.443
4.317,1.642,2.675
1.75,2.195,-0.445
9.5,1.987,7.513
12.5,2.788,9.712
-1.0,3.449,-4.449
0.0,2.399,-2.399
9.533,2.522,7.011
17.2,3.226,13.974
17.2,5.05,12.15
0.0,5.45,-5.45
4.067,2.916,1.15
13.533,2.975,10.558
13.533,4.49,9.044
2.0,5.45,-3.45
0.0,3.181,-3.181
3.75,2.693,1.057
-0.5,2.777,-3.277
0.25,2.522,-2.272
6.55,2.181,4.369
10.083,2.673,7.41
13.383,3.494,9.889
-2.0,4.867,-6.867
2.5,2.804,-0.304
11.35,2.689,8.661
2.35,3.476,-1.126
-0.417,2.865,-3.282
-0.217,2.526,-2.743
0.25,1.798,-1.548
0.25,2.071,-1.821
0.633,1.202,-0.569
0.25,1.082,-0.832
0.0,1.428,-1.428
0.5,-0.509,1.009
12.467,0.726,11.741
9.433,3.223,6.21
5.3,3.306,1.994
1.75,3.935,-2.185
0.0,2.909,-2.909
2.25,2.528,-0.278
2.433,2.494,-0.06
3.5,2.47,1.03
0.25,2.661,-2.411
11.9,2.109,9.791
2.0,3.497,-1.497
-0.267,2.769,-3.036
11.467,2.533,8.933
-1.317,3.615,-4.932
0.5,2.58,-2.08
3.0,2.28,0.72
-3.0,2.413,-5.413
-0.5,-0.197,-0.303
-2.0,0.894,-2.894
0.75,-0.218,0.968
1.25,0.946,0.304
1.5,1.547,-0.047
-0.25,1.218,-1.468
0.967,0.187,0.78
10.433,1.06,9.373
-1.5,2.864,-4.364
14.533,2.195,12.338
5.0,3.824,1.176
5.5,3.081,2.419
5.5,3.082,2.418
-3.25,3.117,-6.367
-3.5,2.605,-6.105
0.667,0.501,0.165
0.25,0.825,-0.575
0.0,1.672,-1.672
2.75,-0.176,2.926
2.75,0.27,2.48
14.4,1.996,12.404
3.267,3.506,-0.24
1.0,2.842,-1.842
1.75,2.532,-0.782
1.183,2.379,-1.195
-0.25,2.29,-2.54
15.483,1.824,13.66
-0.5,3.965,-4.465
0.0,2.665,-2.665
2.75,2.489,0.261
15.8,2.487,13.313
14.3,4.531,9.769
1.25,5.281,-4.031
2.0,3.094,-1.094
1.25,2.793,-1.543
0.5,2.68,-2.18
15.883,2.483,13.4
5.5,3.971,1.529
14.217,3.147,11.069
1.5,4.32,-2.82
0.75,2.944,-2.194
-0.017,2.663,-2.68
-0.5,2.231,-2.731
-1.5,2.198,-3.698
1.25,2.068,-0.818
1.5,2.01,-0.51
9.533,0.719,8.815
0.0,2.767,-2.767
0.75,2.478,-1.728
2.0,2.205,-0.205
-2.067,2.206,-4.273
6.75,0.741,6.009
3.25,2.503,0.747
14.75,2.44,12.31
14.75,3.789,10.961
4.75,4.22,0.53
-0.5,3.201,-3.701
-1.75,2.681,-4.431
-0.25,2.316,-2.566
-0.483,1.374,-1.857
9.383,0.986,8.397
0.5,2.705,-2.205
0.5,2.4,-1.9
0.0,2.253,-2.253
17.85,1.887,15.963
17.85,3.814,14.036
1.0,4.588,-3.588
9.167,2.795,6.371
2.0,3.157,-1.157
12.417,2.748,9.668
2.817,3.246,-0.43
2.25,2.737,-0.487
17.7,2.637,15.063
1.75,4.494,-2.744
3.5,2.866,0.634
16.483,2.841,13.642
10.05,3.312,6.738
0.25,3.646,-3.396
-2.0,2.829,-4.829
-1.0,2.35,-3.35
-1.883,1.8,-3.683
-1.0,1.053,-2.053
5.417,0.179,5.237
14.2,2.415,11.785
4.5,3.641,0.859
4.25,2.967,1.283
2.25,2.805,-0.555
7.217,2.676,4.541
1.333,3.031,-1.698
-0.45,3.019,-3.469
1.0,2.597,-1.597
9.267,2.499,6.768
2.75,3.301,-0.551
0.0,2.961,-2.961
0.0,2.631,-2.631
0.0,2.491,-2.491
2.533,2.321,0.213
12.233,2.308,9.925
0.717,3.534,-2.817
0.717,2.669,-1.953
0.75,2.605,-1.855
0.0,2.34,-2.34
0.25,1.992,-1.742
0.75,1.456,-0.706
-1.833,2.05,-3.883
-1.833,0.962,-2.795
3.25,0.014,3.236
11.2,1.872,9.328
0.0,3.451,-3.451
3.5,2.609,0.891
15.0,2.705,12.295
15.0,4.524,10.476
-2.25,4.959,-7.209
7.283,2.753,4.53
12.95,3.07,9.88
1.75,4.498,-2.748
1.75,3.084,-1.334
11.5,2.874,8.626
17.033,3.908,13.125
0.0,5.321,-5.321
4.25,3.035,1.215
7.467,3.043,4.424
0.0,3.299,-3.299
15.317,2.715,12.602
2.25,4.693,-2.443
4.5,3.02,1.48
4.75,3.1,1.65
4.75,3.191,1.559
4.75,3.077,1.673
0.75,3.205,-2.455
10.7,2.817,7.883
-1.5,3.526,-5.026
1.0,2.65,-1.65
2.0,2.47,-0.47
10.7,2.496,8.204
6.0,3.379,2.621
5.0,3.162,1.838
2.6,3.091,-0.491
11.267,2.871,8.395
-1.2,3.935,-5.135
0.0,2.839,-2.839
4.25,2.553,1.697
12.183,2.704,9.479
8.467,3.736,4.731
2.5,3.547,-1.047
0.25,2.95,-2.7
0.233,2.748,-2.515
3.5,2.342,1.158
4.0,2.481,1.519
2.0,2.621,-0.621
10.617,2.641,7.976
0.0,3.396,-3.396
1.0,2.609,-1.609
-0.5,2.419,-2.919
0.0,2.118,-2.118
5.417,0.758,4.658
13.383,2.561,10.822
14.8,3.957,10.843
0.5,4.832,-4.332
12.55,2.859,9.691
6.533,4.277,2.257
-0.25,3.382,-3.632
8.567,2.699,5.868
2.5,3.168,-0.668
2.517,2.914,-0.398
2.75,2.811,-0.061
0.25,3.439,-3.189
-0.417,2.685,-3.101
13.5,2.56,10.94
15.517,4.13,11.386
-0.75,5.553,-6.303
6.0,3.01,2.99
5.5,3.135,2.365
7.517,3.055,4.462
18.367,3.402,14.964
6.75,5.747,1.003
6.75,3.745,3.005
8.25,3.605,4.645
10.25,3.809,6.441
4.15,4.399,-0.249
9.283,3.26,6.024
11.0,3.74,7.26
17.1,4.085,13.015
12.0,5.194,6.806
0.0,4.921,-4.921
2.867,3.028,-0.161
3.3,2.84,0.46
2.0,2.914,-0.914
18.0,2.667,15.333
-0.433,4.88,-5.314
14.45,2.828,11.622
5.25,3.979,1.271
14.45,3.12,11.33
0.0,4.119,-4.119
54.717,2.796,51.92
58.45,13.711,44.739
0.0,19.706,-19.706
0.0,4.842,-4.842
13.15,3.201,9.949
13.15,4.324,8.826
13.15,4.407,8.743
13.15,4.472,8.678
5.25,4.787,0.463
6.0,3.561,2.439
13.15,3.394,9.756
13.15,4.556,8.594
13.15,4.728,8.422
19.35,4.732,14.618
20.367,7.29,13.077
20.367,8.008,12.358
0.0,8.123,-8.123
6.5,3.71,2.79
10.5,3.643,6.857
8.0,4.266,3.734
13.5,3.953,9.547
18.4,5.091,13.309
12.15,6.535,5.615
24.25,5.478,18.772
11.75,8.106,3.644
26.25,5.502,20.748
19.917,9.41,10.507
17.25,7.716,9.534
17.25,7.094,10.156
15.25,6.802,8.448
4.683,6.236,-1.552
4.683,3.785,0.898
3.25,3.467,-0.217
8.817,3.208,5.608
5.0,3.638,1.362
4.75,3.283,1.467
5.0,3.305,1.695
4.75,3.165,1.585
5.5,3.089,2.411
7.533,3.198,4.335
9.617,3.378,6.239
14.017,3.849,10.168
-1.5,5.036,-6.536
6.5,3.061,3.439
-1.5,3.161,-4.661
-1.25,2.561,-3.811
-0.25,2.08,-2.33
1.0,0.728,0.272
0.0,1.351,-1.351
0.0,0.55,-0.55
1.5,0.856,0.644
-0.25,0.86,-1.11
5.917,0.037,5.88
5.417,2.352,3.065
0.967,2.485,-1.519
18.133,2.262,15.872
0.25,4.334,-4.084
6.5,2.529,3.971
6.0,2.733,3.267
6.75,2.742,4.008
5.0,2.832,2.168
2.25,2.779,-0.529
-5.217,3.085,-8.302
5.183,2.328,2.855
1.717,2.692,-0.975
8.817,2.601,6.216
-2.317,2.905,-5.221
9.183,2.376,6.807
7.033,3.078,3.955
-1.767,3.152,-4.919
7.4,2.548,4.852
4.4,3.037,1.363
11.483,2.853,8.63
0.383,3.491,-3.108
-1.417,2.797,-4.213
-0.767,2.493,-3.26
-0.383,2.118,-2.501
9.683,1.76,7.924
-3.633,2.794,-6.427
3.85,2.279,1.571
-1.8,2.464,-4.264
-1.283,0.809,-2.092
-0.617,0.412,-1.029
0.933,0.262,0.672
5.917,1.868,4.049
2.25,2.517,-0.267
0.1,2.46,-2.36
7.083,2.051,5.033
0.583,2.733,-2.15
2.217,2.446,-0.23
9.983,2.397,7.586
-0.65,3.077,-3.727
11.0,2.483,8.517
-5.483,3.309,-8.793
7.467,2.449,5.018
10.117,2.897,7.22
0.833,3.245,-2.411
1.25,2.78,-1.53
8.733,2.606,6.128
2.133,3.139,-1.006
2.967,2.88,0.086
11.35,2.808,8.542
8.117,3.699,4.418
10.917,3.743,7.173
9.35,4.375,4.975
8.617,4.011,4.606
-3.867,3.712,-7.579
8.233,2.77,5.463
2.2,3.26,-1.06
3.8,3.002,0.798
6.883,2.907,3.976
0.417,3.183,-2.766
-1.05,2.718,-3.768
7.917,2.366,5.55
0.333,3.025,-2.692
6.467,2.537,3.929
9.067,2.941,6.126
1.467,3.494,-2.027
5.567,2.805,2.762
-1.033,2.871,-3.905
-1.617,2.768,-4.385
-0.833,2.385,-3.219
0.0,0.534,-0.534
5.45,0.643,4.807
1.6,2.502,-0.902
4.067,2.372,1.695
3.717,2.586,1.131
6.7,2.689,4.011
6.7,2.958,3.742
6.417,3.192,3.225
4.483,3.242,1.241
-0.85,3.04,-3.89
3.4,2.62,0.78
9.783,2.698,7.085
-5.417,3.169,-8.586
8.7,2.48,6.22
-1.433,2.989,-4.422
7.0,2.488,4.512
10.433,2.933,7.501
0.25,3.306,-3.056
9.167,2.726,6.44
3.933,3.284,0.649
4.267,2.93,1.337
4.167,2.935,1.232
11.733,2.904,8.829
0.0,3.734,-3.734
0.0,2.856,-2.856
9.233,2.711,6.522
-0.617,3.488,-4.105
4.75,2.774,1.976
12.433,2.865,9.568
0.183,3.77,-3.586
0.0,2.855,-2.855
13.5,2.633,10.867
13.883,3.787,10.096
4.983,4.576,0.407
18.55,3.248,15.302
13.933,5.521,8.413
0.0,5.464,-5.464
7.317,3.141,4.176
13.483,3.396,10.087
6.167,4.744,1.423
5.733,3.617,2.116
4.7,3.442,1.258
9.617,3.419,6.198
-3.317,3.867,-7.183
-2.717,3.052,-5.768
2.817,2.385,0.431
2.817,2.531,0.285
15.717,2.572,13.145
-1.233,4.624,-5.857
0.717,2.876,-2.159
1.517,2.783,-1.267
7.467,2.505,4.962
5.917,3.006,2.911
0.0,3.08,-3.08
-0.5,2.626,-3.126
10.8,2.46,8.34
16.533,3.271,13.262
-0.85,4.926,-5.776
3.1,2.951,0.149
15.583,2.928,12.656
9.017,4.765,4.251
4.333,4.116,0.218
11.617,3.323,8.293
8.433,4.114,4.32
11.033,3.61,7.424
10.733,4.351,6.383
4.567,4.588,-0.021
4.017,3.388,0.629
3.733,3.249,0.484
5.067,3.078,1.988
4.117,3.138,0.978
2.0,3.02,-1.02
9.05,2.84,6.21
7.733,3.271,4.462
-0.1,3.391,-3.491
4.367,2.861,1.506
4.3,2.902,1.398
-2.017,2.964,-4.981
12.95,2.506,10.444
5.167,3.691,1.476
7.033,3.009,4.024
19.1,3.092,16.008
17.717,5.837,11.88
0.3,6.688,-6.388
-0.917,3.334,-4.251
4.017,2.837,1.179
4.267,2.933,1.334
11.367,2.972,8.395
12.2,3.911,8.289
2.85,4.58,-1.73
3.833,3.288,0.545
11.867,3.03,8.837
2.517,4.08,-1.563
0.7,3.119,-2.419
0.3,2.773,-2.473
3.667,2.602,1.065
23.233,2.793,20.44
11.283,6.898,4.385
0.0,5.099,-5.099
0.0,3.121,-3.121
23.75,2.796,20.954
-0.733,6.851,-7.584
1.517,3.32,-1.803
0.1,2.955,-2.855
0.417,2.609,-2.192
5.267,2.548,2.718
11.25,2.72,8.53
6.4,3.89,2.51
0.8,3.212,-2.412
14.483,2.683,11.801
9.883,4.216,5.667
7.883,4.332,3.552
9.717,3.774,5.943
8.317,4.175,4.141
10.783,3.919,6.864
10.017,4.513,5.504
2.1,4.749,-2.649
5.5,3.253,2.247
8.017,3.387,4.63
5.067,3.637,1.429
2.917,3.191,-0.274
5.633,3.002,2.631
4.083,3.17,0.914
3.133,3.07,0.063
7.067,2.896,4.171
12.783,3.095,9.689
15.933,3.909,12.025
9.1,5.13,3.97
17.35,3.926,13.424
3.033,5.747,-2.713
8.25,3.464,4.786
10.117,3.808,6.308
12.75,4.19,8.56
11.183,4.598,6.585
1.183,4.617,-3.434
1.667,3.072,-1.405
4.05,2.969,1.081
4.317,2.985,1.332
2.6,2.995,-0.395
2.183,2.906,-0.723
1.733,2.794,-1.061
0.733,2.692,-1.958
10.367,2.562,7.805
7.25,3.292,3.958
15.717,3.43,12.287
18.317,5.655,12.662
13.25,7.216,6.034
21.25,6.098,15.152
-0.817,8.42,-9.237
22.517,3.475,19.042
1.833,7.162,-5.329
2.333,3.65,-1.317
0.167,3.101,-2.934
20.467,2.7,17.766
15.217,6.426,8.79
19.083,6.472,12.611
1.6,7.385,-5.785
12.817,3.575,9.242
-0.1,5.036,-5.136
9.25,3.131,6.119
9.017,3.927,5.089
2.067,3.944,-1.877
7.3,3.253,4.047
8.467,3.524,4.943
12.983,3.63,9.353
11.533,4.919,6.615
6.6,4.535,2.065
0.0,3.909,-3.909
0.0,2.925,-2.925
7.667,2.658,5.009
10.583,3.275,7.308
0.0,4.127,-4.127
10.1,2.882,7.218
11.083,3.551,7.532
9.667,4.064,5.603
16.7,4.24,12.46
8.95,6.132,2.818
5.417,4.444,0.973
9.433,3.466,5.967
8.117,3.856,4.26
15.75,3.644,12.106
7.967,5.307,2.66
7.083,4.028,3.056
-0.867,3.685,-4.551
4.833,2.913,1.92
4.967,3.036,1.931
7.033,3.122,3.911
9.483,3.261,6.223
13.883,3.602,10.281
13.883,4.7,9.183
12.717,5.126,7.591
11.967,5.167,6.8
13.783,5.312,8.472
13.067,5.199,7.868
3.483,5.113,-1.629
2.033,3.444,-1.411
4.367,3.058,1.309
7.017,3.072,3.944
5.367,3.518,1.849
-2.65,3.364,-6.014
-3.083,2.663,-5.746
6.717,2.33,4.387
6.167,2.806,3.361
6.95,3.039,3.911
8.883,3.182,5.701
-1.683,3.49,-5.173
7.2,2.717,4.483
-1.2,3.151,-4.351
9.883,2.687,7.196
7.883,3.292,4.591
7.017,4.131,2.886
2.283,3.897,-1.613
4.967,3.183,1.784
-0.467,3.225,-3.692
2.5,2.754,-0.254
-0.8,2.744,-3.544
7.683,2.45,5.233
13.233,2.955,10.279
2.667,4.063,-1.396
1.417,3.145,-1.728
10.783,2.804,7.979
3.967,3.841,0.126
5.75,3.053,2.697
11.4,3.114,8.286
11.217,3.656,7.56
10.1,4.215,5.885
5.183,4.35,0.833
10.35,3.539,6.811
2.333,4.004,-1.671
1.883,3.046,-1.162
1.95,2.858,-0.908
1.133,2.66,-1.527
1.0,2.632,-1.632
1.917,2.488,-0.571
2.767,2.49,0.277
-2.967,2.496,-5.462
4.65,1.956,2.694
-2.417,2.502,-4.919
-4.117,1.972,-6.089
5.45,0.301,5.149
10.05,2.467,7.583
1.633,3.075,-1.442
1.933,2.645,-0.712
13.3,2.536,10.764
5.25,3.881,1.369
0.933,3.256,-2.322
1.45,2.861,-1.411
4.317,2.662,1.654
6.183,2.846,3.337
2.0,3.095,-1.095
0.333,2.846,-2.512
10.083,2.634,7.449
8.633,3.347,5.287
0.6,3.416,-2.816
1.433,2.797,-1.364
6.433,2.692,3.741
8.433,2.94,5.493
1.967,3.256,-1.289
1.5,2.796,-1.296
9.933,2.678,7.256
1.667,3.248,-1.582
3.383,2.751,0.633
12.1,2.773,9.327
16.25,3.776,12.474
11.683,5.154,6.53
16.567,4.218,12.349
-1.633,5.778,-7.412
4.583,3.239,1.345
-3.267,3.041,-6.308
-0.817,2.681,-3.498
8.5,1.946,6.554
3.917,2.83,1.087
7.417,2.748,4.669
5.85,3.124,2.726
7.983,3.112,4.872
6.233,3.198,3.035
5.183,3.129,2.055
-3.533,3.128,-6.661
0.217,2.494,-2.278
7.667,2.477,5.19
-2.617,2.955,-5.571
-2.867,2.347,-5.213
9.067,0.43,8.637
1.5,2.924,-1.424
12.367,2.632,9.735
8.183,3.723,4.461
5.9,3.541,2.359
-1.617,3.127,-4.744
12.417,2.61,9.806
2.65,3.976,-1.326
2.717,3.08,-0.363
8.2,2.837,5.363
10.317,3.45,6.867
-0.133,4.232,-4.365
7.617,3.032,4.585
6.6,3.528,3.072
0.933,3.512,-2.578
0.8,2.892,-2.092
1.25,2.687,-1.437
-1.0,2.552,-3.552
5.883,3.641,2.242
10.15,3.435,6.715
6.8,4.126,2.674
6.3,3.718,2.582
5.433,3.587,1.846
8.567,3.528,5.038
4.567,3.79,0.777
14.1,3.177,10.923
8.0,4.82,3.18
9.683,3.979,5.704
17.867,4.219,13.647
2.867,5.988,-3.121
10.267,3.435,6.831
3.883,4.177,-0.293
6.767,3.308,3.459
3.45,3.378,0.072
4.033,3.101,0.933
4.883,2.926,1.957
7.617,2.993,4.624
19.717,3.305,16.411
10.55,6.254,4.296
7.617,4.609,3.008
8.617,3.73,4.886
10.317,3.696,6.621
5.567,4.027,1.539
5.633,3.347,2.287
4.15,3.193,0.957
3.483,3.071,0.413
13.167,2.961,10.205
4.617,4.109,0.507
14.417,3.198,11.219
4.917,4.197,0.72
16.633,3.312,13.321
16.283,4.83,11.453
16.083,5.388,10.696
6.85,5.828,1.022
5.85,3.984,1.866
14.85,3.394,11.456
4.85,4.937,-0.087
13.15,3.306,9.844
14.65,4.104,10.546
1.617,4.498,-2.881
16.167,2.989,13.178
-3.817,4.647,-8.463
2.167,2.895,-0.728
5.167,2.842,2.324
9.267,2.863,6.404
3.5,3.502,-0.002
9.167,3.038,6.129
14.383,3.337,11.046
14.383,4.306,10.077
5.217,4.679,0.538
4.75,3.339,1.411
2.533,3.173,-0.64
-0.7,2.951,-3.651
0.35,2.583,-2.233
5.767,2.514,3.252
10.85,2.668,8.182
30.683,3.174,27.509
4.683,8.941,-4.258
-0.4,3.677,-4.077
0.0,2.877,-2.877
7.667,2.634,5.032
11.65,3.052,8.598
21.283,3.699,17.584
25.75,6.188,19.562
21.75,9.164,12.586
23.75,8.719,15.031
19.4,9.757,9.643
11.8,8.064,3.736
26.183,5.46,20.723
25.783,8.924,16.86
17.567,10.41,7.157
8.75,7.273,1.477
12.017,4.797,7.219
14.167,4.64,9.526
14.65,5.223,9.427
50.45,5.643,44.807
48.383,15.025,33.359
49.45,18.857,30.593
13.467,20.504,-7.037
13.35,8.516,4.834
9.45,6.195,3.255
16.883,4.648,12.236
0.567,5.857,-5.29
9.0,3.392,5.608
8.15,3.732,4.418
0.5,3.797,-3.297
8.983,2.884,6.099
-1.717,3.532,-5.249
9.867,2.679,7.188
0.0,3.167,-3.167
0.0,2.534,-2.534
8.35,2.313,6.037
0.0,2.912,-2.912
6.367,2.534,3.833
0.583,2.747,-2.164
2.367,2.479,-0.112
6.783,2.534,4.249
2.1,2.77,-0.67
-0.883,2.565,-3.449
2.067,2.068,-0.001
6.333,2.178,4.155
-2.0,2.712,-4.712
2.883,1.975,0.908
-1.283,2.297,-3.58
6.467,0.502,5.964
0.333,2.38,-2.047
-4.767,0.737,-5.503
2.033,1.271,0.762
0.3,0.407,-0.107
5.35,1.724,3.626
1.183,2.161,-0.977
10.717,2.164,8.553
9.017,2.877,6.14
-0.017,3.094,-3.111
0.0,2.591,-2.591
2.9,2.178,0.722
11.3,2.451,8.849
10.4,3.163,7.237
2.85,3.723,-0.873
0.85,3.006,-2.156
2.917,2.674,0.242
-1.417,2.624,-4.04
-1.933,2.201,-4.134
-1.25,1.935,-3.185
-1.317,-0.447,-0.87
0.0,0.097,-0.097
6.583,-0.186,6.769
2.583,2.344,0.24
4.583,2.371,2.212
0.0,2.494,-2.494
-1.8,2.184,-3.984
-1.0,1.944,-2.944
-1.367,-0.122,-1.245
-2.583,-0.109,-2.474
8.8,0.044,8.756
-1.983,2.521,-4.504
-4.433,1.766,-6.2
-0.55,0.576,-1.126
0.0,0.336,-0.336
-1.55,-0.548,-1.002
-0.333,0.221,-0.554
-1.283,1.142,-2.425
7.6,0.381,7.219
0.0,2.349,-2.349
-3.65,0.462,-4.112
4.567,-0.291,4.858
0.55,2.136,-1.586
-1.4,0.113,-1.513
-1.733,1.589,-3.323
-0.95,-1.485,0.535
6.167,0.032,6.135
2.433,2.06,0.373
2.35,1.965,0.385
0.6,1.763,-1.163
3.117,0.752,2.365
1.0,1.905,-0.905
3.383,1.715,1.668
2.0,2.322,-0.322
-2.75,2.255,-5.005
6.783,-0.617,7.401
4.683,2.458,2.226
-1.517,2.543,-4.06
3.35,1.981,1.369
0.283,2.372,-2.089
8.467,2.168,6.299
-2.5,2.793,-5.293
-0.717,2.104,-2.821
7.033,1.19,5.844
1.567,2.66,-1.094
6.45,2.453,3.997
0.25,2.78,-2.53
2.917,2.406,0.511
-2.217,2.347,-4.564
2.183,0.094,2.09
3.233,0.759,2.474
9.45,1.736,7.714
-2.9,2.857,-5.757
6.117,2.107,4.01
3.933,3.032,0.902
6.95,2.827,4.123
5.9,2.962,2.938
10.9,2.989,7.911
5.917,3.75,2.166
15.683,3.316,12.367
-0.083,5.19,-5.273
1.417,2.98,-1.564
0.3,2.704,-2.404
13.3,2.552,10.748
2.967,3.652,-0.686
13.367,2.894,10.473
4.583,4.252,0.332
12.85,3.289,9.561
12.85,4.338,8.512
1.933,4.775,-2.842
2.433,3.134,-0.701
3.65,2.831,0.819
2.5,2.892,-0.392
12.583,2.746,9.837
14.183,3.678,10.505
13.683,4.428,9.255
3.333,4.712,-1.379
3.517,3.236,0.281
0.0,2.959,-2.959
3.833,2.636,1.198
0.0,2.719,-2.719
3.033,2.428,0.606
9.317,2.498,6.819
4.733,3.065,1.668
10.833,2.943,7.89
10.8,3.417,7.383
4.183,3.768,0.415
3.683,3.254,0.43
2.017,3.022,-1.006
12.083,2.893,9.19
3.5,3.658,-0.158
2.933,2.991,-0.057
0.2,2.85,-2.65
0.117,2.533,-2.416
-0.75,2.25,-3.0
-0.117,0.772,-0.889
4.583,0.202,4.381
2.2,2.372,-0.172
2.533,2.301,0.233
3.15,2.212,0.938
1.833,2.444,-0.611
0.0,2.32,-2.32
20.25,2.101,18.149
2.75,4.771,-2.021
18.35,2.863,15.487
13.333,4.804,8.53
0.75,4.283,-3.533
0.0,2.974,-2.974
9.95,2.61,7.34
2.417,3.39,-0.974
10.483,2.83,7.654
10.283,3.457,6.826
10.483,3.755,6.729
11.733,3.964,7.769
-2.067,4.143,-6.21
15.35,2.727,12.623
12.217,4.353,7.864
4.9,4.509,0.391
4.05,3.342,0.708
-0.933,3.042,-3.976
16.817,2.655,14.162
0.317,4.945,-4.628
0.883,3.026,-2.143
5.817,2.733,3.084
0.0,2.858,-2.858
11.467,2.542,8.925
6.367,3.33,3.037
4.783,3.216,1.567
10.25,3.1,7.15
11.783,3.528,8.255
5.333,4.128,1.206
0.0,3.178,-3.178
0.25,2.722,-2.472
5.867,2.547,3.32
4.533,2.809,1.724
7.55,2.748,4.802
18.967,3.042,15.925
8.7,4.9,3.8
6.983,3.718,3.265
18.983,3.252,15.732
-0.65,5.245,-5.895
4.0,2.951,1.049
7.0,2.854,4.146
10.033,3.021,7.013
12.817,2.399,10.418
6.1,3.256,2.844
17.117,2.968,14.149
16.517,4.742,11.775
11.65,5.073,6.577
12.967,4.536,8.43
0.0,4.561,-4.561
0.0,2.859,-2.859
2.683,2.624,0.059
5.783,2.619,3.164
5.767,2.81,2.957
3.55,2.858,0.692
12.567,2.661,9.905
4.05,3.465,0.585
14.15,2.957,11.193
5.4,4.226,1.174
14.683,3.134,11.549
12.583,4.517,8.067
6.4,4.403,1.997
4.567,3.246,1.321
5.417,3.126,2.291
-0.05,3.072,-3.122
13.617,2.693,10.924
8.433,3.765,4.669
8.783,3.323,5.461
3.283,3.331,-0.047
5.933,2.947,2.986
10.583,3.001,7.582
11.983,3.379,8.604
4.767,3.879,0.887
19.267,3.066,16.201
9.25,5.592,3.658
6.75,3.849,2.901
6.15,3.323,2.827
6.8,3.185,3.615
8.083,3.293,4.791
6.4,3.256,3.144
4.817,3.13,1.687
6.65,2.964,3.686
3.933,3.127,0.806
5.45,2.93,2.52
9.133,2.99,6.144
1.2,3.32,-2.12
1.317,2.812,-1.496
2.2,2.653,-0.453
10.883,2.479,8.405
3.1,3.194,-0.094
17.65,2.77,14.88
3.317,4.57,-1.253
15.65,3.154,12.496
16.3,4.594,11.706
13.25,5.94,7.31
5.233,5.0,0.233
1.133,3.318,-2.185
5.433,2.839,2.594
6.167,3.048,3.119
2.0,3.061,-1.061
2.133,2.811,-0.677
9.35,2.723,6.627
-10.95,3.274,-14.224
-1.533,2.167,-3.7
6.25,0.879,5.371
10.55,2.589,7.961
10.633,3.364,7.269
13.383,3.422,9.961
16.717,4.288,12.429
17.95,5.616,12.334
19.017,6.061,12.955
14.467,6.257,8.21
30.9,5.123,25.777
-2.4,10.021,-12.421
-0.55,3.24,-3.79
0.8,2.798,-1.998
-1.2,2.568,-3.768
4.95,2.244,2.706
5.0,2.584,2.416
-0.2,2.71,-2.91
6.983,2.301,4.682
7.183,2.787,4.396
7.4,3.039,4.361
6.9,3.255,3.645
6.75,3.263,3.487
6.15,3.324,2.826
10.583,3.137,7.446
0.567,3.949,-3.382
0.0,2.982,-2.982
5.433,2.816,2.617
9.233,3.072,6.161
11.283,3.735,7.549
0.65,4.539,-3.889
8.833,4.922,3.911
7.833,4.364,3.469
2.2,3.833,-1.633
14.967,3.027,11.94
11.867,4.351,7.516
14.967,4.223,10.744
1.067,4.768,-3.701
1.917,3.067,-1.15
0.567,2.893,-2.326
0.0,2.576,-2.576
5.967,2.367,3.6
2.1,2.733,-0.633
4.467,2.579,1.888
7.567,2.7,4.866
2.933,3.005,-0.072
3.367,2.82,0.547
7.083,2.792,4.291
3.85,2.94,0.91
3.5,2.907,0.593
0.65,2.828,-2.178
0.65,2.579,-1.929
-0.033,2.394,-2.427
-1.0,2.227,-3.227
0.217,0.62,-0.403
1.45,0.974,0.476
0.55,0.55,0.0
7.683,1.905,5.778
0.0,2.657,-2.657
0.55,2.177,-1.627
0.0,0.705,-0.705
8.35,1.827,6.523
0.0,2.708,-2.708
7.117,2.353,4.763
6.067,2.857,3.21
9.0,2.964,6.036
3.85,3.474,0.376
9.5,2.98,6.52
2.517,3.32,-0.803
9.167,2.899,6.268
0.867,3.525,-2.659
0.0,2.835,-2.835
0.0,2.49,-2.49
0.0,2.284,-2.284
0.0,1.252,-1.252
-0.5,0.364,-0.864
-1.483,-0.162,-1.321
7.317,0.763,6.554
0.433,2.5,-2.067
0.0,1.753,-1.753
7.433,1.329,6.104
2.2,2.65,-0.45
0.067,2.464,-2.397
-0.117,2.256,-2.373
-0.4,1.735,-2.135
12.117,0.301,11.816
6.067,3.11,2.957
2.0,2.975,-0.975
10.067,2.683,7.384
0.817,3.154,-2.338
11.067,2.631,8.436
3.25,3.623,-0.373
8.533,2.919,5.615
6.167,3.368,2.798
0.0,3.149,-3.149
6.9,2.715,4.185
6.217,3.071,3.146
1.217,3.183,-1.966
2.833,2.797,0.037
2.117,2.731,-0.615
0.383,2.595,-2.212
11.167,2.385,8.782
0.7,3.557,-2.857
-0.167,2.668,-2.835
13.267,2.411,10.856
12.15,3.509,8.641
4.45,4.055,0.395
3.367,3.155,0.212
3.8,3.009,0.791
3.983,2.8,1.183
2.5,2.856,-0.356
8.633,2.754,5.88
7.583,3.279,4.304
7.283,3.44,3.843
-0.933,3.45,-4.383
-1.133,2.779,-3.913
7.167,2.488,4.679
-0.7,3.034,-3.734
2.117,2.426,-0.309
-1.617,2.47,-4.086
9.917,1.961,7.956
3.083,2.435,0.648
-3.017,2.478,-5.494
-0.283,1.35,-1.633
-4.333,-0.012,-4.321
0.0,-0.078,0.078
3.483,0.777,2.707
2.317,2.157,0.159
0.0,2.073,-2.073
1.317,0.182,1.134
6.317,0.403,5.914
3.65,2.442,1.208
1.433,2.535,-1.102
4.333,2.306,2.027
2.233,2.502,-0.268
-0.85,2.377,-3.227
9.283,1.972,7.311
-1.3,2.699,-3.999
8.317,2.307,6.01
0.333,2.774,-2.44
4.3,2.482,1.818
3.467,2.639,0.827
5.367,2.63,2.737
10.133,2.685,7.449
12.667,3.379,9.288
6.367,4.153,2.213
2.867,3.255,-0.389
-3.967,3.121,-7.088
3.583,2.266,1.317
-2.067,2.712,-4.779
3.383,2.214,1.169
7.4,2.417,4.983
3.183,2.821,0.362
3.4,2.648,0.752
5.95,2.665,3.285
1.333,2.974,-1.641
3.117,2.692,0.425
8.233,2.623,5.61
7.633,3.136,4.497
1.7,3.349,-1.649
8.4,2.819,5.581
3.3,3.206,0.094
5.917,2.953,2.964
3.5,3.116,0.384
0.283,2.967,-2.684
12.25,2.576,9.674
8.333,3.908,4.426
2.8,3.805,-1.005
6.317,3.013,3.303
-2.3,3.103,-5.403
3.433,2.525,0.908
-3.033,2.633,-5.666
9.25,2.109,7.141
-3.3,2.87,-6.17
-4.583,2.222,-6.805
0.0,-0.567,0.567
2.117,0.311,1.806
1.15,1.643,-0.493
7.317,1.611,5.706
-0.883,2.514,-3.398
6.983,1.99,4.993
5.767,2.634,3.133
1.733,2.696,-0.963
-0.75,2.545,-3.295
-1.067,2.06,-3.127
-2.95,0.82,-3.77
-1.117,0.006,-1.122
-3.283,0.053,-3.336
1.4,-0.292,1.692
2.867,1.338,1.529
1.867,0.661,1.205
6.383,2.116,4.267
-0.033,2.55,-2.583
8.133,2.306,5.827
0.2,2.743,-2.543
6.933,2.396,4.538
4.183,2.8,1.383
9.867,2.768,7.098
-3.167,3.15,-6.316
-5.933,2.433,-8.366
-0.5,0.774,-1.274
12.567,0.635,11.932
9.767,3.336,6.43
-1.433,3.323,-4.756
1.083,2.543,-1.459
7.067,2.544,4.523
5.117,2.857,2.259
1.167,2.771,-1.604
1.35,2.596,-1.246
-1.6,2.471,-4.071
1.0,2.2,-1.2
0.183,2.807,-2.624
11.933,2.53,9.404
-2.9,3.623,-6.523
9.017,2.497,6.52
65.383,3.289,62.094
0.0,15.18,-15.18
0.0,4.143,-4.143
-1.783,3.044,-4.827
0.0,2.442,-2.442
0.0,1.755,-1.755
0.0,0.999,-0.999
56.0,1.785,54.215
0.0,11.804,-11.804
-3.467,3.283,-6.75
5.017,2.434,2.583
-1.733,2.635,-4.369
-2.133,2.308,-4.441
9.133,0.138,8.996
-0.6,2.75,-3.35
-5.117,2.363,-7.48
0.0,0.085,-0.085
0.1,1.384,-1.284
-4.05,1.413,-5.463
0.133,0.352,-0.219
9.367,-0.015,9.381
-0.867,2.538,-3.405
0.633,2.044,-1.41
0.7,1.091,-0.391
6.283,1.605,4.678
2.85,2.613,0.237
1.85,2.516,-0.666
3.483,2.437,1.046
9.05,2.498,6.552
-0.733,3.047,-3.781
0.083,2.487,-2.403
9.45,2.061,7.389
0.0,3.163,-3.163
2.067,2.531,-0.464
-2.833,2.5,-5.334
10.167,1.673,8.493
10.983,3.148,7.835
1.45,3.626,-2.176
0.65,2.787,-2.137
-0.133,2.506,-2.639
5.25,2.232,3.018
-0.617,2.689,-3.306
4.083,2.226,1.857
3.9,2.601,1.299
0.133,2.662,-2.528
1.2,2.349,-1.149
0.633,2.215,-1.581
9.15,2.171,6.979
2.867,2.994,-0.127
2.75,2.727,0.023
4.617,2.687,1.93
2.133,2.824,-0.691
1.667,2.601,-0.935
-0.417,2.535,-2.951
8.5,1.455,7.045
8.283,2.84,5.444
11.733,3.039,8.694
-0.667,3.98,-4.647
9.833,2.782,7.052
8.75,3.595,5.155
-2.3,3.288,-5.588
9.85,2.627,7.223
-1.2,3.225,-4.425
-0.733,2.662,-3.396
9.717,2.292,7.425
-1.767,2.992,-4.759
13.7,2.425,11.275
-3.067,3.706,-6.772
5.0,2.433,2.567
0.0,2.624,-2.624
12.617,2.484,10.133
0.0,4.177,-4.177
12.5,2.893,9.607
6.15,4.473,1.677
-3.083,3.597,-6.68
2.75,2.722,0.028
5.467,2.704,2.763
8.533,3.074,5.459
0.0,3.391,-3.391
2.733,2.7,0.034
4.517,2.678,1.838
6.517,2.852,3.665
4.717,3.11,1.606
0.117,3.089,-2.972
7.7,2.631,5.069
7.1,3.195,3.905
-1.467,4.195,-5.662
12.317,2.587,9.729
0.033,3.867,-3.833
3.8,2.785,1.015
1.967,2.815,-0.848
1.967,2.628,-0.661
2.483,2.502,-0.019
2.133,2.574,-0.441
4.467,2.449,2.017
-1.467,2.683,-4.149
-1.467,2.052,-3.518
9.35,1.512,7.838
1.45,3.012,-1.562
-0.5,2.528,-3.028
2.667,2.192,0.475
1.817,2.482,-0.665
0.433,2.206,-1.772
12.633,2.074,10.559
7.35,3.634,3.716
9.417,3.402,6.015
-0.233,3.484,-3.717
9.333,2.721,6.613
9.217,3.27,5.947
6.533,3.704,2.829
5.45,3.37,2.08
3.083,3.243,-0.159
11.75,2.996,8.754
10.9,3.905,6.995
-1.4,4.172,-5.572
8.767,2.84,5.927
0.133,3.211,-3.078
0.0,2.745,-2.745
-0.233,2.236,-2.469
-0.067,1.899,-1.966
0.833,1.533,-0.699
-0.8,1.964,-2.764
0.067,1.525,-1.458
-0.917,1.385,-2.301
-2.55,-0.493,-2.057
12.633,-0.358,12.991
12.633,2.926,9.708
-1.483,3.345,-4.829
1.117,2.604,-1.488
0.783,2.475,-1.692
0.683,2.409,-1.726
-2.2,2.242,-4.442
-0.25,0.597,-0.847
15.717,0.725,14.992
-0.367,3.897,-4.264
-2.433,2.481,-4.915
0.583,0.965,-0.382
12.65,1.907,10.743
-0.2,3.41,-3.61
0.5,2.562,-2.062
10.717,2.463,8.254
11.2,3.335,7.865
10.533,3.726,6.808
-2.467,4.223,-6.689
0.0,2.826,-2.826
-0.783,2.546,-3.329
8.85,2.328,6.522
10.367,3.209,7.158
-5.967,3.85,-9.817
0.0,2.421,-2.421
3.633,2.151,1.482
-1.283,2.609,-3.893
-0.267,2.112,-2.378
2.433,0.622,1.812
-0.017,1.745,-1.762
0.067,1.327,-1.26
1.95,0.813,1.137
1.267,1.767,-0.5
-1.067,1.414,-2.481
-4.167,-0.328,-3.839
13.45,-0.476,13.926
1.0,3.049,-2.049
3.083,2.536,0.548
2.917,2.587,0.329
2.9,2.553,0.347
-3.5,2.551,-6.051
14.7,1.703,12.997
0.883,3.816,-2.933
9.417,2.724,6.692
0.867,3.344,-2.478
2.85,2.753,0.097
11.433,2.716,8.717
13.533,3.89,9.643
1.767,5.013,-3.246
16.817,3.12,13.696
3.45,5.165,-1.715
0.0,0.874,-0.874
1.367,0.712,0.655
-0.933,0.79,-1.724
1.167,-0.05,1.217
-1.35,0.394,-1.744
0.2,0.338,-0.138
0.55,0.538,0.012
14.783,0.125,14.658
14.783,3.229,11.554
14.833,4.241,10.593
-0.033,4.96,-4.993
7.533,2.699,4.834
11.083,2.911,8.173
2.133,3.239,-1.105
4.167,2.677,1.49
4.367,2.676,1.691
7.417,2.633,4.783
8.467,2.885,5.582
4.317,2.92,1.396
-0.533,2.669,-3.203
-0.617,2.275,-2.892
-0.217,2.15,-2.366
-0.217,1.861,-2.078
1.85,-0.178,2.028
2.5,1.876,0.624
-0.5,2.164,-2.664
-0.167,2.089,-2.255
0.0,0.001,-0.001
-0.6,2.028,-2.628
3.75,1.24,2.51
2.817,2.17,0.647
2.15,2.369,-0.219
2.217,2.313,-0.097
0.75,2.352,-1.602
7.3,2.23,5.07
3.533,2.643,0.89
11.8,2.615,9.185
-4.25,3.055,-7.305
1.717,2.371,-0.655
1.4,2.276,-0.876
2.233,2.252,-0.019
11.867,2.392,9.475
-0.183,3.325,-3.509
14.133,2.574,11.56
15.133,4.263,10.87
16.367,5.315,11.051
-0.667,5.512,-6.178
0.783,3.103,-2.319
1.133,2.783,-1.649
0.583,2.629,-2.046
2.667,2.43,0.237
1.667,2.548,-0.882
2.167,2.5,-0.333
15.1,2.499,12.601
19.05,3.959,15.091
0.4,5.943,-5.543
17.717,3.177,14.54
0.4,5.582,-5.182
11.25,3.057,8.193
6.283,4.322,1.962
5.75,3.53,2.22
15.6,3.429,12.171
0.567,5.341,-4.775
19.667,3.197,16.47
-1.117,6.087,-7.204
16.0,3.02,12.98
-0.167,4.971,-5.138
2.867,2.947,-0.081
-0.25,2.851,-3.101
9.75,2.674,7.076
22.3,3.556,18.744
9.567,6.753,2.814
9.567,4.524,5.043
0.867,4.088,-3.222
4.2,2.991,1.209
1.817,3.014,-1.197
5.367,2.78,2.586
-1.817,3.08,-4.896
8.567,2.526,6.041
-1.85,3.047,-4.897
-1.733,2.47,-4.204
-0.35,2.26,-2.61
-0.983,0.334,-1.317
8.567,0.638,7.929
0.217,2.763,-2.546
5.483,2.491,2.992
8.267,2.801,5.466
-1.533,3.122,-4.655
11.0,2.525,8.475
1.367,3.57,-2.203
9.567,3.38,6.187
-4.333,3.485,-7.818
-4.233,2.589,-6.822
8.567,1.493,7.074
15.217,2.744,12.473
0.817,3.873,-3.057
0.667,2.698,-2.031
13.05,2.59,10.46
12.917,3.585,9.332
12.75,4.206,8.544
-3.1,4.287,-7.387
7.75,2.664,5.086
7.75,2.94,4.81
-0.6,3.051,-3.651
6.533,2.596,3.937
7.633,2.882,4.751
-3.25,3.057,-6.307
14.667,2.418,12.249
-5.233,3.851,-9.085
-6.5,2.451,-8.951
-4.017,1.442,-5.459
12.15,-0.513,12.663
-0.15,2.919,-3.069
-3.717,2.441,-6.158
4.983,0.686,4.297
10.567,2.408,8.158
10.917,2.883,8.034
0.45,3.092,-2.642
9.817,2.632,7.185
0.383,3.115,-2.732
9.133,2.638,6.495
0.0,3.059,-3.059
2.433,2.55,-0.117
1.5,2.515,-1.015
8.25,2.344,5.906
15.6,2.946,12.654
-2.9,4.604,-7.504
4.367,2.774,1.593
13.65,2.854,10.796
4.733,4.233,0.5
4.233,3.095,1.139
5.017,3.048,1.969
8.083,2.941,5.142
3.083,3.077,0.007
7.467,2.747,4.719
6.3,2.876,3.424
1.233,2.878,-1.644
-1.017,2.651,-3.668
1.417,2.401,-0.985
0.383,2.245,-1.861
16.05,1.551,14.499
15.133,4.048,11.085
13.917,4.396,9.521
4.65,4.582,0.068
9.483,3.397,6.087
11.35,4.011,7.339
1.75,4.353,-2.603
2.017,3.134,-1.118
1.75,2.934,-1.184
3.25,2.791,0.459
2.0,2.812,-0.812
5.617,2.702,2.915
12.283,2.968,9.316
1.567,4.053,-2.486
-0.133,3.023,-3.156
5.5,2.653,2.847
6.6,3.026,3.574
14.933,3.18,11.753
0.0,4.971,-4.971
-4.933,2.974,-7.907
12.85,2.265,10.585
4.667,3.878,0.788
3.367,3.048,0.319
17.083,2.957,14.126
14.483,4.909,9.574
0.617,4.889,-4.272
3.283,2.971,0.312
1.867,2.86,-0.994
1.733,2.714,-0.981
1.9,2.617,-0.717
11.3,2.539,8.761
4.783,3.373,1.41
0.217,3.007,-2.79
2.667,2.696,-0.029
0.65,2.678,-2.028
0.65,2.427,-1.777
11.033,2.413,8.621
5.5,3.396,2.104
3.917,3.135,0.782
4.383,2.979,1.404
9.45,19.083,-9.633
-0.35,6.8,-7.15
24.567,3.538,21.028
50.733,7.547,43.187
18.283,15.832,2.452
-0.917,8.945,-9.862
-2.117,3.511,-5.627
-0.483,2.691,-3.175
-0.383,2.567,-2.95
0.017,2.439,-2.422
3.75,2.239,1.511
2.917,2.543,0.374
19.1,2.518,16.582
2.65,5.63,-2.98
2.167,3.248,-1.082
7.05,2.975,4.075
4.767,3.218,1.548
3.483,2.998,0.486
4.3,2.859,1.441
3.567,2.904,0.662
5.567,2.87,2.696
-1.767,3.079,-4.846
5.45,2.523,2.927
15.833,2.746,13.087
-1.633,4.237,-5.871
15.167,2.724,12.443
0.067,4.595,-4.529
15.35,2.892,12.458
3.317,4.67,-1.353
6.783,3.123,3.66
5.783,3.275,2.509
6.783,2.959,3.825
10.683,3.047,7.636
3.8,3.866,-0.066
4.65,3.088,1.562
16.117,3.058,13.058
16.75,4.814,11.936
2.067,5.709,-3.642
4.283,3.332,0.951
7.4,3.127,4.273
9.0,3.268,5.732
8.767,3.633,5.133
4.183,3.809,0.375
-2.983,3.183,-6.166
-3.367,2.707,-6.073
-3.117,2.257,-5.374
4.75,0.941,3.809
11.917,2.548,9.368
13.217,3.443,9.773
1.15,4.082,-2.932
10.95,2.836,8.114
18.183,3.792,14.391
11.333,5.542,5.792
10.433,4.274,6.16
5.717,4.061,1.656
5.883,3.406,2.477
5.767,3.325,2.441
5.8,3.33,2.47
6.083,3.419,2.664
11.883,3.41,8.473
-1.583,4.273,-5.856
8.233,2.842,5.391
8.817,3.225,5.591
6.2,3.378,2.822
7.25,3.162,4.088
-0.1,3.184,-3.284
-4.483,2.678,-7.161
44.633,2.159,42.474
1.483,10.664,-9.181
43.733,3.402,40.332
11.333,12.084,-0.751
0.0,5.424,-5.424
0.0,3.255,-3.255
0.0,2.759,-2.759
11.333,2.482,8.852
5.367,3.409,1.957
0.0,3.102,-3.102
4.883,2.584,2.299
12.667,2.735,9.931
0.0,3.777,-3.777
0.0,2.803,-2.803
-0.35,2.421,-2.771
0.0,2.025,-2.025
2.1,1.065,1.035
3.2,2.015,1.185
2.7,2.239,0.461
2.05,2.219,-0.169
2.333,2.228,0.105
-1.3,2.079,-3.379
3.367,0.806,2.56
9.517,2.584,6.933
-1.017,3.219,-4.236
1.367,2.601,-1.234
2.917,2.385,0.532
-1.183,2.5,-3.683
6.317,1.144,5.173
6.283,2.641,3.642
-0.333,2.77,-3.103
7.4,2.45,4.95
8.733,2.887,5.846
6.317,3.219,3.097
9.133,3.097,6.037
9.0,3.234,5.766
1.4,3.237,-1.837
-1.1,2.724,-3.824
2.8,2.45,0.35
10.483,2.544,7.939
-1.1,3.189,-4.289
-2.767,2.561,-5.327
9.3,1.919,7.381
0.0,2.832,-2.832
-1.1,2.37,-3.47
3.533,1.24,2.293
10.8,1.85,8.95
0.133,2.713,-2.58
10.067,2.341,7.726
0.683,2.918,-2.235
0.167,2.726,-2.56
0.017,2.212,-2.195
13.783,2.262,11.521
2.867,3.595,-0.729
-0.017,2.771,-2.787
8.433,2.457,5.976
5.3,2.918,2.382
-0.067,2.978,-3.044
0.983,2.554,-1.57
-0.983,2.429,-3.412
4.567,0.702,3.865
0.8,2.434,-1.634
1.267,2.203,-0.936
1.5,2.065,-0.565
13.083,1.266,11.817
1.667,3.31,-1.643
1.567,2.714,-1.147
2.0,2.531,-0.531
9.317,2.52,6.797
2.083,3.109,-1.026
2.017,2.741,-0.724
3.6,2.597,1.003
11.85,2.6,9.25
11.233,3.628,7.605
10.983,3.923,7.061
1.85,4.258,-2.408
6.6,3.151,3.449
-1.217,3.225,-4.442
15.783,2.787,12.996
0.3,4.436,-4.136
-4.083,2.906,-6.989
0.167,1.383,-1.217
12.367,1.039,11.327
10.367,3.417,6.949
16.233,3.603,12.631
1.983,5.413,-3.43
2.467,3.055,-0.589
2.383,2.835,-0.452
-0.333,2.747,-3.08
3.367,2.516,0.851
2.45,2.555,-0.105
1.983,2.453,-0.47
16.283,2.391,13.892
4.2,4.3,-0.1
15.483,3.083,12.401
15.65,5.015,10.635
10.5,5.406,5.094
8.467,4.474,3.993
0.967,3.952,-2.986
4.417,2.981,1.436
11.683,3.019,8.664
3.15,3.657,-0.507
11.817,2.978,8.838
2.767,4.021,-1.254
2.483,3.118,-0.634
6.6,2.888,3.712
5.5,3.142,2.358
-1.217,3.15,-4.367
3.417,2.616,0.801
8.333,2.686,5.647
9.533,2.976,6.557
8.55,3.229,5.321
8.5,3.381,5.119
8.5,3.015,5.485
1.717,3.467,-1.751
8.1,2.916,5.184
6.417,3.416,3.001
-1.567,3.399,-4.965
22.0,2.759,19.241
18.4,6.265,12.135
20.7,6.974,13.726
0.0,7.422,-7.422
4.983,3.253,1.73
2.2,3.334,-1.134
0.0,2.886,-2.886
-0.383,2.709,-3.092
14.117,2.397,11.719
11.567,4.194,7.373
12.117,4.286,7.831
7.7,4.516,3.184
14.317,3.583,10.734
9.433,4.483,4.951
0.933,3.783,-2.85
-0.75,2.888,-3.638
-1.05,2.585,-3.635
15.05,2.39,12.66
-1.167,4.35,-5.517
-2.267,2.787,-5.053
12.217,1.839,10.378
8.217,3.459,4.757
12.983,3.239,9.745
6.75,4.223,2.527
6.5,3.442,3.058
5.8,3.412,2.388
2.333,3.272,-0.938
8.0,2.946,5.054
8.683,3.224,5.46
8.117,3.53,4.587
4.617,3.703,0.914
2.367,3.14,-0.773
2.3,2.925,-0.625
4.8,2.846,1.954
12.717,2.919,9.798
10.45,4.046,6.404
0.0,3.935,-3.935
2.0,2.861,-0.861
13.833,2.723,11.11
2.8,3.893,-1.093
3.4,2.961,0.439
2.817,2.932,-0.115
5.767,2.71,3.056
2.633,2.956,-0.322
5.067,2.842,2.224
0.617,2.938,-2.322
0.367,2.634,-2.267
0.2,2.468,-2.268
17.65,2.334,15.316
-0.8,4.806,-5.606
17.533,2.814,14.72
1.867,5.177,-3.311
1.033,3.073,-2.04
11.4,2.775,8.625
11.933,3.967,7.967
5.95,4.122,1.828
-0.8,3.33,-4.13
1.567,2.785,-1.219
-0.35,2.706,-3.056
3.967,2.43,1.536
6.317,2.735,3.582
6.75,2.929,3.821
-0.767,3.229,-3.996
13.033,2.689,10.344
14.617,3.664,10.952
4.0,4.762,-0.762
0.133,3.372,-3.238
1.133,2.829,-1.696
-0.567,2.692,-3.258
-0.967,2.32,-3.287
-0.467,1.958,-2.425
-0.933,0.925,-1.858
-1.433,1.011,-2.444
-1.133,-0.104,-1.03
-1.767,0.273,-2.039
7.033,0.762,6.271
-2.7,2.467,-5.167
0.0,2.015,-2.015
7.783,0.223,7.561
-1.0,2.684,-3.684
0.0,2.429,-2.429
-0.917,2.121,-3.038
0.667,0.914,-0.247
1.983,0.552,1.431
10.983,1.984,8.999
4.617,3.588,1.029
6.633,3.155,3.478
0.233,3.342,-3.108
8.033,2.722,5.311
9.133,3.02,6.113
8.583,3.206,5.377
-0.1,3.451,-3.551
-0.533,2.807,-3.341
0.0,2.552,-2.552
-0.2,2.062,-2.262
11.083,1.625,9.458
-0.317,3.151,-3.468
0.9,2.455,-1.555
4.283,2.343,1.94
8.433,2.456,5.977
2.733,2.975,-0.242
-2.483,2.767,-5.251
9.567,2.34,7.226
0.783,3.009,-2.226
-2.567,2.642,-5.209
7.883,0.777,7.106
7.0,2.815,4.185
12.4,3.096,9.304
-0.217,4.078,-4.294
2.45,2.754,-0.304
3.9,2.662,1.238
3.4,2.723,0.677
11.033,2.826,8.207
5.567,3.456,2.111
4.983,3.211,1.773
9.467,3.238,6.229
-0.2,3.529,-3.729
8.9,2.785,6.115
8.617,3.056,5.56
-2.533,3.197,-5.731
-1.033,2.651,-3.684
-1.133,2.26,-3.393
0.283,1.805,-1.522
6.333,2.035,4.299
-5.783,2.627,-8.41
-0.2,-0.112,-0.088
1.983,0.481,1.502
1.567,1.258,0.309
8.333,1.746,6.588
3.2,2.6,0.6
1.417,2.546,-1.129
0.0,2.358,-2.358
11.6,2.226,9.374
12.617,3.237,9.38
9.367,4.064,5.303
2.317,3.793,-1.477
2.8,2.921,-0.121
1.8,2.935,-1.135
12.867,2.584,10.283
14.15,4.0,10.15
13.083,4.53,8.554
7.367,4.669,2.698
5.6,3.883,1.717
12.933,3.384,9.549
7.017,4.633,2.384
11.833,3.876,7.957
10.683,4.168,6.515
10.683,4.347,6.336
6.9,4.348,2.552
4.233,3.716,0.517
-1.117,3.28,-4.397
3.65,2.722,0.928
7.667,2.76,4.906
2.067,3.209,-1.142
16.25,2.882,13.368
0.467,5.234,-4.768
0.233,2.933,-2.7
3.233,2.668,0.565
12.117,2.796,9.321
0.933,4.05,-3.117
-3.35,2.907,-6.257
-1.2,2.287,-3.487
-1.033,2.191,-3.224
0.733,0.4,0.333
12.517,1.835,10.682
12.3,3.124,9.176
-1.467,3.595,-5.062
12.85,2.52,10.33
-0.5,3.713,-4.213
9.217,2.64,6.577
-3.967,3.297,-7.264
2.917,2.409,0.508
14.233,2.473,11.761
2.433,4.358,-1.925
14.0,3.063,10.937
-1.633,2.176,-3.809
1.017,1.36,-0.344
11.867,1.993,9.874
11.733,2.984,8.75
8.083,3.4,4.683
7.95,3.136,4.814
0.0,3.048,-3.048
-0.7,2.666,-3.366
0.85,2.351,-1.501
-1.717,2.263,-3.98
-1.9,0.768,-2.668
14.133,0.655,13.478
5.617,3.64,1.976
6.05,3.048,3.002
-0.433,3.021,-3.454
3.133,2.568,0.566
1.333,2.618,-1.285
1.833,2.464,-0.631
-0.117,2.501,-2.618
3.0,2.288,0.712
2.3,2.306,-0.006
2.417,2.351,0.066
1.483,2.471,-0.988
0.767,2.401,-1.634
-0.383,2.258,-2.641
4.183,1.211,2.972
2.95,2.378,0.572
12.417,2.499,9.917
-3.0,3.162,-6.162
0.0,2.518,-2.518
-2.183,2.304,-4.488
-0.967,0.642,-1.608
15.233,0.211,15.022
-1.85,3.989,-5.839
-2.3,2.551,-4.851
-3.083,1.843,-4.926
-0.633,0.218,-0.851
11.433,-0.216,11.649
-1.5,2.853,-4.353
-2.5,2.253,-4.753
1.817,0.906,0.91
1.467,1.235,0.232
1.233,2.078,-0.844
0.783,1.194,-0.411
0.25,1.317,-1.067
-4.55,0.718,-5.268
0.433,0.343,0.091
0.45,-0.106,0.556
-1.35,0.937,-2.287
-2.183,-0.752,-1.431
-2.933,0.011,-2.944
-1.817,-0.28,-1.536
16.1,0.031,16.069
13.467,3.639,9.827
0.567,3.871,-3.305
-1.1,2.632,-3.732
0.35,2.27,-1.92
13.767,2.189,11.578
2.25,3.7,-1.45
1.2,2.842,-1.642
2.017,2.641,-0.625
-0.167,2.493,-2.659
-0.65,2.325,-2.975
19.467,1.78,17.686
17.683,5.065,12.618
5.8,5.77,0.03
5.0,3.553,1.447
3.667,3.181,0.486
0.0,3.035,-3.035
4.517,2.627,1.889
10.333,2.854,7.479
10.333,3.465,6.868
-2.967,3.722,-6.689
10.317,2.693,7.624
9.533,3.284,6.25
0.75,3.437,-2.687
-2.117,2.71,-4.827
-0.433,2.269,-2.702
1.817,1.697,0.12
0.383,1.556,-1.173
-1.05,1.487,-2.537
-4.367,-0.186,-4.181
2.5,-0.58,3.08
4.783,0.504,4.279
7.467,2.008,5.459
7.15,2.678,4.472
0.0,2.907,-2.907
-1.467,2.435,-3.902
7.5,1.526,5.974
3.883,2.76,1.123
14.667,2.69,11.977
-0.5,3.912,-4.412
-0.967,2.679,-3.646
0.0,2.138,-2.138
-1.0,1.603,-2.603
0.883,1.357,-0.474
2.317,1.553,0.763
3.0,1.834,1.166
0.0,2.22,-2.22
2.6,0.049,2.551
1.5,1.989,-0.489
1.183,1.115,0.068
5.433,2.016,3.417
-1.483,2.529,-4.013
-3.217,1.946,-5.163
1.367,-0.462,1.829
3.717,0.242,3.475
-4.133,2.121,-6.254
-1.567,-0.151,-1.416
2.233,0.178,2.055
3.383,1.637,1.747
11.267,1.886,9.381
3.333,2.95,0.383
2.883,2.7,0.183
2.817,2.555,0.262
2.983,2.52,0.463
11.583,2.486,9.097
10.883,3.422,7.462
13.933,3.672,10.262
-0.5,4.413,-4.913
2.117,2.752,-0.635
12.8,2.653,10.147
1.533,3.778,-2.245
-0.45,2.844,-3.294
-0.467,2.537,-3.004
2.9,2.194,0.706
-2.083,2.262,-4.346
-3.433,0.563,-3.996
0.733,0.236,0.498
0.033,0.095,-0.062
3.817,0.131,3.685
5.617,1.786,3.831
2.133,2.495,-0.362
-3.317,2.349,-5.665
2.367,-0.02,2.386
16.25,1.191,15.059
15.25,3.938,11.312
1.533,4.753,-3.219
2.733,2.963,-0.23
0.983,2.844,-1.861
2.667,2.587,0.08
-0.3,2.536,-2.836
3.733,1.865,1.869
2.883,2.425,0.458
3.217,2.513,0.704
-0.5,2.546,-3.046
1.283,2.155,-0.872
2.933,2.311,0.623
3.7,2.213,1.487
4.9,2.373,2.527
11.283,2.57,8.713
0.617,3.151,-2.534
0.117,2.693,-2.577
5.233,2.329,2.905
9.9,2.633,7.267
9.65,3.408,6.242
12.05,3.793,8.257
-1.5,4.579,-6.079
11.85,2.865,8.985
-0.017,3.814,-3.831
-4.283,2.876,-7.16
-3.283,2.242,-5.525
2.933,1.273,1.66
2.983,2.337,0.647
-1.183,2.459,-3.642
-0.3,2.074,-2.374
0.0,0.815,-0.815
12.783,1.947,10.836
12.1,3.339,8.761
-1.05,3.87,-4.92
14.133,2.592,11.541
0.45,3.635,-3.185
2.25,2.8,-0.55
2.167,2.707,-0.541
2.167,2.577,-0.41
1.85,2.549,-0.699
19.817,2.488,17.329
-0.417,5.572,-5.988
1.583,2.865,-1.282
20.65,2.645,18.005
14.45,2.651,11.799
6.983,3.617,3.367
13.583,3.124,10.459
2.65,4.399,-1.749
0.383,3.024,-2.641
10.433,2.704,7.729
-0.333,3.511,-3.844
-1.733,2.664,-4.397
-3.967,2.378,-6.344
1.55,1.689,-0.139
0.283,1.067,-0.784
-0.067,1.259,-1.325
0.0,0.237,-0.237
10.483,0.207,10.276
-0.4,2.786,-3.186
16.25,2.231,14.019
0.483,3.863,-3.38
-1.133,2.736,-3.869
15.067,2.42,12.646
0.8,3.998,-3.198
1.333,2.674,-1.34
1.917,2.501,-0.584
12.117,2.456,9.661
13.083,3.54,9.544
0.0,3.959,-3.959
11.85,2.737,9.113
-0.283,3.866,-4.149
12.067,2.727,9.34
-0.967,3.828,-4.794
-0.617,2.666,-3.283
-1.85,2.527,-4.377
-3.683,0.727,-4.411
0.467,0.679,-0.212
14.7,0.443,14.257
0.75,3.445,-2.695
1.433,2.526,-1.093
2.367,2.423,-0.056
1.75,2.432,-0.682
1.25,2.402,-1.152
-0.117,2.351,-2.468
13.9,1.953,11.947
4.267,3.301,0.965
14.0,2.857,11.143
4.183,3.917,0.266
3.533,2.893,0.64
3.3,2.834,0.466
1.3,2.77,-1.47
5.817,2.511,3.306
8.4,2.798,5.602
25.833,3.175,22.658
21.35,7.359,13.991
13.867,7.261,6.606
11.8,5.292,6.508
8.55,4.654,3.896
18.617,3.819,14.798
0.0,6.131,-6.131
13.75,3.162,10.588
3.5,4.596,-1.096
0.9,3.305,-2.405
-2.217,2.825,-5.042
13.95,2.398,11.552
11.167,4.109,7.058
-0.733,3.837,-4.57
10.783,2.682,8.101
5.467,3.376,2.09
0.0,3.175,-3.175
7.6,2.67,4.93
11.733,3.044,8.689
-1.867,3.909,-5.776
-0.9,2.68,-3.58
2.55,2.362,0.188
0.433,2.489,-2.056
1.067,2.075,-1.008
14.483,1.05,13.433
-2.217,3.324,-5.541
-2.817,2.475,-5.291
3.917,1.14,2.777
-2.833,2.194,-5.027
0.0,0.601,-0.601
13.767,1.187,12.579
13.767,3.144,10.622
-1.35,3.643,-4.993
-1.167,2.563,-3.73
-2.867,1.709,-4.576
-0.25,1.244,-1.494
0.85,0.161,0.689
1.95,0.665,1.285
-3.733,1.383,-5.117
-3.783,-0.024,-3.759
3.233,-1.126,4.36
1.633,2.805,-1.171
-0.017,2.625,-2.641
10.55,2.372,8.178
10.417,3.245,7.172
0.0,3.58,-3.58
-1.483,2.695,-4.179
9.733,2.331,7.402
-0.433,3.097,-3.531
-1.583,2.487,-4.07
16.667,2.132,14.535
0.0,4.037,-4.037
-0.45,2.568,-3.018
1.05,2.296,-1.246
1.95,2.135,-0.185
5.0,2.363,2.637
4.967,2.607,2.36
0.383,2.711,-2.328
1.817,2.502,-0.686
0.4,2.439,-2.039
2.333,2.19,0.143
2.3,2.275,0.025
0.083,2.265,-2.182
17.2,2.05,15.15
-0.133,4.404,-4.537
0.883,2.678,-1.795
4.25,2.474,1.776
-0.033,2.645,-2.678
2.25,2.382,-0.132
13.517,2.443,11.073
-2.133,3.67,-5.803
9.433,2.604,6.829
-0.15,3.164,-3.314
-4.033,2.739,-6.772
8.25,1.876,6.374
-5.467,2.863,-8.329
14.1,2.207,11.893
0.0,3.834,-3.834
9.25,2.62,6.63
17.15,3.337,13.813
7.85,5.29,2.56
6.767,3.771,2.996
2.717,3.586,-0.869
3.233,3.048,0.185
3.233,3.003,0.23
5.383,2.853,2.531
5.117,3.081,2.036
-0.917,3.057,-3.974
-1.133,2.586,-3.72
-0.733,2.367,-3.1
0.5,0.798,-0.298
1.467,1.263,0.204
3.0,1.694,1.306
-1.783,2.166,-3.949
-0.433,0.462,-0.895
0.567,0.59,-0.024
4.0,1.635,2.365
8.183,2.04,6.144
8.2,2.971,5.229
6.8,3.158,3.642
2.483,3.13,-0.646
0.133,2.801,-2.668
-0.233,2.531,-2.765
-0.017,2.343,-2.359
1.667,2.272,-0.605
0.667,2.326,-1.66
0.233,2.199,-1.966
0.433,2.256,-1.823
-5.867,2.055,-7.921
-2.417,-0.494,-1.922
0.983,-0.992,1.976
0.067,-0.472,0.538
0.4,-0.327,0.727
1.967,0.696,1.271
17.2,1.91,15.29
5.667,4.354,1.313
0.3,3.092,-2.792
6.517,2.59,3.927
8.017,2.855,5.162
7.983,3.044,4.939
7.867,3.145,4.722
0.0,3.351,-3.351
-2.65,2.828,-5.478
-1.15,2.397,-3.547
-2.15,1.567,-3.717
3.383,1.591,1.792
5.117,2.175,2.942
3.55,2.6,0.95
3.233,2.649,0.584
6.05,2.586,3.464
0.467,2.796,-2.329
11.167,2.62,8.546
0.933,3.399,-2.466
3.55,2.746,0.804
3.883,2.814,1.069
-2.617,2.822,-5.438
4.2,2.362,1.838
-1.017,2.636,-3.653
13.083,2.249,10.834
9.617,3.672,5.945
12.7,3.652,9.048
6.25,4.421,1.829
6.483,3.411,3.072
7.3,3.386,3.914
8.167,3.478,4.688
7.067,3.385,3.682
12.983,3.277,9.707
7.7,4.262,3.438
-1.717,3.628,-5.345
0.217,2.813,-2.596
0.0,2.669,-2.669
-1.5,2.413,-3.913
15.55,1.107,14.443
4.633,3.864,0.769
-0.633,2.997,-3.631
-0.367,2.706,-3.072
-0.433,2.396,-2.829
0.0,2.268,-2.268
-1.683,2.051,-3.734
-0.3,1.992,-2.292
1.217,2.017,-0.8
0.8,2.132,-1.332
0.933,1.372,-0.439
0.6,2.041,-1.441
0.717,2.251,-1.534
1.7,2.099,-0.399
15.683,2.217,13.466
22.833,3.945,18.888
0.6,6.632,-6.032
18.667,3.05,15.616
12.6,5.847,6.753
10.55,4.937,5.613
6.467,4.438,2.028
6.85,3.739,3.111
10.683,3.664,7.02
4.4,4.273,0.127
6.7,3.407,3.293
16.783,3.407,13.376
3.5,5.488,-1.988
13.517,3.51,10.006
7.833,4.886,2.947
0.0,3.971,-3.971
16.633,3.031,13.602
16.417,5.356,11.06
15.0,6.09,8.91
4.4,5.743,-1.343
13.333,3.509,9.825
11.767,4.706,7.061
8.717,4.331,4.386
10.233,3.981,6.253
6.783,4.108,2.675
-2.0,3.613,-5.613
7.0,2.739,4.261
-2.8,3.032,-5.832
-2.85,2.538,-5.388
-1.75,1.826,-3.576
0.0,1.368,-1.368
0.0,0.68,-0.68
3.017,1.23,1.786
-1.083,2.116,-3.199
3.133,2.052,1.081
0.15,2.283,-2.133
0.0,2.014,-2.014
0.0,0.717,-0.717
5.933,1.653,4.28
4.9,2.553,2.347
2.05,2.693,-0.643
2.0,2.51,-0.51
2.183,2.479,-0.296
3.2,2.432,0.768
-0.283,2.53,-2.813
-1.15,2.298,-3.448
0.0,1.986,-1.986
11.7,0.722,10.978
10.5,2.921,7.579
10.2,3.219,6.981
10.2,3.545,6.655
0.0,3.638,-3.638
0.067,2.796,-2.729
7.667,2.581,5.086
1.433,2.911,-1.477
0.367,2.624,-2.257
1.25,2.239,-0.989
2.9,2.275,0.625
4.1,2.459,1.641
7.583,2.636,4.947
6.133,2.868,3.266
-0.5,2.89,-3.39
6.633,2.529,4.105
0.183,2.892,-2.708
0.633,2.616,-1.983
5.7,2.432,3.268
-0.55,2.742,-3.292
5.033,2.38,2.653
5.033,2.663,2.37
48.417,2.788,45.628
65.683,12.291,53.392
41.283,19.395,21.889
-0.383,18.052,-18.435
44.933,4.779,40.154
34.75,13.441,21.309
21.55,13.453,8.097
7.833,8.846,-1.012
7.667,4.349,3.318
30.533,3.666,26.867
1.483,8.812,-7.329
57.033,3.507,53.526
1.7,15.367,-13.667
5.233,4.067,1.167
5.583,3.406,2.177
-1.35,3.289,-4.639
-0.883,2.814,-3.698
-1.6,2.495,-4.095
-0.483,1.611,-2.094
17.383,1.441,15.942
16.4,4.19,12.21
3.783,5.354,-1.57
9.067,3.061,6.006
6.883,3.314,3.569
16.983,3.286,13.698
0.0,5.284,-5.284
-3.167,3.068,-6.234
15.917,2.57,13.347
0.617,4.604,-3.988
-4.217,2.963,-7.18
1.067,2.373,-1.306
-2.65,2.382,-5.032
-1.283,1.019,-2.302
4.433,-0.179,4.612
1.017,2.352,-1.335
0.817,2.119,-1.303
-0.783,2.137,-2.92
-0.433,1.837,-2.27
4.6,0.266,4.334
1.9,2.301,-0.401
7.483,2.309,5.174
7.483,2.818,4.665
7.033,2.977,4.056
-0.25,3.065,-3.315
5.483,2.642,2.842
-1.533,2.839,-4.373
7.25,2.456,4.794
-2.833,2.999,-5.832
0.283,2.344,-2.06
0.283,2.159,-1.876
3.383,2.111,1.273
3.767,2.304,1.463
1.45,2.551,-1.101
6.8,2.337,4.463
13.1,2.819,10.281
9.45,4.11,5.34
10.533,3.659,6.874
18.083,3.72,14.363
18.083,5.67,12.413
2.75,6.395,-3.645
1.867,3.432,-1.565
10.25,3.055,7.195
6.617,3.62,2.996
9.167,3.368,5.798
12.967,3.652,9.315
13.35,4.209,9.141
12.283,4.414,7.869
3.3,4.294,-0.994
2.283,3.224,-0.94
3.217,2.991,0.226
8.933,2.886,6.047
2.2,3.317,-1.117
-2.1,2.952,-5.052
8.083,2.57,5.514
7.067,3.038,4.029
6.033,3.094,2.939
-2.45,2.16,-4.61
2.433,2.058,0.376
0.317,2.256,-1.94
3.0,2.294,0.706
10.567,2.473,8.094
10.45,3.03,7.42
-1.033,3.448,-4.481
19.533,2.609,16.925
11.617,5.736,5.881
9.733,4.651,5.083
4.833,4.009,0.825
14.433,3.274,11.16
-0.067,4.609,-4.675
-2.033,3.09,-5.123
-2.567,2.675,-5.242
-3.933,2.374,-6.307
8.433,1.22,7.214
6.9,2.919,3.981
10.15,2.921,7.229
11.2,3.315,7.885
-3.7,3.747,-7.447
12.667,2.666,10.001
7.933,4.02,3.913
12.517,3.733,8.783
7.05,4.301,2.749
8.8,3.565,5.235
3.55,3.763,-0.213
19.167,3.011,16.156
9.833,5.734,4.099
17.817,4.615,13.202
-4.117,5.789,-9.906
3.767,2.905,0.862
4.25,2.928,1.322
13.217,2.923,10.294
8.55,4.005,4.545
19.483,3.636,15.848
5.083,5.997,-0.914
20.433,3.681,16.752
8.117,6.537,1.579
6.467,4.306,2.161
4.583,3.503,1.08
11.233,3.159,8.075
-0.3,3.666,-3.966
14.317,2.76,11.556
13.833,3.876,9.957
7.8,4.256,3.544
7.467,3.866,3.6
6.8,3.315,3.485
8.35,3.361,4.989
9.4,3.516,5.884
7.633,3.91,3.723
7.617,3.413,4.204
3.133,3.292,-0.159
1.35,3.092,-1.742
-2.6,2.78,-5.38
-1.883,2.68,-4.564
-1.067,2.267,-3.334
-0.333,2.184,-2.518
9.383,2.202,7.181
1.283,2.949,-1.666
9.483,2.608,6.875
9.433,3.042,6.391
9.967,3.337,6.63
1.45,3.864,-2.414
11.0,3.088,7.912
10.95,3.875,7.075
12.567,4.323,8.243
4.1,4.772,-0.672
14.7,3.587,11.113
3.817,5.191,-1.374
14.45,3.341,11.109
-2.917,4.922,-7.839
-3.417,2.828,-6.245
-3.683,1.899,-5.582
14.417,1.04,13.376
-2.433,3.6,-6.033
5.417,2.473,2.944
9.983,2.856,7.128
9.067,3.443,5.623
8.433,3.599,4.834
7.917,3.777,4.139
8.0,3.75,4.25
8.083,3.801,4.283
3.383,3.746,-0.363
10.667,3.236,7.431
3.217,4.036,-0.82
3.05,3.333,-0.283
4.05,3.046,1.004
9.7,3.041,6.659
3.683,3.68,0.003
7.183,3.136,4.047
1.5,3.469,-1.969
0.75,3.011,-2.261
13.833,2.766,11.067
0.0,4.232,-4.232
3.2,2.744,0.456
0.0,2.777,-2.777
8.267,2.453,5.813
4.133,3.224,0.909
-3.483,2.914,-6.397
4.883,2.259,2.625
9.717,2.623,7.094
1.383,3.2,-1.816
8.517,2.708,5.808
0.0,3.306,-3.306
1.267,2.784,-1.517
2.233,2.648,-0.414
0.0,2.742,-2.742
2.9,2.32,0.58
6.517,2.531,3.986
0.833,2.801,-1.968
-9.317,2.523,-11.84
-5.95,-0.41,-5.54
0.283,-0.596,0.879
9.4,1.266,8.134
3.667,2.693,0.974
0.5,2.688,-2.188
1.0,2.492,-1.492
9.867,2.427,7.44
9.167,3.074,6.093
8.983,3.411,5.573
8.733,3.501,5.232
14.25,3.504,10.746
6.317,4.832,1.485
1.617,3.483,-1.866
1.283,3.059,-1.776
3.767,2.752,1.014
4.267,2.903,1.364
7.717,2.998,4.719
7.717,3.327,4.39
4.867,3.325,1.541
6.8,3.328,3.472
4.95,3.218,1.732
5.717,3.073,2.644
5.333,2.986,2.347
6.367,2.94,3.427
-1.2,3.099,-4.299
7.283,2.625,4.658
0.0,3.098,-3.098
8.617,2.709,5.908
9.533,3.064,6.469
10.967,3.472,7.495
1.083,3.786,-2.702
-0.817,2.972,-3.788
9.25,2.568,6.682
-0.55,3.218,-3.768
12.35,2.593,9.757
4.667,3.629,1.038
11.467,3.013,8.453
2.617,3.694,-1.077
10.85,2.914,7.936
11.35,3.621,7.729
4.55,3.989,0.561
1.567,3.304,-1.737
2.583,2.916,-0.332
10.433,2.946,7.487
1.85,3.364,-1.514
1.767,2.925,-1.158
1.283,2.742,-1.459
8.917,2.605,6.311
2.017,3.189,-1.172
11.083,2.79,8.293
0.433,3.668,-3.235
0.15,2.9,-2.75
0.95,2.668,-1.718
0.85,2.38,-1.53
3.4,2.221,1.179
8.467,2.48,5.987
-1.983,2.913,-4.896
8.233,2.464,5.77
1.633,2.842,-1.208
7.733,2.652,5.081
6.983,3.152,3.831
4.233,3.218,1.015
0.55,3.012,-2.462
7.417,2.668,4.748
5.367,2.971,2.396
10.767,2.962,7.804
3.183,3.586,-0.403
0.983,2.952,-1.968
4.683,2.958,1.726
-3.783,2.853,-6.637
-4.217,2.222,-6.439
2.483,1.262,1.222
-3.817,0.425,-4.242
8.533,-0.189,8.722
7.2,2.633,4.567
-1.167,2.752,-3.919
0.0,2.435,-2.435
14.6,2.283,12.317
1.3,3.875,-2.575
10.417,2.798,7.618
5.283,3.559,1.724
9.233,3.067,6.166
2.233,3.576,-1.342
2.817,2.926,-0.109
7.617,2.841,4.776
10.283,3.06,7.223
7.0,3.909,3.091
9.0,3.57,5.43
5.3,4.045,1.255
10.483,3.285,7.198
8.75,4.036,4.714
1.0,4.021,-3.021
11.45,3.087,8.363
-1.633,3.738,-5.372
4.6,2.732,1.868
5.617,2.801,2.816
0.4,2.984,-2.584
-0.7,2.702,-3.402
10.933,2.419,8.515
5.45,3.136,2.314
1.867,2.907,-1.04
7.067,2.786,4.281
11.133,3.038,8.096
11.017,4.033,6.984
4.45,4.338,0.112
9.6,3.236,6.364
9.6,3.532,6.068
0.817,3.456,-2.639
10.767,2.886,7.881
7.283,3.762,3.521
9.567,3.541,6.026
1.117,3.948,-2.831
-1.8,2.967,-4.767
12.4,2.595,9.805
2.467,3.681,-1.214
1.75,2.934,-1.184
15.267,2.789,12.478
13.767,4.549,9.217
12.433,4.864,7.569
-0.667,4.674,-5.341
4.4,2.941,1.459
3.25,3.066,0.184
9.0,3.011,5.989
0.433,3.534,-3.1
-4.083,2.784,-6.867
-4.2,2.087,-6.287
-0.717,1.355,-2.071
4.75,1.343,3.407
1.1,2.28,-1.18
6.25,2.159,4.091
14.333,2.654,11.68
2.1,4.052,-1.952
1.383,2.954,-1.571
3.183,2.743,0.44
2.1,2.771,-0.671
12.5,2.71,9.79
2.233,3.735,-1.502
12.217,2.943,9.274
16.033,3.738,12.296
14.6,5.146,9.454
14.6,5.169,9.431
7.05,5.373,1.677
2.4,3.91,-1.51
5.683,3.08,2.603
12.717,3.137,9.579
6.067,4.253,1.814
3.883,3.504,0.379
1.583,3.148,-1.564
0.25,2.906,-2.656
10.567,2.709,7.857
-0.117,3.698,-3.815
12.133,2.78,9.353
-1.85,3.78,-5.63
0.0,2.657,-2.657
21.7,2.499,19.201
-1.717,5.81,-7.527
-1.65,2.878,-4.528
-0.55,2.453,-3.003
4.0,3.664,0.336
3.567,3.275,0.291
9.983,3.105,6.878
2.35,4.021,-1.671
-1.4,3.11,-4.51
-0.783,2.695,-3.479
4.167,2.418,1.748
1.0,2.63,-1.63
11.35,2.59,8.76
10.7,3.435,7.265
10.7,4.017,6.683
3.667,4.258,-0.591
-0.733,3.201,-3.935
5.117,2.828,2.288
1.117,2.987,-1.87
17.183,2.695,14.488
3.167,4.998,-1.832
10.6,3.259,7.341
3.767,3.735,0.032
3.45,3.217,0.233
12.717,3.09,9.626
1.8,3.997,-2.197
5.783,2.945,2.838
11.767,2.998,8.769
6.033,4.14,1.893
3.933,3.507,0.427
4.75,3.037,1.713
13.717,3.034,10.683
1.067,4.167,-3.101
-0.133,3.018,-3.151
0.567,2.715,-2.148
6.933,2.482,4.452
14.583,2.937,11.646
-0.1,4.697,-4.797
0.933,2.925,-1.992
0.783,2.763,-1.98
6.8,2.595,4.205
0.783,2.831,-2.048
0.6,2.575,-1.975
2.017,2.575,-0.558
11.733,2.511,9.222
-2.217,3.657,-5.874
-1.967,2.63,-4.597
4.05,2.286,1.764
13.867,2.559,11.308
1.15,4.133,-2.983
6.55,2.867,3.683
10.783,3.048,7.735
8.033,3.777,4.256
0.35,3.855,-3.505
-0.017,2.981,-2.998
3.95,2.705,1.245
1.367,2.839,-1.472
6.6,2.552,4.048
0.0,3.07,-3.07
14.383,2.512,11.872
14.383,4.189,10.195
4.1,4.901,-0.801
8.6,3.246,5.354
11.433,3.495,7.938
10.133,3.939,6.194
-0.783,3.947,-4.731
8.233,2.881,5.353
6.967,3.222,3.745
8.633,3.174,5.459
-2.85,3.484,-6.334
2.35,2.611,-0.261
0.0,2.615,-2.615
-4.65,2.257,-6.907
-1.283,0.925,-2.208
8.65,1.352,7.298
-0.983,2.716,-3.699
-2.933,2.179,-5.112
3.383,0.644,2.739
-1.983,0.734,-2.718
0.433,0.432,0.002
0.15,0.127,0.023
0.267,-0.315,0.582
0.0,-0.294,0.294
9.983,-0.511,10.494
11.017,2.735,8.282
0.25,3.222,-2.972
0.417,2.628,-2.211
0.55,2.403,-1.853
-1.3,2.245,-3.545
10.7,0.919,9.781
1.083,2.896,-1.813
1.767,2.506,-0.739
-0.067,2.435,-2.502
0.7,2.283,-1.583
-0.333,2.429,-2.762
9.05,1.283,7.767
9.167,2.793,6.374
5.483,3.173,2.311
-1.083,3.07,-4.153
5.833,2.6,3.233
5.667,2.934,2.733
-2.783,3.012,-5.795
6.633,2.342,4.291
4.7,2.821,1.879
-0.333,2.878,-3.212
-1.2,2.48,-3.68
8.25,1.845,6.405
0.0,2.832,-2.832
6.633,2.437,4.197
-2.95,2.825,-5.775
3.317,2.309,1.008
-1.667,2.445,-4.112
8.383,1.358,7.026
6.517,2.866,3.651
6.5,3.03,3.47
9.133,3.118,6.016
10.167,3.433,6.734
11.217,3.613,7.604
12.017,3.747,8.27
0.65,3.866,-3.216
0.717,2.861,-2.144
7.433,2.728,4.706
7.583,2.924,4.66
-0.783,3.167,-3.95
-0.267,2.621,-2.888
6.117,2.414,3.702
-0.5,2.863,-3.363
2.9,2.419,0.481
8.3,2.356,5.944
5.217,2.964,2.253
4.217,2.9,1.317
7.117,2.832,4.285
9.417,3.0,6.416
-3.233,3.54,-6.774
8.0,2.663,5.337
-0.967,3.064,-4.031
8.6,2.506,6.094
5.5,3.175,2.325
2.917,3.034,-0.117
2.783,2.988,-0.205
7.517,2.834,4.683
6.75,3.138,3.612
7.2,3.236,3.964
-1.5,3.146,-4.646
7.0,2.656,4.344
8.05,2.862,5.188
1.883,3.036,-1.153
-3.883,2.837,-6.72
-0.567,2.247,-2.814
6.45,2.162,4.288
0.95,2.648,-1.698
0.667,2.382,-1.716
-0.333,1.476,-1.81
9.933,1.089,8.844
8.217,2.882,5.334
13.3,3.058,10.242
6.683,3.939,2.745
6.767,3.206,3.561
-2.367,3.156,-5.522
6.417,2.582,3.834
6.567,3.015,3.552
3.917,3.079,0.837
10.0,2.985,7.015
4.867,3.525,1.342
10.85,3.338,7.512
5.467,3.803,1.664
3.9,3.274,0.626
11.183,3.002,8.181
1.867,3.744,-1.877
0.867,2.925,-2.059
-0.45,2.714,-3.164
10.167,2.531,7.635
1.617,3.236,-1.62
4.617,2.72,1.897
10.867,2.809,8.058
5.767,3.706,2.061
8.867,3.069,5.797
7.083,3.248,3.836
-5.617,3.192,-8.808
10.583,2.567,8.016
1.1,3.274,-2.174
-0.633,2.766,-3.399
8.817,2.46,6.356
10.8,2.909,7.891
1.9,0.413,1.487
0.0,2.135,-2.135
-0.25,2.046,-2.296
-0.017,1.49,-1.506
0.0,-0.581,0.581
-1.583,0.057,-1.64
-1.783,-0.849,-0.934
-1.917,-1.295,-0.622
-2.667,-1.458,-1.209
-2.533,-0.686,-1.847
-2.683,-1.479,-1.204
-2.55,-0.429,-2.121
1.283,-1.024,2.307
2.75,0.234,2.516
2.5,1.279,1.221
-2.4,2.143,-4.543
2.65,0.269,2.381
0.65,1.963,-1.313
0.7,1.977,-1.277
1.283,1.955,-0.671
4.5,2.061,2.439
2.467,2.382,0.085
1.467,2.429,-0.963
4.4,2.232,2.168
0.85,2.52,-1.67
-3.683,2.3,-5.983
-1.7,0.706,-2.406
3.5,-0.601,4.101
3.75,2.11,1.64
0.967,2.349,-1.382
0.217,2.233,-2.016
0.817,2.112,-1.296
-0.9,2.028,-2.928
3.083,0.509,2.574
-0.333,1.868,-2.201
3.683,0.807,2.877
1.567,2.158,-0.591
2.483,2.067,0.417
1.017,2.186,-1.17
-0.1,1.906,-2.006
3.167,0.016,3.151
0.133,2.069,-1.935
0.0,0.803,-0.803
0.467,0.597,-0.131
-2.7,1.039,-3.739
0.0,-0.431,0.431
0.0,0.634,-0.634
-1.9,0.854,-2.754
3.617,-1.271,4.887
2.15,2.141,0.009
3.583,2.168,1.415
-3.683,2.277,-5.96
3.0,-0.207,3.207
-1.0,1.966,-2.966
-2.517,1.092,-3.609
-2.517,0.14,-2.657
2.633,-0.929,3.562
0.533,2.161,-1.627
1.0,1.558,-0.558
-0.25,0.573,-0.823
1.033,-0.14,1.174
2.0,0.591,1.409
0.467,1.08,-0.613
-1.833,2.179,-4.012
2.167,0.641,1.525
-3.7,1.523,-5.223
-3.817,0.217,-4.034
-0.2,0.546,-0.746
0.383,-0.757,1.14
2.233,-1.152,3.385
0.75,0.345,0.405
1.617,-0.312,1.928
4.683,1.4,3.283
0.2,2.43,-2.23
-0.467,2.195,-2.661
-2.65,1.421,-4.071
-0.55,-0.594,0.044
-4.85,0.449,-5.299
1.267,-0.014,1.28
0.0,0.746,-0.746
-0.617,0.774,-1.391
5.25,1.032,4.218
5.117,2.213,2.904
0.0,2.47,-2.47
-1.267,2.265,-3.532
-0.833,2.081,-2.914
0.15,-0.128,0.278
-0.167,1.576,-1.743
0.95,1.545,-0.595
-0.433,0.673,-1.107
-1.4,2.107,-3.507
0.483,0.134,0.349
0.0,0.529,-0.529
-0.333,1.273,-1.606
-1.867,0.094,-1.96
-1.817,0.15,-1.967
-2.45,0.608,-3.058
-1.867,-1.147,-0.719
-0.5,-0.175,-0.325
-3.25,0.986,-4.236
0.2,0.093,0.107
-1.133,-0.106,-1.027
-1.95,0.738,-2.688
-3.567,-1.347,-2.22
0.167,-0.455,0.622
0.217,-0.431,0.648
1.183,0.02,1.164
-0.317,-0.706,0.39
-0.483,-0.521,0.037
1.417,-0.703,2.12
-1.767,-0.632,-1.134
-0.9,-0.926,0.026
3.1,0.303,2.797
0.833,1.86,-1.027
5.0,0.761,4.239
4.05,2.365,1.685
-2.383,2.473,-4.857
0.0,2.047,-2.047
11.733,0.218,11.516
5.767,3.223,2.544
0.0,3.06,-3.06
3.85,2.573,1.277
-1.75,2.733,-4.483
-2.483,2.29,-4.773
-1.0,0.441,-1.441
-0.3,0.427,-0.727
-0.783,1.087,-1.871
-2.367,0.932,-3.299
-5.167,0.44,-5.607
-5.95,-1.123,-4.827
0.65,-0.417,1.067
-4.233,0.901,-5.134
-4.45,0.152,-4.602
-0.267,-0.011,-0.256
0.583,0.753,-0.17
-0.1,1.486,-1.586
0.0,0.184,-0.184
-0.483,-0.582,0.099
-1.733,-0.572,-1.162
-1.967,0.566,-2.533
0.867,-0.975,1.841
-3.383,0.308,-3.692
0.75,-1.403,2.153
-2.017,0.431,-2.448
0.0,0.296,-0.296
2.45,-0.901,3.351
4.5,0.606,3.894
1.9,2.348,-0.448
0.267,2.283,-2.017
-1.1,1.949,-3.049
0.0,1.791,-1.791
0.85,-0.26,1.11
-0.567,1.715,-2.282
0.383,-0.456,0.839
-1.133,1.392,-2.526
2.517,-0.879,3.395
0.25,2.067,-1.817
-0.833,-0.033,-0.8
-2.4,-0.546,-1.854
0.283,-0.737,1.021
0.317,-0.777,1.094
-0.567,0.621,-1.188
0.633,0.676,-0.042
-1.433,1.154,-2.587
0.517,0.007,0.51
-2.083,1.279,-3.362
-1.25,0.485,-1.735
2.183,-1.231,3.415
-0.483,0.264,-0.748
-1.35,-0.532,-0.818
-3.083,-0.803,-2.28
1.7,-0.921,2.621
-5.75,0.857,-6.607
0.0,-1.198,1.198
-0.067,-0.913,0.847
-0.567,-0.854,0.288
0.0,0.452,-0.452
-4.1,-1.043,-3.057
0.783,-0.659,1.442
0.283,-0.856,1.139
-1.75,0.69,-2.44
-0.4,0.1,-0.5
0.117,0.353,-0.237
-4.5,1.833,-6.333
-5.633,-1.335,-4.299
0.25,-1.431,1.681
-1.883,-0.549,-1.334
-4.367,-0.539,-3.828
-0.317,-0.813,0.497
-3.55,-0.206,-3.344
-3.45,-1.347,-2.103
-2.983,-1.313,-1.671
-0.717,-0.553,-0.164
-2.05,-0.583,-1.467
-1.633,-1.216,-0.417
-3.0,-1.263,-1.737
0.783,-0.991,1.774
-3.35,-1.119,-2.231
-4.067,-1.361,-2.705
-0.433,-0.506,0.072
-4.217,-0.504,-3.712
-5.167,-0.671,-4.495
-3.333,-1.04,-2.293
3.217,-0.817,4.034
-6.65,1.972,-8.622
-3.0,-1.249,-1.751
1.65,-1.287,2.937
-3.717,1.718,-5.434
-2.75,-1.137,-1.613
0.833,-1.205,2.039
1.217,-0.795,2.012
0.0,-0.213,0.213
-1.0,0.075,-1.075
-2.733,-0.567,-2.167
-3.083,-0.913,-2.17
-1.15,-0.652,-0.498
-0.85,-0.591,-0.259
